{"learner":{"attributes":{"scikit_learn":"{\"_estimator_type\": \"classifier\"}"},"feature_names":[],"feature_types":[],"gradient_booster":{"model":{"cats":{"enc":[],"feature_segments":[],"sorted_idx":[]},"gbtree_model_param":{"num_parallel_tree":"1","num_trees":"600"},"iteration_indptr":[0,3,6,9,12,15,18,21,24,27,30,33,36,39,42,45,48,51,54,57,60,63,66,69,72,75,78,81,84,87,90,93,96,99,102,105,108,111,114,117,120,123,126,129,132,135,138,141,144,147,150,153,156,159,162,165,168,171,174,177,180,183,186,189,192,195,198,201,204,207,210,213,216,219,222,225,228,231,234,237,240,243,246,249,252,255,258,261,264,267,270,273,276,279,282,285,288,291,294,297,300,303,306,309,312,315,318,321,324,327,330,333,336,339,342,345,348,351,354,357,360,363,366,369,372,375,378,381,384,387,390,393,396,399,402,405,408,411,414,417,420,423,426,429,432,435,438,441,444,447,450,453,456,459,462,465,468,471,474,477,480,483,486,489,492,495,498,501,504,507,510,513,516,519,522,525,528,531,534,537,540,543,546,549,552,555,558,561,564,567,570,573,576,579,582,585,588,591,594,597,600],"tree_info":[0,1,2,0,1,2,0,1,2,0,1,2,0,1,2,0,1,2,0,1,2,0,1,2,0,1,2,0,1,2,0,1,2,0,1,2,0,1,2,0,1,2,0,1,2,0,1,2,0,1,2,0,1,2,0,1,2,0,1,2,0,1,2,0,1,2,0,1,2,0,1,2,0,1,2,0,1,2,0,1,2,0,1,2,0,1,2,0,1,2,0,1,2,0,1,2,0,1,2,0,1,2,0,1,2,0,1,2,0,1,2,0,1,2,0,1,2,0,1,2,0,1,2,0,1,2,0,1,2,0,1,2,0,1,2,0,1,2,0,1,2,0,1,2,0,1,2,0,1,2,0,1,2,0,1,2,0,1,2,0,1,2,0,1,2,0,1,2,0,1,2,0,1,2,0,1,2,0,1,2,0,1,2,0,1,2,0,1,2,0,1,2,0,1,2,0,1,2,0,1,2,0,1,2,0,1,2,0,1,2,0,1,2,0,1,2,0,1,2,0,1,2,0,1,2,0,1,2,0,1,2,0,1,2,0,1,2,0,1,2,0,1,2,0,1,2,0,1,2,0,1,2,0,1,2,0,1,2,0,1,2,0,1,2,0,1,2,0,1,2,0,1,2,0,1,2,0,1,2,0,1,2,0,1,2,0,1,2,0,1,2,0,1,2,0,1,2,0,1,2,0,1,2,0,1,2,0,1,2,0,1,2,0,1,2,0,1,2,0,1,2,0,1,2,0,1,2,0,1,2,0,1,2,0,1,2,0,1,2,0,1,2,0,1,2,0,1,2,0,1,2,0,1,2,0,1,2,0,1,2,0,1,2,0,1,2,0,1,2,0,1,2,0,1,2,0,1,2,0,1,2,0,1,2,0,1,2,0,1,2,0,1,2,0,1,2,0,1,2,0,1,2,0,1,2,0,1,2,0,1,2,0,1,2,0,1,2,0,1,2,0,1,2,0,1,2,0,1,2,0,1,2,0,1,2,0,1,2,0,1,2,0,1,2,0,1,2,0,1,2,0,1,2,0,1,2,0,1,2,0,1,2,0,1,2,0,1,2,0,1,2,0,1,2,0,1,2,0,1,2,0,1,2,0,1,2,0,1,2,0,1,2,0,1,2,0,1,2,0,1,2,0,1,2,0,1,2,0,1,2,0,1,2,0,1,2,0,1,2,0,1,2,0,1,2,0,1,2,0,1,2,0,1,2,0,1,2,0,1,2,0,1,2,0,1,2,0,1,2,0,1,2,0,1,2,0,1,2,0,1,2,0,1,2,0,1,2,0,1,2,0,1,2,0,1,2,0,1,2,0,1,2,0,1,2,0,1,2,0,1,2,0,1,2,0,1,2,0,1,2],"trees":[{"base_weights":[-1.6953183E-2,-2.9992249E-2,5.031382E0],"categories":[],"categories_nodes":[],"categories_segments":[],"categories_sizes":[],"default_left":[0,0,0],"id":0,"left_children":[1,-1,-1],"loss_changes":[1.4216388E4,0E0,0E0],"parents":[2147483647,0,0],"right_children":[2,-1,-1],"split_conditions":[6.4E-1,-2.9992249E-2,5.031382E0],"split_indices":[3,0,0],"split_type":[0,0,0],"sum_hessian":[3.4895316E2,3.4794382E2,1.009317E0],"tree_param":{"num_deleted":"0","num_feature":"6","num_nodes":"3","size_leaf_vector":"1"}},{"base_weights":[1.6670661E-2,3.6251065E-1,-2.4230578E0,3.0250631E-2,-2.3709075E0],"categories":[],"categories_nodes":[],"categories_segments":[],"categories_sizes":[],"default_left":[0,0,0,0,0],"id":1,"left_children":[1,3,-1,-1,-1],"loss_changes":[1.7010271E4,6.838944E3,0E0,0E0,0E0],"parents":[2147483647,0,0,1,1],"right_children":[2,4,-1,-1,-1],"split_conditions":[6.34E-1,6.5E-1,-2.4230578E0,3.0250631E-2,-2.3709075E0],"split_indices":[1,3,0,0,0],"split_type":[0,0,0,0,0],"sum_hessian":[1.215383E3,1.20605E3,9.332993E0,1.2027645E3,3.285502E0],"tree_param":{"num_deleted":"0","num_feature":"6","num_nodes":"5","size_leaf_vector":"1"}},{"base_weights":[2.981779E-3,-3.0161321E-2,3.2891383E0],"categories":[],"categories_nodes":[],"categories_segments":[],"categories_sizes":[],"default_left":[0,0,0],"id":2,"left_children":[1,-1,-1],"loss_changes":[2.4146371E4,0E0,0E0],"parents":[2147483647,0,0],"right_children":[2,-1,-1],"split_conditions":[6.34E-1,-3.0161321E-2,3.2891383E0],"split_indices":[1,0,0],"split_type":[0,0,0],"sum_hessian":[8.691239E2,8.621614E2,6.962498E0],"tree_param":{"num_deleted":"0","num_feature":"6","num_nodes":"3","size_leaf_vector":"1"}},{"base_weights":[-3.6179793E-1,-5.246094E-1,5.2439636E-1,-2.9990582E-2,-1.1250988E-1,-3.164085E-2,5.9804183E-1,3.677871E-2,-2.1043266E-4],"categories":[],"categories_nodes":[],"categories_segments":[],"categories_sizes":[],"default_left":[0,0,0,0,0,0,0,0,0],"id":3,"left_children":[1,3,5,-1,-1,-1,7,-1,-1],"loss_changes":[5.8396503E1,1.0462204E1,5.196783E0,0E0,0E0,0E0,5.3556633E-1,0E0,0E0],"parents":[2147483647,0,0,1,1,2,2,6,6],"right_children":[2,4,6,-1,-1,-1,8,-1,-1],"split_conditions":[3E1,6.3E-1,6.5E-1,-2.9990582E-2,-1.1250988E-1,-3.164085E-2,7.62E-1,3.677871E-2,-2.1043266E-4],"split_indices":[2,3,3,0,0,0,0,0,0],"split_type":[0,0,0,0,0,0,0,0,0],"sum_hessian":[4.0183032E2,3.3980875E2,6.202158E1,3.35035E2,4.773744E0,3.6555388E0,5.8366043E1,5.693336E1,1.4326816E0],"tree_param":{"num_deleted":"0","num_feature":"6","num_nodes":"9","size_leaf_vector":"1"}},{"base_weights":[3.266136E-1,4.256546E-1,-4.4490043E-2,4.6969715E-1,-5.237298E-1,5.114579E-1,5.783989E-2,3.9275205E-1,-3.616355E-2,3.0232893E-2,1.2877433E-1,-8.3952965E-3,6.0152747E-3,-1.1899492E-3,2.9835084E-2],"categories":[],"categories_nodes":[],"categories_segments":[],"categories_sizes":[],"default_left":[0,0,0,0,0,0,0,0,0,0,0,0,0,0,0],"id":4,"left_children":[1,3,-1,5,7,9,11,13,-1,-1,-1,-1,-1,-1,-1],"loss_changes":[1.5149251E2,5.495607E1,0E0,2.1486176E1,4.4706516E0,1.2984497E1,9.894873E-1,2.3605132E-1,0E0,0E0,0E0,0E0,0E0,0E0,0E0],"parents":[2147483647,0,0,1,1,3,3,4,4,5,5,6,6,7,7],"right_children":[2,4,-1,6,8,10,12,14,-1,-1,-1,-1,-1,-1,-1],"split_conditions":[6.56E-1,3E1,-4.4490043E-2,6.34E-1,6.5E-1,6.3E-1,9E-2,5.6E-1,-3.616355E-2,3.0232893E-2,1.2877433E-1,-8.3952965E-3,6.0152747E-3,-1.1899492E-3,2.9835084E-2],"split_indices":[1,2,0,1,3,3,3,3,0,0,0,0,0,0,0],"split_type":[0,0,0,0,0,0,0,0,0,0,0,0,0,0,0],"sum_hessian":[1.4280673E3,1.3074365E3,1.2063068E2,1.2499556E3,5.7480988E1,1.1346632E3,1.1529236E2,4.246216E0,5.323477E1,1.1307311E3,3.932114E0,1.9954447E1,9.533791E1,1.0218722E0,3.2243435E0],"tree_param":{"num_deleted":"0","num_feature":"6","num_nodes":"15","size_leaf_vector":"1"}},{"base_weights":[-3.0555832E-1,-4.4493484E-1,4.582895E-2,-3.0148866E-2,-4.6775553E-2,-6.2320847E-2,3.152772E-2,-1.2401221E-3,-1.0695413E-2],"categories":[],"categories_nodes":[],"categories_segments":[],"categories_sizes":[],"default_left":[0,0,0,0,0,0,0,0,0],"id":5,"left_children":[1,3,-1,-1,5,7,-1,-1,-1],"loss_changes":[1.5727728E2,2.1334885E1,0E0,0E0,1.0896909E0,5.59221E-1,0E0,0E0,0E0],"parents":[2147483647,0,0,1,1,4,4,5,5],"right_children":[2,4,-1,-1,6,8,-1,-1,-1],"split_conditions":[6.56E-1,6.34E-1,4.582895E-2,-3.0148866E-2,3E-1,2.4E-1,3.152772E-2,-1.2401221E-3,-1.0695413E-2],"split_indices":[1,1,0,0,3,3,0,0,0],"split_type":[0,0,0,0,0,0,0,0,0],"sum_hessian":[1.0519489E3,9.311692E2,1.2077967E2,8.133527E2,1.1781647E2,1.1556806E2,2.248406E0,8.58891E1,2.9678957E1],"tree_param":{"num_deleted":"0","num_feature":"6","num_nodes":"9","size_leaf_vector":"1"}},{"base_weights":[-3.6579522E-1,-5.233614E-1,5.114168E-1,-2.9980972E-2,-9.754895E-2,-3.0976739E-2,5.875408E-1,3.6216866E-2,-6.1100055E-3],"categories":[],"categories_nodes":[],"categories_segments":[],"categories_sizes":[],"default_left":[0,0,0,0,0,0,0,0,0],"id":6,"left_children":[1,3,5,-1,-1,-1,7,-1,-1],"loss_changes":[5.2709774E1,7.5967636E0,4.8626566E0,0E0,0E0,0E0,6.6789055E-1,0E0,0E0],"parents":[2147483647,0,0,1,1,2,2,6,6],"right_children":[2,4,6,-1,-1,-1,8,-1,-1],"split_conditions":[3E1,6.3E-1,6.5E-1,-2.9980972E-2,-9.754895E-2,-3.0976739E-2,7.62E-1,3.6216866E-2,-6.1100055E-3],"split_indices":[2,3,3,0,0,0,0,0,0],"split_type":[0,0,0,0,0,0,0,0,0],"sum_hessian":[3.7841336E2,3.2113412E2,5.7279232E1,3.158045E2,5.32961E0,3.5514588E0,5.372777E1,5.2625156E1,1.102617E0],"tree_param":{"num_deleted":"0","num_feature":"6","num_nodes":"9","size_leaf_vector":"1"}},{"base_weights":[3.20719E-1,4.187762E-1,-4.3202166E-2,4.6455264E-1,-5.0479466E-1,5.125608E-1,2.280448E-2,4.2342326E-1,-3.5704006E-2,3.0216038E-2,1.1316977E-1,2.9785358E-3,-1.4160945E-2,-5.2659714E-4,3.1180564E-2],"categories":[],"categories_nodes":[],"categories_segments":[],"categories_sizes":[],"default_left":[0,0,0,0,0,0,0,0,0,0,0,0,0,0,0],"id":7,"left_children":[1,3,-1,5,7,9,11,13,-1,-1,-1,-1,-1,-1,-1],"loss_changes":[1.3932976E2,5.2897324E1,0E0,2.5168732E1,5.2211094E0,1.2230438E1,8.274356E-1,2.4752867E-1,0E0,0E0,0E0,0E0,0E0,0E0,0E0],"parents":[2147483647,0,0,1,1,3,3,4,4,5,5,6,6,7,7],"right_children":[2,4,-1,6,8,10,12,14,-1,-1,-1,-1,-1,-1,-1],"split_conditions":[6.56E-1,3E1,-4.3202166E-2,6.34E-1,6.5E-1,6.3E-1,2.9E-1,5.8E-1,-3.5704006E-2,3.0216038E-2,1.1316977E-1,2.9785358E-3,-1.4160945E-2,-5.2659714E-4,3.1180564E-2],"split_indices":[1,2,0,1,3,3,3,3,0,0,0,0,0,0,0],"split_type":[0,0,0,0,0,0,0,0,0,0,0,0,0,0,0],"sum_hessian":[1.3613068E3,1.2446378E3,1.1666889E2,1.1863346E3,5.8303192E1,1.0699E3,1.1643454E2,4.8405013E0,5.3462692E1,1.064324E3,5.5760813E0,1.0622769E2,1.0206844E1,1.0471861E0,3.7933152E0],"tree_param":{"num_deleted":"0","num_feature":"6","num_nodes":"15","size_leaf_vector":"1"}},{"base_weights":[-3.0108407E-1,-4.4049636E-1,4.4246636E-2,-3.013594E-2,-4.5400016E-2,6.594441E-2,-1.384307E-1,1.03741195E-2,1.1911689E-3,-1.1848122E-2,9.905596E-3],"categories":[],"categories_nodes":[],"categories_segments":[],"categories_sizes":[],"default_left":[0,0,0,0,0,0,0,0,0,0,0],"id":8,"left_children":[1,3,-1,-1,5,7,9,-1,-1,-1,-1],"loss_changes":[1.4619626E2,2.1670624E1,0E0,0E0,1.2654061E0,2.7206534E-1,1.2223945E0,0E0,0E0,0E0,0E0],"parents":[2147483647,0,0,1,1,4,4,5,5,6,6],"right_children":[2,4,-1,-1,6,8,10,-1,-1,-1,-1],"split_conditions":[6.56E-1,6.34E-1,4.4246636E-2,-3.013594E-2,1.6E-1,8E-2,2.9E-1,1.03741195E-2,1.1911689E-3,-1.1848122E-2,9.905596E-3],"split_indices":[1,1,0,0,3,3,3,0,0,0,0],"split_type":[0,0,0,0,0,0,0,0,0,0,0],"sum_hessian":[1.0065138E3,8.8789795E2,1.18615814E2,7.676175E2,1.2028048E2,5.4883698E1,6.539678E1,1.5699964E1,3.9183735E1,5.504037E1,1.0356407E1],"tree_param":{"num_deleted":"0","num_feature":"6","num_nodes":"11","size_leaf_vector":"1"}},{"base_weights":[-3.752766E-1,-5.220183E-1,5.119407E-1,-2.9971652E-2,-8.6256884E-2,-2.8258247E-2,5.7625544E-1,3.5647E-2,2.7890883E-3],"categories":[],"categories_nodes":[],"categories_segments":[],"categories_sizes":[],"default_left":[0,0,0,0,0,0,0,0,0],"id":9,"left_children":[1,3,5,-1,-1,-1,7,-1,-1],"loss_changes":[4.6563164E1,5.5754547E0,3.4936361E0,0E0,0E0,0E0,4.2933273E-1,0E0,0E0],"parents":[2147483647,0,0,1,1,2,2,6,6],"right_children":[2,4,6,-1,-1,-1,8,-1,-1],"split_conditions":[3E1,6.3E-1,6.5E-1,-2.9971652E-2,-8.6256884E-2,-2.8258247E-2,7.33E-1,3.5647E-2,2.7890883E-3],"split_indices":[2,3,3,0,0,0,0,0,0],"split_type":[0,0,0,0,0,0,0,0,0],"sum_hessian":[3.545979E2,3.046258E2,4.99721E1,2.9883087E2,5.7949195E0,2.680688E0,4.7291412E1,4.5631485E1,1.6599259E0],"tree_param":{"num_deleted":"0","num_feature":"6","num_nodes":"9","size_leaf_vector":"1"}},{"base_weights":[3.2820174E-1,4.2185003E-1,-4.2051144E-2,4.6309105E-1,-5.030967E-1,5.1191115E-1,4.7872286E-2,3.7381348E-1,-3.516634E-2,3.0199995E-2,9.810361E-2,-8.801798E-3,7.2039897E-3,-9.642884E-4,2.8611975E-2],"categories":[],"categories_nodes":[],"categories_segments":[],"categories_sizes":[],"default_left":[0,0,0,0,0,0,0,0,0,0,0,0,0,0,0],"id":10,"left_children":[1,3,-1,5,7,9,11,13,-1,-1,-1,-1,-1,-1,-1],"loss_changes":[1.2411714E2,4.5180695E1,0E0,2.2852188E1,3.9150696E0,8.904755E0,1.7008848E0,2.0861101E-1,0E0,0E0,0E0,0E0,0E0,0E0,0E0],"parents":[2147483647,0,0,1,1,3,3,4,4,5,5,6,6,7,7],"right_children":[2,4,-1,6,8,10,12,14,-1,-1,-1,-1,-1,-1,-1],"split_conditions":[6.56E-1,3E1,-4.2051144E-2,6.34E-1,6.5E-1,6.3E-1,1.2E-1,5.7E-1,-3.516634E-2,3.0199995E-2,9.810361E-2,-8.801798E-3,7.2039897E-3,-9.642884E-4,2.8611975E-2],"split_indices":[1,2,0,1,3,3,3,3,0,0,0,0,0,0,0],"split_type":[0,0,0,0,0,0,0,0,0,0,0,0,0,0,0],"sum_hessian":[1.2838663E3,1.1773157E3,1.0655067E2,1.1275409E3,4.9774834E1,1.00870734E3,1.1883353E2,4.0013328E0,4.5773502E1,1.0024991E3,6.2082887E0,3.188068E1,8.695285E1,1.012967E0,2.988366E0],"tree_param":{"num_deleted":"0","num_feature":"6","num_nodes":"15","size_leaf_vector":"1"}},{"base_weights":[-2.9603884E-1,-4.3343228E-1,4.3258198E-2,-3.012312E-2,-2.675057E-2,2.9274854E-1,-8.412819E-2,1.9774614E-2,1.0132048E-2,-6.645243E-3,2.5463575E-2],"categories":[],"categories_nodes":[],"categories_segments":[],"categories_sizes":[],"default_left":[0,0,0,0,0,0,0,0,0,0,0],"id":11,"left_children":[1,3,-1,-1,5,7,9,-1,-1,-1,-1],"loss_changes":[1.3390393E2,2.3508926E1,0E0,0E0,2.2748375E0,3.062284E-2,1.4664645E0,0E0,0E0,0E0,0E0],"parents":[2147483647,0,0,1,1,4,4,5,5,6,6],"right_children":[2,4,-1,-1,6,8,10,-1,-1,-1,-1],"split_conditions":[6.56E-1,6.34E-1,4.3258198E-2,-3.012312E-2,9E-2,8E-2,3E-1,1.9774614E-2,1.0132048E-2,-6.645243E-3,2.5463575E-2],"split_indices":[1,1,0,0,3,3,3,0,0,0,0],"split_type":[0,0,0,0,0,0,0,0,0,0,0],"sum_hessian":[9.550661E2,8.419025E2,1.1316352E2,7.201556E2,1.2174695E2,1.7910843E1,1.03836105E2,1.2526449E1,5.384394E0,9.94131E1,4.4230065E0],"tree_param":{"num_deleted":"0","num_feature":"6","num_nodes":"11","size_leaf_vector":"1"}},{"base_weights":[-3.7170133E-1,-5.256165E-1,4.9162325E-1,-2.9961474E-2,-8.036876E-2,-2.9743725E-2,5.6966513E-1,3.523874E-2,-6.487368E-3],"categories":[],"categories_nodes":[],"categories_segments":[],"categories_sizes":[],"default_left":[0,0,0,0,0,0,0,0,0],"id":12,"left_children":[1,3,5,-1,-1,-1,7,-1,-1],"loss_changes":[4.5529476E1,5.5207443E0,4.294338E0,0E0,0E0,0E0,6.4621353E-1,0E0,0E0],"parents":[2147483647,0,0,1,1,2,2,6,6],"right_children":[2,4,6,-1,-1,-1,8,-1,-1],"split_conditions":[3E1,6.3E-1,6.5E-1,-2.9961474E-2,-8.036876E-2,-2.9743725E-2,7.62E-1,3.523874E-2,-6.487368E-3],"split_indices":[2,3,3,0,0,0,0,0,0],"split_type":[0,0,0,0,0,0,0,0,0],"sum_hessian":[3.3969458E2,2.886285E2,5.106608E1,2.8117035E2,7.458162E0,3.348625E0,4.7717453E1,4.6636684E1,1.0807683E0],"tree_param":{"num_deleted":"0","num_feature":"6","num_nodes":"9","size_leaf_vector":"1"}},{"base_weights":[3.264365E-1,4.2002726E-1,-4.1037906E-2,4.6424493E-1,-4.9435878E-1,5.112958E-1,6.269706E-2,3.8545954E-1,-3.479913E-2,3.0184636E-2,8.692693E-2,7.4875248E-3,-1.0781523E-3,-8.351468E-4,2.908681E-2],"categories":[],"categories_nodes":[],"categories_segments":[],"categories_sizes":[],"default_left":[0,0,0,0,0,0,0,0,0,0,0,0,0,0,0],"id":13,"left_children":[1,3,-1,5,7,9,11,13,-1,-1,-1,-1,-1,-1,-1],"loss_changes":[1.15170685E2,4.521013E1,0E0,2.0026825E1,4.1260195E0,6.59227E0,5.657275E-1,2.128166E-1,0E0,0E0,0E0,0E0,0E0,0E0,0E0],"parents":[2147483647,0,0,1,1,3,3,4,4,5,5,6,6,7,7],"right_children":[2,4,-1,6,8,10,12,14,-1,-1,-1,-1,-1,-1,-1],"split_conditions":[6.56E-1,3E1,-4.1037906E-2,6.34E-1,6.5E-1,5.9E-1,1.9E-1,5.8E-1,-3.479913E-2,3.0184636E-2,8.692693E-2,7.4875248E-3,-1.0781523E-3,-8.351468E-4,2.908681E-2],"split_indices":[1,2,0,1,3,3,3,3,0,0,0,0,0,0,0],"split_type":[0,0,0,0,0,0,0,0,0,0,0,0,0,0,0],"sum_hessian":[1.213871E3,1.1115E3,1.02370964E2,1.0606992E3,5.080077E1,9.492041E2,1.11495125E2,4.1950283E0,4.6605743E1,9.424784E2,6.7257037E0,6.2690453E1,4.8804672E1,1.0067276E0,3.1883006E0],"tree_param":{"num_deleted":"0","num_feature":"6","num_nodes":"15","size_leaf_vector":"1"}},{"base_weights":[-2.8389087E-1,-4.262019E-1,4.2165466E-2,-3.0111236E-2,7.581596E-3,-1.4524675E-2,3.4635924E-2,1.3631415E-2,-2.6586598E-3],"categories":[],"categories_nodes":[],"categories_segments":[],"categories_sizes":[],"default_left":[0,0,0,0,0,0,0,0,0],"id":14,"left_children":[1,3,-1,-1,5,7,-1,-1,-1],"loss_changes":[1.291618E2,2.6345245E1,0E0,0E0,1.521949E0,8.50077E-1,0E0,0E0,0E0],"parents":[2147483647,0,0,1,1,4,4,5,5],"right_children":[2,4,-1,-1,6,8,-1,-1,-1],"split_conditions":[6.56E-1,6.34E-1,4.2165466E-2,-3.0111236E-2,3E-1,8E-2,3.4635924E-2,1.3631415E-2,-2.6586598E-3],"split_indices":[1,1,0,0,3,3,0,0,0],"split_type":[0,0,0,0,0,0,0,0,0],"sum_hessian":[9.167508E2,8.0168616E2,1.1506459E2,6.825008E2,1.19185356E2,1.156713E2,3.514058E0,1.1963182E1,1.03708115E2],"tree_param":{"num_deleted":"0","num_feature":"6","num_nodes":"9","size_leaf_vector":"1"}},{"base_weights":[-3.667101E-1,-5.2479464E-1,5.1154894E-1,-2.9951084E-2,-7.448188E-2,-2.5686271E-2,5.624806E-1,3.4813523E-2,1.8245843E-3],"categories":[],"categories_nodes":[],"categories_segments":[],"categories_sizes":[],"default_left":[0,0,0,0,0,0,0,0,0],"id":15,"left_children":[1,3,5,-1,-1,-1,7,-1,-1],"loss_changes":[4.5056534E1,4.4062805E0,2.620038E0,0E0,0E0,0E0,4.3168163E-1,0E0,0E0],"parents":[2147483647,0,0,1,1,2,2,6,6],"right_children":[2,4,6,-1,-1,-1,8,-1,-1],"split_conditions":[3E1,6.3E-1,6.5E-1,-2.9951084E-2,-7.448188E-2,-2.5686271E-2,7.33E-1,3.4813523E-2,1.8245843E-3],"split_indices":[2,3,3,0,0,0,0,0,0],"split_type":[0,0,0,0,0,0,0,0,0],"sum_hessian":[3.2158963E2,2.7287518E2,4.871442E1,2.6509738E2,7.777812E0,2.123929E0,4.6590492E1,4.499924E1,1.5912503E0],"tree_param":{"num_deleted":"0","num_feature":"6","num_nodes":"9","size_leaf_vector":"1"}},{"base_weights":[3.1953853E-1,4.1844568E-1,-4.0156905E-2,4.6011892E-1,-4.7258455E-1,5.096847E-1,8.0592625E-2,2.9502423E-2,-3.436677E-2,3.0170087E-2,7.685522E-2,5.9353034E-3,-2.2134092E-2],"categories":[],"categories_nodes":[],"categories_segments":[],"categories_sizes":[],"default_left":[0,0,0,0,0,0,0,0,0,0,0,0,0],"id":16,"left_children":[1,3,-1,5,7,9,11,-1,-1,-1,-1,-1,-1],"loss_changes":[1.1440643E2,3.9630493E1,0E0,1.904338E1,4.911338E0,4.0953217E0,1.0117788E0,0E0,0E0,0E0,0E0,0E0,0E0],"parents":[2147483647,0,0,1,1,3,3,4,4,5,5,6,6],"right_children":[2,4,-1,6,8,10,12,-1,-1,-1,-1,-1,-1],"split_conditions":[6.56E-1,3E1,-4.0156905E-2,6.34E-1,6.5E-1,6.3E-1,3E-1,2.9502423E-2,-3.436677E-2,3.0170087E-2,7.685522E-2,5.9353034E-3,-2.2134092E-2],"split_indices":[1,2,0,1,3,3,3,0,0,0,0,0,0],"split_type":[0,0,0,0,0,0,0,0,0,0,0,0,0],"sum_hessian":[1.16592E3,1.0604272E3,1.0549283E2,1.0135093E3,4.6917953E1,8.961324E2,1.1737692E2,4.0483665E0,4.2869587E1,8.8988074E2,6.251643E0,1.1352752E2,3.8494039E0],"tree_param":{"num_deleted":"0","num_feature":"6","num_nodes":"13","size_leaf_vector":"1"}},{"base_weights":[-2.8455326E-1,-4.2460075E-1,4.097621E-2,-3.0099334E-2,-2.1008989E-2,-3.726261E-2,2.2765271E-2,3.917138E-3,-7.517006E-3],"categories":[],"categories_nodes":[],"categories_segments":[],"categories_sizes":[],"default_left":[0,0,0,0,0,0,0,0,0],"id":17,"left_children":[1,3,-1,-1,5,7,-1,-1,-1],"loss_changes":[1.185628E2,2.3722015E1,0E0,0E0,8.1718826E-1,1.0866835E0,0E0,0E0,0E0],"parents":[2147483647,0,0,1,1,4,4,5,5],"right_children":[2,4,-1,-1,6,8,-1,-1,-1],"split_conditions":[6.56E-1,6.34E-1,4.097621E-2,-3.0099334E-2,3E-1,1.6E-1,2.2765271E-2,3.917138E-3,-7.517006E-3],"split_indices":[1,1,0,0,3,3,0,0,0],"split_type":[0,0,0,0,0,0,0,0,0],"sum_hessian":[8.7189716E2,7.621365E2,1.0976073E2,6.3975055E2,1.2238592E2,1.1848357E2,3.902352E0,5.484498E1,6.3638588E1],"tree_param":{"num_deleted":"0","num_feature":"6","num_nodes":"9","size_leaf_vector":"1"}},{"base_weights":[-3.6190107E-1,-5.24066E-1,4.82947E-1,-2.9941397E-2,-6.7705624E-2,-2.8614078E-2,5.565543E-1,3.4450416E-2,-1.5236647E-3],"categories":[],"categories_nodes":[],"categories_segments":[],"categories_sizes":[],"default_left":[0,0,0,0,0,0,0,0,0],"id":18,"left_children":[1,3,5,-1,-1,-1,7,-1,-1],"loss_changes":[4.268994E1,3.3771896E0,3.8263273E0,0E0,0E0,0E0,4.9929142E-1,0E0,0E0],"parents":[2147483647,0,0,1,1,2,2,6,6],"right_children":[2,4,6,-1,-1,-1,8,-1,-1],"split_conditions":[3E1,6.3E-1,6.5E-1,-2.9941397E-2,-6.7705624E-2,-2.8614078E-2,7.62E-1,3.4450416E-2,-1.5236647E-3],"split_indices":[2,3,3,0,0,0,0,0,0],"split_type":[0,0,0,0,0,0,0,0,0],"sum_hessian":[3.087474E2,2.5934665E2,4.940076E1,2.5078084E2,8.565806E0,3.128304E0,4.6272457E1,4.492563E1,1.3468274E0],"tree_param":{"num_deleted":"0","num_feature":"6","num_nodes":"9","size_leaf_vector":"1"}},{"base_weights":[3.1642902E-1,4.1058943E-1,-3.9339535E-2,4.544471E-1,-4.7409254E-1,5.0913584E-1,3.73566E-2,3.855213E-1,-3.4044567E-2,3.0156076E-2,7.015046E-2,-6.822303E-3,5.0027096E-3,-2.0464273E-4,2.884912E-2],"categories":[],"categories_nodes":[],"categories_segments":[],"categories_sizes":[],"default_left":[0,0,0,0,0,0,0,0,0,0,0,0,0,0,0],"id":19,"left_children":[1,3,-1,5,7,9,11,13,-1,-1,-1,-1,-1,-1,-1],"loss_changes":[1.009228E2,3.913806E1,0E0,2.1794006E1,4.058832E0,3.0584412E0,7.8764784E-1,1.9746149E-1,0E0,0E0,0E0,0E0,0E0,0E0,0E0],"parents":[2147483647,0,0,1,1,3,3,4,4,5,5,6,6,7,7],"right_children":[2,4,-1,6,8,10,12,14,-1,-1,-1,-1,-1,-1,-1],"split_conditions":[6.56E-1,3E1,-3.9339535E-2,6.34E-1,6.5E-1,5.4E-1,1.1E-1,5.9E-1,-3.4044567E-2,3.0156076E-2,7.015046E-2,-6.822303E-3,5.0027096E-3,-2.0464273E-4,2.884912E-2],"split_indices":[1,2,0,1,3,3,3,3,0,0,0,0,0,0,0],"split_type":[0,0,0,0,0,0,0,0,0,0,0,0,0,0,0],"sum_hessian":[1.0986527E3,1.0021573E3,9.649541E1,9.5528577E2,4.6871506E1,8.4435376E2,1.10932014E2,4.283311E0,4.2588196E1,8.3782056E2,6.5332084E0,2.5560825E1,8.537119E1,1.0327231E0,3.2505877E0],"tree_param":{"num_deleted":"0","num_feature":"6","num_nodes":"15","size_leaf_vector":"1"}},{"base_weights":[-2.879682E-1,-4.2325297E-1,4.0325876E-2,-3.0088097E-2,-1.9021068E-2,1.4391033E-2,-6.843777E-2,-4.9474486E-3,1.7420227E-2],"categories":[],"categories_nodes":[],"categories_segments":[],"categories_sizes":[],"default_left":[0,0,0,0,0,0,0,0,0],"id":20,"left_children":[1,3,-1,-1,5,-1,7,-1,-1],"loss_changes":[1.073252E2,2.2848465E1,0E0,0E0,1.529106E0,0E0,5.272906E-1,0E0,0E0],"parents":[2147483647,0,0,1,1,4,4,6,6],"right_children":[2,4,-1,-1,6,-1,8,-1,-1],"split_conditions":[6.56E-1,6.34E-1,4.0325876E-2,-3.0088097E-2,9E-2,1.4391033E-2,3E-1,-4.9474486E-3,1.7420227E-2],"split_indices":[1,1,0,0,3,0,3,0,0],"split_type":[0,0,0,0,0,0,0,0,0],"sum_hessian":[8.2313617E2,7.219622E2,1.0117395E2,6.0471466E2,1.1724754E2,1.8176338E1,9.9071205E1,9.608663E1,2.984571E0],"tree_param":{"num_deleted":"0","num_feature":"6","num_nodes":"9","size_leaf_vector":"1"}},{"base_weights":[-3.6303765E-1,-5.2196056E-1,4.9757794E-1,-2.993028E-2,-6.333915E-2,-2.7148247E-2,3.407858E-2],"categories":[],"categories_nodes":[],"categories_segments":[],"categories_sizes":[],"default_left":[0,0,0,0,0,0,0],"id":21,"left_children":[1,3,5,-1,-1,-1,-1],"loss_changes":[3.984715E1,2.4944687E0,3.308776E0,0E0,0E0,0E0,0E0],"parents":[2147483647,0,0,1,1,2,2],"right_children":[2,4,6,-1,-1,-1,-1],"split_conditions":[3E1,5.9E-1,6.5E-1,-2.993028E-2,-6.333915E-2,-2.7148247E-2,3.407858E-2],"split_indices":[2,3,3,0,0,0,0],"split_type":[0,0,0,0,0,0,0],"sum_hessian":[2.8844202E2,2.4381262E2,4.4629402E1,2.355423E2,8.270328E0,2.7044685E0,4.1924934E1],"tree_param":{"num_deleted":"0","num_feature":"6","num_nodes":"7","size_leaf_vector":"1"}},{"base_weights":[3.069078E-1,4.092516E-1,-3.8619705E-2,4.5065016E-1,-4.741826E-1,5.086033E-1,4.5946304E-2,3.5479096E-1,-3.3658195E-2,3.0142704E-2,6.476007E-2,-1.9960979E-2,5.3019878E-3,9.548985E-4,2.7244303E-2],"categories":[],"categories_nodes":[],"categories_segments":[],"categories_sizes":[],"default_left":[0,0,0,0,0,0,0,0,0,0,0,0,0,0,0],"id":22,"left_children":[1,3,-1,5,7,9,11,13,-1,-1,-1,-1,-1,-1,-1],"loss_changes":[1.0306071E2,3.5124924E1,0E0,2.137471E1,3.3082304E0,2.2927246E0,1.8825992E0,1.5117747E-1,0E0,0E0,0E0,0E0,0E0,0E0,0E0],"parents":[2147483647,0,0,1,1,3,3,4,4,5,5,6,6,7,7],"right_children":[2,4,-1,6,8,10,12,14,-1,-1,-1,-1,-1,-1,-1],"split_conditions":[6.56E-1,3E1,-3.8619705E-2,6.34E-1,6.5E-1,6.3E-1,8E-2,6E-1,-3.3658195E-2,3.0142704E-2,6.476007E-2,-1.9960979E-2,5.3019878E-3,9.548985E-4,2.7244303E-2],"split_indices":[1,2,0,1,3,3,3,3,0,0,0,0,0,0,0],"split_type":[0,0,0,0,0,0,0,0,0,0,0,0,0,0,0],"sum_hessian":[1.0556622E3,9.535653E2,1.0209689E2,9.113486E2,4.221675E1,7.969671E2,1.1438148E2,3.7082558E0,3.8508495E1,7.9022845E2,6.738644E0,1.0834397E1,1.0354708E2,1.103154E0,2.6051018E0],"tree_param":{"num_deleted":"0","num_feature":"6","num_nodes":"15","size_leaf_vector":"1"}},{"base_weights":[-2.8368655E-1,-4.2470565E-1,3.952353E-2,-3.0077018E-2,-3.823941E-2,1.1913354E-1,-9.639771E-2,1.0622616E-2,4.186809E-3,-7.110313E-3,1.9794824E-2],"categories":[],"categories_nodes":[],"categories_segments":[],"categories_sizes":[],"default_left":[0,0,0,0,0,0,0,0,0,0,0],"id":23,"left_children":[1,3,-1,-1,5,7,9,-1,-1,-1,-1],"loss_changes":[1.0464252E2,2.0214203E1,0E0,0E0,1.056239E0,7.695702E-2,8.2982934E-1,0E0,0E0,0E0,0E0],"parents":[2147483647,0,0,1,1,4,4,5,5,6,6],"right_children":[2,4,-1,-1,6,8,10,-1,-1,-1,-1],"split_conditions":[6.56E-1,6.34E-1,3.952353E-2,-3.0077018E-2,1.2E-1,8E-2,3E-1,1.0622616E-2,4.186809E-3,-7.110313E-3,1.9794824E-2],"split_indices":[1,1,0,0,3,3,3,0,0,0,0],"split_type":[0,0,0,0,0,0,0,0,0,0,0],"sum_hessian":[7.84284E2,6.826796E2,1.0160436E2,5.695305E2,1.1314912E2,3.024891E1,8.290021E1,1.2727505E1,1.7521406E1,7.949957E1,3.400638E0],"tree_param":{"num_deleted":"0","num_feature":"6","num_nodes":"11","size_leaf_vector":"1"}},{"base_weights":[-3.6223266E-1,-5.1878804E-1,4.9849698E-1,-2.9919896E-2,-5.7939116E-2,-2.5534557E-2,3.3706833E-2],"categories":[],"categories_nodes":[],"categories_segments":[],"categories_sizes":[],"default_left":[0,0,0,0,0,0,0],"id":24,"left_children":[1,3,5,-1,-1,-1,-1],"loss_changes":[3.701977E1,1.5984879E0,2.7240467E0,0E0,0E0,0E0,0E0],"parents":[2147483647,0,0,1,1,2,2],"right_children":[2,4,6,-1,-1,-1,-1],"split_conditions":[3E1,6.3E-1,6.5E-1,-2.9919896E-2,-5.7939116E-2,-2.5534557E-2,3.3706833E-2],"split_indices":[2,3,3,0,0,0,0],"split_type":[0,0,0,0,0,0,0],"sum_hessian":[2.7180627E2,2.3031271E2,4.1493576E1,2.2241298E2,7.8997407E0,2.2925549E0,3.920102E1],"tree_param":{"num_deleted":"0","num_feature":"6","num_nodes":"7","size_leaf_vector":"1"}},{"base_weights":[3.055702E-1,4.033566E-1,-3.793191E-2,4.4511217E-1,-4.459699E-1,5.084992E-1,7.929263E-3,2.879293E-2,-3.335024E-2,3.012994E-2,6.0813524E-2,3.2072077E-3,-2.7926506E-2],"categories":[],"categories_nodes":[],"categories_segments":[],"categories_sizes":[],"default_left":[0,0,0,0,0,0,0,0,0,0,0,0,0],"id":25,"left_children":[1,3,-1,5,7,9,11,-1,-1,-1,-1,-1,-1],"loss_changes":[9.200553E1,3.2352737E1,0E0,2.3957855E1,4.639265E0,1.9067078E0,2.406365E0,0E0,0E0,0E0,0E0,0E0,0E0],"parents":[2147483647,0,0,1,1,3,3,4,4,5,5,6,6],"right_children":[2,4,-1,6,8,10,12,-1,-1,-1,-1,-1,-1],"split_conditions":[6.56E-1,3E1,-3.793191E-2,6.34E-1,6.5E-1,6.3E-1,2.9E-1,2.879293E-2,-3.335024E-2,3.012994E-2,6.0813524E-2,3.2072077E-3,-2.7926506E-2],"split_indices":[1,2,0,1,3,3,3,0,0,0,0,0,0],"split_type":[0,0,0,0,0,0,0,0,0,0,0,0,0],"sum_hessian":[9.995393E2,9.0566986E2,9.386944E1,8.636843E2,4.1985508E1,7.5417377E2,1.095106E2,4.096499E0,3.7889008E1,7.468029E2,7.3708167E0,1.00712166E2,8.798432E0],"tree_param":{"num_deleted":"0","num_feature":"6","num_nodes":"13","size_leaf_vector":"1"}},{"base_weights":[-2.839683E-1,-3.0066157E-2,2.7954394E-1,-1.2765464E-2,3.881547E-2,5.6331873E-2,-1.2674908E-1,8.827049E-3,1.9552198E-3,-1.4201439E-2,9.364405E-3],"categories":[],"categories_nodes":[],"categories_segments":[],"categories_sizes":[],"default_left":[0,0,0,0,0,0,0,0,0,0,0],"id":26,"left_children":[1,-1,3,5,-1,7,9,-1,-1,-1,-1],"loss_changes":[9.107351E1,0E0,2.2275745E1,9.243418E-1,0E0,1.5299417E-1,1.4131519E0,0E0,0E0,0E0,0E0],"parents":[2147483647,0,0,2,2,3,3,5,5,6,6],"right_children":[2,-1,4,6,-1,8,10,-1,-1,-1,-1],"split_conditions":[6.34E-1,-3.0066157E-2,6.56E-1,2.2E-1,3.881547E-2,8E-2,2.9E-1,8.827049E-3,1.9552198E-3,-1.4201439E-2,9.364405E-3],"split_indices":[1,0,1,3,0,3,3,0,0,0,0],"split_type":[0,0,0,0,0,0,0,0,0,0,0],"sum_hessian":[7.421761E2,5.3582214E2,2.0635394E2,1.1545582E2,9.089813E1,7.219606E1,4.3259758E1,1.3890744E1,5.8305313E1,3.1268044E1,1.1991713E1],"tree_param":{"num_deleted":"0","num_feature":"6","num_nodes":"11","size_leaf_vector":"1"}},{"base_weights":[-3.5581875E-1,-5.1396966E-1,4.5892692E-1,-2.9909147E-2,-5.296176E-2,-2.7062112E-2,5.3544915E-1,3.3373695E-2,-3.3925164E-3],"categories":[],"categories_nodes":[],"categories_segments":[],"categories_sizes":[],"default_left":[0,0,0,0,0,0,0,0,0],"id":27,"left_children":[1,3,5,-1,-1,-1,7,-1,-1],"loss_changes":[3.3569885E1,7.995796E-1,3.2065525E0,0E0,0E0,0E0,5.202408E-1,0E0,0E0],"parents":[2147483647,0,0,1,1,2,2,6,6],"right_children":[2,4,6,-1,-1,-1,8,-1,-1],"split_conditions":[3E1,5.2E-1,6.5E-1,-2.9909147E-2,-5.296176E-2,-2.7062112E-2,7.62E-1,3.3373695E-2,-3.3925164E-3],"split_indices":[2,3,3,0,0,0,0,0,0],"split_type":[0,0,0,0,0,0,0,0,0],"sum_hessian":[2.5769843E2,2.1611694E2,4.1581463E1,2.0966447E2,6.4524784E0,2.845856E0,3.8735607E1,3.748044E1,1.2551699E0],"tree_param":{"num_deleted":"0","num_feature":"6","num_nodes":"9","size_leaf_vector":"1"}},{"base_weights":[2.986283E-1,3.9446202E-1,-3.7292887E-2,4.3464014E-1,-4.4235706E-1,5.068131E-1,1.385207E-2,3.7604597E-1,-3.3023153E-2,3.0117415E-2,5.5425175E-2,1.6578826E-3,-2.0317592E-2,-5.259477E-4,2.8077338E-2],"categories":[],"categories_nodes":[],"categories_segments":[],"categories_sizes":[],"default_left":[0,0,0,0,0,0,0,0,0,0,0,0,0,0,0],"id":28,"left_children":[1,3,-1,5,7,9,11,13,-1,-1,-1,-1,-1,-1,-1],"loss_changes":[8.484806E1,2.9426773E1,0E0,2.5205124E1,3.7726555E0,9.710541E-1,6.0467875E-1,1.9144422E-1,0E0,0E0,0E0,0E0,0E0,0E0,0E0],"parents":[2147483647,0,0,1,1,3,3,4,4,5,5,6,6,7,7],"right_children":[2,4,-1,6,8,10,12,14,-1,-1,-1,-1,-1,-1,-1],"split_conditions":[6.56E-1,3E1,-3.7292887E-2,6.34E-1,6.5E-1,6.3E-1,3E-1,5.9E-1,-3.3023153E-2,3.0117415E-2,5.5425175E-2,1.6578826E-3,-2.0317592E-2,-5.259477E-4,2.8077338E-2],"split_indices":[1,2,0,1,3,3,3,3,0,0,0,0,0,0,0],"split_type":[0,0,0,0,0,0,0,0,0,0,0,0,0,0,0],"sum_hessian":[9.583912E2,8.685097E2,8.988146E1,8.29179E2,3.933071E1,7.076069E2,1.2157216E2,4.2969527E0,3.5033756E1,7.016387E2,5.968189E0,1.1788532E2,3.6868365E0,1.0028403E0,3.2941127E0],"tree_param":{"num_deleted":"0","num_feature":"6","num_nodes":"15","size_leaf_vector":"1"}},{"base_weights":[-2.8121927E-1,-4.1180414E-1,3.7762735E-2,-3.0055875E-2,-3.8928222E-2,-5.689567E-2,2.278166E-2,3.095915E-3,-9.160403E-3],"categories":[],"categories_nodes":[],"categories_segments":[],"categories_sizes":[],"default_left":[0,0,0,0,0,0,0,0,0],"id":29,"left_children":[1,3,-1,-1,5,7,-1,-1,-1],"loss_changes":[8.570502E1,2.0886108E1,0E0,0E0,9.425309E-1,1.23685E0,0E0,0E0,0E0],"parents":[2147483647,0,0,1,1,4,4,5,5],"right_children":[2,4,-1,-1,6,8,-1,-1,-1],"split_conditions":[6.56E-1,6.34E-1,3.7762735E-2,-3.0055875E-2,3E-1,1.6E-1,2.278166E-2,3.095915E-3,-9.160403E-3],"split_indices":[1,1,0,0,3,3,0,0,0],"split_type":[0,0,0,0,0,0,0,0,0],"sum_hessian":[7.175736E2,6.280548E2,8.9518814E1,5.066167E2,1.2143811E2,1.1726897E2,4.169143E0,5.5200592E1,6.2068375E1],"tree_param":{"num_deleted":"0","num_feature":"6","num_nodes":"9","size_leaf_vector":"1"}},{"base_weights":[-3.5633516E-1,-5.177713E-1,4.481223E-1,-2.9897459E-2,-5.231693E-2,-2.7339853E-2,5.304558E-1,3.308695E-2,-3.5419671E-3],"categories":[],"categories_nodes":[],"categories_segments":[],"categories_sizes":[],"default_left":[0,0,0,0,0,0,0,0,0],"id":30,"left_children":[1,3,5,-1,-1,-1,7,-1,-1],"loss_changes":[3.24133E1,9.926491E-1,3.3634634E0,0E0,0E0,0E0,5.141001E-1,0E0,0E0],"parents":[2147483647,0,0,1,1,2,2,6,6],"right_children":[2,4,6,-1,-1,-1,8,-1,-1],"split_conditions":[3E1,6.3E-1,6.5E-1,-2.9897459E-2,-5.231693E-2,-2.7339853E-2,7.62E-1,3.308695E-2,-3.5419671E-3],"split_indices":[2,3,3,0,0,0,0,0,0],"split_type":[0,0,0,0,0,0,0,0,0],"sum_hessian":[2.4679893E2,2.0584662E2,4.0952312E1,1.9739642E2,8.450201E0,3.0406222E0,3.791169E1,3.6670284E1,1.2414064E0],"tree_param":{"num_deleted":"0","num_feature":"6","num_nodes":"9","size_leaf_vector":"1"}},{"base_weights":[3.035142E-1,3.9985994E-1,-3.672587E-2,4.413027E-1,-4.4765076E-1,5.056334E-1,6.67954E-2,3.5186416E-1,-3.2748993E-2,3.010548E-2,5.0966043E-2,-7.7999467E-3,5.665116E-3,1.2499045E-3,2.6695967E-2],"categories":[],"categories_nodes":[],"categories_segments":[],"categories_sizes":[],"default_left":[0,0,0,0,0,0,0,0,0,0,0,0,0,0,0],"id":31,"left_children":[1,3,-1,5,7,9,11,13,-1,-1,-1,-1,-1,-1,-1],"loss_changes":[8.0150856E1,2.9004639E1,0E0,1.8817047E1,3.231989E0,4.632721E-1,6.42061E-1,1.399576E-1,0E0,0E0,0E0,0E0,0E0,0E0,0E0],"parents":[2147483647,0,0,1,1,3,3,4,4,5,5,6,6,7,7],"right_children":[2,4,-1,6,8,10,12,14,-1,-1,-1,-1,-1,-1,-1],"split_conditions":[6.56E-1,3E1,-3.672587E-2,6.34E-1,6.5E-1,6.3E-1,8E-2,6E-1,-3.2748993E-2,3.010548E-2,5.0966043E-2,-7.7999467E-3,5.665116E-3,1.2499045E-3,2.6695967E-2],"split_indices":[1,2,0,1,3,3,3,3,0,0,0,0,0,0,0],"split_type":[0,0,0,0,0,0,0,0,0,0,0,0,0,0,0],"sum_hessian":[9.0480774E2,8.1917316E2,8.56346E1,7.814405E2,3.773267E1,6.665877E2,1.1485279E2,3.84364E0,3.388903E1,6.615895E2,4.998193E0,1.3680851E1,1.01171936E2,1.1120527E0,2.7315874E0],"tree_param":{"num_deleted":"0","num_feature":"6","num_nodes":"15","size_leaf_vector":"1"}},{"base_weights":[-2.655205E-1,-3.0045258E-2,2.749863E-1,1.247549E-2,3.7556708E-2,1.5196994E-2,-3.584622E-2,-3.4531273E-3,3.130361E-2],"categories":[],"categories_nodes":[],"categories_segments":[],"categories_sizes":[],"default_left":[0,0,0,0,0,0,0,0,0],"id":32,"left_children":[1,-1,3,5,-1,-1,7,-1,-1],"loss_changes":[8.7002365E1,0E0,1.913828E1,1.4043672E0,0E0,0E0,1.2493019E0,0E0,0E0],"parents":[2147483647,0,0,2,2,3,3,6,6],"right_children":[2,-1,4,6,-1,-1,8,-1,-1],"split_conditions":[6.34E-1,-3.0045258E-2,6.56E-1,9E-2,3.7556708E-2,1.5196994E-2,3E-1,-3.4531273E-3,3.130361E-2],"split_indices":[1,0,1,3,0,0,3,0,0],"split_type":[0,0,0,0,0,0,0,0,0],"sum_hessian":[6.821914E2,4.7537656E2,2.068149E2,1.1890882E2,8.790607E1,1.9164137E1,9.974468E1,9.687038E1,2.8743105E0],"tree_param":{"num_deleted":"0","num_feature":"6","num_nodes":"9","size_leaf_vector":"1"}},{"base_weights":[-3.5745198E-1,-5.144696E-1,4.7044426E-1,-2.9885832E-2,-4.9066793E-2,-2.2673974E-2,5.2292275E-1,3.275381E-2,-5.4713683E-3],"categories":[],"categories_nodes":[],"categories_segments":[],"categories_sizes":[],"default_left":[0,0,0,0,0,0,0,0,0],"id":33,"left_children":[1,3,5,-1,-1,-1,7,-1,-1],"loss_changes":[3.0277359E1,5.5950165E-1,1.8607445E0,0E0,0E0,0E0,5.520525E-1,0E0,0E0],"parents":[2147483647,0,0,1,1,2,2,6,6],"right_children":[2,4,6,-1,-1,-1,8,-1,-1],"split_conditions":[3E1,6.3E-1,6.5E-1,-2.9885832E-2,-4.9066793E-2,-2.2673974E-2,7.26E-1,3.275381E-2,-5.4713683E-3],"split_indices":[2,3,3,0,0,0,0,0,0],"split_type":[0,0,0,0,0,0,0,0,0],"sum_hessian":[2.3005106E2,1.9369391E2,3.635714E1,1.8628082E2,7.4130883E0,1.7567807E0,3.4600357E1,3.3459705E1,1.1406531E0],"tree_param":{"num_deleted":"0","num_feature":"6","num_nodes":"9","size_leaf_vector":"1"}},{"base_weights":[2.9471454E-1,4.5371142E-1,-2.2506927E-1,5.0674564E-1,-4.4409087E-1,2.2525372E-2,-3.6193438E-2,3.0093819E-2,5.0848223E-2,2.6795462E-2,-3.2504115E-2,-1.3502705E-1,6.728402E-2,-1.0310532E-2,-2.7464943E-3,1.390018E-2,1.1834792E-3],"categories":[],"categories_nodes":[],"categories_segments":[],"categories_sizes":[],"default_left":[0,0,0,0,0,0,0,0,0,0,0,0,0,0,0,0,0],"id":34,"left_children":[1,3,5,7,9,11,-1,-1,-1,-1,-1,13,15,-1,-1,-1,-1],"loss_changes":[7.205803E1,3.1986511E1,1.9171408E1,6.8785095E-1,3.524105E0,8.878628E-1,0E0,0E0,0E0,0E0,0E0,8.381665E-2,7.5936985E-1,0E0,0E0,0E0,0E0],"parents":[2147483647,0,0,1,1,2,2,3,3,4,4,5,5,11,11,12,12],"right_children":[2,4,6,8,10,12,-1,-1,-1,-1,-1,14,16,-1,-1,-1,-1],"split_conditions":[6.34E-1,3E1,6.56E-1,5.4E-1,6.5E-1,1.1E-1,-3.6193438E-2,3.0093819E-2,5.0848223E-2,2.6795462E-2,-3.2504115E-2,9E-2,1.5E-1,-1.0310532E-2,-2.7464943E-3,1.390018E-2,1.1834792E-3],"split_indices":[1,2,1,3,3,3,0,0,0,0,0,3,3,0,0,0,0],"split_type":[0,0,0,0,0,0,0,0,0,0,0,0,0,0,0,0,0],"sum_hessian":[8.6967285E2,6.660589E2,2.0361395E2,6.293199E2,3.673906E1,1.2361692E2,7.999703E1,6.223272E2,6.992675E0,3.2766695E0,3.346239E1,2.6902422E1,9.67145E1,1.8391039E1,8.511381E0,2.083356E1,7.5880936E1],"tree_param":{"num_deleted":"0","num_feature":"6","num_nodes":"17","size_leaf_vector":"1"}},{"base_weights":[-2.736413E-1,-4.0843895E-1,3.7002716E-2,-3.0035308E-2,-4.9714822E-2,-1.2106262E-3,-1.6387801E-1,-2.1519267E-3,1.1255111E-2,-1.2550703E-2,1.5348893E-2],"categories":[],"categories_nodes":[],"categories_segments":[],"categories_sizes":[],"default_left":[0,0,0,0,0,0,0,0,0,0,0],"id":35,"left_children":[1,3,-1,-1,5,7,9,-1,-1,-1,-1],"loss_changes":[7.837242E1,1.8682396E1,0E0,0E0,6.4642215E-1,5.4951787E-1,7.1536696E-1,0E0,0E0,0E0,0E0],"parents":[2147483647,0,0,1,1,4,4,5,5,6,6],"right_children":[2,4,-1,-1,6,8,10,-1,-1,-1,-1],"split_conditions":[6.56E-1,6.34E-1,3.7002716E-2,-3.0035308E-2,2.4E-1,2.1E-1,3E-1,-2.1519267E-3,1.1255111E-2,-1.2550703E-2,1.5348893E-2],"split_indices":[1,1,0,0,3,3,3,0,0,0,0],"split_type":[0,0,0,0,0,0,0,0,0,0,0],"sum_hessian":[6.4990924E2,5.649224E2,8.498685E1,4.4914896E2,1.1577345E2,8.196136E1,3.381209E1,6.9934425E1,1.2026934E1,3.097079E1,2.8413012E0],"tree_param":{"num_deleted":"0","num_feature":"6","num_nodes":"11","size_leaf_vector":"1"}},{"base_weights":[-3.5186282E-1,-5.1245385E-1,4.5878968E-1,-2.9873773E-2,-4.648697E-2,-2.3594359E-2,5.188304E-1,3.2505304E-2,-3.7648554E-3],"categories":[],"categories_nodes":[],"categories_segments":[],"categories_sizes":[],"default_left":[0,0,0,0,0,0,0,0,0],"id":36,"left_children":[1,3,5,-1,-1,-1,7,-1,-1],"loss_changes":[2.8781582E1,3.1497955E-1,2.0857863E0,0E0,0E0,0E0,4.9788666E-1,0E0,0E0],"parents":[2147483647,0,0,1,1,2,2,6,6],"right_children":[2,4,6,-1,-1,-1,8,-1,-1],"split_conditions":[3E1,6.3E-1,6.5E-1,-2.9873773E-2,-4.648697E-2,-2.3594359E-2,7.62E-1,3.2505304E-2,-3.7648554E-3],"split_indices":[2,3,3,0,0,0,0,0,0],"split_type":[0,0,0,0,0,0,0,0,0],"sum_hessian":[2.1827869E2,1.8249425E2,3.578444E1,1.7564503E2,6.8492165E0,1.9903369E0,3.37941E1,3.25784E1,1.2156994E0],"tree_param":{"num_deleted":"0","num_feature":"6","num_nodes":"9","size_leaf_vector":"1"}},{"base_weights":[2.9801622E-1,3.8608718E-1,-3.5695594E-2,4.2920548E-1,-4.5378897E-1,5.07006E-1,4.520742E-2,3.1829965E-1,-3.2284744E-2,3.0082755E-2,4.9258877E-2,-2.9087097E-3,4.504927E-3,5.5193936E-4,2.4814297E-2],"categories":[],"categories_nodes":[],"categories_segments":[],"categories_sizes":[],"default_left":[0,0,0,0,0,0,0,0,0,0,0,0,0,0,0],"id":37,"left_children":[1,3,-1,5,7,9,11,13,-1,-1,-1,-1,-1,-1,-1],"loss_changes":[6.538502E1,2.7526535E1,0E0,2.1439117E1,2.601398E0,6.435089E-1,3.454529E-1,1.22932106E-1,0E0,0E0,0E0,0E0,0E0,0E0,0E0],"parents":[2147483647,0,0,1,1,3,3,4,4,5,5,6,6,7,7],"right_children":[2,4,-1,6,8,10,12,14,-1,-1,-1,-1,-1,-1,-1],"split_conditions":[6.56E-1,3E1,-3.5695594E-2,6.34E-1,6.5E-1,6.3E-1,1.2E-1,6E-1,-3.2284744E-2,3.0082755E-2,4.9258877E-2,-2.9087097E-3,4.504927E-3,5.5193936E-4,2.4814297E-2],"split_indices":[1,2,0,1,3,3,3,3,0,0,0,0,0,0,0],"split_type":[0,0,0,0,0,0,0,0,0,0,0,0,0,0,0],"sum_hessian":[8.275018E2,7.5372906E2,7.377269E1,7.173882E2,3.6340935E1,5.9626135E2,1.2112678E2,3.3036475E0,3.303729E1,5.8831506E2,7.946335E0,2.9135675E1,9.1991104E1,1.036707E0,2.2669404E0],"tree_param":{"num_deleted":"0","num_feature":"6","num_nodes":"15","size_leaf_vector":"1"}},{"base_weights":[-2.6086384E-1,-3.002528E-2,2.6274565E-1,3.1765E-2,3.6226295E-2,1.3692719E-1,-5.7495493E-2,1.9211473E-2,5.0619524E-3,-1.641267E-2,1.6024022E-4],"categories":[],"categories_nodes":[],"categories_segments":[],"categories_sizes":[],"default_left":[0,0,0,0,0,0,0,0,0,0,0],"id":38,"left_children":[1,-1,3,5,-1,7,9,-1,-1,-1,-1],"loss_changes":[7.764247E1,0E0,1.5311623E1,1.1069797E0,0E0,4.9365306E-1,8.331479E-1,0E0,0E0,0E0,0E0],"parents":[2147483647,0,0,2,2,3,3,5,5,6,6],"right_children":[2,-1,4,6,-1,8,10,-1,-1,-1,-1],"split_conditions":[6.34E-1,-3.002528E-2,6.56E-1,1.6E-1,3.6226295E-2,8E-2,1.9E-1,1.9211473E-2,5.0619524E-3,-1.641267E-2,1.6024022E-4],"split_indices":[1,0,1,3,0,3,3,0,0,0,0],"split_type":[0,0,0,0,0,0,0,0,0,0,0],"sum_hessian":[6.1693964E2,4.233132E2,1.9362648E2,1.1609035E2,7.753613E1,5.3052525E1,6.303782E1,1.0689608E1,4.236292E1,1.2958612E1,5.0079205E1],"tree_param":{"num_deleted":"0","num_feature":"6","num_nodes":"11","size_leaf_vector":"1"}},{"base_weights":[-3.4918806E-1,-5.1259744E-1,4.476372E-1,-2.9861156E-2,-4.507813E-2,-2.4243265E-2,5.14471E-1,3.2266084E-2,-3.8756367E-3],"categories":[],"categories_nodes":[],"categories_segments":[],"categories_sizes":[],"default_left":[0,0,0,0,0,0,0,0,0],"id":39,"left_children":[1,3,5,-1,-1,-1,7,-1,-1],"loss_changes":[2.7403364E1,2.4416733E-1,2.2598362E0,0E0,0E0,0E0,4.916029E-1,0E0,0E0],"parents":[2147483647,0,0,1,1,2,2,6,6],"right_children":[2,4,6,-1,-1,-1,8,-1,-1],"split_conditions":[3E1,6.3E-1,6.5E-1,-2.9861156E-2,-4.507813E-2,-2.4243265E-2,7.62E-1,3.2266084E-2,-3.8756367E-3],"split_indices":[2,3,3,0,0,0,0,0,0],"split_type":[0,0,0,0,0,0,0,0,0],"sum_hessian":[2.07695E2,1.7264621E2,3.504881E1,1.6539896E2,7.247245E0,2.1830902E0,3.286572E1,3.1663155E1,1.2025628E0],"tree_param":{"num_deleted":"0","num_feature":"6","num_nodes":"9","size_leaf_vector":"1"}},{"base_weights":[2.991562E-1,3.8976964E-1,-3.5262045E-2,4.2890352E-1,-4.5728314E-1,5.062347E-1,4.8001733E-2,2.6566565E-1,-3.1940505E-2,3.007186E-2,4.6797484E-2,-1.5843442E-2,5.150612E-3,3.7317944E-4,2.1866571E-2],"categories":[],"categories_nodes":[],"categories_segments":[],"categories_sizes":[],"default_left":[0,0,0,0,0,0,0,0,0,0,0,0,0,0,0],"id":40,"left_children":[1,3,-1,5,7,9,11,13,-1,-1,-1,-1,-1,-1,-1],"loss_changes":[6.2901215E1,2.367141E1,0E0,1.992974E1,1.8646922E0,3.8531494E-1,1.385734E0,9.137839E-2,0E0,0E0,0E0,0E0,0E0,0E0,0E0],"parents":[2147483647,0,0,1,1,3,3,4,4,5,5,6,6,7,7],"right_children":[2,4,-1,6,8,10,12,14,-1,-1,-1,-1,-1,-1,-1],"split_conditions":[6.56E-1,3E1,-3.5262045E-2,6.34E-1,6.5E-1,6.3E-1,8E-2,6E-1,-3.1940505E-2,3.007186E-2,4.6797484E-2,-1.5843442E-2,5.150612E-3,3.7317944E-4,2.1866571E-2],"split_indices":[1,2,0,1,3,3,3,3,0,0,0,0,0,0,0],"split_type":[0,0,0,0,0,0,0,0,0,0,0,0,0,0,0],"sum_hessian":[7.788809E2,7.0718567E2,7.169526E1,6.764283E2,3.0757376E1,5.6200104E2,1.14427246E2,2.6541092E0,2.8103266E1,5.546259E2,7.3751273E0,1.1728799E1,1.0269845E2,1.024954E0,1.6291553E0],"tree_param":{"num_deleted":"0","num_feature":"6","num_nodes":"15","size_leaf_vector":"1"}},{"base_weights":[-2.5111902E-1,-3.0015549E-2,2.4410243E-1,1.1002509E-2,3.6026686E-2,7.838373E-2,-4.124315E-2,2.200363E-3,6.1321016E-3,-6.596975E-3,5.4258937E-3],"categories":[],"categories_nodes":[],"categories_segments":[],"categories_sizes":[],"default_left":[0,0,0,0,0,0,0,0,0,0,0],"id":41,"left_children":[1,-1,3,5,-1,7,9,-1,-1,-1,-1],"loss_changes":[7.438629E1,0E0,1.6783438E1,4.3700606E-1,0E0,5.0057173E-2,6.437609E-1,0E0,0E0,0E0,0E0],"parents":[2147483647,0,0,2,2,3,3,5,5,6,6],"right_children":[2,-1,4,6,-1,8,10,-1,-1,-1,-1],"split_conditions":[6.34E-1,-3.0015549E-2,6.56E-1,1.6E-1,3.6026686E-2,1E-1,2.6E-1,2.200363E-3,6.1321016E-3,-6.596975E-3,5.4258937E-3],"split_indices":[1,0,1,3,0,3,3,0,0,0,0],"split_type":[0,0,0,0,0,0,0,0,0,0,0],"sum_hessian":[6.009164E2,3.9978104E2,2.0113535E2,1.2221788E2,7.8917465E1,5.3158752E1,6.905913E1,2.0244844E1,3.291391E1,4.548864E1,2.3570486E1],"tree_param":{"num_deleted":"0","num_feature":"6","num_nodes":"11","size_leaf_vector":"1"}},{"base_weights":[-3.531877E-1,-5.1356715E-1,4.4818586E-1,-2.9848319E-2,-4.4128783E-2,-2.2727607E-2,5.0845766E-1,3.1986013E-2,-1.9129612E-3],"categories":[],"categories_nodes":[],"categories_segments":[],"categories_sizes":[],"default_left":[0,0,0,0,0,0,0,0,0],"id":42,"left_children":[1,3,5,-1,-1,-1,7,-1,-1],"loss_changes":[2.5658957E1,2.24617E-1,1.8637242E0,0E0,0E0,0E0,4.387846E-1,0E0,0E0],"parents":[2147483647,0,0,1,1,2,2,6,6],"right_children":[2,4,6,-1,-1,-1,8,-1,-1],"split_conditions":[3E1,6.3E-1,6.5E-1,-2.9848319E-2,-4.4128783E-2,-2.2727607E-2,7.33E-1,3.1986013E-2,-1.9129612E-3],"split_indices":[2,3,3,0,0,0,0,0,0],"split_type":[0,0,0,0,0,0,0,0,0],"sum_hessian":[1.9685268E2,1.6432529E2,3.2527386E1,1.562354E2,8.089887E0,1.8506178E0,3.067677E1,2.935157E1,1.3251982E0],"tree_param":{"num_deleted":"0","num_feature":"6","num_nodes":"9","size_leaf_vector":"1"}},{"base_weights":[2.972334E-1,3.862948E-1,-3.4855895E-2,4.2522243E-1,-4.2035103E-1,5.06145E-1,6.174522E-2,3.3486164E-1,-3.1711206E-2,3.0061211E-2,4.5282762E-2,-5.464142E-3,6.22314E-3,1.7184802E-4,2.5637086E-2],"categories":[],"categories_nodes":[],"categories_segments":[],"categories_sizes":[],"default_left":[0,0,0,0,0,0,0,0,0,0,0,0,0,0,0],"id":43,"left_children":[1,3,-1,5,7,9,11,13,-1,-1,-1,-1,-1,-1,-1],"loss_changes":[5.8804848E1,2.1551407E1,0E0,1.9081757E1,2.7778072E0,2.9873657E-1,7.7571255E-1,1.3995212E-1,0E0,0E0,0E0,0E0,0E0,0E0,0E0],"parents":[2147483647,0,0,1,1,3,3,4,4,5,5,6,6,7,7],"right_children":[2,4,-1,6,8,10,12,14,-1,-1,-1,-1,-1,-1,-1],"split_conditions":[6.56E-1,3E1,-3.4855895E-2,6.34E-1,6.5E-1,6.3E-1,1.1E-1,6.1E-1,-3.1711206E-2,3.0061211E-2,4.5282762E-2,-5.464142E-3,6.22314E-3,1.7184802E-4,2.5637086E-2],"split_indices":[1,2,0,1,3,3,3,3,0,0,0,0,0,0,0],"split_type":[0,0,0,0,0,0,0,0,0,0,0,0,0,0,0],"sum_hessian":[7.4800854E2,6.7964105E2,6.836749E1,6.488036E2,3.0837505E1,5.303393E2,1.184643E2,3.6009233E0,2.7236584E1,5.225807E2,7.7585545E0,2.5275164E1,9.318914E1,1.0086596E0,2.5922637E0],"tree_param":{"num_deleted":"0","num_feature":"6","num_nodes":"15","size_leaf_vector":"1"}},{"base_weights":[-2.6341847E-1,-3.0005543E-2,2.0830368E-1,-3.0346131E-2,3.5594206E-2,1.8998154E-1,-5.6594573E-2,1.2873582E-2,5.608222E-3,-1.3284461E-2,-2.4539963E-3],"categories":[],"categories_nodes":[],"categories_segments":[],"categories_sizes":[],"default_left":[0,0,0,0,0,0,0,0,0,0,0],"id":44,"left_children":[1,-1,3,5,-1,7,9,-1,-1,-1,-1],"loss_changes":[6.3190422E1,0E0,1.7425632E1,6.9273674E-1,0E0,1.0266542E-2,2.65498E-1,0E0,0E0,0E0,0E0],"parents":[2147483647,0,0,2,2,3,3,5,5,6,6],"right_children":[2,-1,4,6,-1,8,10,-1,-1,-1,-1],"split_conditions":[6.34E-1,-3.0005543E-2,6.56E-1,8E-2,3.5594206E-2,7E-2,1E-1,1.2873582E-2,5.608222E-3,-1.3284461E-2,-2.4539963E-3],"split_indices":[1,0,1,3,0,3,3,0,0,0,0],"split_type":[0,0,0,0,0,0,0,0,0,0,0],"sum_hessian":[5.640645E2,3.7557147E2,1.8849303E2,1.1692398E2,7.1569046E1,1.1782728E1,1.0514125E2,8.416234E0,3.3664937E0,8.002096E0,9.713915E1],"tree_param":{"num_deleted":"0","num_feature":"6","num_nodes":"11","size_leaf_vector":"1"}},{"base_weights":[-3.541389E-1,-5.117179E-1,4.2322466E-1,-2.9834207E-2,-4.2261068E-2,-2.4441788E-2,5.028803E-1,3.1734504E-2,-4.0930933E-3],"categories":[],"categories_nodes":[],"categories_segments":[],"categories_sizes":[],"default_left":[0,0,0,0,0,0,0,0,0],"id":45,"left_children":[1,3,5,-1,-1,-1,7,-1,-1],"loss_changes":[2.3034657E1,8.308029E-2,2.3182373E0,0E0,0E0,0E0,4.760027E-1,0E0,0E0],"parents":[2147483647,0,0,1,1,2,2,6,6],"right_children":[2,4,6,-1,-1,-1,8,-1,-1],"split_conditions":[3E1,6.3E-1,6.5E-1,-2.9834207E-2,-4.2261068E-2,-2.4441788E-2,7.62E-1,3.1734504E-2,-4.0930933E-3],"split_indices":[2,3,3,0,0,0,0,0,0],"split_type":[0,0,0,0,0,0,0,0,0],"sum_hessian":[1.8527586E2,1.5433284E2,3.0943016E1,1.4687297E2,7.459876E0,2.3478098E0,2.8595205E1,2.7419426E1,1.17578E0],"tree_param":{"num_deleted":"0","num_feature":"6","num_nodes":"9","size_leaf_vector":"1"}},{"base_weights":[2.8945696E-1,4.5609498E-1,-1.9534437E-1,5.048328E-1,-4.2467436E-1,2.2600187E-2,-3.4469917E-2,3.0050704E-2,4.2465296E-2,2.448087E-2,-3.1437326E-2,-2.1873003E-1,4.409713E-2,-4.980385E-3,-2.062264E-2,3.2529726E-3,-1.4775789E-2],"categories":[],"categories_nodes":[],"categories_segments":[],"categories_sizes":[],"default_left":[0,0,0,0,0,0,0,0,0,0,0,0,0,0,0,0,0],"id":46,"left_children":[1,3,5,7,9,11,-1,-1,-1,-1,-1,13,15,-1,-1,-1,-1],"loss_changes":[5.7162037E1,2.279618E1,1.5004093E1,4.925537E-2,2.5389848E0,6.122635E-1,0E0,0E0,0E0,0E0,0E0,1.3547638E-1,3.2917833E-1,0E0,0E0,0E0,0E0],"parents":[2147483647,0,0,1,1,2,2,3,3,4,4,5,5,11,11,12,12],"right_children":[2,4,6,8,10,12,-1,-1,-1,-1,-1,14,16,-1,-1,-1,-1],"split_conditions":[6.34E-1,3E1,6.56E-1,6.3E-1,6.5E-1,7E-2,-3.4469917E-2,3.0050704E-2,4.2465296E-2,2.448087E-2,-3.1437326E-2,6E-2,3E-1,-4.980385E-3,-2.062264E-2,3.2529726E-3,-1.4775789E-2],"split_indices":[1,2,1,3,3,3,0,0,0,0,0,3,3,0,0,0,0],"split_type":[0,0,0,0,0,0,0,0,0,0,0,0,0,0,0,0,0],"sum_hessian":[7.0546783E2,5.250534E2,1.8041441E2,4.9792715E2,2.7126242E1,1.1515925E2,6.5255165E1,4.9173196E2,6.1951933E0,2.5584404E0,2.4567802E1,8.668581E0,1.0649067E2,4.953475E0,3.7151062E0,1.0369033E2,2.8003378E0],"tree_param":{"num_deleted":"0","num_feature":"6","num_nodes":"17","size_leaf_vector":"1"}},{"base_weights":[-2.5113964E-1,-2.999575E-2,2.1513969E-1,-4.3898533E-5,3.519229E-2,-2.6624471E-2,1.5250238E-2,9.261892E-3,-3.3465722E-3],"categories":[],"categories_nodes":[],"categories_segments":[],"categories_sizes":[],"default_left":[0,0,0,0,0,0,0,0,0],"id":47,"left_children":[1,-1,3,5,-1,7,-1,-1,-1],"loss_changes":[6.3242702E1,0E0,1.518895E1,8.2664216E-1,0E0,5.9296274E-1,0E0,0E0,0E0],"parents":[2147483647,0,0,2,2,3,3,5,5],"right_children":[2,-1,4,6,-1,8,-1,-1,-1],"split_conditions":[6.34E-1,-2.999575E-2,6.56E-1,2.9E-1,3.519229E-2,8E-2,1.5250238E-2,9.261892E-3,-3.3465722E-3],"split_indices":[1,0,1,3,0,3,0,0,0],"split_type":[0,0,0,0,0,0,0,0,0],"sum_hessian":[5.4324316E2,3.541888E2,1.8905432E2,1.2033412E2,6.872019E1,1.097536E2,1.0580526E1,1.4629669E1,9.512393E1],"tree_param":{"num_deleted":"0","num_feature":"6","num_nodes":"9","size_leaf_vector":"1"}},{"base_weights":[-3.5340488E-1,-5.1169854E-1,4.5064655E-1,-2.9819535E-2,-4.1230787E-2,-2.308189E-2,3.1560518E-2],"categories":[],"categories_nodes":[],"categories_segments":[],"categories_sizes":[],"default_left":[0,0,0,0,0,0,0],"id":48,"left_children":[1,3,5,-1,-1,-1,-1],"loss_changes":[2.2563116E1,3.8017273E-2,2.052773E0,0E0,0E0,0E0,0E0],"parents":[2147483647,0,0,1,1,2,2],"right_children":[2,4,6,-1,-1,-1,-1],"split_conditions":[3E1,6.3E-1,6.5E-1,-2.9819535E-2,-4.1230787E-2,-2.308189E-2,3.1560518E-2],"split_indices":[2,3,3,0,0,0,0],"split_type":[0,0,0,0,0,0,0],"sum_hessian":[1.7446497E2,1.4607146E2,2.8393496E1,1.3831232E2,7.7591395E0,2.0099306E0,2.6383564E1],"tree_param":{"num_deleted":"0","num_feature":"6","num_nodes":"7","size_leaf_vector":"1"}},{"base_weights":[2.8283983E-1,4.529099E-1,-1.7438196E-1,5.047808E-1,-4.2564866E-1,3.944504E-2,-3.4138132E-2,3.004035E-2,4.142218E-2,2.4150334E-2,-3.129291E-2,5.5238724E-2,-2.0626936E-2,-1.6633779E-3,7.5763436E-3],"categories":[],"categories_nodes":[],"categories_segments":[],"categories_sizes":[],"default_left":[0,0,0,0,0,0,0,0,0,0,0,0,0,0,0],"id":49,"left_children":[1,3,5,7,9,11,-1,-1,-1,-1,-1,13,-1,-1,-1],"loss_changes":[5.3101295E1,2.2876877E1,1.5681309E1,1.2718201E-2,2.454792E0,7.531652E-1,0E0,0E0,0E0,0E0,0E0,6.951122E-1,0E0,0E0,0E0],"parents":[2147483647,0,0,1,1,2,2,3,3,4,4,5,5,11,11],"right_children":[2,4,6,8,10,12,-1,-1,-1,-1,-1,14,-1,-1,-1],"split_conditions":[6.34E-1,3E1,6.56E-1,6.3E-1,6.5E-1,3E-1,-3.4138132E-2,3.004035E-2,4.142218E-2,2.4150334E-2,-3.129291E-2,1.6E-1,-2.0626936E-2,-1.6633779E-3,7.5763436E-3],"split_indices":[1,2,1,3,3,3,0,0,0,0,0,3,0,0,0],"split_type":[0,0,0,0,0,0,0,0,0,0,0,0,0,0,0],"sum_hessian":[6.8087366E2,4.9628348E2,1.8459016E2,4.6901767E2,2.726579E1,1.20299706E2,6.429047E1,4.624778E2,6.5398602E0,2.497884E0,2.4767906E1,1.1636009E2,3.9396093E0,5.395484E1,6.240525E1],"tree_param":{"num_deleted":"0","num_feature":"6","num_nodes":"15","size_leaf_vector":"1"}},{"base_weights":[-2.4086967E-1,-2.9985417E-2,2.1638463E-1,7.725918E-3,3.4722097E-2,-2.2843955E-3,1.7230717E-2,2.0539993E-3,-5.697798E-3],"categories":[],"categories_nodes":[],"categories_segments":[],"categories_sizes":[],"default_left":[0,0,0,0,0,0,0,0,0],"id":50,"left_children":[1,-1,3,5,-1,7,-1,-1,-1],"loss_changes":[6.180826E1,0E0,1.4293025E1,3.3919942E-1,0E0,4.020281E-1,0E0,0E0,0E0],"parents":[2147483647,0,0,2,2,3,3,5,5],"right_children":[2,-1,4,6,-1,8,-1,-1,-1],"split_conditions":[6.34E-1,-2.9985417E-2,6.56E-1,3E-1,3.4722097E-2,2.4E-1,1.7230717E-2,2.0539993E-3,-5.697798E-3],"split_indices":[1,0,1,3,0,3,0,0,0],"split_type":[0,0,0,0,0,0,0,0,0],"sum_hessian":[5.202157E2,3.3209683E2,1.8811884E2,1.20020325E2,6.809851E1,1.1682726E2,3.19306E0,8.425815E1,3.2569115E1],"tree_param":{"num_deleted":"0","num_feature":"6","num_nodes":"9","size_leaf_vector":"1"}},{"base_weights":[-3.5383618E-1,-3.059859E-2,4.2101195E-1,-2.255146E-2,4.9213377E-1,3.1246347E-2,-6.509434E-4],"categories":[],"categories_nodes":[],"categories_segments":[],"categories_sizes":[],"default_left":[0,0,0,0,0,0,0],"id":51,"left_children":[1,-1,3,-1,5,-1,-1],"loss_changes":[2.0284136E1,0E0,1.7927728E0,0E0,3.8705063E-1,0E0,0E0],"parents":[2147483647,0,0,2,2,4,4],"right_children":[2,-1,4,-1,6,-1,-1],"split_conditions":[3E1,-3.059859E-2,6.5E-1,-2.255146E-2,7.26E-1,3.1246347E-2,-6.509434E-4],"split_indices":[2,0,3,0,0,0,0],"split_type":[0,0,0,0,0,0,0],"sum_hessian":[1.6488359E2,1.3751471E2,2.736887E1,1.8914796E0,2.547739E1,2.4071451E1,1.4059405E0],"tree_param":{"num_deleted":"0","num_feature":"6","num_nodes":"7","size_leaf_vector":"1"}},{"base_weights":[2.5794807E-1,4.4691578E-1,-2.4450058E-1,3.0248605E-2,-4.3128017E-1,-5.9971664E-2,-3.383242E-2,2.3779277E-2,-3.1177007E-2,-4.3725453E-2,-1.4049047E-2,-5.3556846E-3,6.943698E-3],"categories":[],"categories_nodes":[],"categories_segments":[],"categories_sizes":[],"default_left":[0,0,0,0,0,0,0,0,0,0,0,0,0],"id":52,"left_children":[1,3,5,-1,7,9,-1,-1,-1,11,-1,-1,-1],"loss_changes":[6.1826748E1,2.3975044E1,1.0474105E1,0E0,2.35963E0,3.1271058E-1,0E0,0E0,0E0,7.7721816E-1,0E0,0E0,0E0],"parents":[2147483647,0,0,1,1,2,2,4,4,5,5,9,9],"right_children":[2,4,6,-1,8,10,-1,-1,-1,12,-1,-1,-1],"split_conditions":[6.34E-1,3E1,6.56E-1,3.0248605E-2,6.5E-1,2.9E-1,-3.383242E-2,2.3779277E-2,-3.1177007E-2,2.4E-1,-1.4049047E-2,-5.3556846E-3,6.943698E-3],"split_indices":[1,2,1,0,3,3,0,0,0,3,0,0,0],"split_type":[0,0,0,0,0,0,0,0,0,0,0,0,0],"sum_hessian":[6.4902325E2,4.717221E2,1.7730112E2,4.4326282E2,2.8459278E1,1.1312627E2,6.417486E1,2.408472E0,2.6050806E1,1.04619156E2,8.507107E0,8.172171E1,2.2897448E1],"tree_param":{"num_deleted":"0","num_feature":"6","num_nodes":"13","size_leaf_vector":"1"}},{"base_weights":[-2.6155218E-1,-3.856968E-1,3.43858E-2,-2.9976128E-2,-7.769505E-2,-9.2404105E-2,1.8676968E-2,-9.5001864E-4,-1.0007217E-2],"categories":[],"categories_nodes":[],"categories_segments":[],"categories_sizes":[],"default_left":[0,0,0,0,0,0,0,0,0],"id":53,"left_children":[1,3,-1,-1,5,7,-1,-1,-1],"loss_changes":[5.164982E1,1.5140442E1,0E0,0E0,7.038684E-1,6.493045E-1,0E0,0E0,0E0],"parents":[2147483647,0,0,1,1,4,4,5,5],"right_children":[2,4,-1,-1,6,8,-1,-1,-1],"split_conditions":[6.56E-1,6.34E-1,3.43858E-2,-2.9976128E-2,3E-1,1.8E-1,1.8676968E-2,-9.5001864E-4,-1.0007217E-2],"split_indices":[1,1,0,0,3,3,0,0,0],"split_type":[0,0,0,0,0,0,0,0,0],"sum_hessian":[4.9533453E2,4.3166684E2,6.3667683E1,3.1467245E2,1.1699439E2,1.13466156E2,3.5282378E0,5.650855E1,5.6957607E1],"tree_param":{"num_deleted":"0","num_feature":"6","num_nodes":"9","size_leaf_vector":"1"}},{"base_weights":[-3.5770556E-1,-3.0582404E-2,4.2868572E-1,-2.3234243E-2,3.107132E-2],"categories":[],"categories_nodes":[],"categories_segments":[],"categories_sizes":[],"default_left":[0,0,0,0,0],"id":54,"left_children":[1,-1,3,-1,-1],"loss_changes":[1.8853136E1,0E0,2.077283E0,0E0,0E0],"parents":[2147483647,0,0,2,2],"right_children":[2,-1,4,-1,-1],"split_conditions":[3E1,-3.0582404E-2,6.5E-1,-2.3234243E-2,3.107132E-2],"split_indices":[2,0,3,0,0],"split_type":[0,0,0,0,0],"sum_hessian":[1.548961E2,1.3010081E2,2.4795277E1,2.113505E0,2.2681772E1],"tree_param":{"num_deleted":"0","num_feature":"6","num_nodes":"5","size_leaf_vector":"1"}},{"base_weights":[2.7496165E-1,4.5352456E-1,-1.8019937E-1,3.0283341E-2,-4.4428355E-1,1.9212984E-2,-3.350752E-2,2.0270934E-2,-3.0847974E-2,1.3490738E-2,3.1151196E-3,-1.0747602E-2,2.5058168E-3],"categories":[],"categories_nodes":[],"categories_segments":[],"categories_sizes":[],"default_left":[0,0,0,0,0,0,0,0,0,0,0,0,0],"id":55,"left_children":[1,3,5,-1,7,9,-1,-1,-1,-1,11,-1,-1],"loss_changes":[5.009401E1,2.0552467E1,1.3143068E1,0E0,1.5061913E0,3.7987143E-1,0E0,0E0,0E0,0E0,7.6559496E-1,0E0,0E0],"parents":[2147483647,0,0,1,1,2,2,4,4,5,5,10,10],"right_children":[2,4,6,-1,8,10,-1,-1,-1,-1,12,-1,-1],"split_conditions":[6.34E-1,3E1,6.56E-1,3.0283341E-2,6.5E-1,7E-2,-3.350752E-2,2.0270934E-2,-3.0847974E-2,1.3490738E-2,1.2E-1,-1.0747602E-2,2.5058168E-3],"split_indices":[1,2,1,0,3,3,0,0,0,0,3,0,0],"split_type":[0,0,0,0,0,0,0,0,0,0,0,0,0],"sum_hessian":[6.143474E2,4.4124677E2,1.7310066E2,4.1785623E2,2.3390554E1,1.1396782E2,5.9132843E1,1.6031047E0,2.1787449E1,7.332733E0,1.06635086E2,1.8021646E1,8.861344E1],"tree_param":{"num_deleted":"0","num_feature":"6","num_nodes":"13","size_leaf_vector":"1"}},{"base_weights":[-2.4126019E-1,-2.9965777E-2,1.792832E-1,-2.02279E-2,3.4160737E-2,-3.4557432E-2,1.989713E-2,-6.854402E-3,2.1442509E-4],"categories":[],"categories_nodes":[],"categories_segments":[],"categories_sizes":[],"default_left":[0,0,0,0,0,0,0,0,0],"id":56,"left_children":[1,-1,3,5,-1,7,-1,-1,-1],"loss_changes":[5.1977585E1,0E0,1.42160225E1,6.251734E-1,0E0,3.585353E-1,0E0,0E0,0E0],"parents":[2147483647,0,0,2,2,3,3,5,5],"right_children":[2,-1,4,6,-1,8,-1,-1,-1],"split_conditions":[6.34E-1,-2.9965777E-2,6.56E-1,3E-1,3.4160737E-2,1.3E-1,1.989713E-2,-6.854402E-3,2.1442509E-4],"split_indices":[1,0,1,3,0,3,0,0,0],"split_type":[0,0,0,0,0,0,0,0,0],"sum_hessian":[4.7691614E2,2.953901E2,1.8152605E2,1.20725105E2,6.0800938E1,1.1686728E2,3.857828E0,3.717883E1,7.9688446E1],"tree_param":{"num_deleted":"0","num_feature":"6","num_nodes":"9","size_leaf_vector":"1"}},{"base_weights":[-3.4599385E-1,-3.0406497E-2,4.3881953E-1,-2.189448E-2,3.0920021E-2],"categories":[],"categories_nodes":[],"categories_segments":[],"categories_sizes":[],"default_left":[0,0,0,0,0],"id":57,"left_children":[1,-1,3,-1,-1],"loss_changes":[1.8786093E1,0E0,1.7593193E0,0E0,0E0],"parents":[2147483647,0,0,2,2],"right_children":[2,-1,4,-1,-1],"split_conditions":[2.9E1,-3.0406497E-2,6.5E-1,-2.189448E-2,3.0920021E-2],"split_indices":[2,0,3,0,0],"split_type":[0,0,0,0,0],"sum_hessian":[1.4611717E2,1.2156665E2,2.4550526E1,1.8064017E0,2.2744123E1],"tree_param":{"num_deleted":"0","num_feature":"6","num_nodes":"5","size_leaf_vector":"1"}},{"base_weights":[2.7552325E-1,4.5085827E-1,-1.4374667E-1,3.0267699E-2,-4.1562554E-1,4.577535E-2,-3.3200834E-2,2.3078108E-2,-3.0703114E-2,-1.428764E-1,6.927145E-2,-3.7325555E-3,-1.8372467E-2,5.597036E-3,-8.678162E-3],"categories":[],"categories_nodes":[],"categories_segments":[],"categories_sizes":[],"default_left":[0,0,0,0,0,0,0,0,0,0,0,0,0,0,0],"id":58,"left_children":[1,3,5,-1,7,9,-1,-1,-1,11,13,-1,-1,-1,-1],"loss_changes":[4.3713745E1,1.9666855E1,1.3675824E1,0E0,2.1157694E0,5.468714E-1,0E0,0E0,0E0,1.6202793E-1,5.702788E-1,0E0,0E0,0E0,0E0],"parents":[2147483647,0,0,1,1,2,2,4,4,5,5,9,9,10,10],"right_children":[2,4,6,-1,8,10,-1,-1,-1,12,14,-1,-1,-1,-1],"split_conditions":[6.34E-1,3E1,6.56E-1,3.0267699E-2,6.5E-1,8E-2,-3.3200834E-2,2.3078108E-2,-3.0703114E-2,7E-2,2.9E-1,-3.7325555E-3,-1.8372467E-2,5.597036E-3,-8.678162E-3],"split_indices":[1,2,1,0,3,3,0,0,0,3,3,0,0,0,0],"split_type":[0,0,0,0,0,0,0,0,0,0,0,0,0,0,0],"sum_hessian":[5.927605E2,4.1791626E2,1.7484425E2,3.939623E2,2.395394E1,1.2014257E2,5.470168E1,2.24606E0,2.170788E1,1.2743478E1,1.0739909E2,9.454772E0,3.2887058E0,9.706664E1,1.0332447E1],"tree_param":{"num_deleted":"0","num_feature":"6","num_nodes":"15","size_leaf_vector":"1"}},{"base_weights":[-2.3964408E-1,-2.9956078E-2,1.6752045E-1,-1.8172411E-2,3.377571E-2,-3.361663E-2,2.947701E-2,5.823592E-3,-4.510601E-3],"categories":[],"categories_nodes":[],"categories_segments":[],"categories_sizes":[],"default_left":[0,0,0,0,0,0,0,0,0],"id":59,"left_children":[1,-1,3,5,-1,7,-1,-1,-1],"loss_changes":[4.856269E1,0E0,1.3176241E1,9.841567E-1,0E0,6.606343E-1,0E0,0E0,0E0],"parents":[2147483647,0,0,2,2,3,3,5,5],"right_children":[2,-1,4,6,-1,8,-1,-1,-1],"split_conditions":[6.34E-1,-2.9956078E-2,6.56E-1,3E-1,3.377571E-2,1.2E-1,2.947701E-2,5.823592E-3,-4.510601E-3],"split_indices":[1,0,1,3,0,3,0,0,0],"split_type":[0,0,0,0,0,0,0,0,0],"sum_hessian":[4.5760593E2,2.792922E2,1.7831372E2,1.2198212E2,5.6331608E1,1.1929955E2,2.6825652E0,2.8464321E1,9.083523E1],"tree_param":{"num_deleted":"0","num_feature":"6","num_nodes":"9","size_leaf_vector":"1"}},{"base_weights":[-3.4366482E-1,-3.045944E-2,4.0220442E-1,-2.2453612E-2,4.807677E-1,3.072926E-2,-6.2231706E-3],"categories":[],"categories_nodes":[],"categories_segments":[],"categories_sizes":[],"default_left":[0,0,0,0,0,0,0],"id":60,"left_children":[1,-1,3,-1,5,-1,-1],"loss_changes":[1.7533419E1,0E0,1.7715793E0,0E0,4.958477E-1,0E0,0E0],"parents":[2147483647,0,0,2,2,4,4],"right_children":[2,-1,4,-1,6,-1,-1],"split_conditions":[3E1,-3.045944E-2,6.5E-1,-2.2453612E-2,7.62E-1,3.072926E-2,-6.2231706E-3],"split_indices":[2,0,3,0,0,0,0],"split_type":[0,0,0,0,0,0,0],"sum_hessian":[1.4067479E2,1.1558152E2,2.5093264E1,1.9599484E0,2.3133316E1,2.2071825E1,1.0614909E0],"tree_param":{"num_deleted":"0","num_feature":"6","num_nodes":"7","size_leaf_vector":"1"}},{"base_weights":[2.7430323E-1,4.4818676E-1,-1.4264038E-1,3.0239124E-2,-4.3500158E-1,4.935253E-2,-3.293186E-2,2.0696977E-2,-3.0566948E-2,7.4895985E-2,-2.3187844E-1,3.0940736E-3,9.417025E-3,-7.8815045E-3,-1.8597625E-2],"categories":[],"categories_nodes":[],"categories_segments":[],"categories_sizes":[],"default_left":[0,0,0,0,0,0,0,0,0,0,0,0,0,0,0],"id":61,"left_children":[1,3,5,-1,7,9,-1,-1,-1,11,13,-1,-1,-1,-1],"loss_changes":[4.0623188E1,1.9686913E1,1.2927374E1,0E0,1.5699716E0,8.308179E-1,0E0,0E0,0E0,1.9206059E-1,3.5203934E-2,0E0,0E0,0E0,0E0],"parents":[2147483647,0,0,1,1,2,2,4,4,5,5,9,9,10,10],"right_children":[2,4,6,-1,8,10,-1,-1,-1,12,14,-1,-1,-1,-1],"split_conditions":[6.34E-1,3E1,6.56E-1,3.0239124E-2,6.5E-1,2.9E-1,-3.293186E-2,2.0696977E-2,-3.0566948E-2,2.4E-1,3E-1,3.0940736E-3,9.417025E-3,-7.8815045E-3,-1.8597625E-2],"split_indices":[1,2,1,0,3,3,0,0,0,3,3,0,0,0,0],"split_type":[0,0,0,0,0,0,0,0,0,0,0,0,0,0,0],"sum_hessian":[5.58441E2,3.9403598E2,1.6440497E2,3.710245E2,2.3011484E1,1.12237076E2,5.21679E1,1.6884933E0,2.1322992E1,1.0356429E2,8.672783E0,8.190667E1,2.1657623E1,4.964269E0,3.7085135E0],"tree_param":{"num_deleted":"0","num_feature":"6","num_nodes":"15","size_leaf_vector":"1"}},{"base_weights":[-2.3472899E-1,-2.9945247E-2,1.76356E-1,-7.4928193E-3,3.3595342E-2,1.5478973E-1,-6.0513306E-2,5.698414E-3,1.588445E-2,-4.6670465E-3,1.7193785E-2],"categories":[],"categories_nodes":[],"categories_segments":[],"categories_sizes":[],"default_left":[0,0,0,0,0,0,0,0,0,0,0],"id":62,"left_children":[1,-1,3,5,-1,7,9,-1,-1,-1,-1],"loss_changes":[4.697793E1,0E0,1.1964888E1,1.004387E0,0E0,1.6400087E-1,5.490869E-1,0E0,0E0,0E0,0E0],"parents":[2147483647,0,0,2,2,3,3,5,5,6,6],"right_children":[2,-1,4,6,-1,8,10,-1,-1,-1,-1],"split_conditions":[6.34E-1,-2.9945247E-2,6.56E-1,1.2E-1,3.3595342E-2,1E-1,3E-1,5.698414E-3,1.588445E-2,-4.6670465E-3,1.7193785E-2],"split_indices":[1,0,1,3,0,3,3,0,0,0,0],"split_type":[0,0,0,0,0,0,0,0,0,0,0],"sum_hessian":[4.3047397E2,2.618626E2,1.6861136E2,1.146422E2,5.3969166E1,2.7759089E1,8.688311E1,1.9185484E1,8.573605E0,8.350378E1,3.3793292E0],"tree_param":{"num_deleted":"0","num_feature":"6","num_nodes":"11","size_leaf_vector":"1"}},{"base_weights":[-3.5055545E-1,-3.034584E-2,3.8920465E-1,-2.2047963E-2,4.7222492E-1,3.0424302E-2,-5.72178E-3],"categories":[],"categories_nodes":[],"categories_segments":[],"categories_sizes":[],"default_left":[0,0,0,0,0,0,0],"id":63,"left_children":[1,-1,3,-1,5,-1,-1],"loss_changes":[1.5335022E1,0E0,1.6453958E0,0E0,4.7461224E-1,0E0,0E0],"parents":[2147483647,0,0,2,2,4,4],"right_children":[2,-1,4,-1,6,-1,-1],"split_conditions":[3E1,-3.034584E-2,6.5E-1,-2.2047963E-2,7.26E-1,3.0424302E-2,-5.72178E-3],"split_indices":[2,0,3,0,0,0,0],"split_type":[0,0,0,0,0,0,0],"sum_hessian":[1.30846E2,1.0841569E2,2.243031E1,1.8789349E0,2.0551374E1,1.9463068E1,1.0883063E0],"tree_param":{"num_deleted":"0","num_feature":"6","num_nodes":"7","size_leaf_vector":"1"}},{"base_weights":[2.8131324E-1,3.6740318E-1,-3.2679383E-2,4.0591064E-1,-4.144919E-1,3.0223077E-2,9.416969E-2,2.568814E-1,-3.0354297E-2,6.297685E-3,-1.386516E-2,1.8815834E-2,4.2517E-3],"categories":[],"categories_nodes":[],"categories_segments":[],"categories_sizes":[],"default_left":[0,0,0,0,0,0,0,0,0,0,0,0,0],"id":64,"left_children":[1,3,-1,5,7,-1,9,11,-1,-1,-1,-1,-1],"loss_changes":[3.820994E1,1.4761383E1,0E0,1.4052513E1,1.5565164E0,0E0,4.1621733E-1,1.4164329E-2,0E0,0E0,0E0,0E0,0E0],"parents":[2147483647,0,0,1,1,3,3,4,4,6,6,7,7],"right_children":[2,4,-1,6,8,-1,10,12,-1,-1,-1,-1,-1],"split_conditions":[6.56E-1,3E1,-3.2679383E-2,6.34E-1,6.5E-1,3.0223077E-2,3E-1,6.52E-1,-3.0354297E-2,6.297685E-3,-1.386516E-2,1.8815834E-2,4.2517E-3],"split_indices":[1,2,0,1,3,0,3,0,0,0,0,0,0],"split_type":[0,0,0,0,0,0,0,0,0,0,0,0,0],"sum_hessian":[5.33539E2,4.836807E2,4.9858337E1,4.6143634E2,2.224435E1,3.5076846E2,1.1066788E2,2.448859E0,1.9795492E1,1.0776946E2,2.8984115E0,1.3510941E0,1.097765E0],"tree_param":{"num_deleted":"0","num_feature":"6","num_nodes":"13","size_leaf_vector":"1"}},{"base_weights":[-2.3208027E-1,-2.9935032E-2,1.5341157E-1,-2.8617576E-2,3.333329E-2,1.1283953E-2,-5.445246E-2,-3.7536584E-3,1.1900591E-2],"categories":[],"categories_nodes":[],"categories_segments":[],"categories_sizes":[],"default_left":[0,0,0,0,0,0,0,0,0],"id":65,"left_children":[1,-1,3,5,-1,-1,7,-1,-1],"loss_changes":[4.3227837E1,0E0,1.2633163E1,6.7978996E-1,0E0,0E0,2.3304766E-1,0E0,0E0],"parents":[2147483647,0,0,2,2,3,3,6,6],"right_children":[2,-1,4,6,-1,-1,8,-1,-1],"split_conditions":[6.34E-1,-2.9935032E-2,6.56E-1,8E-2,3.333329E-2,1.1283953E-2,3E-1,-3.7536584E-3,1.1900591E-2],"split_indices":[1,0,1,3,0,0,3,0,0],"split_type":[0,0,0,0,0,0,0,0,0],"sum_hessian":[4.185007E2,2.4713792E2,1.713628E2,1.1860526E2,5.2757534E1,1.1965784E1,1.0663948E2,1.0405442E2,2.585061E0],"tree_param":{"num_deleted":"0","num_feature":"6","num_nodes":"9","size_leaf_vector":"1"}},{"base_weights":[-3.4212554E-1,-3.047342E-2,3.8684067E-1,-2.2593364E-2,4.73327E-1,3.0382844E-2,-6.20078E-3],"categories":[],"categories_nodes":[],"categories_segments":[],"categories_sizes":[],"default_left":[0,0,0,0,0,0,0],"id":66,"left_children":[1,-1,3,-1,5,-1,-1],"loss_changes":[1.5722957E1,0E0,1.7874169E0,0E0,4.7807932E-1,0E0,0E0],"parents":[2147483647,0,0,2,2,4,4],"right_children":[2,-1,4,-1,6,-1,-1],"split_conditions":[3E1,-3.047342E-2,6.5E-1,-2.2593364E-2,7.62E-1,3.0382844E-2,-6.20078E-3],"split_indices":[2,0,3,0,0,0,0],"split_type":[0,0,0,0,0,0,0],"sum_hessian":[1.27491196E2,1.0411827E2,2.3372921E1,2.0371847E0,2.1335737E1,2.0294395E1,1.0413407E0],"tree_param":{"num_deleted":"0","num_feature":"6","num_nodes":"7","size_leaf_vector":"1"}},{"base_weights":[2.7432162E-1,3.5831997E-1,-3.2436922E-2,3.930065E-1,-4.1222236E-1,3.0175716E-2,7.671925E-2,2.2938003E-1,-3.0044913E-2,-4.442188E-3,6.9262125E-3,1.6667847E-2,4.419456E-3],"categories":[],"categories_nodes":[],"categories_segments":[],"categories_sizes":[],"default_left":[0,0,0,0,0,0,0,0,0,0,0,0,0],"id":67,"left_children":[1,3,-1,5,7,-1,9,11,-1,-1,-1,-1,-1],"loss_changes":[3.5176853E1,1.2560833E1,0E0,1.5412796E1,1.2776008E0,0E0,6.8446344E-1,3.4232438E-3,0E0,0E0,0E0,0E0,0E0],"parents":[2147483647,0,0,1,1,3,3,4,4,6,6,7,7],"right_children":[2,4,-1,6,8,-1,10,12,-1,-1,-1,-1,-1],"split_conditions":[6.56E-1,2.9E1,-3.2436922E-2,6.34E-1,6.5E-1,3.0175716E-2,1.1E-1,6.04E-1,-3.0044913E-2,-4.442188E-3,6.9262125E-3,1.6667847E-2,4.419456E-3],"split_indices":[1,2,0,1,3,0,3,0,0,0,0,0,0],"split_type":[0,0,0,0,0,0,0,0,0,0,0,0,0],"sum_hessian":[5.100507E2,4.6289847E2,4.715223E1,4.4342722E2,1.9471247E1,3.2862662E2,1.148006E2,2.167923E0,1.7303324E1,2.3272335E1,9.152826E1,1.0557427E0,1.1121802E0],"tree_param":{"num_deleted":"0","num_feature":"6","num_nodes":"13","size_leaf_vector":"1"}},{"base_weights":[-2.3331796E-1,-2.9924447E-2,1.5018891E-1,-2.9810956E-2,3.308156E-2,-3.8927916E-2,1.4068592E-2,3.6820108E-3,-4.055349E-3],"categories":[],"categories_nodes":[],"categories_segments":[],"categories_sizes":[],"default_left":[0,0,0,0,0,0,0,0,0],"id":68,"left_children":[1,-1,3,5,-1,7,-1,-1,-1],"loss_changes":[4.0337532E1,0E0,1.1754343E1,2.8177318E-1,0E0,3.2103717E-1,0E0,0E0,0E0],"parents":[2147483647,0,0,2,2,3,3,5,5],"right_children":[2,-1,4,6,-1,8,-1,-1,-1],"split_conditions":[6.34E-1,-2.9924447E-2,6.56E-1,3E-1,3.308156E-2,1.1E-1,1.4068592E-2,3.6820108E-3,-4.055349E-3],"split_indices":[1,0,1,3,0,3,0,0,0],"split_type":[0,0,0,0,0,0,0,0,0],"sum_hessian":[3.945402E2,2.3298923E2,1.6155095E2,1.12154434E2,4.939652E1,1.092388E2,2.915636E0,2.4025356E1,8.521344E1],"tree_param":{"num_deleted":"0","num_feature":"6","num_nodes":"9","size_leaf_vector":"1"}},{"base_weights":[-3.4804416E-1,-3.0416256E-2,3.9119142E-1,-2.0483034E-2,4.6553722E-1,3.010122E-2,-6.1746007E-3],"categories":[],"categories_nodes":[],"categories_segments":[],"categories_sizes":[],"default_left":[0,0,0,0,0,0,0],"id":69,"left_children":[1,-1,3,-1,5,-1,-1],"loss_changes":[1.421048E1,0E0,1.3391247E0,0E0,4.6458435E-1,0E0,0E0],"parents":[2147483647,0,0,2,2,4,4],"right_children":[2,-1,4,-1,6,-1,-1],"split_conditions":[3E1,-3.0416256E-2,6.5E-1,-2.0483034E-2,7.62E-1,3.010122E-2,-6.1746007E-3],"split_indices":[2,0,3,0,0,0,0],"split_type":[0,0,0,0,0,0,0],"sum_hessian":[1.1829344E2,9.762408E1,2.0669363E1,1.5734406E0,1.9095922E1,1.806457E1,1.0313523E0],"tree_param":{"num_deleted":"0","num_feature":"6","num_nodes":"7","size_leaf_vector":"1"}},{"base_weights":[2.5202772E-1,4.4715938E-1,-1.406832E-1,3.0148983E-2,-3.8435638E-1,5.710673E-3,-3.2181814E-2,2.3179708E-2,-3.0000182E-2,2.3735138E-2,-2.9908191E-2,-2.6897907E-3,6.182758E-3],"categories":[],"categories_nodes":[],"categories_segments":[],"categories_sizes":[],"default_left":[0,0,0,0,0,0,0,0,0,0,0,0,0],"id":70,"left_children":[1,3,5,-1,7,9,-1,-1,-1,11,-1,-1,-1],"loss_changes":[3.7883617E1,1.5371933E1,9.537058E0,0E0,2.0782251E0,1.1126196E0,0E0,0E0,0E0,6.457784E-1,0E0,0E0,0E0],"parents":[2147483647,0,0,1,1,2,2,4,4,5,5,9,9],"right_children":[2,4,6,-1,8,10,-1,-1,-1,12,-1,-1,-1],"split_conditions":[6.34E-1,3E1,6.56E-1,3.0148983E-2,6.5E-1,3E-1,-3.2181814E-2,2.3179708E-2,-3.0000182E-2,1.8E-1,-2.9908191E-2,-2.6897907E-3,6.182758E-3],"split_indices":[1,2,1,0,3,3,0,0,0,3,0,0,0],"split_type":[0,0,0,0,0,0,0,0,0,0,0,0,0],"sum_hessian":[4.9254755E2,3.2895602E2,1.6359155E2,3.088058E2,2.015023E1,1.2013103E2,4.346052E1,2.3237638E0,1.7826466E1,1.1690461E2,3.2264187E0,6.2933094E1,5.397151E1],"tree_param":{"num_deleted":"0","num_feature":"6","num_nodes":"13","size_leaf_vector":"1"}},{"base_weights":[-2.0143457E-1,-2.9913493E-2,1.8571156E-1,4.3115232E-2,3.2845322E-2,1.7253306E-2,1.598341E-1,5.9664315E-3,-1.1283419E-3,1.5066885E-2,2.8823118E-3],"categories":[],"categories_nodes":[],"categories_segments":[],"categories_sizes":[],"default_left":[0,0,0,0,0,0,0,0,0,0,0],"id":71,"left_children":[1,-1,3,5,-1,7,9,-1,-1,-1,-1],"loss_changes":[4.4850258E1,0E0,8.728321E0,3.678878E-1,0E0,3.030815E-1,2.1398121E-1,0E0,0E0,0E0,0E0],"parents":[2147483647,0,0,2,2,3,3,5,5,6,6],"right_children":[2,-1,4,6,-1,8,10,-1,-1,-1,-1],"split_conditions":[6.34E-1,-2.9913493E-2,6.56E-1,2.6E-1,3.2845322E-2,1.2E-1,2.9E-1,5.9664315E-3,-1.1283419E-3,1.5066885E-2,2.8823118E-3],"split_indices":[1,0,1,3,0,3,3,0,0,0,0],"split_type":[0,0,0,0,0,0,0,0,0,0,0],"sum_hessian":[3.8809473E2,2.194134E2,1.6868132E2,1.2178822E2,4.6893105E1,1.0063737E2,2.1150854E1,3.0153196E1,7.048417E1,1.0957722E1,1.0193132E1],"tree_param":{"num_deleted":"0","num_feature":"6","num_nodes":"11","size_leaf_vector":"1"}},{"base_weights":[-3.4872833E-1,-3.0375315E-2,3.8452557E-1,-2.0175047E-2,4.6047506E-1,2.9879035E-2,-3.0564931E-3],"categories":[],"categories_nodes":[],"categories_segments":[],"categories_sizes":[],"default_left":[0,0,0,0,0,0,0],"id":72,"left_children":[1,-1,3,-1,5,-1,-1],"loss_changes":[1.3228848E1,0E0,1.2783523E0,0E0,3.8963175E-1,0E0,0E0],"parents":[2147483647,0,0,2,2,4,4],"right_children":[2,-1,4,-1,6,-1,-1],"split_conditions":[3E1,-3.0375315E-2,6.5E-1,-2.0175047E-2,7.33E-1,2.9879035E-2,-3.0564931E-3],"split_indices":[2,0,3,0,0,0,0],"split_type":[0,0,0,0,0,0,0],"sum_hessian":[1.1184296E2,9.231932E1,1.9523636E1,1.5344158E0,1.798922E1,1.6784462E1,1.2047588E0],"tree_param":{"num_deleted":"0","num_feature":"6","num_nodes":"7","size_leaf_vector":"1"}},{"base_weights":[2.5403053E-1,4.5045453E-1,-1.1868341E-1,3.0103242E-2,-3.8612035E-1,2.713055E-2,-3.1968784E-2,2.1513069E-2,-2.9658947E-2,1.1596733E-1,-7.98628E-2,4.4150217E-3,3.3332672E-2,-3.6429907E-3,-1.6998123E-2],"categories":[],"categories_nodes":[],"categories_segments":[],"categories_sizes":[],"default_left":[0,0,0,0,0,0,0,0,0,0,0,0,0,0,0],"id":73,"left_children":[1,3,5,-1,7,9,-1,-1,-1,11,13,-1,-1,-1,-1],"loss_changes":[3.4467747E1,1.3405361E1,9.858976E0,0E0,1.6559131E0,1.1643487E0,0E0,0E0,0E0,1.2037363E0,1.998381E-1,0E0,0E0,0E0,0E0],"parents":[2147483647,0,0,1,1,2,2,4,4,5,5,9,9,10,10],"right_children":[2,4,6,-1,8,10,-1,-1,-1,12,14,-1,-1,-1,-1],"split_conditions":[6.34E-1,2.9E1,6.56E-1,3.0103242E-2,6.5E-1,1.9E-1,-3.1968784E-2,2.1513069E-2,-2.9658947E-2,1.8E-1,3E-1,4.4150217E-3,3.3332672E-2,-3.6429907E-3,-1.6998123E-2],"split_indices":[1,2,1,0,3,3,0,0,0,3,3,0,0,0,0],"split_type":[0,0,0,0,0,0,0,0,0,0,0,0,0,0,0],"sum_hessian":[4.6907657E2,3.070497E2,1.6202686E2,2.8969702E2,1.7352667E1,1.2052486E2,4.1502E1,1.9078289E0,1.5444839E1,6.580389E1,5.4720966E1,6.108183E1,4.7220583E0,5.120076E1,3.52021E0],"tree_param":{"num_deleted":"0","num_feature":"6","num_nodes":"15","size_leaf_vector":"1"}},{"base_weights":[-2.0471126E-1,-2.9902505E-2,1.627305E-1,1.8367814E-2,3.2623243E-2,-1.995364E-2,6.3259594E-2,3.5378595E-3,-1.5664767E-2,8.8038705E-3,1.1444325E-3],"categories":[],"categories_nodes":[],"categories_segments":[],"categories_sizes":[],"default_left":[0,0,0,0,0,0,0,0,0,0,0],"id":74,"left_children":[1,-1,3,5,-1,7,9,-1,-1,-1,-1],"loss_changes":[4.043407E1,0E0,9.168083E0,2.1122994E-1,0E0,1.2828218E0,2.0539263E-1,0E0,0E0,0E0,0E0],"parents":[2147483647,0,0,2,2,3,3,5,5,6,6],"right_children":[2,-1,4,6,-1,8,10,-1,-1,-1,-1],"split_conditions":[6.34E-1,-2.9902505E-2,6.56E-1,2E-1,3.2623243E-2,1.6E-1,2.4E-1,3.5378595E-3,-1.5664767E-2,8.8038705E-3,1.1444325E-3],"split_indices":[1,0,1,3,0,3,3,0,0,0,0],"split_type":[0,0,0,0,0,0,0,0,0,0,0],"sum_hessian":[3.729698E2,2.0709814E2,1.6587164E2,1.2105165E2,4.482E1,6.560449E1,5.5447155E1,4.9996593E1,1.56079E1,1.8388502E1,3.7058655E1],"tree_param":{"num_deleted":"0","num_feature":"6","num_nodes":"11","size_leaf_vector":"1"}},{"base_weights":[-3.5140035E-1,-3.0381488E-2,3.68825E-1,-2.081597E-2,4.5538783E-1,2.969498E-2,-6.1566383E-3],"categories":[],"categories_nodes":[],"categories_segments":[],"categories_sizes":[],"default_left":[0,0,0,0,0,0,0],"id":75,"left_children":[1,-1,3,-1,5,-1,-1],"loss_changes":[1.2136574E1,0E0,1.3684402E0,0E0,4.4474602E-1,0E0,0E0],"parents":[2147483647,0,0,2,2,4,4],"right_children":[2,-1,4,-1,6,-1,-1],"split_conditions":[3E1,-3.0381488E-2,6.5E-1,-2.081597E-2,7.62E-1,2.969498E-2,-6.1566383E-3],"split_indices":[2,0,3,0,0,0,0],"split_type":[0,0,0,0,0,0,0],"sum_hessian":[1.0607283E2,8.7536194E1,1.8536633E1,1.6754065E0,1.6861225E1,1.5851368E1,1.0098574E0],"tree_param":{"num_deleted":"0","num_feature":"6","num_nodes":"7","size_leaf_vector":"1"}},{"base_weights":[2.4703623E-1,4.4892618E-1,-1.2133248E-1,3.0147592E-2,-3.8772207E-1,2.1219118E-2,-3.1788386E-2,2.1142032E-2,-2.955418E-2,4.324017E-2,-1.7734233E-1,-4.638877E-3,4.9817367E-3,-6.296248E-3,-1.6707167E-2],"categories":[],"categories_nodes":[],"categories_segments":[],"categories_sizes":[],"default_left":[0,0,0,0,0,0,0,0,0,0,0,0,0,0,0],"id":76,"left_children":[1,3,5,-1,7,9,-1,-1,-1,11,13,-1,-1,-1,-1],"loss_changes":[3.3688164E1,1.3288879E1,9.380096E0,0E0,1.5816193E0,5.333981E-1,0E0,0E0,0E0,5.294326E-1,6.0088962E-2,0E0,0E0,0E0,0E0],"parents":[2147483647,0,0,1,1,2,2,4,4,5,5,9,9,10,10],"right_children":[2,4,6,-1,8,10,-1,-1,-1,12,14,-1,-1,-1,-1],"split_conditions":[6.34E-1,3E1,6.56E-1,3.0147592E-2,6.5E-1,2.9E-1,-3.1788386E-2,2.1142032E-2,-2.955418E-2,1.1E-1,3E-1,-4.638877E-3,4.9817367E-3,-6.296248E-3,-1.6707167E-2],"split_indices":[1,2,1,0,3,3,0,0,0,3,3,0,0,0,0],"split_type":[0,0,0,0,0,0,0,0,0,0,0,0,0,0,0],"sum_hessian":[4.5124854E2,2.9135074E2,1.5989778E2,2.7420493E2,1.7145823E1,1.1923464E2,4.0663143E1,1.8346683E0,1.5311154E1,1.0803542E2,1.1199215E1,2.6574635E1,8.146079E1,7.7134733E0,3.485742E0],"tree_param":{"num_deleted":"0","num_feature":"6","num_nodes":"15","size_leaf_vector":"1"}},{"base_weights":[-2.183708E-1,-2.9890185E-2,1.2802063E-1,-2.4469648E-2,3.2407627E-2,-3.451279E-2,1.5226364E-2,1.7915884E-3,-5.5846623E-3],"categories":[],"categories_nodes":[],"categories_segments":[],"categories_sizes":[],"default_left":[0,0,0,0,0,0,0,0,0],"id":77,"left_children":[1,-1,3,5,-1,7,-1,-1,-1],"loss_changes":[3.420709E1,0E0,9.955202E0,3.3412188E-1,0E0,4.297552E-1,0E0,0E0,0E0],"parents":[2147483647,0,0,2,2,3,3,5,5],"right_children":[2,-1,4,6,-1,8,-1,-1,-1],"split_conditions":[6.34E-1,-2.9890185E-2,6.56E-1,3E-1,3.2407627E-2,1.6E-1,1.5226364E-2,1.7915884E-3,-5.5846623E-3],"split_indices":[1,0,1,3,0,3,0,0,0],"split_type":[0,0,0,0,0,0,0,0,0],"sum_hessian":[3.512836E2,1.9407811E2,1.5720549E2,1.1543289E2,4.1772594E1,1.1225694E2,3.1759477E0,5.3710403E1,5.8546543E1],"tree_param":{"num_deleted":"0","num_feature":"6","num_nodes":"9","size_leaf_vector":"1"}},{"base_weights":[-3.5364422E-1,-3.0285977E-2,3.5898104E-1,-2.0476531E-2,4.4865915E-1,2.9411035E-2,-2.3352164E-3],"categories":[],"categories_nodes":[],"categories_segments":[],"categories_sizes":[],"default_left":[0,0,0,0,0,0,0],"id":78,"left_children":[1,-1,3,-1,5,-1,-1],"loss_changes":[1.0971084E1,0E0,1.2906249E0,0E0,3.529346E-1,0E0,0E0],"parents":[2147483647,0,0,2,2,4,4],"right_children":[2,-1,4,-1,6,-1,-1],"split_conditions":[3E1,-3.0285977E-2,6.5E-1,-2.0476531E-2,7.26E-1,2.9411035E-2,-2.3352164E-3],"split_indices":[2,0,3,0,0,0,0],"split_type":[0,0,0,0,0,0,0],"sum_hessian":[9.919074E1,8.207688E1,1.7113861E1,1.6243637E0,1.5489497E1,1.426894E1,1.2205578E0],"tree_param":{"num_deleted":"0","num_feature":"6","num_nodes":"7","size_leaf_vector":"1"}},{"base_weights":[2.4449258E-1,4.4497538E-1,-1.2409286E-1,3.013107E-2,-3.926035E-1,7.0507657E-3,-3.1542E-2,2.0748343E-2,-2.9504301E-2,-2.1666828E-1,3.2511514E-2,-7.077199E-3,-1.4765896E-2,2.7672765E-3,-2.5940064E-2],"categories":[],"categories_nodes":[],"categories_segments":[],"categories_sizes":[],"default_left":[0,0,0,0,0,0,0,0,0,0,0,0,0,0,0],"id":79,"left_children":[1,3,5,-1,7,9,-1,-1,-1,11,13,-1,-1,-1,-1],"loss_changes":[3.1674328E1,1.348764E1,7.984437E0,0E0,1.5092602E0,6.633119E-1,0E0,0E0,0E0,5.551815E-3,6.7986095E-1,0E0,0E0,0E0,0E0],"parents":[2147483647,0,0,1,1,2,2,4,4,5,5,9,9,10,10],"right_children":[2,4,6,-1,8,10,-1,-1,-1,12,14,-1,-1,-1,-1],"split_conditions":[6.34E-1,3E1,6.56E-1,3.013107E-2,6.5E-1,8E-2,-3.1542E-2,2.0748343E-2,-2.9504301E-2,6E-2,3E-1,-7.077199E-3,-1.4765896E-2,2.7672765E-3,-2.5940064E-2],"split_indices":[1,2,1,0,3,3,0,0,0,3,3,0,0,0,0],"split_type":[0,0,0,0,0,0,0,0,0,0,0,0,0,0,0],"sum_hessian":[4.2689215E2,2.7636377E2,1.5052838E2,2.5906903E2,1.729475E1,1.1421444E2,3.6313942E1,1.7525548E0,1.5542194E1,1.0902881E1,1.0331156E2,3.6541045E0,7.2487764E0,1.01248E2,2.0635583E0],"tree_param":{"num_deleted":"0","num_feature":"6","num_nodes":"15","size_leaf_vector":"1"}},{"base_weights":[-2.2001372E-1,-2.9878734E-2,1.1015223E-1,-3.3120554E-2,3.182372E-2,1.6671646E-2,-5.770761E-2,-4.1212947E-3,1.4476513E-2],"categories":[],"categories_nodes":[],"categories_segments":[],"categories_sizes":[],"default_left":[0,0,0,0,0,0,0,0,0],"id":80,"left_children":[1,-1,3,5,-1,-1,7,-1,-1],"loss_changes":[3.1193174E1,0E0,9.404359E0,9.122036E-1,0E0,0E0,3.7588662E-1,0E0,0E0],"parents":[2147483647,0,0,2,2,3,3,6,6],"right_children":[2,-1,4,6,-1,-1,8,-1,-1],"split_conditions":[6.34E-1,-2.9878734E-2,6.56E-1,7E-2,3.182372E-2,1.6671646E-2,3E-1,-4.1212947E-3,1.4476513E-2],"split_indices":[1,0,1,3,0,0,3,0,0],"split_type":[0,0,0,0,0,0,0,0,0],"sum_hessian":[3.3829117E2,1.8338876E2,1.5490242E2,1.16205765E2,3.8696648E1,7.759622E0,1.08446144E2,1.0534735E2,3.0987916E0],"tree_param":{"num_deleted":"0","num_feature":"6","num_nodes":"9","size_leaf_vector":"1"}},{"base_weights":[-3.4887648E-1,-3.0242471E-2,3.5752755E-1,-2.0146081E-2,4.457065E-1,2.931152E-2,-5.4944954E-3],"categories":[],"categories_nodes":[],"categories_segments":[],"categories_sizes":[],"default_left":[0,0,0,0,0,0,0],"id":81,"left_children":[1,-1,3,-1,5,-1,-1],"loss_changes":[1.0609024E1,0E0,1.23297E0,0E0,4.1629148E-1,0E0,0E0],"parents":[2147483647,0,0,2,2,4,4],"right_children":[2,-1,4,-1,6,-1,-1],"split_conditions":[3E1,-3.0242471E-2,6.5E-1,-2.0146081E-2,7.06E-1,2.931152E-2,-5.4944954E-3],"split_indices":[2,0,3,0,0,0,0],"split_type":[0,0,0,0,0,0,0],"sum_hessian":[9.414565E1,7.742532E1,1.6720335E1,1.569843E0,1.5150492E1,1.4116238E1,1.0342534E0],"tree_param":{"num_deleted":"0","num_feature":"6","num_nodes":"7","size_leaf_vector":"1"}},{"base_weights":[2.4000019E-1,4.4573376E-1,-1.0755592E-1,3.0089116E-2,-3.7555423E-1,2.191066E-2,-3.1385664E-2,2.12097E-2,-2.9272683E-2,-1.5814204E-2,5.048096E-2,1.1534392E-2,2.2085658E-3],"categories":[],"categories_nodes":[],"categories_segments":[],"categories_sizes":[],"default_left":[0,0,0,0,0,0,0,0,0,0,0,0,0],"id":82,"left_children":[1,3,5,-1,7,9,-1,-1,-1,-1,11,-1,-1],"loss_changes":[2.9666441E1,1.2111244E1,8.340984E0,0E0,1.5747755E0,9.8397255E-1,0E0,0E0,0E0,0E0,2.0421377E-1,0E0,0E0],"parents":[2147483647,0,0,1,1,2,2,4,4,5,5,10,10],"right_children":[2,4,6,-1,8,10,-1,-1,-1,-1,12,-1,-1],"split_conditions":[6.34E-1,3E1,6.56E-1,3.0089116E-2,6.5E-1,8E-2,-3.1385664E-2,2.12097E-2,-2.9272683E-2,-1.5814204E-2,1E-1,1.1534392E-2,2.2085658E-3],"split_indices":[1,2,1,0,3,3,0,0,0,0,3,0,0],"split_type":[0,0,0,0,0,0,0,0,0,0,0,0,0],"sum_hessian":[4.1322186E2,2.5939325E2,1.5382863E2,2.432688E2,1.6124435E1,1.18008705E2,3.581992E1,1.8659816E0,1.4258453E1,9.987371E0,1.0802133E2,8.352602E0,9.966873E1],"tree_param":{"num_deleted":"0","num_feature":"6","num_nodes":"13","size_leaf_vector":"1"}},{"base_weights":[-2.1128689E-1,-2.9866451E-2,1.109784E-1,-2.3980467E-2,3.1939223E-2,1.7810257E-2,-3.558345E-2,-5.0003966E-3,1.4003663E-3],"categories":[],"categories_nodes":[],"categories_segments":[],"categories_sizes":[],"default_left":[0,0,0,0,0,0,0,0,0],"id":83,"left_children":[1,-1,3,5,-1,-1,7,-1,-1],"loss_changes":[3.0335396E1,0E0,8.836137E0,4.5159823E-1,0E0,0E0,3.262178E-1,0E0,0E0],"parents":[2147483647,0,0,2,2,3,3,6,6],"right_children":[2,-1,4,6,-1,-1,8,-1,-1],"split_conditions":[6.34E-1,-2.9866451E-2,6.56E-1,6E-2,3.1939223E-2,1.7810257E-2,1.9E-1,-5.0003966E-3,1.4003663E-3],"split_indices":[1,0,1,3,0,0,3,0,0],"split_type":[0,0,0,0,0,0,0,0,0],"sum_hessian":[3.269738E2,1.7280713E2,1.5416666E2,1.1748004E2,3.6686615E1,3.2425272E0,1.1423751E2,6.2868633E1,5.1368877E1],"tree_param":{"num_deleted":"0","num_feature":"6","num_nodes":"9","size_leaf_vector":"1"}},{"base_weights":[-3.4378383E-1,-3.0174226E-2,3.4829485E-1,-2.0644419E-2,4.4380212E-1,2.9194796E-2,-5.220974E-3],"categories":[],"categories_nodes":[],"categories_segments":[],"categories_sizes":[],"default_left":[0,0,0,0,0,0,0],"id":84,"left_children":[1,-1,3,-1,5,-1,-1],"loss_changes":[1.0142829E1,0E0,1.3106425E0,0E0,4.0168476E-1,0E0,0E0],"parents":[2147483647,0,0,2,2,4,4],"right_children":[2,-1,4,-1,6,-1,-1],"split_conditions":[3E1,-3.0174226E-2,6.5E-1,-2.0644419E-2,7.33E-1,2.9194796E-2,-5.220974E-3],"split_indices":[2,0,3,0,0,0,0],"split_type":[0,0,0,0,0,0,0],"sum_hessian":[8.951353E1,7.300244E1,1.6511087E1,1.686005E0,1.4825083E1,1.3796577E1,1.028505E0],"tree_param":{"num_deleted":"0","num_feature":"6","num_nodes":"7","size_leaf_vector":"1"}},{"base_weights":[2.2315797E-1,4.4500718E-1,-1.2760389E-1,3.0097865E-2,-3.9458802E-1,-1.59472E-2,-3.1193696E-2,1.9029565E-2,-2.914279E-2,-2.1235088E-1,9.468875E-3,-8.697932E-3,-1.9223912E-2,1.3970718E-3,-7.024709E-3],"categories":[],"categories_nodes":[],"categories_segments":[],"categories_sizes":[],"default_left":[0,0,0,0,0,0,0,0,0,0,0,0,0,0,0],"id":85,"left_children":[1,3,5,-1,7,9,-1,-1,-1,11,13,-1,-1,-1,-1],"loss_changes":[3.1249115E1,1.1882004E1,6.8282547E0,0E0,1.1974547E0,6.136518E-1,0E0,0E0,0E0,5.608207E-2,1.940759E-1,0E0,0E0,0E0,0E0],"parents":[2147483647,0,0,1,1,2,2,4,4,5,5,9,9,10,10],"right_children":[2,4,6,-1,8,10,-1,-1,-1,12,14,-1,-1,-1,-1],"split_conditions":[6.34E-1,3E1,6.56E-1,3.0097865E-2,6.5E-1,8E-2,-3.1193696E-2,1.9029565E-2,-2.914279E-2,7E-2,2.9E-1,-8.697932E-3,-1.9223912E-2,1.3970718E-3,-7.024709E-3],"split_indices":[1,2,1,0,3,3,0,0,0,3,3,0,0,0,0],"split_type":[0,0,0,0,0,0,0,0,0,0,0,0,0,0,0],"sum_hessian":[3.9984604E2,2.4476735E2,1.5507867E2,2.2967984E2,1.5087518E1,1.215289E2,3.3549778E1,1.430885E0,1.3656633E1,1.3082032E1,1.0844687E2,9.4993305E0,3.5827014E0,9.850835E1,9.938527E0],"tree_param":{"num_deleted":"0","num_feature":"6","num_nodes":"15","size_leaf_vector":"1"}},{"base_weights":[-1.6649337E-1,-2.9853405E-2,1.8657547E-1,7.843205E-2,3.1829555E-2,6.709143E-2,2.6800316E-2,8.079582E-3,4.9613975E-4],"categories":[],"categories_nodes":[],"categories_segments":[],"categories_sizes":[],"default_left":[0,0,0,0,0,0,0,0,0],"id":86,"left_children":[1,-1,3,5,-1,7,-1,-1,-1],"loss_changes":[3.7087757E1,0E0,5.6817913E0,4.6383846E-1,0E0,4.5949703E-1,0E0,0E0,0E0],"parents":[2147483647,0,0,2,2,3,3,5,5],"right_children":[2,-1,4,6,-1,8,-1,-1,-1],"split_conditions":[6.34E-1,-2.9853405E-2,6.56E-1,3E-1,3.1829555E-2,1.7E-1,2.6800316E-2,8.079582E-3,4.9613975E-4],"split_indices":[1,0,1,3,0,3,0,0,0],"split_type":[0,0,0,0,0,0,0,0,0],"sum_hessian":[3.1549844E2,1.626121E2,1.5288634E2,1.17246635E2,3.56397E1,1.14890564E2,2.3560717E0,5.287022E1,6.2020348E1],"tree_param":{"num_deleted":"0","num_feature":"6","num_nodes":"9","size_leaf_vector":"1"}},{"base_weights":[-3.3638057E-1,-3.0152202E-2,3.5868934E-1,-1.9508563E-2,4.4311526E-1,2.9106462E-2,-3.3955164E-3],"categories":[],"categories_nodes":[],"categories_segments":[],"categories_sizes":[],"default_left":[0,0,0,0,0,0,0],"id":87,"left_children":[1,-1,3,-1,5,-1,-1],"loss_changes":[1.0167328E1,0E0,1.1409671E0,0E0,3.5885024E-1,0E0,0E0],"parents":[2147483647,0,0,2,2,4,4],"right_children":[2,-1,4,-1,6,-1,-1],"split_conditions":[3E1,-3.0152202E-2,6.5E-1,-1.9508563E-2,7.26E-1,2.9106462E-2,-3.3955164E-3],"split_indices":[2,0,3,0,0,0,0],"split_type":[0,0,0,0,0,0,0],"sum_hessian":[8.547555E1,6.920833E1,1.6267223E1,1.4743208E0,1.4792902E1,1.3673111E1,1.1197913E0],"tree_param":{"num_deleted":"0","num_feature":"6","num_nodes":"7","size_leaf_vector":"1"}},{"base_weights":[2.2409038E-1,4.4490716E-1,-1.08020894E-1,3.0084617E-2,-3.5828927E-1,-7.9692336E-4,-3.1003421E-2,2.1357398E-2,-2.8956385E-2,-1.7509863E-1,4.3772615E-2,-3.9490177E-3,-1.4367399E-2,9.86815E-3,5.8482325E-4],"categories":[],"categories_nodes":[],"categories_segments":[],"categories_sizes":[],"default_left":[0,0,0,0,0,0,0,0,0,0,0,0,0,0,0],"id":88,"left_children":[1,3,5,-1,7,9,-1,-1,-1,11,13,-1,-1,-1,-1],"loss_changes":[2.8437134E1,1.0740765E1,6.8096824E0,0E0,1.5816379E0,9.717864E-1,0E0,0E0,0E0,1.6338897E-1,4.0756947E-1,0E0,0E0,0E0,0E0],"parents":[2147483647,0,0,1,1,2,2,4,4,5,5,9,9,10,10],"right_children":[2,4,6,-1,8,10,-1,-1,-1,12,14,-1,-1,-1,-1],"split_conditions":[6.34E-1,3E1,6.56E-1,3.0084617E-2,6.5E-1,1.1E-1,-3.1003421E-2,2.1357398E-2,-2.8956385E-2,7E-2,1.5E-1,-3.9490177E-3,-1.4367399E-2,9.86815E-3,5.8482325E-4],"split_indices":[1,2,1,0,3,3,0,0,0,3,3,0,0,0,0],"split_type":[0,0,0,0,0,0,0,0,0,0,0,0,0,0,0],"sum_hessian":[3.8611105E2,2.3171016E2,1.5440091E2,2.1683221E2,1.4877945E1,1.2310582E2,3.1295097E1,1.929425E0,1.294852E1,2.4472107E1,9.863371E1,9.820057E0,1.4652051E1,2.0847853E1,7.778586E1],"tree_param":{"num_deleted":"0","num_feature":"6","num_nodes":"15","size_leaf_vector":"1"}},{"base_weights":[-1.9540668E-1,-2.9840592E-2,9.217156E-2,-2.7088584E-2,3.1597275E-2,-4.4504594E-2,1.0562093E-2,-4.766572E-3,4.4044628E-4],"categories":[],"categories_nodes":[],"categories_segments":[],"categories_sizes":[],"default_left":[0,0,0,0,0,0,0,0,0],"id":89,"left_children":[1,-1,3,5,-1,7,-1,-1,-1],"loss_changes":[2.7548431E1,0E0,8.463364E0,4.638271E-1,0E0,2.1707647E-1,0E0,0E0,0E0],"parents":[2147483647,0,0,2,2,3,3,5,5],"right_children":[2,-1,4,6,-1,8,-1,-1,-1],"split_conditions":[6.34E-1,-2.9840592E-2,6.56E-1,2.9E-1,3.1597275E-2,1.9E-1,1.0562093E-2,-4.766572E-3,4.4044628E-4],"split_indices":[1,0,1,3,0,3,0,0,0],"split_type":[0,0,0,0,0,0,0,0,0],"sum_hessian":[3.157393E2,1.5366872E2,1.6207057E2,1.2789889E2,3.4171684E1,1.1851794E2,9.380948E0,7.048573E1,4.8032204E1],"tree_param":{"num_deleted":"0","num_feature":"6","num_nodes":"9","size_leaf_vector":"1"}},{"base_weights":[-3.36361E-1,-2.989891E-2,3.649483E-1,-1.7019276E-2,4.3452224E-1,2.8803006E-2,-3.4249704E-3],"categories":[],"categories_nodes":[],"categories_segments":[],"categories_sizes":[],"default_left":[0,0,0,0,0,0,0],"id":90,"left_children":[1,-1,3,-1,5,-1,-1],"loss_changes":[9.144864E0,0E0,8.173795E-1,0E0,3.4716606E-1,0E0,0E0],"parents":[2147483647,0,0,2,2,4,4],"right_children":[2,-1,4,-1,6,-1,-1],"split_conditions":[3E1,-2.989891E-2,6.5E-1,-1.7019276E-2,7.33E-1,2.8803006E-2,-3.4249704E-3],"split_indices":[2,0,3,0,0,0,0],"split_type":[0,0,0,0,0,0,0],"sum_hessian":[7.791359E1,6.3531612E1,1.4381981E1,1.0951763E0,1.3286804E1,1.2182115E1,1.1046895E0],"tree_param":{"num_deleted":"0","num_feature":"6","num_nodes":"7","size_leaf_vector":"1"}},{"base_weights":[2.3694362E-1,4.4652572E-1,-7.131954E-2,3.00405E-2,-3.4760633E-1,3.837962E-2,-3.0801564E-2,2.1034239E-2,-2.8672412E-2,4.8457082E-2,-1.4851949E-2,1.1015426E-2,2.223993E-3],"categories":[],"categories_nodes":[],"categories_segments":[],"categories_sizes":[],"default_left":[0,0,0,0,0,0,0,0,0,0,0,0,0],"id":91,"left_children":[1,3,5,-1,7,9,-1,-1,-1,11,-1,-1,-1],"loss_changes":[2.3715382E1,9.56374E0,7.255834E0,0E0,1.4889193E0,3.591469E-1,0E0,0E0,0E0,1.7362481E-1,0E0,0E0,0E0],"parents":[2147483647,0,0,1,1,2,2,4,4,5,5,9,9],"right_children":[2,4,6,-1,8,10,-1,-1,-1,12,-1,-1,-1],"split_conditions":[6.34E-1,3E1,6.56E-1,3.00405E-2,6.5E-1,3E-1,-3.0801564E-2,2.1034239E-2,-2.8672412E-2,7E-2,-1.4851949E-2,1.1015426E-2,2.223993E-3],"split_indices":[1,2,1,0,3,3,0,0,0,3,0,0,0],"split_type":[0,0,0,0,0,0,0,0,0,0,0,0,0],"sum_hessian":[3.6558163E2,2.173566E2,1.4822502E2,2.0382777E2,1.3528826E1,1.19485886E2,2.873913E1,1.8613914E0,1.1667434E1,1.1622003E2,3.2658563E0,7.859527E0,1.08360504E2],"tree_param":{"num_deleted":"0","num_feature":"6","num_nodes":"13","size_leaf_vector":"1"}},{"base_weights":[-1.8468393E-1,-2.9825857E-2,1.11787714E-1,-3.3325502E-3,3.1488188E-2,1.2029496E-2,-2.4890898E-2,-1.0355058E-2,1.5448952E-3],"categories":[],"categories_nodes":[],"categories_segments":[],"categories_sizes":[],"default_left":[0,0,0,0,0,0,0,0,0],"id":92,"left_children":[1,-1,3,5,-1,-1,7,-1,-1],"loss_changes":[2.763094E1,0E0,7.303644E0,5.370839E-1,0E0,0E0,8.301269E-1,0E0,0E0],"parents":[2147483647,0,0,2,2,3,3,6,6],"right_children":[2,-1,4,6,-1,-1,8,-1,-1],"split_conditions":[6.34E-1,-2.9825857E-2,6.56E-1,8E-2,3.1488188E-2,1.2029496E-2,1.4E-1,-1.0355058E-2,1.5448952E-3],"split_indices":[1,0,1,3,0,0,3,0,0],"split_type":[0,0,0,0,0,0,0,0,0],"sum_hessian":[2.9672006E2,1.4414612E2,1.5257394E2,1.20092384E2,3.2481556E1,1.06932E1,1.09399185E2,2.7317434E1,8.208175E1],"tree_param":{"num_deleted":"0","num_feature":"6","num_nodes":"9","size_leaf_vector":"1"}},{"base_weights":[-3.452891E-1,-3.0056287E-2,3.4752452E-1,-1.7829746E-2,4.2843917E-1,2.855378E-2,-2.5288286E-3],"categories":[],"categories_nodes":[],"categories_segments":[],"categories_sizes":[],"default_left":[0,0,0,0,0,0,0],"id":93,"left_children":[1,-1,3,-1,5,-1,-1],"loss_changes":[8.386594E0,0E0,8.869041E-1,0E0,3.1813526E-1,0E0,0E0],"parents":[2147483647,0,0,2,2,4,4],"right_children":[2,-1,4,-1,6,-1,-1],"split_conditions":[3E1,-3.0056287E-2,6.5E-1,-1.7829746E-2,7.33E-1,2.855378E-2,-2.5288286E-3],"split_indices":[2,0,3,0,0,0,0],"split_type":[0,0,0,0,0,0,0],"sum_hessian":[7.5157524E1,6.159615E1,1.3561373E1,1.2142553E0,1.2347117E1,1.1205766E1,1.1413517E0],"tree_param":{"num_deleted":"0","num_feature":"6","num_nodes":"7","size_leaf_vector":"1"}},{"base_weights":[2.0884106E-1,4.4768912E-1,-1.1834547E-1,3.0027483E-2,-3.63297E-1,-2.0806184E-2,-3.0697793E-2,1.8972935E-2,-2.8415827E-2,-5.9232167E-3,-2.8033804E-2,-1.8745946E-2,3.7154285E-4],"categories":[],"categories_nodes":[],"categories_segments":[],"categories_sizes":[],"default_left":[0,0,0,0,0,0,0,0,0,0,0,0,0],"id":94,"left_children":[1,3,5,-1,7,9,-1,-1,-1,11,-1,-1,-1],"loss_changes":[2.7792423E1,8.971371E0,5.7654314E0,0E0,1.1336364E0,8.0577135E-1,0E0,0E0,0E0,4.4302648E-1,0E0,0E0,0E0],"parents":[2147483647,0,0,1,1,2,2,4,4,5,5,9,9],"right_children":[2,4,6,-1,8,10,-1,-1,-1,12,-1,-1,-1],"split_conditions":[6.34E-1,3E1,6.56E-1,3.0027483E-2,6.5E-1,3E-1,-3.0697793E-2,1.8972935E-2,-2.8415827E-2,6E-2,-2.8033804E-2,-1.8745946E-2,3.7154285E-4],"split_indices":[1,2,1,0,3,3,0,0,0,3,0,0,0],"split_type":[0,0,0,0,0,0,0,0,0,0,0,0,0],"sum_hessian":[3.5396094E2,2.0438812E2,1.4957283E2,1.9226106E2,1.2127062E1,1.2069253E2,2.8880299E1,1.4328729E0,1.0694189E1,1.1777925E2,2.91328E0,3.5359745E0,1.1424328E2],"tree_param":{"num_deleted":"0","num_feature":"6","num_nodes":"13","size_leaf_vector":"1"}},{"base_weights":[-1.7297426E-1,-2.98117E-2,1.3071114E-1,2.4333196E-2,3.1262927E-2,-6.664508E-4,2.7775458E-1,5.9163134E-4,-1.1212982E-2,9.583055E-3,2.7368955E-2],"categories":[],"categories_nodes":[],"categories_segments":[],"categories_sizes":[],"default_left":[0,0,0,0,0,0,0,0,0,0,0],"id":95,"left_children":[1,-1,3,5,-1,7,9,-1,-1,-1,-1],"loss_changes":[2.7865894E1,0E0,6.07728E0,7.3701453E-1,0E0,2.1131504E-1,1.4709371E-1,0E0,0E0,0E0,0E0],"parents":[2147483647,0,0,2,2,3,3,5,5,6,6],"right_children":[2,-1,4,6,-1,8,10,-1,-1,-1,-1],"split_conditions":[6.34E-1,-2.98117E-2,6.56E-1,2.9E-1,3.1262927E-2,2.8E-1,3E-1,5.9163134E-4,-1.1212982E-2,9.583055E-3,2.7368955E-2],"split_indices":[1,0,1,3,0,3,3,0,0,0,0],"split_type":[0,0,0,0,0,0,0,0,0,0,0],"sum_hessian":[2.8164523E2,1.3598161E2,1.456636E2,1.1530272E2,3.0360886E1,1.05857414E2,9.445308E0,1.01089775E2,4.7676377E0,6.8248606E0,2.6204467E0],"tree_param":{"num_deleted":"0","num_feature":"6","num_nodes":"11","size_leaf_vector":"1"}},{"base_weights":[-3.453652E-1,-3.0037753E-2,3.325292E-1,-1.8593945E-2,4.2428163E-1,2.8463041E-2,-3.8015689E-3],"categories":[],"categories_nodes":[],"categories_segments":[],"categories_sizes":[],"default_left":[0,0,0,0,0,0,0],"id":96,"left_children":[1,-1,3,-1,5,-1,-1],"loss_changes":[7.8054686E0,0E0,9.6414244E-1,0E0,3.4236836E-1,0E0,0E0],"parents":[2147483647,0,0,2,2,4,4],"right_children":[2,-1,4,-1,6,-1,-1],"split_conditions":[3E1,-3.0037753E-2,6.5E-1,-1.8593945E-2,9.4E-1,2.8463041E-2,-3.8015689E-3],"split_indices":[2,0,3,0,3,0,0],"split_type":[0,0,0,0,0,0,0],"sum_hessian":[7.157771E1,5.845154E1,1.312617E1,1.3432811E0,1.1782888E1,1.0709711E1,1.0731771E0],"tree_param":{"num_deleted":"0","num_feature":"6","num_nodes":"7","size_leaf_vector":"1"}},{"base_weights":[2.0903978E-1,4.4253108E-1,-1.0965109E-1,3.0010292E-2,-3.5907868E-1,-1.8775797E-2,-3.0467344E-2,1.9579358E-2,-2.8452605E-2,-7.6631285E-2,2.787673E-2,-2.5477854E-4,-1.7196778E-2,3.6616598E-3,-8.24431E-3],"categories":[],"categories_nodes":[],"categories_segments":[],"categories_sizes":[],"default_left":[0,0,0,0,0,0,0,0,0,0,0,0,0,0,0],"id":97,"left_children":[1,3,5,-1,7,9,-1,-1,-1,11,13,-1,-1,-1,-1],"loss_changes":[2.5132465E1,9.178226E0,5.1767716E0,0E0,1.2316175E0,3.1993955E-1,0E0,0E0,0E0,8.017405E-1,3.695566E-1,0E0,0E0,0E0,0E0],"parents":[2147483647,0,0,1,1,2,2,4,4,5,5,9,9,10,10],"right_children":[2,4,6,-1,8,10,-1,-1,-1,12,14,-1,-1,-1,-1],"split_conditions":[6.34E-1,3E1,6.56E-1,3.0010292E-2,6.5E-1,1.6E-1,-3.0467344E-2,1.9579358E-2,-2.8452605E-2,1.4E-1,2.9E-1,-2.5477854E-4,-1.7196778E-2,3.6616598E-3,-8.24431E-3],"split_indices":[1,2,1,0,3,3,0,0,0,3,3,0,0,0,0],"split_type":[0,0,0,0,0,0,0,0,0,0,0,0,0,0,0],"sum_hessian":[3.3609744E2,1.9375371E2,1.4234373E2,1.8110709E2,1.26466255E1,1.1674399E2,2.5599743E1,1.5550054E0,1.109162E1,5.1827827E1,6.491616E1,3.93004E1,1.2527428E1,5.459641E1,1.0319752E1],"tree_param":{"num_deleted":"0","num_feature":"6","num_nodes":"15","size_leaf_vector":"1"}},{"base_weights":[-1.8549357E-1,-2.9795302E-2,8.470656E-2,-2.1233676E-2,3.0697677E-2,-8.454957E-3,-1.12596475E-1,-1.4175879E-3,3.2372262E-2,-1.1045362E-2,9.844256E-3],"categories":[],"categories_nodes":[],"categories_segments":[],"categories_sizes":[],"default_left":[0,0,0,0,0,0,0,0,0,0,0],"id":98,"left_children":[1,-1,3,5,-1,7,9,-1,-1,-1,-1],"loss_changes":[2.3241898E1,0E0,6.730042E0,1.3913146E-1,0E0,8.968792E-1,3.198132E-1,0E0,0E0,0E0,0E0],"parents":[2147483647,0,0,2,2,3,3,5,5,6,6],"right_children":[2,-1,4,6,-1,8,10,-1,-1,-1,-1],"split_conditions":[6.34E-1,-2.9795302E-2,6.56E-1,2.8E-1,3.0697677E-2,2.7E-1,3E-1,-1.4175879E-3,3.2372262E-2,-1.1045362E-2,9.844256E-3],"split_indices":[1,0,1,3,0,3,3,0,0,0,0],"split_type":[0,0,0,0,0,0,0,0,0,0,0],"sum_hessian":[2.7499838E2,1.2743652E2,1.4756184E2,1.18985855E2,2.8575993E1,1.0534414E2,1.3641717E1,1.034373E2,1.9068388E0,1.1106369E1,2.5353484E0],"tree_param":{"num_deleted":"0","num_feature":"6","num_nodes":"11","size_leaf_vector":"1"}},{"base_weights":[-3.3667138E-1,-3.0026406E-2,3.3078313E-1,-1.9009067E-2,4.2568845E-1,2.8429398E-2,-1.7975486E-3],"categories":[],"categories_nodes":[],"categories_segments":[],"categories_sizes":[],"default_left":[0,0,0,0,0,0,0],"id":99,"left_children":[1,-1,3,-1,5,-1,-1],"loss_changes":[7.8394117E0,0E0,1.0219746E0,0E0,2.9965925E-1,0E0,0E0],"parents":[2147483647,0,0,2,2,4,4],"right_children":[2,-1,4,-1,6,-1,-1],"split_conditions":[3E1,-3.0026406E-2,6.5E-1,-1.9009067E-2,9.4E-1,2.8429398E-2,-1.7975486E-3],"split_indices":[2,0,3,0,3,0,0],"split_type":[0,0,0,0,0,0,0],"sum_hessian":[6.9204025E1,5.577028E1,1.3433745E1,1.4181985E0,1.2015548E1,1.083142E1,1.184127E0],"tree_param":{"num_deleted":"0","num_feature":"6","num_nodes":"7","size_leaf_vector":"1"}},{"base_weights":[2.037714E-1,4.4315258E-1,-1.10054135E-1,3.0013356E-2,-3.4383157E-1,-1.9024098E-2,-3.0363314E-2,2.0003207E-2,-2.8236466E-2,-1.3671519E-1,1.0858243E-2,4.2800335E-3,-1.088999E-2,1.0269119E-2,-6.515428E-4],"categories":[],"categories_nodes":[],"categories_segments":[],"categories_sizes":[],"default_left":[0,0,0,0,0,0,0,0,0,0,0,0,0,0,0],"id":100,"left_children":[1,3,5,-1,7,9,-1,-1,-1,11,13,-1,-1,-1,-1],"loss_changes":[2.4483826E1,8.468166E0,5.0928783E0,0E0,1.2800555E0,4.099012E-1,0E0,0E0,0E0,2.3273477E-1,3.274894E-1,0E0,0E0,0E0,0E0],"parents":[2147483647,0,0,1,1,2,2,4,4,5,5,9,9,10,10],"right_children":[2,4,6,-1,8,10,-1,-1,-1,12,14,-1,-1,-1,-1],"split_conditions":[6.34E-1,3E1,6.56E-1,3.0013356E-2,6.5E-1,1.1E-1,-3.0363314E-2,2.0003207E-2,-2.8236466E-2,6E-2,1.3E-1,4.2800335E-3,-1.088999E-2,1.0269119E-2,-6.515428E-4],"split_indices":[1,2,1,0,3,3,0,0,0,3,3,0,0,0,0],"split_type":[0,0,0,0,0,0,0,0,0,0,0,0,0,0,0],"sum_hessian":[3.2426324E2,1.8371571E2,1.4054755E2,1.7163367E2,1.20820465E1,1.1513023E2,2.5417313E1,1.6481524E0,1.0433894E1,2.2588943E1,9.254129E1,3.8961916E0,1.8692753E1,1.0220871E1,8.232042E1],"tree_param":{"num_deleted":"0","num_feature":"6","num_nodes":"15","size_leaf_vector":"1"}},{"base_weights":[-1.6282888E-1,-2.9780567E-2,1.22902736E-1,2.6940193E-2,3.0996075E-2,-2.3352705E-2,1.876127E-1,1.3480408E-3,-7.2653536E-3,9.014176E-3,2.561346E-2],"categories":[],"categories_nodes":[],"categories_segments":[],"categories_sizes":[],"default_left":[0,0,0,0,0,0,0,0,0,0,0],"id":101,"left_children":[1,-1,3,5,-1,7,9,-1,-1,-1,-1],"loss_changes":[2.5136688E1,0E0,5.3705974E0,9.388778E-1,0E0,4.011352E-1,1.8341726E-1,0E0,0E0,0E0,0E0],"parents":[2147483647,0,0,2,2,3,3,5,5,6,6],"right_children":[2,-1,4,6,-1,8,10,-1,-1,-1,-1],"split_conditions":[6.34E-1,-2.9780567E-2,6.56E-1,2.5E-1,3.0996075E-2,1.8E-1,3E-1,1.3480408E-3,-7.2653536E-3,9.014176E-3,2.561346E-2],"split_indices":[1,0,1,3,0,3,3,0,0,0,0],"split_type":[0,0,0,0,0,0,0,0,0,0,0],"sum_hessian":[2.621362E2,1.206145E2,1.4152171E2,1.1464568E2,2.6876026E1,8.7965744E1,2.6679937E1,6.0413364E1,2.7552383E1,2.4483387E1,2.19655E0],"tree_param":{"num_deleted":"0","num_feature":"6","num_nodes":"11","size_leaf_vector":"1"}},{"base_weights":[-3.404506E-1,-2.9863985E-2,3.2354385E-1,-1.7874274E-2,4.1507405E-1,2.8024174E-2,-3.5080265E-3],"categories":[],"categories_nodes":[],"categories_segments":[],"categories_sizes":[],"default_left":[0,0,0,0,0,0,0],"id":102,"left_children":[1,-1,3,-1,5,-1,-1],"loss_changes":[6.8785434E0,0E0,8.58811E-1,0E0,3.149693E-1,0E0,0E0],"parents":[2147483647,0,0,2,2,4,4],"right_children":[2,-1,4,-1,6,-1,-1],"split_conditions":[3E1,-2.9863985E-2,6.5E-1,-1.7874274E-2,7.26E-1,2.8024174E-2,-3.5080265E-3],"split_indices":[2,0,3,0,0,0,0],"split_type":[0,0,0,0,0,0,0],"sum_hessian":[6.3322556E1,5.1398117E1,1.1924438E1,1.2413719E0,1.0683066E1,9.638419E0,1.0446475E0],"tree_param":{"num_deleted":"0","num_feature":"6","num_nodes":"7",