{"learner":{"attributes":{"scikit_learn":"{\"_estimator_type\": \"classifier\"}"},"feature_names":[],"feature_types":[],"gradient_booster":{"model":{"cats":{"enc":[],"feature_segments":[],"sorted_idx":[]},"gbtree_model_param":{"num_parallel_tree":"1","num_trees":"120"},"iteration_indptr":[0,1,2,3,4,5,6,7,8,9,10,11,12,13,14,15,16,17,18,19,20,21,22,23,24,25,26,27,28,29,30,31,32,33,34,35,36,37,38,39,40,41,42,43,44,45,46,47,48,49,50,51,52,53,54,55,56,57,58,59,60,61,62,63,64,65,66,67,68,69,70,71,72,73,74,75,76,77,78,79,80,81,82,83,84,85,86,87,88,89,90,91,92,93,94,95,96,97,98,99,100,101,102,103,104,105,106,107,108,109,110,111,112,113,114,115,116,117,118,119,120],"tree_info":[0,0,0,0,0,0,0,0,0,0,0,0,0,0,0,0,0,0,0,0,0,0,0,0,0,0,0,0,0,0,0,0,0,0,0,0,0,0,0,0,0,0,0,0,0,0,0,0,0,0,0,0,0,0,0,0,0,0,0,0,0,0,0,0,0,0,0,0,0,0,0,0,0,0,0,0,0,0,0,0,0,0,0,0,0,0,0,0,0,0,0,0,0,0,0,0,0,0,0,0,0,0,0,0,0,0,0,0,0,0,0,0,0,0,0,0,0,0,0,0],"trees":[{"base_weights":[-5.287747E-9,-3.5124272E-1,1.669943E0,8.341368E-1,-3.5119826E-1],"categories":[],"categories_nodes":[],"categories_segments":[],"categories_sizes":[],"default_left":[0,0,0,0,0],"id":0,"left_children":[1,-1,3,-1,-1],"loss_changes":[2.0674785E4,0E0,1.3751279E4,0E0,0E0],"parents":[2147483647,0,0,2,2],"right_children":[2,-1,4,-1,-1],"split_conditions":[1E0,-3.5124272E-1,1E0,8.341368E-1,-3.5119826E-1],"split_indices":[0,0,1,0,0],"split_type":[0,0,0,0,0],"sum_hessian":[1.0572342E4,6.2151523E3,4.3571895E3,3.1325598E3,1.2246296E3],"tree_param":{"num_deleted":"0","num_feature":"4","num_nodes":"5","size_leaf_vector":"1"}},{"base_weights":[-1.0354609E-1,-3.356325E-1,7.037159E-1,1.0424217E0,-3.355897E-1,1.0516466E0,9.9165523E-1,1.0299404E0,1.1070206E0,9.3162453E-1,1.0463061E0,3.1180412E-1,2.916983E-1,3.360282E-1,3.0620894E-1,2.268133E-1,2.9813704E-1,3.7855852E-1,2.8909844E-1],"categories":[],"categories_nodes":[],"categories_segments":[],"categories_sizes":[],"default_left":[0,0,0,0,0,0,0,0,0,0,0,0,0,0,0,0,0,0,0],"id":1,"left_children":[1,-1,3,5,-1,7,9,11,13,15,17,-1,-1,-1,-1,-1,-1,-1,-1],"loss_changes":[8.852744E3,0E0,3.7153022E3,1.3334961E0,0E0,4.001953E0,1.6427612E0,6.6259766E-1,2.0129395E-1,3.4983826E0,6.0794373E0,0E0,0E0,0E0,0E0,0E0,0E0,0E0,0E0],"parents":[2147483647,0,0,2,2,3,3,5,5,6,6,7,7,8,8,9,9,10,10],"right_children":[2,-1,4,6,-1,8,10,12,14,16,18,-1,-1,-1,-1,-1,-1,-1,-1],"split_conditions":[1E0,-3.356325E-1,1E0,1.1E1,-3.355897E-1,8E0,1.2E1,2E1,2E1,1E1,1E1,3.1180412E-1,2.916983E-1,3.360282E-1,3.0620894E-1,2.268133E-1,2.9813704E-1,3.7855852E-1,2.8909844E-1],"split_indices":[0,0,1,3,0,3,3,2,2,2,2,0,0,0,0,0,0,0,0],"split_type":[0,0,0,0,0,0,0,0,0,0,0,0,0,0,0,0,0,0,0],"sum_hessian":[1.0799922E4,4.7835933E3,6.016329E3,5.0737397E3,9.42589E2,4.2768716E3,7.9686804E2,3.0865642E3,1.1903076E3,3.8834323E2,4.0852484E2,2.6386953E3,4.478688E2,1.02335065E3,1.66957E2,1.04985176E2,2.8335803E2,1.0926612E2,2.9925873E2],"tree_param":{"num_deleted":"0","num_feature":"4","num_nodes":"19","size_leaf_vector":"1"}},{"base_weights":[-1.1130126E-1,-3.2490855E-1,4.4170555E-1,6.3439596E-1,-3.2486457E-1,6.071268E-1,6.440922E-1,6.4935815E-1,5.846628E-1,6.536108E-1,6.081632E-1,2.762134E-1,1.803681E-1,1.4865977E-1,1.7962003E-1,1.9789861E-1,1.845111E-1,1.725761E-1,1.9134232E-1],"categories":[],"categories_nodes":[],"categories_segments":[],"categories_sizes":[],"default_left":[0,0,0,0,0,0,0,0,0,0,0,0,0,0,0,0,0,0,0],"id":2,"left_children":[1,-1,3,5,-1,7,9,11,13,15,17,-1,-1,-1,-1,-1,-1,-1,-1],"loss_changes":[5.39751E3,0E0,1.8812632E3,1.1118164E0,0E0,1.0512695E0,1.0307617E0,6.168579E0,9.506836E-1,3.618164E-1,5.005188E-1,0E0,0E0,0E0,0E0,0E0,0E0,0E0,0E0],"parents":[2147483647,0,0,2,2,3,3,5,5,6,6,7,7,8,8,9,9,10,10],"right_children":[2,-1,4,6,-1,8,10,12,14,16,18,-1,-1,-1,-1,-1,-1,-1,-1],"split_conditions":[1E0,-3.2490855E-1,1E0,4E0,-3.2486457E-1,2E0,1.1E1,9E0,9E0,2E1,1.2E1,2.762134E-1,1.803681E-1,1.4865977E-1,1.7962003E-1,1.9789861E-1,1.845111E-1,1.725761E-1,1.9134232E-1],"split_indices":[0,0,1,3,0,3,3,2,2,2,3,0,0,0,0,0,0,0,0],"split_type":[0,0,0,0,0,0,0,0,0,0,0,0,0,0,0,0,0,0,0],"sum_hessian":[1.0042385E4,3.6419316E3,6.4004526E3,5.682796E3,7.1765656E2,1.5073136E3,4.1754824E3,5.1368933E2,9.9362427E2,3.2873713E3,8.8811127E2,7.465746E1,4.3903183E2,1.4041083E2,8.5321344E2,2.827684E3,4.5968723E2,4.3054837E2,4.5756293E2],"tree_param":{"num_deleted":"0","num_feature":"4","num_nodes":"19","size_leaf_vector":"1"}},{"base_weights":[-1.06850125E-1,-3.1725553E-1,2.9577273E-1,4.191102E-1,-3.172082E-1,4.0204874E-1,4.25164E-1,4.2897362E-1,3.8767782E-1,4.312608E-1,4.0213427E-1,1.7989762E-1,1.1945833E-1,1.2014785E-1,9.384346E-2,1.2672862E-1,1.3632187E-1,1.1421353E-1,1.2643056E-1],"categories":[],"categories_nodes":[],"categories_segments":[],"categories_sizes":[],"default_left":[0,0,0,0,0,0,0,0,0,0,0,0,0,0,0,0,0,0,0],"id":3,"left_children":[1,-1,3,5,-1,7,9,11,13,15,17,-1,-1,-1,-1,-1,-1,-1,-1],"loss_changes":[3.5427903E3,0E0,1.0856321E3,4.4458008E-1,0E0,4.4477844E-1,4.4177246E-1,2.599144E0,8.725586E-1,5.1342773E-1,2.2491455E-1,0E0,0E0,0E0,0E0,0E0,0E0,0E0,0E0],"parents":[2147483647,0,0,2,2,3,3,5,5,6,6,7,7,8,8,9,9,10,10],"right_children":[2,-1,4,6,-1,8,10,12,14,16,18,-1,-1,-1,-1,-1,-1,-1,-1],"split_conditions":[1E0,-3.1725553E-1,1E0,4E0,-3.172082E-1,2E0,1.1E1,9E0,2E1,9E0,1.2E1,1.7989762E-1,1.1945833E-1,1.2014785E-1,9.384346E-2,1.2672862E-1,1.3632187E-1,1.1421353E-1,1.2643056E-1],"split_indices":[0,0,1,3,0,3,3,2,2,3,3,0,0,0,0,0,0,0,0],"split_type":[0,0,0,0,0,0,0,0,0,0,0,0,0,0,0,0,0,0,0],"sum_hessian":[9.254069E3,2.75273E3,6.50134E3,5.958881E3,5.424589E2,1.5782614E3,4.3806196E3,5.3919366E2,1.0390676E3,3.449647E3,9.309725E2,7.955286E1,4.5964084E2,8.8348975E2,1.5557793E2,2.5107993E3,9.388477E2,4.510582E2,4.7991425E2],"tree_param":{"num_deleted":"0","num_feature":"4","num_nodes":"19","size_leaf_vector":"1"}},{"base_weights":[-9.749134E-2,-3.115805E-1,2.024798E-1,2.8577483E-1,-3.11528E-1,2.681064E-1,2.8945312E-1,1.15591384E-1,2.4721332E-1,2.686958E-1,2.975405E-1,6.754458E-2,8.662209E-2,6.056994E-2,9.019911E-2,9.662004E-2,8.3826885E-2],"categories":[],"categories_nodes":[],"categories_segments":[],"categories_sizes":[],"default_left":[0,0,0,0,0,0,0,0,0,0,0,0,0,0,0,0,0],"id":4,"left_children":[1,-1,3,5,-1,7,9,-1,11,13,15,-1,-1,-1,-1,-1,-1],"loss_changes":[2.419588E3,0E0,6.720936E2,3.1826782E-1,0E0,2.5080948E0,7.644043E-1,0E0,7.64328E-1,2.9723206E0,1.5140381E0,0E0,0E0,0E0,0E0,0E0,0E0],"parents":[2147483647,0,0,2,2,3,3,5,5,6,6,8,8,9,9,10,10],"right_children":[2,-1,4,6,-1,8,10,-1,12,14,16,-1,-1,-1,-1,-1,-1],"split_conditions":[1E0,-3.115805E-1,1E0,3E0,-3.11528E-1,9E0,1E1,1.15591384E-1,1.9E1,6E0,7E0,6.754458E-2,8.662209E-2,6.056994E-2,9.019911E-2,9.662004E-2,8.3826885E-2],"split_indices":[0,0,1,3,0,2,2,0,2,3,3,0,0,0,0,0,0],"split_type":[0,0,0,0,0,0,0,0,0,0,0,0,0,0,0,0,0],"sum_hessian":[8.569057E3,2.0705579E3,6.4984985E3,6.0904507E3,4.0804785E2,1.0621837E3,5.028267E3,1.5806842E2,9.0411536E2,1.4194038E3,3.608863E3,5.9460333E2,3.09512E2,4.6180063E2,9.5760315E2,1.5261232E3,2.08274E3],"tree_param":{"num_deleted":"0","num_feature":"4","num_nodes":"17","size_leaf_vector":"1"}},{"base_weights":[-8.593178E-2,-3.0717272E-1,1.3958564E-1,1.9757316E-1,-3.0711344E-1,1.9278872E-1,2.0491272E-1,1.977884E-1,1.6091943E-1,2.1740887E-1,1.859136E-1,6.294699E-2,5.4522008E-2,3.4664147E-2,6.4304E-2,6.062382E-2,7.668934E-2,5.1333193E-2,5.9852753E-2],"categories":[],"categories_nodes":[],"categories_segments":[],"categories_sizes":[],"default_left":[0,0,0,0,0,0,0,0,0,0,0,0,0,0,0,0,0,0,0],"id":5,"left_children":[1,-1,3,5,-1,7,9,11,13,15,17,-1,-1,-1,-1,-1,-1,-1,-1],"loss_changes":[1.6953784E3,0E0,4.3608514E2,1.7668152E-1,0E0,5.6463623E-1,5.325241E-1,5.85968E-1,1.2187958E0,7.9787445E-1,1.5995789E-1,0E0,0E0,0E0,0E0,0E0,0E0,0E0,0E0],"parents":[2147483647,0,0,2,2,3,3,5,5,6,6,7,7,8,8,9,9,10,10],"right_children":[2,-1,4,6,-1,8,10,12,14,16,18,-1,-1,-1,-1,-1,-1,-1,-1],"split_conditions":[1E0,-3.0717272E-1,1E0,8E0,-3.0711344E-1,7E0,1.1E1,1.8E1,1.8E1,1.9E1,1.2E1,6.294699E-2,5.4522008E-2,3.4664147E-2,6.4304E-2,6.062382E-2,7.668934E-2,5.1333193E-2,5.9852753E-2],"split_indices":[0,0,1,3,0,3,3,2,2,2,3,0,0,0,0,0,0,0,0],"split_type":[0,0,0,0,0,0,0,0,0,0,0,0,0,0,0,0,0,0,0],"sum_hessian":[8.013154E3,1.5524846E3,6.460669E3,6.1547026E3,3.0596667E2,3.7424104E3,2.412292E3,3.230414E3,5.1199625E2,1.4488857E3,9.634063E2,1.8391426E3,1.3912716E3,2.7857947E2,2.3341678E2,1.0386216E3,4.1026413E2,4.6772754E2,4.9567874E2],"tree_param":{"num_deleted":"0","num_feature":"4","num_nodes":"19","size_leaf_vector":"1"}},{"base_weights":[-7.367285E-2,-3.035346E-1,9.634217E-2,1.375059E-1,-3.0346754E-1,1.3987994E-1,1.2325261E-1,1.3666187E-1,1.5553917E-1,6.960225E-2,1.1161716E-1,3.5259023E-2,4.219451E-2,5.175582E-2,2.0313412E-2,-1.1451025E-2,3.8380373E-2],"categories":[],"categories_nodes":[],"categories_segments":[],"categories_sizes":[],"default_left":[0,0,0,0,0,0,0,0,0,0,0,0,0,0,0,0,0],"id":6,"left_children":[1,-1,3,5,-1,7,9,11,13,-1,15,-1,-1,-1,-1,-1,-1],"loss_changes":[1.2087567E3,0E0,2.9276013E2,1.9212341E-1,0E0,2.4565125E-1,1.1026525E0,3.191986E-1,1.3240795E0,0E0,1.9787111E0,0E0,0E0,0E0,0E0,0E0,0E0],"parents":[2147483647,0,0,2,2,3,3,5,5,6,6,7,7,8,8,10,10],"right_children":[2,-1,4,6,-1,8,10,12,14,-1,16,-1,-1,-1,-1,-1,-1],"split_conditions":[1E0,-3.035346E-1,1E0,2E1,-3.0346754E-1,1.9E1,2E0,3E0,1.1E1,6.960225E-2,3E0,3.5259023E-2,4.219451E-2,5.175582E-2,2.0313412E-2,-1.1451025E-2,3.8380373E-2],"split_indices":[0,0,1,2,0,2,3,3,3,0,3,0,0,0,0,0,0],"split_type":[0,0,0,0,0,0,0,0,0,0,0,0,0,0,0,0,0],"sum_hessian":[7.57715E3,1.161772E3,6.415378E3,6.1864E3,2.2897807E2,5.295557E3,8.9084283E2,4.4008765E3,8.946808E2,8.426737E1,8.0657544E2,7.6413824E2,3.636738E3,7.489232E2,1.4575758E2,7.910298E1,7.274725E2],"tree_param":{"num_deleted":"0","num_feature":"4","num_nodes":"17","size_leaf_vector":"1"}},{"base_weights":[-6.1752725E-2,-3.002895E-1,6.6382095E-2,9.5994495E-2,-3.0021453E-1,9.258975E-2,1.01239465E-1,9.6306175E-2,6.897839E-2,1.1488995E-1,9.579316E-2,2.328492E-2,3.112244E-2,1.1544611E-2,3.1492207E-2,2.76104E-2,6.237123E-2,3.154787E-2,1.8090168E-2],"categories":[],"categories_nodes":[],"categories_segments":[],"categories_sizes":[],"default_left":[0,0,0,0,0,0,0,0,0,0,0,0,0,0,0,0,0,0,0],"id":7,"left_children":[1,-1,3,5,-1,7,9,11,13,15,17,-1,-1,-1,-1,-1,-1,-1,-1],"loss_changes":[8.7170215E2,0E0,2.015165E2,1.0139847E-1,0E0,3.2444E-1,1.6972542E-1,4.446125E-1,5.6309223E-1,1.4440565E0,5.733242E-1,0E0,0E0,0E0,0E0,0E0,0E0,0E0,0E0],"parents":[2147483647,0,0,2,2,3,3,5,5,6,6,7,7,8,8,9,9,10,10],"right_children":[2,-1,4,6,-1,8,10,12,14,16,18,-1,-1,-1,-1,-1,-1,-1,-1],"split_conditions":[1E0,-3.002895E-1,1E0,8E0,-3.0021453E-1,7E0,1E1,1E1,1.8E1,1.2E1,1.2E1,2.328492E-2,3.112244E-2,1.1544611E-2,3.1492207E-2,2.76104E-2,6.237123E-2,3.154787E-2,1.8090168E-2],"split_indices":[0,0,1,3,0,3,2,2,2,3,3,0,0,0,0,0,0,0,0],"split_type":[0,0,0,0,0,0,0,0,0,0,0,0,0,0,0,0,0,0,0],"sum_hessian":[7.24176E3,8.685542E2,6.3732056E3,6.2020073E3,1.7119829E2,3.772052E3,2.4299553E3,3.256414E3,5.1563794E2,6.8728046E2,1.7426748E3,9.30043E2,2.3263708E3,2.802622E2,2.3537575E2,5.533112E2,1.3396924E2,1.377257E3,3.654178E2],"tree_param":{"num_deleted":"0","num_feature":"4","num_nodes":"19","size_leaf_vector":"1"}},{"base_weights":[-5.0775766E-2,-2.9712534E-1,4.5627818E-2,6.713177E-2,-2.9704455E-1,6.902824E-2,5.5802815E-2,7.184969E-2,5.3722493E-2,3.80419E-2,1.119821E-1,2.0506512E-2,2.6727075E-2,1.0970608E-2,2.0987425E-2,3.9357793E-2,7.3771523E-3,4.0009625E-2,2.1306112E-2],"categories":[],"categories_nodes":[],"categories_segments":[],"categories_sizes":[],"default_left":[0,0,0,0,0,0,0,0,0,0,0,0,0,0,0,0,0,0,0],"id":8,"left_children":[1,-1,3,5,-1,7,9,11,13,15,17,-1,-1,-1,-1,-1,-1,-1,-1],"loss_changes":[6.3305084E2,0E0,1.4125043E2,1.2958527E-1,0E0,2.257061E-1,8.895786E-1,2.6416206E-1,2.2897959E-1,8.5150987E-1,1.785531E-1,0E0,0E0,0E0,0E0,0E0,0E0,0E0,0E0],"parents":[2147483647,0,0,2,2,3,3,5,5,6,6,7,7,8,8,9,9,10,10],"right_children":[2,-1,4,6,-1,8,10,12,14,16,18,-1,-1,-1,-1,-1,-1,-1,-1],"split_conditions":[1E0,-2.9712534E-1,1E0,2E1,-2.9704455E-1,1.1E1,1E1,1.9E1,1.2E1,2E0,1.2E1,2.0506512E-2,2.6727075E-2,1.0970608E-2,2.0987425E-2,3.9357793E-2,7.3771523E-3,4.0009625E-2,2.1306112E-2],"split_indices":[0,0,1,2,0,3,3,2,3,3,3,0,0,0,0,0,0,0,0],"split_type":[0,0,0,0,0,0,0,0,0,0,0,0,0,0,0,0,0,0,0],"sum_hessian":[6.9869854E3,6.49273E2,6.3377124E3,6.209726E3,1.2798614E2,5.314913E3,8.948133E2,4.484543E3,8.3036975E2,6.8114764E2,2.1366562E2,3.7328591E3,7.51684E2,4.0534872E2,4.2502106E2,8.484488E1,5.963028E2,1.3889977E2,7.476587E1],"tree_param":{"num_deleted":"0","num_feature":"4","num_nodes":"19","size_leaf_vector":"1"}},{"base_weights":[-4.109572E-2,-2.9375812E-1,3.1264994E-2,4.6987124E-2,-2.9367834E-1,3.744136E-2,4.8998278E-2,1.2493081E-1,2.2141181E-2,3.0658565E-2,5.1967625E-2,4.6506282E-2,2.7683854E-2,2.778076E-3,1.4017075E-2,-4.7273245E-2,1.5810682E-2,2.0286426E-2,1.42734805E-2],"categories":[],"categories_nodes":[],"categories_segments":[],"categories_sizes":[],"default_left":[0,0,0,0,0,0,0,0,0,0,0,0,0,0,0,0,0,0,0],"id":9,"left_children":[1,-1,3,5,-1,7,9,11,13,15,17,-1,-1,-1,-1,-1,-1,-1,-1],"loss_changes":[4.6134836E2,0E0,1.0026755E2,1.1747074E-1,0E0,1.45055E0,2.777586E-1,1.4425683E-1,2.9255983E-1,2.9845066E0,3.0003834E-1,0E0,0E0,0E0,0E0,0E0,0E0,0E0,0E0],"parents":[2147483647,0,0,2,2,3,3,5,5,6,6,7,7,8,8,9,9,10,10],"right_children":[2,-1,4,6,-1,8,10,12,14,16,18,-1,-1,-1,-1,-1,-1,-1,-1],"split_conditions":[1E0,-2.9375812E-1,1E0,3E0,-2.9367834E-1,9E0,9E0,2E0,1.9E1,4E0,5E0,4.6506282E-2,2.7683854E-2,2.778076E-3,1.4017075E-2,-4.7273245E-2,1.5810682E-2,2.0286426E-2,1.42734805E-2],"split_indices":[0,0,1,3,0,2,2,3,2,3,3,0,0,0,0,0,0,0,0],"split_type":[0,0,0,0,0,0,0,0,0,0,0,0,0,0,0,0,0,0,0],"sum_hessian":[6.794934E3,4.8569968E2,6.3092344E3,6.2134844E3,9.575004E1,1.084695E3,5.1287896E3,1.6038968E2,9.2430524E2,7.162574E2,4.412532E3,8.151811E1,7.8871574E1,6.074069E2,3.1689832E2,7.444099E1,6.418164E2,9.6316864E2,3.4493633E3],"tree_param":{"num_deleted":"0","num_feature":"4","num_nodes":"19","size_leaf_vector":"1"}},{"base_weights":[-3.2839064E-2,-2.8990594E-1,2.1342129E-2,3.2895185E-2,-9.6614194E-1,3.4412336E-2,2.386034E-2,-1.7934617E-1,-2.9769373E-1,3.7305627E-2,2.504454E-2,1.1090226E-2,6.430501E-2,9.677946E-3,1.7075926E-2,1.37549015E-2,4.584287E-3,1.1830807E-2,-4.2841677E-3,2.3781104E-2,1.0746001E-2],"categories":[],"categories_nodes":[],"categories_segments":[],"categories_sizes":[],"default_left":[0,0,0,0,0,0,0,0,0,0,0,0,0,0,0,0,0,0,0,0,0],"id":10,"left_children":[1,-1,3,5,7,9,11,-1,-1,13,15,17,19,-1,-1,-1,-1,-1,-1,-1,-1],"loss_changes":[3.3645428E2,0E0,7.1765366E1,8.4382534E-2,1.0798645E-1,1.4325905E-1,4.6256673E-1,0E0,0E0,4.002347E-1,2.549271E-1,4.917062E-1,8.8831484E-2,0E0,0E0,0E0,0E0,0E0,0E0,0E0,0E0],"parents":[2147483647,0,0,2,2,3,3,4,4,5,5,6,6,9,9,10,10,11,11,12,12],"right_children":[2,-1,4,6,8,10,12,-1,-1,14,16,18,20,-1,-1,-1,-1,-1,-1,-1,-1],"split_conditions":[1E0,-2.8990594E-1,1E0,2E1,2E0,1E1,1E1,-1.7934617E-1,-2.9769373E-1,8E0,1E1,5E0,1.2E1,9.677946E-3,1.7075926E-2,1.37549015E-2,4.584287E-3,1.1830807E-2,-4.2841677E-3,2.3781104E-2,1.0746001E-2],"split_indices":[0,0,1,2,3,3,3,0,0,3,2,3,3,0,0,0,0,0,0,0,0],"split_type":[0,0,0,0,0,0,0,0,0,0,0,0,0,0,0,0,0,0,0,0,0],"sum_hessian":[6.6506606E3,3.6390634E2,6.286754E3,6.2150083E3,7.174571E1,5.319019E3,8.9598956E2,6.3413477E0,6.5404366E1,4.0615918E3,1.257427E3,6.819446E2,2.1404492E2,3.23263E3,8.2896204E2,4.004391E2,8.5698785E2,3.2182623E2,3.6011838E2,1.3915393E2,7.4891E1],"tree_param":{"num_deleted":"0","num_feature":"4","num_nodes":"21","size_leaf_vector":"1"}},{"base_weights":[-2.5980916E-2,-2.852704E-1,1.44870905E-2,2.3036646E-2,-9.5104194E-1,1.6291996E-2,2.4459617E-2,-1.5901999E-1,-2.956037E-1,7.8436434E-2,5.45713E-3,1.2606705E-2,2.9109938E-2,2.999624E-2,1.6589612E-2,6.003153E-3,-3.0900363E-3,1.1901702E-3,2.9023739E-2,1.3015093E-2,5.585082E-3],"categories":[],"categories_nodes":[],"categories_segments":[],"categories_sizes":[],"default_left":[0,0,0,0,0,0,0,0,0,0,0,0,0,0,0,0,0,0,0,0,0],"id":11,"left_children":[1,-1,3,5,7,9,11,-1,-1,13,15,17,19,-1,-1,-1,-1,-1,-1,-1,-1],"loss_changes":[2.449641E2,0E0,5.1787502E1,5.926752E-2,2.7288437E-1,7.30875E-1,2.8249526E-1,0E0,0E0,7.483876E-2,2.125417E-1,1.0520508E0,5.5110383E-1,0E0,0E0,0E0,0E0,0E0,0E0,0E0,0E0],"parents":[2147483647,0,0,2,2,3,3,4,4,5,5,6,6,9,9,10,10,11,11,12,12],"right_children":[2,-1,4,6,8,10,12,-1,-1,14,16,18,20,-1,-1,-1,-1,-1,-1,-1,-1],"split_conditions":[1E0,-2.852704E-1,1E0,3E0,2E0,9E0,1E1,-1.5901999E-1,-2.956037E-1,2E0,2E0,1.2E1,7E0,2.999624E-2,1.6589612E-2,6.003153E-3,-3.0900363E-3,1.1901702E-3,2.9023739E-2,1.3015093E-2,5.585082E-3],"split_indices":[0,0,1,3,3,2,2,0,0,3,3,3,3,0,0,0,0,0,0,0,0],"split_type":[0,0,0,0,0,0,0,0,0,0,0,0,0,0,0,0,0,0,0,0,0],"sum_hessian":[6.54328E3,2.7334396E2,6.269936E3,6.215872E3,5.4064087E1,1.0851045E3,5.1307676E3,5.3131557E0,4.875093E1,1.6017363E2,9.2493085E2,1.4468057E3,3.683962E3,8.1210686E1,7.8962944E1,4.806932E2,4.442376E2,1.3130298E3,1.3377583E2,1.5594695E3,2.1244924E3],"tree_param":{"num_deleted":"0","num_feature":"4","num_nodes":"21","size_leaf_vector":"1"}},{"base_weights":[-2.037155E-2,-2.7952486E-1,9.789483E-3,1.614205E-2,-9.32598E-1,1.2581863E-2,1.898717E-2,-1.38866E-1,-2.9318115E-1,2.0621292E-2,2.0435967E-3,3.431425E-2,1.6373746E-2,2.6867932E-4,1.2088005E-2,1.43142035E-2,-2.8878166E-3,2.1022674E-2,-4.5883306E-3,1.9983347E-3,8.677095E-3],"categories":[],"categories_nodes":[],"categories_segments":[],"categories_sizes":[],"default_left":[0,0,0,0,0,0,0,0,0,0,0,0,0,0,0,0,0,0,0,0,0],"id":12,"left_children":[1,-1,3,5,7,9,11,-1,-1,13,15,17,19,-1,-1,-1,-1,-1,-1,-1,-1],"loss_changes":[1.776882E2,0E0,3.7477776E1,6.27327E-2,4.2720032E-1,2.3416084E-1,1.3777149E-1,0E0,0E0,6.0841686E-1,6.386154E-1,8.919435E-1,3.5967338E-1,0E0,0E0,0E0,0E0,0E0,0E0,0E0,0E0],"parents":[2147483647,0,0,2,2,3,3,4,4,5,5,6,6,9,9,10,10,11,11,12,12],"right_children":[2,-1,4,6,8,10,12,-1,-1,14,16,18,20,-1,-1,-1,-1,-1,-1,-1,-1],"split_conditions":[1E0,-2.7952486E-1,1E0,6E0,2E0,1.8E1,7E0,-1.38866E-1,-2.9318115E-1,1E1,2E0,1.8E1,1.8E1,2.6867932E-4,1.2088005E-2,1.43142035E-2,-2.8878166E-3,2.1022674E-2,-4.5883306E-3,1.9983347E-3,8.677095E-3],"split_indices":[0,0,1,3,3,2,3,0,0,2,3,2,2,0,0,0,0,0,0,0,0],"split_type":[0,0,0,0,0,0,0,0,0,0,0,0,0,0,0,0,0,0,0,0,0],"sum_hessian":[6.462855E3,2.0607199E2,6.256783E3,6.215865E3,4.091784E1,2.7633816E3,3.452484E3,4.540308E0,3.6377533E1,1.5669956E3,1.196386E3,5.0116205E2,2.9513218E3,7.8295325E2,7.840424E2,2.4285571E2,9.535302E2,2.909865E2,2.1017552E2,1.664591E3,1.2867308E3],"tree_param":{"num_deleted":"0","num_feature":"4","num_nodes":"21","size_leaf_vector":"1"}},{"base_weights":[-1.5862487E-2,-2.7231148E-1,6.569333E-3,1.1306989E-2,-9.0986055E-1,1.52036445E-2,8.463763E-3,-1.1955359E-1,-2.902506E-1,1.1656524E-2,5.6901008E-2,1.1237548E-2,-2.2393525E-2,5.157083E-3,-1.5808139E-2,1.0928113E-2,1.9921292E-2,2.63424E-3,1.1152389E-2,-1.0127345E-2,3.336632E-3],"categories":[],"categories_nodes":[],"categories_segments":[],"categories_sizes":[],"default_left":[0,0,0,0,0,0,0,0,0,0,0,0,0,0,0,0,0,0,0,0,0],"id":13,"left_children":[1,-1,3,5,7,9,11,-1,-1,13,15,17,19,-1,-1,-1,-1,-1,-1,-1,-1],"loss_changes":[1.2812932E2,0E0,2.7138367E1,6.875074E-2,5.61985E-1,3.8705987E-1,3.0809423E-1,0E0,0E0,8.616545E-1,3.751844E-2,2.0999548E-1,1.1348754E-1,0E0,0E0,0E0,0E0,0E0,0E0,0E0,0E0],"parents":[2147483647,0,0,2,2,3,3,4,4,5,5,6,6,9,9,10,10,11,11,12,12],"right_children":[2,-1,4,6,8,10,12,-1,-1,14,16,18,20,-1,-1,-1,-1,-1,-1,-1,-1],"split_conditions":[1E0,-2.7231148E-1,1E0,1.1E1,2E0,1.2E1,1.2E1,-1.1955359E-1,-2.902506E-1,1.1E1,9E0,1.1E1,2E1,5.157083E-3,-1.5808139E-2,1.0928113E-2,1.9921292E-2,2.63424E-3,1.1152389E-2,-1.0127345E-2,3.336632E-3],"split_indices":[0,0,1,2,3,3,3,0,0,3,2,3,2,0,0,0,0,0,0,0,0],"split_type":[0,0,0,0,0,0,0,0,0,0,0,0,0,0,0,0,0,0,0,0,0],"sum_hessian":[6.403359E3,1.5613885E2,6.24722E3,6.2160728E3,3.114749E1,2.6204229E3,3.59565E3,3.9570773E0,2.7190413E1,2.4161636E3,2.0425919E2,3.2996753E3,2.959745E2,2.2255151E3,1.9064845E2,6.628576E1,1.3797342E2,3.015397E3,2.8427835E2,2.2102376E2,7.495073E1],"tree_param":{"num_deleted":"0","num_feature":"4","num_nodes":"21","size_leaf_vector":"1"}},{"base_weights":[-1.2280435E-2,-2.6325163E-1,4.3718717E-3,7.919086E-3,-8.8192534E-1,5.835887E-3,1.2471684E-2,-1.0161984E-1,-2.8662282E-1,-3.9166473E-3,9.722511E-3,3.3927824E-2,4.1827303E-3,1.1438945E-2,-5.5324454E-3,-3.926488E-3,5.241976E-3,2.198966E-2,-2.566611E-3,-4.2220657E-3,4.8304144E-3],"categories":[],"categories_nodes":[],"categories_segments":[],"categories_sizes":[],"default_left":[0,0,0,0,0,0,0,0,0,0,0,0,0,0,0,0,0,0,0,0,0],"id":14,"left_children":[1,-1,3,5,7,9,11,-1,-1,13,15,17,19,-1,-1,-1,-1,-1,-1,-1,-1],"loss_changes":[9.163752E1,0E0,1.962742E1,5.8888435E-2,6.69754E-1,1.6178049E-1,3.4681028E-1,0E0,0E0,7.437465E-1,5.3972507E-1,9.096701E-1,3.066669E-1,0E0,0E0,0E0,0E0,0E0,0E0,0E0,0E0],"parents":[2147483647,0,0,2,2,3,3,4,4,5,5,6,6,9,9,10,10,11,11,12,12],"right_children":[2,-1,4,6,8,10,12,-1,-1,14,16,18,20,-1,-1,-1,-1,-1,-1,-1,-1],"split_conditions":[1E0,-2.6325163E-1,1E0,9E0,2E0,1E1,1E1,-1.0161984E-1,-2.8662282E-1,3E0,3E0,1.1E1,1.8E1,1.1438945E-2,-5.5324454E-3,-3.926488E-3,5.241976E-3,2.198966E-2,-2.566611E-3,-4.2220657E-3,4.8304144E-3],"split_indices":[0,0,1,3,3,2,2,0,0,3,3,3,2,0,0,0,0,0,0,0,0],"split_type":[0,0,0,0,0,0,0,0,0,0,0,0,0,0,0,0,0,0,0,0,0],"sum_hessian":[6.3589204E3,1.1909802E2,6.2398228E3,6.2159355E3,2.3886883E1,4.266111E3,1.9498251E3,3.5148408E0,2.0372042E1,1.2156718E3,3.050439E3,5.424885E2,1.4073365E3,3.1170978E2,9.039619E2,7.7344995E2,2.276989E3,2.8118066E2,2.6130783E2,5.5580566E2,8.515309E2],"tree_param":{"num_deleted":"0","num_feature":"4","num_nodes":"21","size_leaf_vector":"1"}},{"base_weights":[-9.458928E-3,-2.5197506E-1,2.8807647E-3,5.5481647E-3,-8.4804696E-1,6.737827E-3,-1.5099283E-3,-8.542158E-2,-2.820974E-1,1.546405E-3,9.573547E-3,1.4326882E-2,-6.7226863E-3,3.258235E-3,-4.984113E-3,6.4023403E-3,1.5946588E-3,-2.4892142E-2,4.9626414E-4],"categories":[],"categories_nodes":[],"categories_segments":[],"categories_sizes":[],"default_left":[0,0,0,0,0,0,0,0,0,0,0,0,0,0,0,0,0,0,0],"id":15,"left_children":[1,-1,3,5,7,9,11,-1,-1,13,15,-1,17,-1,-1,-1,-1,-1,-1],"loss_changes":[6.4836075E1,0E0,1.4156878E1,5.2209333E-2,7.4538517E-1,7.830447E-2,2.308113E-1,0E0,0E0,3.182847E-1,1.7227772E-1,0E0,5.191219E-1,0E0,0E0,0E0,0E0,0E0,0E0],"parents":[2147483647,0,0,2,2,3,3,4,4,5,5,6,6,9,9,10,10,12,12],"right_children":[2,-1,4,6,8,10,12,-1,-1,14,16,-1,18,-1,-1,-1,-1,-1,-1],"split_conditions":[1E0,-2.5197506E-1,1E0,2E1,2E0,5E0,2E0,-8.542158E-2,-2.820974E-1,1.8E1,7E0,1.4326882E-2,3E0,3.258235E-3,-4.984113E-3,6.4023403E-3,1.5946588E-3,-2.4892142E-2,4.9626414E-4],"split_indices":[0,0,1,2,3,3,3,0,0,2,3,0,3,0,0,0,0,0,0],"split_type":[0,0,0,0,0,0,0,0,0,0,0,0,0,0,0,0,0,0,0],"sum_hessian":[6.3257197E3,9.163512E1,6.2340845E3,6.2155938E3,1.8490519E1,5.319091E3,8.9650305E2,3.177732E0,1.5312786E1,1.8796027E3,3.4394883E3,8.499997E1,8.1150305E2,1.2426471E3,6.3695557E2,9.1280927E2,2.526679E3,7.944512E1,7.320579E2],"tree_param":{"num_deleted":"0","num_feature":"4","num_nodes":"19","size_leaf_vector":"1"}},{"base_weights":[-7.259812E-3,-2.3817365E-1,1.8672082E-3,3.88287E-3,-8.077976E-1,2.316895E-3,7.306095E-3,-7.113256E-2,-2.76473E-1,-6.4040534E-3,5.793549E-3,2.2202281E-2,1.5539547E-3,7.044853E-3,-5.0170873E-3,-2.2627108E-3,3.0969824E-3,1.4948654E-2,-2.2761398E-3,-3.4353796E-3,3.013648E-3],"categories":[],"categories_nodes":[],"categories_segments":[],"categories_sizes":[],"default_left":[0,0,0,0,0,0,0,0,0,0,0,0,0,0,0,0,0,0,0,0,0],"id":16,"left_children":[1,-1,3,5,7,9,11,-1,-1,13,15,17,19,-1,-1,-1,-1,-1,-1,-1,-1],"loss_changes":[4.5249733E1,0E0,1.0172006E1,3.3307284E-2,7.865143E-1,1.2940252E-1,1.6711093E-1,0E0,0E0,3.7561795E-1,1.8438905E-1,4.4753835E-1,1.5564564E-1,0E0,0E0,0E0,0E0,0E0,0E0,0E0,0E0],"parents":[2147483647,0,0,2,2,3,3,4,4,5,5,6,6,9,9,10,10,11,11,12,12],"right_children":[2,-1,4,6,8,10,12,-1,-1,14,16,18,20,-1,-1,-1,-1,-1,-1,-1,-1],"split_conditions":[1E0,-2.3817365E-1,1E0,9E0,2E0,1E1,1E1,-7.113256E-2,-2.76473E-1,3E0,3E0,1.1E1,1.8E1,7.044853E-3,-5.0170873E-3,-2.2627108E-3,3.0969824E-3,1.4948654E-2,-2.2761398E-3,-3.4353796E-3,3.013648E-3],"split_indices":[0,0,1,3,3,2,2,0,0,3,3,3,2,0,0,0,0,0,0,0,0],"split_type":[0,0,0,0,0,0,0,0,0,0,0,0,0,0,0,0,0,0,0,0,0],"sum_hessian":[6.301168E3,7.1283714E1,6.2298843E3,6.2154062E3,1.447806E1,4.2657085E3,1.9496975E3,2.9193287E0,1.1558732E1,1.215605E3,3.0501035E3,5.4234344E2,1.4073541E3,3.116752E2,9.0392975E2,7.7316656E2,2.276937E3,2.810377E2,2.6130573E2,5.557881E2,8.5156604E2],"tree_param":{"num_deleted":"0","num_feature":"4","num_nodes":"21","size_leaf_vector":"1"}},{"base_weights":[-5.5496357E-3,-7.389323E-1,1.1886245E-3,-7.728901E-1,-5.016816E-1,2.7206978E-3,-7.6124394E-1,-2.7027133E-1,-6.590276E-1,1.3369736E-1,-2.2755232E-1,3.711658E-3,-3.1569563E-3,-5.8772836E-2,-2.6956782E-1,-3.1387997E-1,-7.143446E-1,1.455226E-3,7.2069042E-3,1.7374083E-2,-1.4670143E-2,1.839284E-1,-2.3119009E-1,-2.6136947E-1,-1.20441504E-1,1.5152019E-3,-6.3840155E-3,6.843533E-4,9.326071E-3,-2.6114983E-3,1.3330029E-2,-1.7715042E-2,3.3969808E-4],"categories":[],"categories_nodes":[],"categories_segments":[],"categories_sizes":[],"default_left":[0,0,0,0,0,0,0,0,0,0,0,0,0,0,0,0,0,0,0,0,0,0,0,0,0,0,0,0,0,0,0,0,0],"id":17,"left_children":[1,3,5,7,9,11,13,-1,15,-1,-1,17,19,-1,-1,21,23,25,27,29,31,-1,-1,-1,-1,-1,-1,-1,-1,-1,-1,-1,-1],"loss_changes":[3.105351E1,7.317352E-2,7.276493E0,1.0880852E-1,2.774239E0,3.6217317E-2,7.937417E-1,0E0,3.3392143E-1,0E0,0E0,4.1944906E-2,2.1236956E-1,0E0,0E0,2.9374433E0,8.484831E-1,2.644654E-1,2.4538156E-1,2.282298E-1,4.0366298E-1,0E0,0E0,0E0,0E0,0E0,0E0,0E0,0E0,0E0,0E0,0E0,0E0],"parents":[2147483647,0,0,1,1,2,2,3,3,4,4,5,5,6,6,8,8,11,11,12,12,15,15,16,16,17,17,18,18,19,19,20,20],"right_children":[2,4,6,8,10,12,14,-1,16,-1,-1,18,20,-1,-1,22,24,26,28,30,32,-1,-1,-1,-1,-1,-1,-1,-1,-1,-1,-1,-1],"split_conditions":[1E0,1.1E1,1E0,1.3E1,8E0,2E1,2E0,-2.7027133E-1,1.4E1,1.3369736E-1,-2.2755232E-1,8E0,5E0,-5.8772836E-2,-2.6956782E-1,4E0,7E0,7E0,1.9E1,3E0,7E0,1.839284E-1,-2.3119009E-1,-2.6136947E-1,-1.20441504E-1,1.5152019E-3,-6.3840155E-3,6.843533E-4,9.326071E-3,-2.6114983E-3,1.3330029E-2,-1.7715042E-2,3.3969808E-4],"split_indices":[0,3,1,2,2,2,3,0,2,0,0,3,3,0,0,3,3,3,2,3,3,0,0,0,0,0,0,0,0,0,0,0,0],"split_type":[0,0,0,0,0,0,0,0,0,0,0,0,0,0,0,0,0,0,0,0,0,0,0,0,0,0,0,0,0,0,0,0,0],"sum_hessian":[6.282766E3,5.6210705E1,6.226555E3,4.7197598E1,9.013109E0,6.2150625E3,1.1492451E1,1.8964184E1,2.8233412E1,1.7655132E0,7.2475963E0,5.318708E3,8.963548E2,2.7201548E0,8.772297E0,4.8218656E0,2.3411547E1,3.2329944E3,2.0857136E3,3.2186887E2,5.744859E2,1.47866E0,3.3432057E0,1.4404128E1,9.007418E0,2.7922021E3,4.407921E2,1.7299685E3,3.5574506E2,1.6424867E2,1.5762021E2,1.501276E2,4.2435834E2],"tree_param":{"num_deleted":"0","num_feature":"4","num_nodes":"33","size_leaf_vector":"1"}},{"base_weights":[-4.34974E-3,-6.803312E-1,7.31606E-4,-2.2413464E-1,-5.090675E-1,1.9040705E-3,-7.090866E-1,3.052333E-2,-5.883498E-1,4.7434815E-3,-1.6549966E-4,-1.6083843E-1,-2.6124978E-1,-6.992563E-1,-2.8614366E-1,1.4489141E-3,4.3520186E-2,2.4133163E-2,-2.59152E-3,-1.5287678E-2,-5.6822516E-2,-7.457218E-2,-2.2784583E-1,1.17517985E-1,-1.6515823E-1,1.8581777E-3,-6.8608946E-3,1.5996667E-2,7.35993E-3,-3.6243193E-3,1.7901333E-2,-1.4467153E-4,-7.113379E-3],"categories":[],"categories_nodes":[],"categories_segments":[],"categories_sizes":[],"default_left":[0,0,0,0,0,0,0,0,0,0,0,0,0,0,0,0,0,0,0,0,0,0,0,0,0,0,0,0,0,0,0,0,0],"id":18,"left_children":[1,3,5,-1,7,9,11,-1,13,15,17,19,-1,21,23,25,27,29,31,-1,-1,-1,-1,-1,-1,-1,-1,-1,-1,-1,-1,-1,-1],"loss_changes":[2.1540792E1,1.548233E-1,5.1822147E0,0E0,8.475208E-1,3.652802E-2,7.705102E-1,0E0,2.873721E-1,3.3472657E-1,2.1206395E-1,1.5419647E-3,0E0,8.120918E-2,1.2187691E0,2.7897778E-1,3.6879003E-2,4.2100626E-1,1.456937E-1,0E0,0E0,0E0,0E0,0E0,0E0,0E0,0E0,0E0,0E0,0E0,0E0,0E0,0E0],"parents":[2147483647,0,0,1,1,2,2,4,4,5,5,6,6,8,8,9,9,10,10,11,11,13,13,14,14,15,15,16,16,17,17,18,18],"right_children":[2,4,6,-1,8,10,12,-1,14,16,18,20,-1,22,24,26,28,30,32,-1,-1,-1,-1,-1,-1,-1,-1,-1,-1,-1,-1,-1,-1],"split_conditions":[1E0,9E0,1E0,-2.2413464E-1,7E0,1.1E1,2E0,3.052333E-2,1.6E1,1.2E1,2E0,1.1E1,-2.6124978E-1,8E0,1E1,1E1,1E1,1.9E1,1.2E1,-1.5287678E-2,-5.6822516E-2,-7.457218E-2,-2.2784583E-1,1.17517985E-1,-1.6515823E-1,1.8581777E-3,-6.8608946E-3,1.5996667E-2,7.35993E-3,-3.6243193E-3,1.7901333E-2,-1.4467153E-4,-7.113379E-3],"split_indices":[0,3,1,0,2,2,3,0,2,3,3,2,0,2,3,3,2,2,3,0,0,0,0,0,0,0,0,0,0,0,0,0,0],"split_type":[0,0,0,0,0,0,0,0,0,0,0,0,0,0,0,0,0,0,0,0,0,0,0,0,0,0,0,0,0,0,0,0,0],"sum_hessian":[6.2700186E3,4.5788563E1,6.22423E3,3.0523539E1,1.5265024E1,6.2149614E3,9.26844E0,1.7211921E0,1.3543832E1,2.6196116E3,3.5953499E3,2.5658197E0,6.7026205E0,8.946663E0,4.59717E0,2.4154282E3,2.0418356E2,3.2556738E2,3.2697825E3,1.1038991E0,1.4619205E0,1.6591094E0,7.2875533E0,1.1547565E0,3.442413E0,2.0217013E3,3.9372687E2,1.334711E2,7.0712456E1,1.6157632E2,1.6399106E2,2.9738042E3,2.9597842E2],"tree_param":{"num_deleted":"0","num_feature":"4","num_nodes":"33","size_leaf_vector":"1"}},{"base_weights":[-3.3703325E-3,-6.135791E-1,4.288152E-4,-2.5918552E-1,-5.3817195E-1,1.3371136E-3,-6.5364206E-1,1.5342264E-1,-6.2267125E-1,-1.1994495E-3,3.3674815E-3,-1.3722184E-1,-2.5147212E-1,2.4761102E-1,-1.8449274E-1,-7.468031E-1,-4.428252E-1,-1.2798517E-2,3.3905683E-3,9.442856E-3,9.7419106E-4,-5.1123302E-2,-9.600357E-3,-2.695136E-1,-1.2818785E-1,2.4169585E-2,-1.5694949E-1,3.9301487E-3,-8.974724E-3,9.602958E-3,-1.0383009E-3,5.056796E-3,-3.2410596E-3,4.120258E-3,-3.4410862E-4],"categories":[],"categories_nodes":[],"categories_segments":[],"categories_sizes":[],"default_left":[0,0,0,0,0,0,0,0,0,0,0,0,0,0,0,0,0,0,0,0,0,0,0,0,0,0,0,0,0,0,0,0,0,0,0],"id":19,"left_children":[1,3,5,-1,7,9,11,13,15,17,19,21,-1,-1,-1,23,25,27,29,31,33,-1,-1,-1,-1,-1,-1,-1,-1,-1,-1,-1,-1,-1,-1],"loss_changes":[1.4515103E1,2.6646423E-1,3.6980927E0,0E0,1.9904537E0,3.2015786E-2,7.078924E-1,2.7446702E0,3.1878185E-1,1.4720431E-1,5.0191708E-2,6.6605955E-3,0E0,0E0,0E0,3.7917805E-1,6.450074E-1,3.4791192E-1,3.8859934E-1,1.4660925E-1,6.708649E-2,0E0,0E0,0E0,0E0,0E0,0E0,0E0,0E0,0E0,0E0,0E0,0E0,0E0,0E0],"parents":[2147483647,0,0,1,1,2,2,4,4,5,5,6,6,7,7,8,8,9,9,10,10,11,11,15,15,16,16,17,17,18,18,19,19,20,20],"right_children":[2,4,6,-1,8,10,12,14,16,18,20,22,-1,-1,-1,24,26,28,30,32,34,-1,-1,-1,-1,-1,-1,-1,-1,-1,-1,-1,-1,-1,-1],"split_conditions":[1E0,3E0,1E0,-2.5918552E-1,4E0,6E0,2E0,1.4E1,9E0,1E1,1E1,1.8E1,-2.5147212E-1,2.4761102E-1,-1.8449274E-1,1.5E1,7E0,3E0,1.1E1,1.1E1,7E0,-5.1123302E-2,-9.600357E-3,-2.695136E-1,-1.2818785E-1,2.4169585E-2,-1.5694949E-1,3.9301487E-3,-8.974724E-3,9.602958E-3,-1.0383009E-3,5.056796E-3,-3.2410596E-3,4.120258E-3,-3.4410862E-4],"split_indices":[0,3,1,0,3,3,3,2,3,2,2,2,0,0,0,2,2,3,2,3,3,0,0,0,0,0,0,0,0,0,0,0,0,0,0],"split_type":[0,0,0,0,0,0,0,0,0,0,0,0,0,0,0,0,0,0,0,0,0,0,0,0,0,0,0,0,0,0,0,0,0,0,0],"sum_hessian":[6.260056E3,3.774072E1,6.2223154E3,6.315228E0,3.1425491E1,6.2146836E3,7.6322813E0,3.3327267E0,2.8092766E1,2.7631084E3,3.451575E3,2.4688735E0,5.163408E0,1.7383952E0,1.5943315E0,1.4755731E1,1.3337034E1,7.8290454E2,1.9802037E3,9.746014E2,2.4769736E3,1.4058692E0,1.0630043E0,8.779163E0,5.9765677E0,1.7744147E0,1.1562619E1,3.1163052E2,4.7127405E2,3.8178796E2,1.5984158E3,7.135174E2,2.6108398E2,3.5229584E2,2.1246777E3],"tree_param":{"num_deleted":"0","num_feature":"4","num_nodes":"35","size_leaf_vector":"1"}},{"base_weights":[-2.6712606E-3,-5.4744524E-1,2.2699604E-4,-2.4908161E-1,-4.6916786E-1,9.373961E-4,-5.960422E-1,9.777637E-2,-5.5475986E-1,-4.6883444E-3,2.1276965E-3,-1.1677808E-1,-2.4030493E-1,5.492834E-1,-1.7112538E-1,-6.4960885E-1,-3.0104932E-1,-1.2903169E-2,1.5192003E-2,-6.0926573E-3,3.461805E-3,-5.351073E-3,-4.57824E-2,-1.963073E-2,2.7484113E-1,-2.5322133E-1,-1.7828379E-2,3.6672797E-2,-1.5052508E-1,2.7551185E-3,-8.393055E-3,1.40114E-2,-4.2657494E-3,-3.4418326E-2,1.9888673E-3,5.77981E-3,4.454437E-4],"categories":[],"categories_nodes":[],"categories_segments":[],"categories_sizes":[],"default_left":[0,0,0,0,0,0,0,0,0,0,0,0,0,0,0,0,0,0,0,0,0,0,0,0,0,0,0,0,0,0,0,0,0,0,0,0,0],"id":20,"left_children":[1,3,5,-1,7,9,11,13,15,17,19,21,-1,23,-1,25,27,29,31,33,35,-1,-1,-1,-1,-1,-1,-1,-1,-1,-1,-1,-1,-1,-1,-1,-1],"loss_changes":[9.874416E0,3.4317112E-1,2.6360617E0,0E0,1.4236856E0,4.1630454E-2,6.3395E-1,1.6865864E0,3.9807653E-1,1.7750973E-1,5.6288667E-2,9.29248E-3,0E0,7.8740466E-1,0E0,1.9115071E0,7.899579E-1,2.5621676E-1,2.9531774E-1,9.9139595E-1,1.3791509E-1,0E0,0E0,0E0,0E0,0E0,0E0,0E0,0E0,0E0,0E0,0E0,0E0,0E0,0E0,0E0,0E0],"parents":[2147483647,0,0,1,1,2,2,4,4,5,5,6,6,7,7,8,8,9,9,10,10,11,11,13,13,15,15,16,16,17,17,18,18,19,19,20,20],"right_children":[2,4,6,-1,8,10,12,14,16,18,20,22,-1,24,-1,26,28,30,32,34,36,-1,-1,-1,-1,-1,-1,-1,-1,-1,-1,-1,-1,-1,-1,-1,-1],"split_conditions":[1E0,3E0,1E0,-2.4908161E-1,4E0,3E0,2E0,1.4E1,1.6E1,1.9E1,9E0,1.1E1,-2.4030493E-1,1.2E1,-1.7112538E-1,1.1E1,1.7E1,1E1,2E1,4E0,4E0,-5.351073E-3,-4.57824E-2,-1.963073E-2,2.7484113E-1,-2.5322133E-1,-1.7828379E-2,3.6672797E-2,-1.5052508E-1,2.7551185E-3,-8.393055E-3,1.40114E-2,-4.2657494E-3,-3.4418326E-2,1.9888673E-3,5.77981E-3,4.454437E-4],"split_indices":[0,3,1,0,3,3,3,2,2,2,2,2,0,2,0,3,2,2,2,3,3,0,0,0,0,0,0,0,0,0,0,0,0,0,0,0,0],"split_type":[0,0,0,0,0,0,0,0,0,0,0,0,0,0,0,0,0,0,0,0,0,0,0,0,0,0,0,0,0,0,0,0,0,0,0,0,0],"sum_hessian":[6.252926E3,3.2095905E1,6.2208296E3,4.8750176E0,2.7220888E1,6.2144243E3,6.4054885E0,3.551842E0,2.3669046E1,1.0847255E3,5.1296987E3,2.389097E0,4.0163913E0,2.2258003E0,1.3260417E0,1.6092482E1,7.5765653E0,7.67808E2,3.169175E2,7.15772E2,4.413927E3,1.0333667E0,1.3557302E0,1.1389484E0,1.0868517E0,1.1780623E1,4.311858E0,2.56266E0,5.013905E0,3.116093E2,4.561987E2,1.5270906E2,1.6420845E2,7.419578E1,6.415762E2,4.897871E2,3.9241396E3],"tree_param":{"num_deleted":"0","num_feature":"4","num_nodes":"37","size_leaf_vector":"1"}},{"base_weights":[-2.1249505E-3,-4.8017618E-1,9.0310954E-5,-2.3762283E-1,-4.0113333E-1,6.51893E-4,-5.383505E-1,7.1208656E-2,-4.8550883E-1,-6.367987E-4,3.470406E-3,-9.917365E-2,-2.2794943E-1,4.0896454E-1,-1.5841354E-1,-5.3299165E-1,-1.0592822E-2,9.055512E-4,-9.775237E-3,1.1563857E-2,3.4762966E-4,-4.1537862E-2,-1.306799E-3,-1.6697874E-2,1.9363718E-1,-2.5163588E-1,-1.0814982E-1,-1.7733534E-3,1.2926331E-3,7.035328E-5,-2.7142651E-2,9.130383E-3,-2.6325358E-3,-1.4709427E-3,2.4253288E-3],"categories":[],"categories_nodes":[],"categories_segments":[],"categories_sizes":[],"default_left":[0,0,0,0,0,0,0,0,0,0,0,0,0,0,0,0,0,0,0,0,0,0,0,0,0,0,0,0,0,0,0,0,0,0,0],"id":21,"left_children":[1,3,5,-1,7,9,11,13,15,17,19,21,-1,23,-1,25,-1,27,29,31,33,-1,-1,-1,-1,-1,-1,-1,-1,-1,-1,-1,-1,-1,-1],"loss_changes":[6.617091E0,3.928113E-1,1.8813043E0,0E0,1.0317202E0,2.2576442E-2,5.551753E-1,1.1599704E0,4.3769884E-1,6.0134333E-2,4.9285624E-2,1.1776019E-2,0E0,4.256059E-1,0E0,7.128644E-1,0E0,8.471856E-2,4.9769086E-1,2.0865318E-1,5.7249464E-2,0E0,0E0,0E0,0E0,0E0,0E0,0E0,0E0,0E0,0E0,0E0,0E0,0E0,0E0],"parents":[2147483647,0,0,1,1,2,2,4,4,5,5,6,6,7,7,8,8,9,9,10,10,11,11,13,13,15,15,17,17,18,18,19,19,20,20],"right_children":[2,4,6,-1,8,10,12,14,16,18,20,22,-1,24,-1,26,-1,28,30,32,34,-1,-1,-1,-1,-1,-1,-1,-1,-1,-1,-1,-1,-1,-1],"split_conditions":[1E0,3E0,1E0,-2.3762283E-1,4E0,9E0,2E0,1.4E1,2.2E1,2E1,1E1,1.8E1,-2.2794943E-1,1.2E1,-1.5841354E-1,7E0,-1.0592822E-2,1E1,8E0,1.1E1,1.9E1,-4.1537862E-2,-1.306799E-3,-1.6697874E-2,1.9363718E-1,-2.5163588E-1,-1.0814982E-1,-1.7733534E-3,1.2926331E-3,7.035328E-5,-2.7142651E-2,9.130383E-3,-2.6325358E-3,-1.4709427E-3,2.4253288E-3],"split_indices":[0,3,1,0,3,3,3,2,2,2,2,2,0,2,0,3,0,2,3,3,2,0,0,0,0,0,0,0,0,0,0,0,0,0,0],"split_type":[0,0,0,0,0,0,0,0,0,0,0,0,0,0,0,0,0,0,0,0,0,0,0,0,0,0,0,0,0,0,0,0,0,0,0],"sum_hessian":[6.2473433E3,2.782109E1,6.219522E3,3.8011332E0,2.4019957E1,6.21404E3,5.4823184E0,3.6640892E0,2.0355867E1,4.264831E3,1.9492087E3,2.323265E0,3.1590533E0,2.5464077E0,1.1176816E0,1.82474E1,2.108467E0,3.6497427E3,6.150883E2,5.4193823E2,1.4072705E3,1.3172259E0,1.0060393E0,1.1168466E0,1.4295611E0,5.1877694E0,1.3059631E1,1.215112E3,2.4346306E3,5.481011E2,6.698724E1,2.8085815E2,2.6108005E2,8.3854047E2,5.687301E2],"tree_param":{"num_deleted":"0","num_feature":"4","num_nodes":"35","size_leaf_vector":"1"}},{"base_weights":[-1.7004486E-3,-4.383451E-4,-6.125178E-1,-2.9928663E-1,4.530787E-4,-1.9810788E-1,-7.046794E-1,-4.9958786E-1,-1.349385E-1,-3.5056386E-3,1.2906805E-3,-1.169003E-2,-7.441889E-2,-5.2609567E-2,-7.7103317E-1,-2.029909E-1,2.0303313E-2,2.7952233E-1,-2.5797707E-1,2.0111764E-2,-7.6007163E-3,5.235059E-3,-1.5732445E-3,-7.598043E-2,-2.5750348E-1,1.370741E-1,-9.718148E-3,-2.102426E-1,-3.8908964E-3,1.0725914E-2,1.1662509E-3,-9.235884E-3,1.0980662E-3,-6.631352E-4,6.0994667E-3,4.798776E-5,-5.1584602E-3],"categories":[],"categories_nodes":[],"categories_segments":[],"categories_sizes":[],"default_left":[0,0,0,0,0,0,0,0,0,0,0,0,0,0,0,0,0,0,0,0,0,0,0,0,0,0,0,0,0,0,0,0,0,0,0,0,0],"id":22,"left_children":[1,3,5,7,9,11,13,15,17,19,21,-1,-1,-1,23,-1,-1,25,27,29,31,33,35,-1,-1,-1,-1,-1,-1,-1,-1,-1,-1,-1,-1,-1,-1],"loss_changes":[4.8135257E0,1.6604469E0,3.5212564E-1,5.427952E-1,2.0611906E-2,2.0014256E-2,2.2097588E-1,8.47697E-1,6.612094E-1,1.0514633E-1,5.7961695E-2,0E0,0E0,0E0,1.7669535E-1,0E0,0E0,1.8767557E-1,1.0138001E0,4.0639758E-2,2.4185763E-1,2.4263826E-1,8.0497384E-2,0E0,0E0,0E0,0E0,0E0,0E0,0E0,0E0,0E0,0E0,0E0,0E0,0E0,0E0],"parents":[2147483647,0,0,1,1,2,2,3,3,4,4,5,5,6,6,7,7,8,8,9,9,10,10,14,14,17,17,18,18,19,19,20,20,21,21,22,22],"right_children":[2,4,6,8,10,12,14,16,18,20,22,-1,-1,-1,24,-1,-1,26,28,30,32,34,36,-1,-1,-1,-1,-1,-1,-1,-1,-1,-1,-1,-1,-1,-1],"split_conditions":[1E0,1E0,2E0,1.3E1,3E0,1.1E1,8E0,1.1E1,1.4E1,9E0,1.1E1,-1.169003E-2,-7.441889E-2,-5.2609567E-2,4E0,-2.029909E-1,2.0303313E-2,4E0,5E0,2E0,1.1E1,1E1,1.2E1,-7.598043E-2,-2.5750348E-1,1.370741E-1,-9.718148E-3,-2.102426E-1,-3.8908964E-3,1.0725914E-2,1.1662509E-3,-9.235884E-3,1.0980662E-3,-6.631352E-4,6.0994667E-3,4.798776E-5,-5.1584602E-3],"split_indices":[1,0,3,2,3,2,2,3,2,2,2,0,0,0,3,0,0,3,3,3,2,2,3,0,0,0,0,0,0,0,0,0,0,0,0,0,0],"split_type":[0,0,0,0,0,0,0,0,0,0,0,0,0,0,0,0,0,0,0,0,0,0,0,0,0,0,0,0,0,0,0,0,0,0,0,0,0],"sum_hessian":[6.2432637E3,6.231389E3,1.1874911E1,1.7536594E1,6.2138525E3,2.7334359E0,9.141476E0,6.984426E0,1.0552168E1,1.0845955E3,5.129257E3,1.0783116E0,1.6551244E0,1.4240992E0,7.717376E0,5.176113E0,1.8083133E0,2.124356E0,8.427812E0,1.5969289E2,9.249025E2,2.1572827E3,2.9719744E3,1.6764766E0,6.0408998E0,1.0578697E0,1.0664864E0,2.3393195E0,6.088492E0,8.069439E1,7.89985E1,3.017939E2,6.231086E2,1.4453147E3,7.119679E2,2.676058E3,2.9591623E2],"tree_param":{"num_deleted":"0","num_feature":"4","num_nodes":"37","size_leaf_vector":"1"}},{"base_weights":[-1.3657798E-3,-3.7495163E-4,-5.5353934E-1,-2.4921156E-1,3.1785658E-4,-1.6886398E-1,-6.505984E-1,-1.5711796E-1,-1.962907E-1,-1.068893E-3,2.4718181E-3,-6.830597E-2,-2.932586E-3,-4.4927757E-2,-7.235429E-1,-3.456246E-1,2.2226831E-1,3.058091E-3,-6.440862E-3,-1.6442146E-3,7.883479E-3,-6.521503E-2,-2.4717662E-1,-1.9363013E-1,-6.3412555E-2,-1.9480581E-3,1.442661E-1,2.3012892E-3,-8.202346E-3,6.910931E-3,-3.4708132E-3,-2.1684763E-3,6.1698765E-3,3.9594807E-3,-3.552995E-3],"categories":[],"categories_nodes":[],"categories_segments":[],"categories_sizes":[],"default_left":[0,0,0,0,0,0,0,0,0,0,0,0,0,0,0,0,0,0,0,0,0,0,0,0,0,0,0,0,0,0,0,0,0,0,0],"id":23,"left_children":[1,3,5,7,9,11,13,15,-1,17,19,-1,-1,-1,21,23,25,27,29,31,33,-1,-1,-1,-1,-1,-1,-1,-1,-1,-1,-1,-1,-1,-1],"loss_changes":[3.4143467E0,1.074263E0,3.0749512E-1,5.4263794E-1,1.8565703E-2,3.1488687E-2,2.0494008E-1,1.1790711E0,0E0,8.3851255E-2,5.4236054E-2,0E0,0E0,0E0,1.8794966E-1,2.9374778E-1,3.418034E-1,3.0017498E-1,2.4867284E-1,1.7173544E-1,1.10432036E-1,0E0,0E0,0E0,0E0,0E0,0E0,0E0,0E0,0E0,0E0,0E0,0E0,0E0,0E0],"parents":[2147483647,0,0,1,1,2,2,3,3,4,4,5,5,6,6,7,7,9,9,10,10,14,14,15,15,16,16,17,17,18,18,19,19,20,20],"right_children":[2,4,6,8,10,12,14,16,-1,18,20,-1,-1,-1,22,24,26,28,30,32,34,-1,-1,-1,-1,-1,-1,-1,-1,-1,-1,-1,-1,-1,-1],"split_conditions":[1E0,1E0,2E0,1.2E1,8E0,1.8E1,8E0,9E0,-1.962907E-1,1.8E1,1.8E1,-6.830597E-2,-2.932586E-3,-4.4927757E-2,4E0,3E0,1.6E1,7E0,2E0,1.2E1,1.2E1,-6.521503E-2,-2.4717662E-1,-1.9363013E-1,-6.3412555E-2,-1.9480581E-3,1.442661E-1,2.3012892E-3,-8.202346E-3,6.910931E-3,-3.4708132E-3,-2.1684763E-3,6.1698765E-3,3.9594807E-3,-3.552995E-3],"split_indices":[1,0,3,3,3,2,2,3,0,2,2,0,0,0,3,3,2,3,3,3,3,0,0,0,0,0,0,0,0,0,0,0,0,0,0],"split_type":[0,0,0,0,0,0,0,0,0,0,0,0,0,0,0,0,0,0,0,0,0,0,0,0,0,0,0,0,0,0,0,0,0,0,0],"sum_hessian":[6.240085E3,6.2299067E3,1.0178355E1,1.630113E1,6.2136055E3,2.6027308E0,7.575624E0,1.4412453E1,1.8886782E0,3.7803008E3,2.433305E3,1.585357E0,1.0173737E0,1.3512123E0,6.224412E0,9.687828E0,4.724625E0,2.1381274E3,1.6421732E3,1.382495E3,1.05081E3,1.5540043E0,4.670408E0,1.8186506E0,7.869177E0,3.024334E0,1.7002913E0,1.8570767E3,2.8105078E2,2.4284943E2,1.3993239E3,1.1052847E3,2.772103E2,8.2804834E2,2.2276169E2],"tree_param":{"num_deleted":"0","num_feature":"4","num_nodes":"35","size_leaf_vector":"1"}},{"base_weights":[-1.1131373E-3,-3.282476E-4,-4.953328E-1,-2.0884976E-1,2.22758E-4,-1.4324261E-1,-5.947632E-1,-1.2617242E-1,-1.8257733E-1,-4.595687E-3,1.2422078E-3,-5.8518216E-2,-2.4932139E-3,-3.831941E-2,-6.7268354E-1,-2.2993419E-1,1.14982E-1,7.3418757E-3,-9.4090095E-3,2.7043922E-3,-2.369651E-3,-5.5831797E-2,-2.355197E-1,-1.4581135E-1,3.8440056E-2,5.316063E-3,-1.0383276E-3,-1.5145547E-2,1.6035911E-4,2.6249783E-3,-5.41466E-4,-4.802309E-3,2.243411E-3],"categories":[],"categories_nodes":[],"categories_segments":[],"categories_sizes":[],"default_left":[0,0,0,0,0,0,0,0,0,0,0,0,0,0,0,0,0,0,0,0,0,0,0,0,0,0,0,0,0,0,0,0,0],"id":24,"left_children":[1,3,5,7,9,11,13,15,-1,17,19,-1,-1,-1,21,23,-1,25,27,29,31,-1,-1,-1,-1,-1,-1,-1,-1,-1,-1,-1,-1],"loss_changes":[2.419889E0,7.1583295E-1,2.6109433E-1,4.6587455E-1,3.0531932E-2,2.2819132E-2,1.8323016E-1,8.740213E-1,0E0,6.2436197E-2,2.7099E-2,0E0,0E0,0E0,1.8768692E-1,1.2522551E0,0E0,3.5092473E-2,3.1614527E-1,9.957733E-2,1.9873308E-1,0E0,0E0,0E0,0E0,0E0,0E0,0E0,0E0,0E0,0E0,0E0,0E0],"parents":[2147483647,0,0,1,1,2,2,3,3,4,4,5,5,6,6,7,7,9,9,10,10,14,14,15,15,17,17,18,18,19,19,20,20],"right_children":[2,4,6,8,10,12,14,16,-1,18,20,-1,-1,-1,22,24,-1,26,28,30,32,-1,-1,-1,-1,-1,-1,-1,-1,-1,-1,-1,-1],"split_conditions":[1E0,1E0,2E0,1.2E1,3E0,1.8E1,8E0,1.1E1,-1.8257733E-1,1E1,1.9E1,-5.8518216E-2,-2.4932139E-3,-3.831941E-2,4E0,1.5E1,1.14982E-1,2E0,1.1E1,7E0,7E0,-5.5831797E-2,-2.355197E-1,-1.4581135E-1,3.8440056E-2,5.316063E-3,-1.0383276E-3,-1.5145547E-2,1.6035911E-4,2.6249783E-3,-5.41466E-4,-4.802309E-3,2.243411E-3],"split_indices":[1,0,3,3,3,2,2,3,0,2,2,0,0,0,3,2,0,3,2,3,3,0,0,0,0,0,0,0,0,0,0,0,0],"split_type":[0,0,0,0,0,0,0,0,0,0,0,0,0,0,0,0,0,0,0,0,0,0,0,0,0,0,0,0,0,0,0,0,0],"sum_hessian":[6.237727E3,6.2288354E3,8.891594E0,1.5419647E1,6.2134155E3,2.4954965E0,6.3960977E0,1.3867174E1,1.5524727E0,1.084413E3,5.129003E3,1.4810885E0,1.0144081E0,1.291925E0,5.1041727E0,1.1976508E1,1.8906666E0,3.1145224E2,7.729607E2,3.6511594E3,1.4778433E3,1.4560347E0,3.648138E0,6.7740555E0,5.2024527E0,1.5852148E2,1.5293076E2,1.4985243E2,6.231083E2,1.5594642E3,2.091695E3,6.1940497E2,8.584383E2],"tree_param":{"num_deleted":"0","num_feature":"4","num_nodes":"33","size_leaf_vector":"1"}},{"base_weights":[-9.055016E-4,-2.7737816E-4,-4.3979734E-1,-1.7128864E-1,1.540683E-4,-1.2143507E-1,-5.390579E-1,-1.744281E-1,-9.074647E-2,-3.2275491E-3,8.69451E-4,-5.0029352E-2,-2.1196592E-3,-6.3060176E-1,-1.3540888E-2,-1.7631313E-4,-1.6928984E-1,-7.3956815E-3,6.858553E-3,-4.7066747E-3,1.774243E-3,-7.253603E-2,-2.2054262E-1,9.0817034E-2,-2.5571132E-2,-5.526624E-3,1.3396865E-3,8.888255E-3,-5.2779946E-3,-2.5055079E-2,1.3491581E-3,3.7614994E-3,1.2833977E-4],"categories":[],"categories_nodes":[],"categories_segments":[],"categories_sizes":[],"default_left":[0,0,0,0,0,0,0,0,0,0,0,0,0,0,0,0,0,0,0,0,0,0,0,0,0,0,0,0,0,0,0,0,0],"id":25,"left_children":[1,3,5,7,9,11,13,-1,15,17,19,-1,-1,21,-1,23,-1,25,27,29,31,-1,-1,-1,-1,-1,-1,-1,-1,-1,-1,-1,-1],"loss_changes":[1.719242E0,4.5961115E-1,2.1618271E-1,4.6508336E-1,1.5036039E-2,1.649557E-2,2.6559234E-1,0E0,6.1271685E-1,4.5676652E-2,2.5890244E-2,0E0,0E0,4.212928E-2,0E0,3.6060542E-1,0E0,1.005819E-1,1.7749515E-1,5.200676E-1,6.397514E-2,0E0,0E0,0E0,0E0,0E0,0E0,0E0,0E0,0E0,0E0,0E0,0E0],"parents":[2147483647,0,0,1,1,2,2,3,3,4,4,5,5,6,6,8,8,9,9,10,10,13,13,15,15,17,17,18,18,19,19,20,20],"right_children":[2,4,6,8,10,12,14,-1,16,18,20,-1,-1,22,-1,24,-1,26,28,30,32,-1,-1,-1,-1,-1,-1,-1,-1,-1,-1,-1,-1],"split_conditions":[1E0,1E0,2E0,3E0,3E0,1.8E1,1.1E1,-1.744281E-1,1.2E1,1.9E1,9E0,-5.0029352E-2,-2.1196592E-3,4E0,-1.3540888E-2,4E0,-1.6928984E-1,2E0,2E0,4E0,4E0,-7.253603E-2,-2.2054262E-1,9.0817034E-2,-2.5571132E-2,-5.526624E-3,1.3396865E-3,8.888255E-3,-5.2779946E-3,-2.5055079E-2,1.3491581E-3,3.7614994E-3,1.2833977E-4],"split_indices":[1,0,3,3,3,2,3,0,3,2,2,0,0,3,0,3,0,3,3,3,3,0,0,0,0,0,0,0,0,0,0,0,0],"split_type":[0,0,0,0,0,0,0,0,0,0,0,0,0,0,0,0,0,0,0,0,0,0,0,0,0,0,0,0,0,0,0,0,0],"sum_hessian":[6.23585E3,6.2279375E3,7.9125285E0,1.4676416E1,6.213261E3,2.409106E0,5.5034223E0,1.3882465E0,1.328817E1,1.0842927E3,5.1289688E3,1.3972124E0,1.0118936E0,4.4094477E0,1.0939747E0,1.1994512E1,1.2936578E0,7.674195E2,3.168732E2,7.154616E2,4.413507E3,1.6363299E0,2.773118E0,2.068767E0,9.925745E0,3.9742017E2,3.6999933E2,1.6397354E2,1.5289967E2,7.397337E1,6.414882E2,4.8976767E2,3.9237393E3],"tree_param":{"num_deleted":"0","num_feature":"4","num_nodes":"33","size_leaf_vector":"1"}},{"base_weights":[-7.588418E-4,-2.505321E-4,-3.8841206E-1,-5.2187872E-5,-2.9182515E-1,-1.5052457E-1,-5.522768E-1,-5.5875927E-2,2.131859E-5,-1.8194136E-1,3.3886198E-2,-3.453163E-1,3.9093174E-2,-4.195614E-2,-2.0443794E-1,1.0970822E-1,-1.0775306E-4,-1.5359947E-1,-9.2544843E-4,-4.244848E-2,3.1244675E-5],"categories":[],"categories_nodes":[],"categories_segments":[],"categories_sizes":[],"default_left":[0,0,0,0,0,0,0,0,0,0,0,0,0,0,0,0,0,0,0,0,0],"id":26,"left_children":[1,3,5,7,9,11,13,-1,15,-1,-1,17,-1,-1,-1,-1,19,-1,-1,-1,-1],"loss_changes":[1.228569E0,3.6017522E-1,2.3514247E-1,8.520496E-2,6.0771525E-1,3.0237553E-1,1.4230967E-1,0E0,2.9377675E-1,0E0,0E0,1.7251724E-1,0E0,0E0,0E0,0E0,1.8643677E-1,0E0,0E0,0E0,0E0],"parents":[2147483647,0,0,1,1,2,2,3,3,4,4,5,5,6,6,8,8,11,11,16,16],"right_children":[2,4,6,8,10,12,14,-1,16,-1,-1,18,-1,-1,-1,-1,20,-1,-1,-1,-1],"split_conditions":[1E0,2.1E1,1.4E1,7E0,2.2E1,1E1,2E0,-5.5875927E-2,8E0,-1.8194136E-1,3.3886198E-2,5E0,3.9093174E-2,-4.195614E-2,-2.0443794E-1,1.0970822E-1,1E0,-1.5359947E-1,-9.2544843E-4,-4.244848E-2,3.1244675E-5],"split_indices":[1,2,2,2,2,2,3,0,2,0,0,3,0,0,0,0,0,0,0,0,0],"split_type":[0,0,0,0,0,0,0,0,0,0,0,0,0,0,0,0,0,0,0,0,0],"sum_hessian":[6.2343696E3,6.227205E3,7.164767E0,6.223971E3,3.23369E0,3.704875E0,3.4598916E0,1.4565743E0,6.2225146E3,1.5390596E0,1.6946304E0,2.0519824E0,1.6528925E0,1.321987E0,2.1379046E0,1.196236E0,6.2213184E3,1.0463197E0,1.0056627E0,8.312388E0,6.213006E3],"tree_param":{"num_deleted":"0","num_feature":"4","num_nodes":"21","size_leaf_vector":"1"}},{"base_weights":[-6.269372E-4,-2.0407536E-4,-3.4561315E-1,-3.7441943E-5,-2.5713614E-1,-1.3284034E-1,-5.0329065E-1,-4.7745552E-2,2.3351262E-5,-1.6868268E-1,2.6803244E-2,1.2129683E-2,-8.017433E-2,-2.0057476E-1,-1.3460007E-3,8.537652E-2,-8.343496E-5,-3.252413E-2,2.187253E-5],"categories":[],"categories_nodes":[],"categories_segments":[],"categories_sizes":[],"default_left":[0,0,0,0,0,0,0,0,0,0,0,0,0,0,0,0,0,0,0],"id":27,"left_children":[1,3,5,7,9,11,13,-1,15,-1,-1,-1,-1,-1,-1,-1,17,-1,-1],"loss_changes":[9.0940654E-1,2.6662078E-1,1.89183E-1,6.0215577E-2,4.7696558E-1,1.1809698E-1,3.2883668E-1,0E0,1.8913534E-1,0E0,0E0,0E0,0E0,0E0,0E0,0E0,1.05387814E-1,0E0,0E0],"parents":[2147483647,0,0,1,1,2,2,3,3,4,4,5,5,6,6,8,8,16,16],"right_children":[2,4,6,8,10,12,14,-1,16,-1,-1,-1,-1,-1,-1,-1,18,-1,-1],"split_conditions":[1E0,2.1E1,4E0,7E0,2.2E1,1.4E1,1.1E1,-4.7745552E-2,8E0,-1.6868268E-1,2.6803244E-2,1.2129683E-2,-8.017433E-2,-2.0057476E-1,-1.3460007E-3,8.537652E-2,1E0,-3.252413E-2,2.187253E-5],"split_indices":[1,2,3,2,2,2,3,0,2,0,0,0,0,0,0,0,0,0,0],"split_type":[0,0,0,0,0,0,0,0,0,0,0,0,0,0,0,0,0,0,0],"sum_hessian":[6.2333545E3,6.2267227E3,6.631724E0,6.2236865E3,3.0362291E0,3.6069384E0,3.0247853E0,1.3775188E0,6.222309E3,1.2832612E0,1.7529681E0,1.8810917E0,1.7258468E0,2.0162702E0,1.0085152E0,1.3347837E0,6.220974E3,7.9673448E0,6.213007E3],"tree_param":{"num_deleted":"0","num_feature":"4","num_nodes":"19","size_leaf_vector":"1"}},{"base_weights":[-5.1573437E-4,-1.6942155E-4,-3.0188566E-1,-2.711493E-5,-2.2814225E-1,-1.4844234E-1,-1.6902816E-1,-4.0740483E-2,2.3361536E-5,-1.5611863E-1,2.1246938E-2,5.5441737E-2,-3.086093E-1,6.6696994E-2,-6.430855E-5,-3.8766462E-1,-1.0547735E-2,-2.4695598E-2,1.5309271E-5,-2.5500147E-2,-1.5576816E-1],"categories":[],"categories_nodes":[],"categories_segments":[],"categories_sizes":[],"default_left":[0,0,0,0,0,0,0,0,0,0,0,0,0,0,0,0,0,0,0,0,0],"id":28,"left_children":[1,3,5,7,9,11,-1,-1,13,-1,-1,-1,15,-1,17,19,-1,-1,-1,-1,-1],"loss_changes":[6.5053123E-1,2.0202248E-1,2.0348006E-1,4.2662174E-2,3.7628E-1,3.7016892E-1,0E0,0E0,1.21298075E-1,0E0,0E0,0E0,8.012277E-2,0E0,5.9030727E-2,8.5855186E-2,0E0,0E0,0E0,0E0,0E0],"parents":[2147483647,0,0,1,1,2,2,3,3,4,4,5,5,8,8,12,12,14,14,15,15],"right_children":[2,4,6,8,10,12,-1,-1,14,-1,-1,-1,16,-1,18,20,-1,-1,-1,-1,-1],"split_conditions":[1E0,2.1E1,1.9E1,7E0,2.2E1,2E0,-1.6902816E-1,-4.0740483E-2,8E0,-1.5611863E-1,2.1246938E-2,5.5441737E-2,1E1,6.6696994E-2,1E0,4E0,-1.0547735E-2,-2.4695598E-2,1.5309271E-5,-2.5500147E-2,-1.5576816E-1],"split_indices":[1,2,2,2,2,3,0,0,2,0,0,0,3,0,0,3,0,0,0,0,0],"split_type":[0,0,0,0,0,0,0,0,0,0,0,0,0,0,0,0,0,0,0,0,0],"sum_hessian":[6.2325264E3,6.226372E3,6.1543403E0,6.2234873E3,2.884745E0,4.8666825E0,1.2876577E0,1.3133707E0,6.222174E3,1.0842164E0,1.8005285E0,1.5298334E0,3.3368492E0,1.4536011E0,6.22072E3,2.2644966E0,1.0723525E0,7.712682E0,6.2130073E3,1.1848325E0,1.0796641E0],"tree_param":{"num_deleted":"0","num_feature":"4","num_nodes":"21","size_leaf_vector":"1"}},{"base_weights":[-4.3986738E-4,-1.4320922E-4,-2.7027097E-1,-1.9851821E-5,-2.0394684E-1,-1.3223322E-1,-1.5643434E-1,-3.4727074E-2,2.2201468E-5,-1.6723059E-3,-8.240595E-2,4.3603048E-2,-2.7573365E-1,5.2304745E-2,-4.935731E-5,-1.05224736E-1,-8.96758E-3,-1.8619118E-2,1.071774E-5],"categories":[],"categories_nodes":[],"categories_segments":[],"categories_sizes":[],"default_left":[0,0,0,0,0,0,0,0,0,0,0,0,0,0,0,0,0,0,0],"id":29,"left_children":[1,3,5,7,9,11,-1,-1,13,-1,-1,-1,15,-1,17,-1,-1,-1,-1],"loss_changes":[4.988947E-1,1.5654987E-1,1.683622E-1,3.029724E-2,5.1326767E-2,2.693852E-1,0E0,0E0,7.763926E-2,0E0,0E0,0E0,6.5867335E-2,0E0,3.2829355E-2,0E0,0E0,0E0,0E0],"parents":[2147483647,0,0,1,1,2,2,3,3,4,4,5,5,8,8,12,12,14,14],"right_children":[2,4,6,8,10,12,-1,-1,14,-1,-1,-1,16,-1,18,-1,-1,-1,-1],"split_conditions":[1E0,2.1E1,1.9E1,7E0,7E0,2E0,-1.5643434E-1,-3.4727074E-2,8E0,-1.6723059E-3,-8.240595E-2,4.3603048E-2,1E1,5.2304745E-2,1E0,-1.05224736E-1,-8.96758E-3,-1.8619118E-2,1.071774E-5],"split_indices":[1,2,2,2,3,3,0,0,2,0,0,0,3,0,0,0,0,0,0],"split_type":[0,0,0,0,0,0,0,0,0,0,0,0,0,0,0,0,0,0,0],"sum_hessian":[6.2319585E3,6.2261143E3,5.8445935E0,6.223347E3,2.7667444E0,4.7568526E0,1.087741E0,1.2609992E0,6.2220864E3,1.0108519E0,1.7558925E0,1.6167283E0,3.1401243E0,1.5537249E0,6.2205327E3,2.0790126E0,1.0611117E0,7.524762E0,6.213008E3],"tree_param":{"num_deleted":"0","num_feature":"4","num_nodes":"19","size_leaf_vector":"1"}},{"base_weights":[-3.636663E-4,-1.1550644E-4,-2.3650923E-1,-1.4719775E-5,-1.7307465E-1,-5.9032388E-2,-3.9353755E-1,-2.9578736E-2,2.0418775E-5,-1.4214827E-3,-7.085215E-2,-7.878338E-2,5.4494806E-2,-9.589557E-3,-1.6551587E-1,4.11613E-2,-3.77321E-5,-1.3961213E-2,7.5082557E-6],"categories":[],"categories_nodes":[],"categories_segments":[],"categories_sizes":[],"default_left":[0,0,0,0,0,0,0,0,0,0,0,0,0,0,0,0,0,0,0],"id":30,"left_children":[1,3,5,7,9,11,13,-1,15,-1,-1,-1,-1,-1,-1,-1,17,-1,-1],"loss_changes":[3.6520395E-1,1.085442E-1,1.590907E-1,2.1562787E-2,3.739933E-2,2.5582504E-1,1.7079377E-1,0E0,4.9648568E-2,0E0,0E0,0E0,0E0,0E0,0E0,0E0,1.815706E-2,0E0,0E0],"parents":[2147483647,0,0,1,1,2,2,3,3,4,4,5,5,6,6,8,8,16,16],"right_children":[2,4,6,8,10,12,14,-1,16,-1,-1,-1,-1,-1,-1,-1,18,-1,-1],"split_conditions":[1E0,2.1E1,1.4E1,7E0,7E0,1E1,2E0,-2.9578736E-2,8E0,-1.4214827E-3,-7.085215E-2,-7.878338E-2,5.4494806E-2,-9.589557E-3,-1.6551587E-1,4.11613E-2,1E0,-1.3961213E-2,7.5082557E-6],"split_indices":[1,2,2,2,3,2,3,0,2,0,0,0,0,0,0,0,0,0,0],"split_type":[0,0,0,0,0,0,0,0,0,0,0,0,0,0,0,0,0,0,0],"sum_hessian":[6.231418E3,6.2258755E3,5.542139E0,6.2232495E3,2.6263237E0,3.2475836E0,2.2945552E0,1.2180079E0,6.2220312E3,1.0091637E0,1.61716E0,1.7100427E0,1.537541E0,1.0641652E0,1.23039E0,1.6370376E0,6.2203945E3,7.386109E0,6.2130083E3],"tree_param":{"num_deleted":"0","num_feature":"4","num_nodes":"19","size_leaf_vector":"1"}},{"base_weights":[-3.033865E-4,-9.39068E-5,-2.0726524E-1,-1.1110999E-5,-1.4670287E-1,-4.9305856E-2,-3.5478166E-1,-2.5179667E-2,1.8323824E-5,-1.2082744E-3,-6.0736354E-2,-6.767015E-2,4.28631E-2,-8.153452E-3,-1.5315552E-1,3.2489542E-2,-2.8771658E-5,-4.674174E-4,3.5850465E-4],"categories":[],"categories_nodes":[],"categories_segments":[],"categories_sizes":[],"default_left":[0,0,0,0,0,0,0,0,0,0,0,0,0,0,0,0,0,0,0],"id":31,"left_children":[1,3,5,7,9,11,13,-1,15,-1,-1,-1,-1,-1,-1,-1,17,-1,-1],"loss_changes":[2.7016443E-1,7.558176E-2,1.2933013E-1,1.5376529E-2,2.7139455E-2,1.7464295E-1,1.4412275E-1,0E0,3.1737328E-2,0E0,0E0,0E0,0E0,0E0,0E0,0E0,1.164514E-2,0E0,0E0],"parents":[2147483647,0,0,1,1,2,2,3,3,4,4,5,5,6,6,8,8,16,16],"right_children":[2,4,6,8,10,12,14,-1,16,-1,-1,-1,-1,-1,-1,-1,18,-1,-1],"split_conditions":[1E0,2.1E1,1.4E1,7E0,7E0,1E1,2E0,-2.5179667E-2,8E0,-1.2082744E-3,-6.0736354E-2,-6.767015E-2,4.28631E-2,-8.153452E-3,-1.5315552E-1,3.2489542E-2,6E0,-4.674174E-4,3.5850465E-4],"split_indices":[1,2,2,2,3,2,3,0,2,0,0,0,0,0,0,0,3,0,0],"split_type":[0,0,0,0,0,0,0,0,0,0,0,0,0,0,0,0,0,0,0],"sum_hessian":[6.230996E3,6.225695E3,5.3009815E0,6.2231807E3,2.514397E0,3.2041953E0,2.0967865E0,1.1825466E0,6.221998E3,1.0077311E0,1.5066657E0,1.5807202E0,1.6234752E0,1.0540433E0,1.0427431E0,1.705726E0,6.2202925E3,2.7649026E3,3.45539E3],"tree_param":{"num_deleted":"0","num_feature":"4","num_nodes":"19","size_leaf_vector":"1"}},{"base_weights":[-2.5435816E-4,-7.5175594E-5,-1.8275265E-1,-1.3744558E-4,4.4513665E-2,-4.1936267E-2,-9.6120484E-2,-8.476281E-2,2.6161775E-5,-5.796547E-2,3.3818528E-2,-3.2006457E-1,1.21050544E-1,1.3496234E-3,-9.3786157E-4,-1.6159016E-1,5.3214584E-2,1.5928306E-1,-2.8427556E-2,-2.197822E-4,7.760428E-3,3.1654015E-3,-6.2534667E-4],"categories":[],"categories_nodes":[],"categories_segments":[],"categories_sizes":[],"default_left":[0,0,0,0,0,0,0,0,0,0,0,0,0,0,0,0,0,0,0,0,0,0,0],"id":32,"left_children":[1,3,5,7,-1,9,-1,11,13,-1,-1,15,17,19,21,-1,-1,-1,-1,-1,-1,-1,-1],"loss_changes":[2.0376699E-1,5.7580672E-2,1.0503568E-1,8.618948E-2,0E0,1.1939481E-1,0E0,6.204628E-1,7.929376E-3,0E0,0E0,7.3473686E-1,6.8129253E-1,1.3373706E-1,4.739241E-2,0E0,0E0,0E0,0E0,0E0,0E0,0E0,0E0],"parents":[2147483647,0,0,1,1,2,2,3,3,5,5,7,7,8,8,11,11,12,12,13,13,14,14],"right_children":[2,4,6,8,-1,10,-1,12,14,-1,-1,16,18,20,22,-1,-1,-1,-1,-1,-1,-1,-1],"split_conditions":[1E0,2.2E1,1.4E1,1E0,4.4513665E-2,1E1,-9.6120484E-2,1.3E1,1.1E1,-5.796547E-2,3.3818528E-2,1.1E1,1.4E1,1.2E1,2E0,-1.6159016E-1,5.3214584E-2,1.5928306E-1,-2.8427556E-2,-2.197822E-4,7.760428E-3,3.1654015E-3,-6.2534667E-4],"split_indices":[1,2,2,0,0,2,0,2,2,0,0,3,2,3,3,0,0,0,0,0,0,0,0],"split_type":[0,0,0,0,0,0,0,0,0,0,0,0,0,0,0,0,0,0,0,0,0,0,0],"sum_hessian":[6.230729E3,6.225617E3,5.1120944E0,6.2240054E3,1.6116236E0,3.1718838E0,1.9402106E0,1.1011971E1,6.2129937E3,1.4774631E0,1.6944207E0,4.8789067E0,6.1330647E0,2.6181965E3,3.594797E3,3.3320606E0,1.5468463E0,1.611688E0,4.5213766E0,2.4141453E3,2.0405116E2,3.2546246E2,3.2693345E3],"tree_param":{"num_deleted":"0","num_feature":"4","num_nodes":"23","size_leaf_vector":"1"}},{"base_weights":[-1.9785413E-4,-8.0110665E-5,-1.9661446E-1,6.01439E-2,-1.6056366E-4,-7.267011E-2,-1.35750165E-2,3.7320726E-5,-2.3568048E-1,4.251186E-2,-2.249689E-5,3.8336214E-2,-1.7394656E-1,-1.5016736E-3,1.4189171E-4,-5.1834207E-2,6.96377E-2],"categories":[],"categories_nodes":[],"categories_segments":[],"categories_sizes":[],"default_left":[0,0,0,0,0,0,0,0,0,0,0,0,0,0,0,0,0],"id":33,"left_children":[1,3,5,-1,7,-1,-1,9,11,-1,13,15,-1,-1,-1,-1,-1],"loss_changes":[1.4409325E-1,1.00533485E-1,1.4813915E-2,0E0,2.9022408E-1,0E0,0E0,5.273707E-2,5.1520586E-1,0E0,1.5362231E-2,1.9755225E-1,0E0,0E0,0E0,0E0,0E0],"parents":[2147483647,0,0,1,1,2,2,4,4,7,7,8,8,10,10,11,11],"right_children":[2,4,6,-1,8,-1,-1,10,12,-1,14,16,-1,-1,-1,-1,-1],"split_conditions":[2.1E1,7E0,9E0,6.01439E-2,1E0,-7.267011E-2,-1.35750165E-2,8E0,4E0,4.251186E-2,2E0,1.3E1,-1.7394656E-1,-1.5016736E-3,1.4189171E-4,-5.1834207E-2,6.96377E-2],"split_indices":[2,2,3,0,1,0,0,2,3,0,3,2,0,0,0,0,0],"split_type":[0,0,0,0,0,0,0,0,0,0,0,0,0,0,0,0,0],"sum_hessian":[6.2302637E3,6.227531E3,2.7327337E0,1.4983252E0,6.2260327E3,1.6385591E0,1.0941747E0,6.2218047E3,4.2277336E0,1.6265383E0,6.220178E3,2.8483706E0,1.3793633E0,5.617173E2,5.658461E3,1.4151245E0,1.433246E0],"tree_param":{"num_deleted":"0","num_feature":"4","num_nodes":"17","size_leaf_vector":"1"}},{"base_weights":[-1.6656757E-4,-6.9615126E-5,-1.6771182E-1,4.723711E-2,-1.3515272E-4,-6.232241E-2,-1.15428055E-2,3.2480653E-5,-2.0711121E-1,3.354328E-2,-1.598373E-5,2.9809453E-2,-1.6108368E-1,-9.612182E-3,7.976835E-6,-4.4260312E-2,5.458283E-2],"categories":[],"categories_nodes":[],"categories_segments":[],"categories_sizes":[],"default_left":[0,0,0,0,0,0,0,0,0,0,0,0,0,0,0,0,0],"id":34,"left_children":[1,3,5,-1,7,-1,-1,9,11,-1,13,15,-1,-1,-1,-1,-1],"loss_changes":[1.0120607E-1,6.432392E-2,1.0647304E-2,0E0,2.160566E-1,0E0,0E0,3.3712845E-2,4.09805E-1,0E0,8.482753E-3,1.3152917E-1,0E0,0E0,0E0,0E0,0E0],"parents":[2147483647,0,0,1,1,2,2,4,4,7,7,8,8,10,10,11,11],"right_children":[2,4,6,-1,8,-1,-1,10,12,-1,14,16,-1,-1,-1,-1,-1],"split_conditions":[2.1E1,7E0,9E0,4.723711E-2,1E0,-6.232241E-2,-1.15428055E-2,8E0,4E0,3.354328E-2,1E0,1.3E1,-1.6108368E-1,-9.612182E-3,7.976835E-6,-4.4260312E-2,5.458283E-2],"split_indices":[2,2,3,0,1,0,0,2,3,0,0,2,0,0,0,0,0],"split_type":[0,0,0,0,0,0,0,0,0,0,0,0,0,0,0,0,0],"sum_hessian":[6.2301157E3,6.2275127E3,2.6032228E0,1.5910984E0,6.2259214E3,1.5237855E0,1.0794374E0,6.2218823E3,4.039363E0,1.6970619E0,6.220185E3,2.8801608E0,1.1592021E0,7.260224E0,6.212925E3,1.3438483E0,1.5363125E0],"tree_param":{"num_deleted":"0","num_feature":"4","num_nodes":"17","size_leaf_vector":"1"}},{"base_weights":[-1.4508102E-4,-6.488707E-5,-1.4286037E-1,3.72223E-2,-1.180663E-4,-2.853585E-3,-5.8143668E-2,2.6364494E-5,-1.8371044E-1,2.6535569E-2,-1.2796632E-5,6.762263E-3,-9.769074E-2,-7.3305465E-4,1.5032564E-4],"categories":[],"categories_nodes":[],"categories_segments":[],"categories_sizes":[],"default_left":[0,0,0,0,0,0,0,0,0,0,0,0,0,0,0],"id":35,"left_children":[1,3,5,-1,7,-1,-1,9,11,-1,13,-1,-1,-1,-1],"loss_changes":[7.130315E-2,4.1132454E-2,2.1928795E-2,0E0,1.6511619E-1,0E0,0E0,2.1549959E-2,1.5062346E-1,0E0,7.7720378E-3,0E0,0E0,0E0,0E0],"parents":[2147483647,0,0,1,1,2,2,4,4,7,7,8,8,10,10],"right_children":[2,4,6,-1,8,-1,-1,10,12,-1,14,-1,-1,-1,-1],"split_conditions":[2.1E1,7E0,7E0,3.72223E-2,1E0,-2.853585E-3,-5.8143668E-2,8E0,2E0,2.6535569E-2,3E0,6.762263E-3,-9.769074E-2,-7.3305465E-4,1.5032564E-4],"split_indices":[2,2,3,0,1,0,0,2,3,0,3,0,0,0,0],"split_type":[0,0,0,0,0,0,0,0,0,0,0,0,0,0,0],"sum_hessian":[6.2299326E3,6.2274336E3,2.4988377E0,1.667968E0,6.2257656E3,1.0189034E0,1.4799342E0,6.2218706E3,3.8948445E0,1.7548554E0,6.2201157E3,1.9305191E0,1.9643255E0,1.0848588E3,5.1352573E3],"tree_param":{"num_deleted":"0","num_feature":"4","num_nodes":"15","size_leaf_vector":"1"}},{"base_weights":[-1.1795123E-4,-1.8212205E-4,4.6106387E-2,-8.228161E-2,4.886731E-6,-1.7734462E-1,2.2068735E-2,5.672218E-4,-1.8077913E-3,-2.2815917E-1,2.4281253E-1,4.1216416E-3,-4.133045E-3,-1.1033314E-2,9.814046E-3,-1.6091484E-1,7.924867E-2,1.9844703E-1,-1.3311326E-2,4.8093678E-4,7.811393E-3,-6.1005284E-4,-6.9934563E-3,-1.0641683E-2,5.3098256E-4,1.0807837E-2,-9.5124065E-4],"categories":[],"categories_nodes":[],"categories_segments":[],"categories_sizes":[],"default_left":[0,0,0,0,0,0,0,0,0,0,0,0,0,0,0,0,0,0,0,0,0,0,0,0,0,0,0],"id":36,"left_children":[1,3,-1,5,7,-1,9,11,13,15,17,19,21,23,25,-1,-1,-1,-1,-1,-1,-1,-1,-1,-1,-1,-1],"loss_changes":[6.1524797E-2,9.563894E-2,0E0,7.647796E-1,6.337213E-3,0E0,7.5755143E-1,7.929049E-2,1.5793394E-1,1.124022E0,8.9965683E-1,1.4911816E-1,8.224279E-2,2.569768E-1,2.220068E-1,0E0,0E0,0E0,0E0,0E0,0E0,0E0,0E0,0E0,0E0,0E0,0E0],"parents":[2147483647,0,0,1,1,3,3,4,4,6,6,7,7,8,8,9,9,10,10,11,11,12,12,13,13,14,14],"right_children":[2,4,-1,6,8,-1,10,12,14,16,18,20,22,24,26,-1,-1,-1,-1,-1,-1,-1,-1,-1,-1,-1,-1],"split_conditions":[2.2E1,1E0,4.6106387E-2,3E0,1E1,-1.7734462E-1,1.3E1,1.8E1,1.8E1,1.1E1,1.4E1,9E0,9E0,1.1E1,1.1E1,-1.6091484E-1,7.924867E-2,1.9844703E-1,-1.3311326E-2,4.8093678E-4,7.811393E-3,-6.1005284E-4,-6.9934563E-3,-1.0641683E-2,5.3098256E-4,1.0807837E-2,-9.5124065E-4],"split_indices":[2,0,0,3,3,0,2,2,2,3,2,3,3,3,3,0,0,0,0,0,0,0,0,0,0,0,0],"split_type":[0,0,0,0,0,0,0,0,0,0,0,0,0,0,0,0,0,0,0,0,0,0,0,0,0,0,0],"sum_hessian":[6.229774E3,6.2281743E3,1.5996994E0,1.315682E1,6.215017E3,1.4450343E0,1.1711786E1,4.744004E3,1.4710137E3,5.4735537E0,6.2382326E0,2.7013335E3,2.04267E3,8.200784E2,6.5093524E2,3.311102E0,2.1624517E0,2.0077767E0,4.230456E0,2.4238677E3,2.7746597E2,1.8421134E3,2.0055669E2,2.8132065E2,5.3875775E2,2.1504886E2,4.3588638E2],"tree_param":{"num_deleted":"0","num_feature":"4","num_nodes":"27","size_leaf_vector":"1"}},{"base_weights":[-1.0496873E-4,-3.04788E-5,-1.3403596E-1,3.947599E-2,-8.649293E-5,-4.3545347E-3,-5.3582005E-2,2.2574086E-5,-1.452572E-1,3.304105E-2,-2.523615E-5,1.0315368E-2,-8.409548E-2,-1.0457505E-2,6.360875E-6],"categories":[],"categories_nodes":[],"categories_segments":[],"categories_sizes":[],"default_left":[0,0,0,0,0,0,0,0,0,0,0,0,0,0,0],"id":37,"left_children":[1,3,5,-1,7,-1,-1,9,11,-1,13,-1,-1,-1,-1],"loss_changes":[6.215571E-2,4.5927927E-2,1.5856415E-2,0E0,9.858958E-2,0E0,0E0,3.2763407E-2,1.2305724E-1,0E0,1.006414E-2,0E0,0E0,0E0,0E0],"parents":[2147483647,0,0,1,1,2,2,4,4,7,7,8,8,10,10],"right_children":[2,4,6,-1,8,-1,-1,10,12,-1,14,-1,-1,-1,-1],"split_conditions":[2.1E1,7E0,7E0,3.947599E-2,1E0,-4.3545347E-3,-5.3582005E-2,8E0,2E0,3.304105E-2,1E0,1.0315368E-2,-8.409548E-2,-1.0457505E-2,6.360875E-6],"split_indices":[2,2,3,0,1,0,0,2,3,0,0,0,0,0,0],"split_type":[0,0,0,0,0,0,0,0,0,0,0,0,0,0,0],"sum_hessian":[6.2296157E3,6.2271523E3,2.463199E0,1.6501311E0,6.2255024E3,1.0291351E0,1.4340638E0,6.2218276E3,3.674626E0,1.7009307E0,6.220127E3,1.8969496E0,1.7776765E0,7.2834935E0,6.2128433E3],"tree_param":{"num_deleted":"0","num_feature":"4","num_nodes":"15","size_leaf_vector":"1"}},{"base_weights":[-8.6378896E-5,-1.4707097E-4,4.324922E-2,-6.603528E-2,3.9099717E-7,-1.6393954E-1,2.251874E-2,-1.2161233E-3,4.8003005E-4,1.21513605E-1,-1.1372144E-1,-3.5799905E-3,2.7403189E-2,3.8390368E-4,5.0143614E-2,-1.978373E-1,2.8540293E-2,2.5324448E-4,-1.650506E-2,3.1436878E-4,1.5894406E-2,-3.3185976E-3,4.5715578E-4],"categories":[],"categories_nodes":[],"categories_segments":[],"categories_sizes":[],"default_left":[0,0,0,0,0,0,0,0,0,0,0,0,0,0,0,0,0,0,0,0,0,0,0],"id":38,"left_children":[1,3,-1,5,7,-1,9,11,13,-1,15,17,19,21,-1,-1,-1,-1,-1,-1,-1,-1,-1],"loss_changes":[5.4568E-2,6.0519453E-2,0E0,6.0406756E-1,3.6275033E-3,0E0,7.0819163E-1,1.19032554E-1,7.137163E-2,0E0,1.2195425E0,3.6978817E-1,9.044138E-2,5.8174998E-2,0E0,0E0,0E0,0E0,0E0,0E0,0E0,0E0,0E0],"parents":[2147483647,0,0,1,1,3,3,4,4,6,6,7,7,8,8,10,10,11,11,12,12,13,13],"right_children":[2,4,-1,6,8,-1,10,12,14,-1,16,18,20,22,-1,-1,-1,-1,-1,-1,-1,-1,-1],"split_conditions":[2.2E1,1E0,4.324922E-2,3E0,1E1,-1.6393954E-1,4E0,1.2E1,1E0,1.21513605E-1,7E0,1.1E1,9E0,2E0,5.0143614E-2,-1.978373E-1,2.8540293E-2,2.5324448E-4,-1.650506E-2,3.1436878E-4,1.5894406E-2,-3.3185976E-3,4.5715578E-4],"split_indices":[2,0,0,3,2,0,3,3,1,0,3,3,2,3,0,0,0,0,0,0,0,0,0],"split_type":[0,0,0,0,0,0,0,0,0,0,0,0,0,0,0,0,0,0,0,0,0,0,0],"sum_hessian":[6.229461E3,6.2278394E3,1.621327E0,1.2909412E1,6.21493E3,1.2043738E0,1.1705038E1,1.7570266E3,4.4579033E3,2.5558524E0,9.149186E0,1.6237821E3,1.3324449E2,4.4563354E3,1.5679451E0,1.9351627E0,7.214023E0,1.4960858E3,1.2769629E2,6.6138E1,6.710648E1,4.028393E2,4.053496E3],"tree_param":{"num_deleted":"0","num_feature":"4","num_nodes":"23","size_leaf_vector":"1"}},{"base_weights":[-9.243908E-5,-2.2575123E-5,-1.2675789E-1,2.9782662E-2,-6.607708E-5,-5.172927E-2,-2.7813562E-3,3.6634257E-5,-1.3795489E-1,2.5650444E-2,-1.3181906E-6,5.1435824E-3,-7.696915E-2,-8.200988E-3,1.0451664E-5],"categories":[],"categories_nodes":[],"categories_segments":[],"categories_sizes":[],"default_left":[0,0,0,0,0,0,0,0,0,0,0,0,0,0,0],"id":39,"left_children":[1,3,5,-1,7,-1,-1,9,11,-1,13,-1,-1,-1,-1],"loss_changes":[5.513141E-2,2.690892E-2,1.6829915E-2,0E0,8.818452E-2,0E0,0E0,2.0183489E-2,8.96579E-2,0E0,6.149332E-3,0E0,0E0,0E0,0E0],"parents":[2147483647,0,0,1,1,2,2,4,4,7,7,8,8,10,10],"right_children":[2,4,6,-1,8,-1,-1,10,12,-1,14,-1,-1,-1,-1],"split_conditions":[2.1E1,7E0,9E0,2.9782662E-2,1E0,-5.172927E-2,-2.7813562E-3,8E0,2E0,2.5650444E-2,1E0,5.1435824E-3,-7.696915E-2,-8.200988E-3,1.0451664E-5],"split_indices":[2,2,3,0,1,0,0,2,3,0,0,0,0,0,0],"split_type":[0,0,0,0,0,0,0,0,0,0,0,0,0,0,0],"sum_hessian":[6.229319E3,6.2268843E3,2.4343398E0,1.7278721E0,6.2251567E3,1.4161487E0,1.0181911E0,6.221522E3,3.6345856E0,1.7620298E0,6.21976E3,1.9457078E0,1.6888777E0,7.2187524E0,6.212541E3],"tree_param":{"num_deleted":"0","num_feature":"4","num_nodes":"15","size_leaf_vector":"1"}},{"base_weights":[-7.873018E-5,-1.363494E-4,4.0760566E-2,-6.1619762E-2,6.011614E-7,-2.636171E-1,1.1608737E-1,2.4404824E-5,-1.4112483E-2,4.391503E-2,-2.0000543E-1,3.4903353E-1,-6.6660635E-2,9.2438207E-4,-6.310757E-4,-9.4794266E-2,1.1877905E-1,1.6507329E-1,-1.7764097E-2,-1.8191788E-1,9.302111E-2,-5.4041394E-3,8.420234E-4,3.971875E-3,-6.046588E-4],"categories":[],"categories_nodes":[],"categories_segments":[],"categories_sizes":[],"default_left":[0,0,0,0,0,0,0,0,0,0,0,0,0,0,0,0,0,0,0,0,0,0,0,0,0],"id":40,"left_children":[1,3,-1,5,7,9,11,13,-1,15,-1,17,19,21,23,-1,-1,-1,-1,-1,-1,-1,-1,-1,-1],"loss_changes":[4.8820533E-2,5.2445415E-2,0E0,5.275104E-1,6.9613284E-3,8.702438E-1,3.6631918E-1,3.6660603E-3,0E0,7.3149574E-1,0E0,3.3676273E-1,1.2769653E0,9.340812E-2,6.907606E-2,0E0,0E0,0E0,0E0,0E0,0E0,0E0,0E0,0E0,0E0],"parents":[2147483647,0,0,1,1,3,3,4,4,5,5,6,6,7,7,9,9,11,11,12,12,13,13,14,14],"right_children":[2,4,-1,6,8,10,12,14,-1,16,-1,18,20,22,24,-1,-1,-1,-1,-1,-1,-1,-1,-1,-1],"split_conditions":[2.2E1,1E0,4.0760566E-2,1.3E1,1E0,8E0,1.4E1,1.1E1,-1.4112483E-2,1.1E1,-2.0000543E-1,4E0,7E0,2E0,2E0,-9.4794266E-2,1.1877905E-1,1.6507329E-1,-1.7764097E-2,-1.8191788E-1,9.302111E-2,-5.4041394E-3,8.420234E-4,3.971875E-3,-6.046588E-4],"split_indices":[2,0,0,2,1,2,2,2,0,3,0,3,3,3,3,0,0,0,0,0,0,0,0,0,0],"split_type":[0,0,0,0,0,0,0,0,0,0,0,0,0,0,0,0,0,0,0,0,0,0,0,0,0],"sum_hessian":[6.229169E3,6.2275283E3,1.6404473E0,1.2842843E1,6.2146855E3,5.78438E0,7.058463E0,6.2125415E3,2.1441052E0,3.786448E0,1.997932E0,2.7030318E0,4.3554316E0,2.6178345E3,3.594707E3,1.9228824E0,1.8635657E0,1.5776447E0,1.125387E0,1.5397934E0,2.815638E0,2.3590077E2,2.3819336E3,3.254548E2,3.2692522E3],"tree_param":{"num_deleted":"0","num_feature":"4","num_nodes":"25","size_leaf_vector":"1"}},{"base_weights":[-8.9222354E-5,-2.0806418E-5,-1.2445603E-1,1.9189104E-2,-4.9764563E-5,-4.4672653E-2,-1.1048368E-2,2.4845824E-5,-1.04141496E-1,1.77255E-2,-2.0316775E-6,8.200762E-3,-6.4192496E-2,8.439714E-5,-9.706954E-4],"categories":[],"categories_nodes":[],"categories_segments":[],"categories_sizes":[],"default_left":[0,0,0,0,0,0,0,0,0,0,0,0,0,0,0],"id":41,"left_children":[1,3,5,-1,7,-1,-1,9,11,-1,13,-1,-1,-1,-1],"loss_changes":[5.3008273E-2,1.1542481E-2,1.8555224E-3,0E0,4.83555E-2,0E0,0E0,9.87767E-3,7.02495E-2,0E0,5.700696E-3,0E0,0E0,0E0,0E0],"parents":[2147483647,0,0,1,1,2,2,4,4,7,7,8,8,10,10],"right_children":[2,4,6,-1,8,-1,-1,10,12,-1,14,-1,-1,-1,-1],"split_conditions":[2.1E1,7E0,9E0,1.9189104E-2,1E0,-4.4672653E-2,-1.1048368E-2,8E0,2E0,1.77255E-2,1.2E1,8.200762E-3,-6.4192496E-2,8.439714E-5,-9.706954E-4],"split_indices":[2,2,3,0,1,0,0,2,3,0,3,0,0,0,0],"split_type":[0,0,0,0,0,0,0,0,0,0,0,0,0,0,0],"sum_hessian":[6.2292153E3,6.22679E3,2.4252775E0,1.81808E0,6.2249717E3,1.3493985E0,1.0758791E0,6.221512E3,3.4596653E0,1.8305303E0,6.2196816E3,1.9165515E0,1.5431138E0,5.719414E3,5.0026758E2],"tree_param":{"num_deleted":"0","num_feature":"4","num_nodes":"15","size_leaf_vector":"1"}},{"base_weights":[-7.543215E-5,-1.3032024E-4,3.8579796E-2,-5.882748E-2,1.5676825E-8,-2.3406096E-1,8.634651E-2,1.736342E-5,-1.041785E-2,1.880888E-2,-1.8547694E-1,2.6882914E-1,-6.427968E-2,-8.4955146E-4,3.591398E-4,-8.3786905E-2,8.311747E-2,1.22414686E-1,-1.4220386E-2,-1.6780424E-1,6.818861E-2,7.5814556E-3,-1.0369036E-3,-3.0038434E-3,4.1761957E-4],"categories":[],"categories_nodes":[],"categories_segments":[],"categories_sizes":[],"default_left":[0,0,0,0,0,0,0,0,0,0,0,0,0,0,0,0,0,0,0,0,0,0,0,0,0],"id":42,"left_children":[1,3,-1,5,7,9,11,13,-1,15,-1,17,19,21,23,-1,-1,-1,-1,-1,-1,-1,-1,-1,-1],"loss_changes":[4.4018384E-2,4.7650013E-2,0E0,3.712623E-1,3.7450565E-3,6.452468E-1,2.4480413E-1,1.8413311E-3,0E0,4.5488322E-1,0E0,1.9262496E-1,8.982004E-1,1.19744636E-1,4.7766905E-2,0E0,0E0,0E0,0E0,0E0,0E0,0E0,0E0,0E0,0E0],"parents":[2147483647,0,0,1,1,3,3,4,4,5,5,6,6,7,7,9,9,11,11,12,12,13,13,14,14],"right_children":[2,4,-1,6,8,10,12,14,-1,16,-1,18,20,22,24,-1,-1,-1,-1,-1,-1,-1,-1,-1,-1],"split_conditions":[2.2E1,1E0,3.8579796E-2,1.3E1,1E0,8E0,1.4E1,1E1,-1.041785E-2,1.1E1,-1.8547694E-1,4E0,7E0,2E0,2E0,-8.3786905E-2,8.311747E-2,1.22414686E-1,-1.4220386E-2,-1.6780424E-1,6.818861E-2,7.5814556E-3,-1.0369036E-3,-3.0038434E-3,4.1761957E-4],"split_indices":[2,0,0,2,1,2,2,2,0,3,0,3,3,3,3,0,0,0,0,0,0,0,0,0,0],"split_type":[0,0,0,0,0,0,0,0,0,0,0,0,0,0,0,0,0,0,0,0,0,0,0,0,0],"sum_hessian":[6.229134E3,6.2274766E3,1.6574334E0,1.2799571E1,6.214677E3,5.5219617E0,7.2776093E0,6.2125728E3,2.1040409E0,3.9036803E0,1.6182814E0,2.935964E0,4.3416452E0,1.7562822E3,4.4562905E3,1.7742182E0,2.129462E0,1.8369136E0,1.0990506E0,1.2688643E0,3.0727808E0,1.5857777E2,1.5977045E3,4.0281326E2,4.0534773E3],"tree_param":{"num_deleted":"0","num_feature":"4","num_nodes":"25","size_leaf_vector":"1"}},{"base_weights":[-8.894184E-5,-2.1518268E-5,-3.6861677E-2,1.2244282E-2,-4.0408107E-5,1.5117265E-5,-7.9625435E-2,2.8479652E-4,-3.0607667E-3,9.568168E-3,-5.394635E-2,6.1697863E-2,5.864185E-5,5.279706E-3,-3.1810617E-3],"categories":[],"categories_nodes":[],"categories_segments":[],"categories_sizes":[],"default_left":[0,0,0,0,0,0,0,0,0,0,0,0,0,0,0],"id":43,"left_children":[1,3,-1,-1,5,7,9,11,13,-1,-1,-1,-1,-1,-1],"loss_changes":[5.1573213E-2,4.805571E-3,0E0,0E0,2.7512964E-2,5.162419E-3,5.4238476E-2,1.0492523E-1,7.836221E-2,0E0,0E0,0E0,0E0,0E0,0E0],"parents":[2147483647,0,0,1,1,4,4,5,5,6,6,7,7,8,8],"right_children":[2,4,-1,-1,6,8,10,12,14,-1,-1,-1,-1,-1,-1],"split_conditions":[2.1E1,7E0,-3.6861677E-2,1.2244282E-2,1E0,1.2E1,2E0,8E0,1E1,9.568168E-3,-5.394635E-2,6.1697863E-2,5.864185E-5,5.279706E-3,-3.1810617E-3],"split_indices":[2,2,0,0,1,3,3,2,2,0,0,0,0,0,0],"split_type":[0,0,0,0,0,0,0,0,0,0,0,0,0,0,0],"sum_hessian":[6.2291045E3,6.2266855E3,2.4190626E0,1.8804629E0,6.224805E3,6.2214644E3,3.3408196E0,5.7207983E3,5.006657E2,1.90368E0,1.4371396E0,1.4865503E0,5.719312E3,1.3354645E2,3.6711926E2],"tree_param":{"num_deleted":"0","num_feature":"4","num_nodes":"15","size_leaf_vector":"1"}},{"base_weights":[-6.4130276E-5,-1.1855909E-4,3.8217086E-2,-6.2305093E-2,2.0014219E-5,-1.3683054E-1,2.1969005E-1,-1.3252044E-3,5.502889E-4,1.1146987E-1,-2.579645E-1,-1.8264814E-3,9.6951686E-2,-7.1331523E-3,5.230681E-3,4.5863568E-4,4.746612E-2,-1.9722322E-2,5.7411727E-2,-1.6454828E-1,2.223313E-2,4.564572E-3,-3.523228E-3,1.0226974E-2,-1.907382E-4,9.5983484E-4,-7.649464E-4],"categories":[],"categories_nodes":[],"categories_segments":[],"categories_sizes":[],"default_left":[0,0,0,0,0,0,0,0,0,0,0,0,0,0,0,0,0,0,0,0,0,0,0,0,0,0,0],"id":44,"left_children":[1,3,-1,5,7,9,11,13,15,17,19,-1,-1,21,23,25,-1,-1,-1,-1,-1,-1,-1,-1,-1,-1,-1],"loss_changes":[4.323372E-2,5.367318E-2,0E0,3.2109463E-1,4.434449E-3,3.76746E-1,7.85687E-2,6.696202E-2,6.436182E-2,7.618427E-2,8.1998354E-1,0E0,0E0,9.626104E-2,1.3990544E-1,3.6760867E-2,0E0,0E0,0E0,0E0,0E0,0E0,0E0,0E0,0E0,0E0,0E0],"parents":[2147483647,0,0,1,1,3,3,4,4,5,5,6,6,7,7,8,8,9,9,10,10,13,13,14,14,15,15],"right_children":[2,4,-1,6,8,10,12,14,16,18,20,-1,-1,22,24,26,-1,-1,-1,-1,-1,-1,-1,-1,-1,-1,-1],"split_conditions":[2.2E1,1E0,3.8217086E-2,1.6E1,1E1,4E0,9E0,7E0,1E0,1.3E1,1.1E1,-1.8264814E-3,9.6951686E-2,2E0,8E0,7E0,4.746612E-2,-1.9722322E-2,5.7411727E-2,-1.6454828E-1,2.223313E-2,4.564572E-3,-3.523228E-3,1.0226974E-2,-1.907382E-4,9.5983484E-4,-7.649464E-4],"split_indices":[2,0,0,2,2,3,3,3,1,2,3,0,0,3,3,3,0,0,0,0,0,0,0,0,0,0,0],"split_type":[0,0,0,0,0,0,0,0,0,0,0,0,0,0,0,0,0,0,0,0,0,0,0,0,0,0,0],"sum_hessian":[6.2289863E3,6.227326E3,1.6602807E0,1.2848349E1,6.2144775E3,1.0569758E1,2.2785902E0,1.7566499E3,4.4578276E3,3.4918807E0,7.0778775E0,1.0119267E0,1.2666636E0,9.314117E2,8.252383E2,4.45624E3,1.587491E0,1.1402419E0,2.3516386E0,3.4274824E0,3.6503952E0,1.5890897E2,7.725027E2,1.3860097E2,6.866373E2,2.3318115E3,2.1244287E3],"tree_param":{"num_deleted":"0","num_feature":"4","num_nodes":"27","size_leaf_vector":"1"}},{"base_weights":[-4.0240317E-5,2.9447025E-5,-1.2644064E-1,1.5135223E-2,6.328152E-6,-1.2452501E-2,-4.4419568E-2,6.647286E-5,-8.565161E-2,-6.6665857E-4,1.2043471E-3,5.7289326E-3,-5.3174857E-2,5.673547E-4,-1.2006329E-3,-4.8114374E-2,4.084724E-4],"categories":[],"categories_nodes":[],"categories_segments":[],"categories_sizes":[],"default_left":[0,0,0,0,0,0,0,0,0,0,0,0,0,0,0,0,0],"id":45,"left_children":[1,3,5,-1,7,-1,-1,9,11,13,15,-1,-1,-1,-1,-1,-1],"loss_changes":[5.48797E-2,7.2589167E-3,1.5921891E-4,0E0,3.2079164E-2,0E0,0E0,5.1914556E-3,4.5304187E-2,3.2297492E-2,6.2169224E-2,0E0,0E0,0E0,0E0,0E0,0E0],"parents":[2147483647,0,0,1,1,2,2,4,4,7,7,8,8,9,9,10,10],"right_children":[2,4,6,-1,8,-1,-1,10,12,14,16,-1,-1,-1,-1,-1,-1],"split_conditions":[2.1E1,7E0,8E0,1.5135223E-2,1E0,-1.2452501E-2,-4.4419568E-2,8E0,1.4E1,1.8E1,8E0,5.7289326E-3,-5.3174857E-2,5.673547E-4,-1.2006329E-3,-4.8114374E-2,4.084724E-4],"split_indices":[2,2,3,0,1,0,0,3,2,2,2,0,0,0,0,0,0],"split_type":[0,0,0,0,0,0,0,0,0,0,0,0,0,0,0,0,0],"sum_hessian":[6.2288833E3,6.22645E3,2.433013E0,1.8539393E0,6.224596E3,1.086235E0,1.3467779E0,6.2212275E3,3.36901E0,3.783765E3,2.4374624E3,1.9409401E0,1.4280698E0,2.1417583E3,1.6420066E3,1.3788075E0,2.4360837E3],"tree_param":{"num_deleted":"0","num_feature":"4","num_nodes":"17","size_leaf_vector":"1"}},{"base_weights":[-5.108355E-5,-1.0293721E-4,3.6190942E-2,-4.4597693E-2,-5.6268614E-6,-1.9082396E-1,6.792167E-2,-1.4279473E-3,5.5503106E-4,1.855573E-2,-1.6780092E-1,-9.728494E-2,2.0056334E-1,-5.229437E-3,7.0987404E-3,4.6739817E-4,4.5080017E-2,-6.1792295E-2,5.402029E-2,5.3507235E-2,-1.5255362E-1,1.2066881E-1,-5.3292066E-2,-5.386238E-4,-9.102609E-3,7.2694384E-3,-3.4149762E-3,-1.9268191E-4,1.8840266E-3],"categories":[],"categories_nodes":[],"categories_segments":[],"categories_sizes":[],"default_left":[0,0,0,0,0,0,0,0,0,0,0,0,0,0,0,0,0,0,0,0,0,0,0,0,0,0,0,0,0],"id":46,"left_children":[1,3,-1,5,7,9,11,13,15,17,-1,19,21,23,25,27,-1,-1,-1,-1,-1,-1,-1,-1,-1,-1,-1,-1,-1],"loss_changes":[3.8998418E-2,2.6965829E-2,0E0,2.3657554E-1,4.9571935E-3,4.8665795E-1,2.0398168E-1,5.7008192E-2,5.84281E-2,2.149336E-1,0E0,5.919679E-1,4.524942E-1,1.04827836E-1,1.7202318E-1,2.8753899E-2,0E0,0E0,0E0,0E0,0E0,0E0,0E0,0E0,0E0,0E0,0E0,0E0,0E0],"parents":[2147483647,0,0,1,1,3,3,4,4,5,5,6,6,7,7,8,8,9,9,11,11,12,12,13,13,14,14,15,15],"right_children":[2,4,-1,6,8,10,12,14,16,18,-1,20,22,24,26,28,-1,-1,-1,-1,-1,-1,-1,-1,-1,-1,-1,-1,-1],"split_conditions":[2.2E1,1E0,3.6190942E-2,1.3E1,1E1,8E0,7E0,9E0,1E0,1.1E1,-1.6780092E-1,1.4E1,1.1E1,8E0,1.1E1,1.1E1,4.5080017E-2,-6.1792295E-2,5.402029E-2,5.3507235E-2,-1.5255362E-1,1.2066881E-1,-5.3292066E-2,-5.386238E-4,-9.102609E-3,7.2694384E-3,-3.4149762E-3,-1.9268191E-4,1.8840266E-3],"split_indices":[2,0,0,2,2,2,3,3,1,3,0,2,3,3,3,3,0,0,0,0,0,0,0,0,0,0,0,0,0],"split_type":[0,0,0,0,0,0,0,0,0,0,0,0,0,0,0,0,0,0,0,0,0,0,0,0,0,0,0,0,0],"sum_hessian":[6.228696E3,6.2270195E3,1.6763047E0,1.2590872E1,6.214428E3,5.172695E0,7.418176E0,1.7566007E3,4.4578276E3,3.9041183E0,1.2685769E0,3.422266E0,3.9959104E0,1.2152067E3,5.413941E2,4.456222E3,1.6053022E0,1.5182267E0,2.3858917E0,2.3879328E0,1.0343333E0,2.5647864E0,1.431124E0,1.0699656E3,1.4524109E2,2.8079105E2,2.6060303E2,3.7426262E3,7.1359625E2],"tree_param":{"num_deleted":"0","num_feature":"4","num_nodes":"29","size_leaf_vector":"1"}},{"base_weights":[-6.6600165E-5,3.273253E-6,-1.2675194E-1,9.215247E-3,-1.1075722E-5,-1.2423911E-2,-4.4575192E-2,4.7387282E-5,-8.34719E-2,1.4076977E-2,2.5806208E-5,3.3668473E-3,-4.9740724E-2,1.1734981E-4,-3.4539597E-4],"categories":[],"categories_nodes":[],"categories_segments":[],"categories_sizes":[],"default_left":[0,0,0,0,0,0,0,0,0,0,0,0,0,0,0],"id":47,"left_children":[1,3,5,-1,7,-1,-1,9,11,-1,13,-1,-1,-1,-1],"loss_changes":[5.5146806E-2,2.7448784E-3,2.450496E-4,0E0,3.0380597E-2,0E0,0E0,6.293329E-3,3.5839982E-2,0E0,2.6756441E-3,0E0,0E0,0E0,0E0],"parents":[2147483647,0,0,1,1,2,2,4,4,7,7,8,8,10,10],"right_children":[2,4,6,-1,8,-1,-1,10,12,-1,14,-1,-1,-1,-1],"split_conditions":[2.1E1,7E0,8E0,9.215247E-3,1E0,-1.2423911E-2,-4.4575192E-2,8E0,1.4E1,1.4076977E-2,1E1,3.3668473E-3,-4.9740724E-2,1.1734981E-4,-3.4539597E-4],"split_indices":[2,2,3,0,1,0,0,2,2,0,3,0,0,0,0],"split_type":[0,0,0,0,0,0,0,0,0,0,0,0,0,0,0],"sum_hessian":[6.2288667E3,6.226432E3,2.43422E0,1.9083152E0,6.224524E3,1.0860125E0,1.3482076E0,6.2211655E3,3.3583972E0,1.8627405E0,6.2193027E3,1.9635969E0,1.3948003E0,4.7466816E3,1.4726212E3],"tree_param":{"num_deleted":"0","num_feature":"4","num_nodes":"15","size_leaf_vector":"1"}},{"base_weights":[-6.005044E-5,-1.7653691E-6,-1.0800002E-1,-2.6441949E-5,3.1725347E-2,-1.0563347E-2,-3.8016513E-2,-4.8425715E-2,3.5369594E-5,1.3746354E-1,-4.2457767E-2,1.1206615E-2,1.8030356E-5,-2.939951E-2,9.141866E-2,-6.1266194E-4,6.6845714E-5],"categories":[],"categories_nodes":[],"categories_segments":[],"categories_sizes":[],"default_left":[0,0,0,0,0,0,0,0,0,0,0,0,0,0,0,0,0],"id":48,"left_children":[1,3,5,7,9,-1,-1,-1,11,13,-1,-1,15,-1,-1,-1,-1],"loss_changes":[3.919312E-2,4.876384E-3,1.1961907E-4,6.209161E-2,1.081309E-1,0E0,0E0,0E0,4.025709E-3,1.6823182E-1,0E0,0E0,2.6248822E-3,0E0,0E0,0E0,0E0],"parents":[2147483647,0,0,1,1,2,2,3,3,4,4,8,8,9,9,12,12],"right_children":[2,4,6,8,10,-1,-1,-1,12,14,-1,-1,16,-1,-1,-1,-1],"split_conditions":[2.1E1,1E0,8E0,7E0,1.4E1,-1.0563347E-2,-3.8016513E-2,-4.8425715E-2,8E0,1E1,-4.2457767E-2,1.1206615E-2,2E0,-2.939951E-2,9.141866E-2,-6.1266194E-4,6.6845714E-5],"split_indices":[2,1,3,2,2,0,0,0,2,2,0,0,3,0,0,0,0],"split_type":[0,0,0,0,0,0,0,0,0,0,0,0,0,0,0,0,0],"sum_hessian":[6.228775E3,6.226413E3,2.3621018E0,6.2225723E3,3.8405995E0,1.0726126E0,1.289489E0,1.3828642E0,6.2211895E3,2.513272E0,1.3273276E0,1.8890641E0,6.2193003E3,1.2158359E0,1.297436E0,5.6149695E2,5.657803E3],"tree_param":{"num_deleted":"0","num_feature":"4","num_nodes":"17","size_leaf_vector":"1"}},{"base_weights":[-5.4364154E-5,-1.1055225E-4,3.9615765E-2,-5.043023E-2,1.5832568E-7,-1.1452101E-1,5.3152267E-2,1.8070152E-5,-1.074481E-2,7.741778E-2,-2.1585362E-1,7.304834E-4,-7.699336E-4,-3.394944E-3,3.1706743E-2,-1.4767493E-1,1.8374994E-2,1.7435044E-3,-1.793499E-3,-1.8588877E-3,1.8729608E-3],"categories":[],"categories_nodes":[],"categories_segments":[],"categories_sizes":[],"default_left":[0,0,0,0,0,0,0,0,0,0,0,0,0,0,0,0,0,0,0,0,0],"id":49,"left_children":[1,3,-1,5,7,9,-1,11,-1,13,15,17,19,-1,-1,-1,-1,-1,-1,-1,-1],"loss_changes":[4.6256702E-2,3.4696024E-2,0E0,2.1973641E-1,3.988025E-3,2.3602214E-1,0E0,3.4885998E-3,0E0,1.2816301E-2,6.155865E-1,1.1128914E-1,1.12326644E-1,0E0,0E0,0E0,0E0,0E0,0E0,0E0,0E0],"parents":[2147483647,0,0,1,1,3,3,4,4,5,5,7,7,9,9,10,10,11,11,12,12],"right_children":[2,4,-1,6,8,10,-1,12,-1,14,16,18,20,-1,-1,-1,-1,-1,-1,-1,-1],"split_conditions":[2.2E1,1E0,3.9615765E-2,1.6E1,1E0,4E0,5.3152267E-2,7E0,-1.074481E-2,1.3E1,1.1E1,1.8E1,1.8E1,-3.394944E-3,3.1706743E-2,-1.4767493E-1,1.8374994E-2,1.7435044E-3,-1.793499E-3,-1.8588877E-3,1.8729608E-3],"split_indices":[2,0,0,2,1,3,0,3,0,2,3,2,2,0,0,0,0,0,0,0,0],"split_type":[0,0,0,0,0,0,0,0,0,0,0,0,0,0,0,0,0,0,0,0,0],"sum_hessian":[6.228708E3,6.2270586E3,1.6493478E0,1.2672553E1,6.214386E3,1.0275838E1,2.3967152E0,6.212279E3,2.107291E0,3.632104E0,6.6437335E0,3.262664E3,2.9496147E3,1.0225097E0,2.6095943E0,2.9374113E0,3.7063224E0,1.8566141E3,1.4060499E3,1.662999E3,1.2866157E3],"tree_param":{"num_deleted":"0","num_feature":"4","num_nodes":"21","size_leaf_vector":"1"}},{"base_weights":[-4.707617E-5,1.8112407E-5,-3.5775535E-2,1.922664E-2,-1.0884676E-5,4.296987E-5,-7.740216E-2,1.2985414E-2,2.299372E-5,-5.127183E-2,7.8803105E-3,-1.6200672E-4,2.6916317E-4],"categories":[],"categories_nodes":[],"categories_segments":[],"categories_sizes":[],"default_left":[0,0,0,0,0,0,0,0,0,0,0,0,0],"id":50,"left_children":[1,3,-1,-1,5,7,9,-1,11,-1,-1,-1,-1],"loss_changes":[4.8410986E-2,1.1569961E-2,0E0,0E0,2.5949877E-2,5.3736265E-3,4.64586E-2,0E0,3.0620403E-3,0E0,0E0,0E0,0E0],"parents":[2147483647,0,0,1,1,4,4,5,5,6,6,8,8],"right_children":[2,4,-1,-1,6,8,10,-1,12,-1,-1,-1,-1],"split_conditions":[2.1E1,7E0,-3.5775535E-2,1.922664E-2,1E0,8E0,1.3E1,1.2985414E-2,8E0,-5.127183E-2,7.8803105E-3,-1.6200672E-4,2.6916317E-4],"split_indices":[2,2,0,0,1,2,2,0,3,0,0,0,0],"split_type":[0,0,0,0,0,0,0,0,0,0,0,0,0],"sum_hessian":[6.2285938E3,6.2261885E3,2.405021E0,1.817193E0,6.224371E3,6.2210415E3,3.329614E0,1.8725042E0,6.219169E3,1.4096416E0,1.9199724E0,3.7831282E3,2.4360408E3],"tree_param":{"num_deleted":"0","num_feature":"4","num_nodes":"13","size_leaf_vector":"1"}},{"base_weights":[-4.1118798E-5,-9.628638E-5,3.880434E-2,-4.3414712E-2,-1.6833078E-6,-1.1380554E-1,1.2733543E-1,7.021831E-4,-7.806374E-4,-2.4204949E-1,9.654296E-2,2.8357136E-1,-4.127053E-2,-6.630839E-3,3.6307161E-3,-4.595018E-3,4.14946E-3,2.7426867E-2,-2.0040737E-1,9.495128E-2,-2.5719125E-2,-1.1520213E-2,1.4194973E-1,3.1726056E-4,-4.2915004E-3,4.5034215E-3,-1.1608043E-3,1.5721818E-3,-4.2829243E-3,3.8963084E-3,-1.1355762E-4],"categories":[],"categories_nodes":[],"categories_segments":[],"categories_sizes":[],"default_left":[0,0,0,0,0,0,0,0,0,0,0,0,0,0,0,0,0,0,0,0,0,0,0,0,0,0,0,0,0,0,0],"id":51,"left_children":[1,3,-1,5,7,9,11,13,15,17,19,21,-1,23,25,27,29,-1,-1,-1,-1,-1,-1,-1,-1,-1,-1,-1,-1,-1,-1],"loss_changes":[4.447913E-2,2.5522007E-2,0E0,1.7760846E-1,3.4082588E-3,2.9684484E-1,2.2250251E-1,7.015136E-2,5.550866E-2,9.9621946E-1,2.0974301E-1,2.0834735E-1,0E0,5.5022534E-2,1.9929852E-1,1.5853399E-1,5.1536072E-2,0E0,0E0,0E0,0E0,0E0,0E0,0E0,0E0,0E0,0E0,0E0,0E0,0E0,0E0],"parents":[2147483647,0,0,1,1,3,3,4,4,5,5,6,6,7,7,8,8,9,9,10,10,11,11,13,13,14,14,15,15,16,16],"right_children":[2,4,-1,6,8,10,12,14,16,18,20,22,-1,24,26,28,30,-1,-1,-1,-1,-1,-1,-1,-1,-1,-1,-1,-1,-1,-1],"split_conditions":[2.2E1,1E0,3.880434E-2,1.5E1,7E0,1.1E1,1E1,1E1,1.8E1,4E0,7E0,8E0,-4.127053E-2,9E0,1.8E1,1E1,9E0,2.7426867E-2,-2.0040737E-1,9.495128E-2,-2.5719125E-2,-1.1520213E-2,1.4194973E-1,3.1726056E-4,-4.2915004E-3,4.5034215E-3,-1.1608043E-3,1.5721818E-3,-4.2829243E-3,3.8963084E-3,-1.1355762E-4],"split_indices":[2,0,0,2,3,3,3,2,2,3,2,3,0,2,2,2,3,0,0,0,0,0,0,0,0,0,0,0,0,0,0],"split_type":[0,0,0,0,0,0,0,0,0,0,0,0,0,0,0,0,0,0,0,0,0,0,0,0,0,0,0,0,0,0,0],"sum_hessian":[6.2285063E3,6.2268506E3,1.6556875E0,1.2571319E1,6.2142793E3,9.137805E0,3.433514E0,3.264532E3,2.9497473E3,5.58318E0,3.5546248E0,2.1154108E0,1.3181033E0,9.313001E2,2.3332317E3,1.6630925E3,1.2866547E3,3.5721335E0,2.0110464E0,1.2770721E0,2.2775528E0,1.0795543E0,1.0358565E0,4.6564996E2,4.6565012E2,9.264396E2,1.4067922E3,8.252028E2,8.378898E2,4.3523856E2,8.5141614E2],"tree_param":{"num_deleted":"0","num_feature":"4","num_nodes":"31","size_leaf_vector":"1"}},{"base_weights":[-3.4361597E-5,3.055829E-5,-3.5641886E-2,3.6228084E-6,3.4756657E-2,-4.7511794E-2,6.405109E-5,1.2396506E-1,-3.605638E-2,3.714695E-2,6.5745267E-6,-2.2636395E-2,7.569115E-2,-3.156129E-2,1.2548508E-1,-1.1789512E-4,6.45934E-4],"categories":[],"categories_nodes":[],"categories_segments":[],"categories_sizes":[],"default_left":[0,0,0,0,0,0,0,0,0,0,0,0,0,0,0,0,0],"id":52,"left_children":[1,3,-1,5,7,-1,9,11,-1,13,15,-1,-1,-1,-1,-1,-1],"loss_changes":[4.8035648E-2,5.82429E-3,0E0,5.9567463E-2,8.1606895E-2,0E0,1.3260664E-2,1.1002146E-1,0E0,5.663862E-1,5.329592E-3,0E0,0E0,0E0,0E0,0E0,0E0],"parents":[2147483647,0,0,1,1,3,3,4,4,6,6,7,7,9,9,10,10],"right_children":[2,4,-1,6,8,-1,10,12,-1,14,16,-1,-1,-1,-1,-1,-1],"split_conditions":[2.1E1,1E0,-3.5641886E-2,7E0,1.4E1,-4.7511794E-2,1E0,1E1,-3.605638E-2,1.6E1,1.1E1,-2.2636395E-2,7.569115E-2,-3.156129E-2,1.2548508E-1,-1.1789512E-4,6.45934E-4],"split_indices":[2,1,0,2,2,0,0,2,0,2,3,0,0,0,0,0,0],"split_type":[0,0,0,0,0,0,0,0,0,0,0,0,0,0,0,0,0],"sum_hessian":[6.2283003E3,6.225897E3,2.4032884E0,6.222071E3,3.826078E0,1.3739045E0,6.2206973E3,2.5549946E0,1.2710832E0,8.628208E0,6.212069E3,1.1617974E0,1.3931972E0,6.8090563E0,1.8191514E0,5.2378994E3,9.7416943E2],"tree_param":{"num_deleted":"0","num_feature":"4","num_nodes":"17","size_leaf_vector":"1"}},{"base_weights":[-2.3747416E-5,-7.807062E-5,3.8136616E-2,-3.534823E-2,-1.6901332E-6,9.96848E-3,-6.873294E-2,-1.784479E-3,2.906881E-4,-1.3777487E-1,1.2936148E-1,4.6625626E-3,-3.905555E-2,-1.0905177E-3,7.6193367E-3,-4.5727246E-2,-1.1475341E-2,-2.3488699E-2,1.0059807E-1,-1.4881477E-3,2.918455E-2,-2.3833934E-2,-1.4588774E-4,2.9645665E-4,-6.254344E-3,6.524469E-3,-5.823184E-3],"categories":[],"categories_nodes":[],"categories_segments":[],"categories_sizes":[],"default_left":[0,0,0,0,0,0,0,0,0,0,0,0,0,0,0,0,0,0,0,0,0,0,0,0,0,0,0],"id":53,"left_children":[1,3,-1,5,7,9,-1,11,13,15,17,19,21,23,25,-1,-1,-1,-1,-1,-1,-1,-1,-1,-1,-1,-1],"loss_changes":[4.303507E-2,1.6776735E-2,0E0,1.2044621E-1,3.2401423E-3,2.2711013E-1,0E0,2.1062937E-1,5.40649E-2,2.6067868E-3,3.2896793E-1,6.667598E-1,2.0133068E-1,1.8460056E-1,3.2389018E-1,0E0,0E0,0E0,0E0,0E0,0E0,0E0,0E0,0E0,0E0,0E0,0E0],"parents":[2147483647,0,0,1,1,3,3,4,4,5,5,7,7,8,8,9,9,10,10,11,11,12,12,13,13,14,14],"right_children":[2,4,-1,6,8,10,-1,12,14,16,18,20,22,24,26,-1,-1,-1,-1,-1,-1,-1,-1,-1,-1,-1,-1],"split_conditions":[2.2E1,1E0,3.8136616E-2,1.2E1,9E0,7E0,-6.873294E-2,1.1E1,1.1E1,1E0,1.5E1,1E1,1.2E1,1E1,1.9E1,-4.5727246E-2,-1.1475341E-2,-2.3488699E-2,1.0059807E-1,-1.4881477E-3,2.918455E-2,-2.3833934E-2,-1.4588774E-4,2.9645665E-4,-6.254344E-3,6.524469E-3,-5.823184E-3],"split_indices":[2,0,0,3,2,3,0,3,3,1,2,3,3,3,2,0,0,0,0,0,0,0,0,0,0,0,0],"split_type":[0,0,0,0,0,0,0,0,0,0,0,0,0,0,0,0,0,0,0,0,0,0,0,0,0,0,0],"sum_hessian":[6.228239E3,6.2265776E3,1.6609272E0,1.2457151E1,6.2141206E3,1.0864685E1,1.5924661E0,8.7481213E2,5.3393086E3,4.787014E0,6.077671E0,7.4655084E2,1.282613E2,4.493319E3,8.4598956E2,3.7094681E0,1.077546E0,3.335069E0,2.742602E0,6.771428E2,6.940806E1,6.2133442E1,6.612786E1,4.0664312E3,4.268878E2,5.557089E2,2.902806E2],"tree_param":{"num_deleted":"0","num_feature":"4","num_nodes":"27","size_leaf_vector":"1"}},{"base_weights":[-2.2588956E-5,4.5863682E-5,-3.7336674E-2,8.284001E-2,-1.5513335E-5,-1.8527744E-2,1.475684E-1,1.1325259E-5,-4.0127583E-2,9.195886E-2,-2.6001398E-2,2.8306546E-4,-3.0901548E-3,1.1782627E-2,-3.689515E-2,2.0295471E-2,5.8433245E-5,4.493938E-3,-2.8995222E-3],"categories":[],"categories_nodes":[],"categories_segments":[],"categories_sizes":[],"default_left":[0,0,0,0,0,0,0,0,0,0,0,0,0,0,0,0,0,0,0],"id":54,"left_children":[1,3,-1,5,7,-1,9,11,13,-1,-1,15,17,-1,-1,-1,-1,-1,-1],"loss_changes":[5.3063806E-2,3.1643163E-2,0E0,5.2287403E-2,6.699911E-3,0E0,1.5619802E-1,5.242995E-3,3.220754E-2,0E0,0E0,3.400699E-2,5.9685398E-2,0E0,0E0,0E0,0E0,0E0,0E0],"parents":[2147483647,0,0,1,1,3,3,4,4,6,6,7,7,8,8,11,11,12,12],"right_children":[2,4,-1,6,8,-1,10,12,14,-1,-1,16,18,-1,-1,-1,-1,-1,-1],"split_conditions":[2.1E1,8E0,-3.7336674E-2,1.1E1,1E0,-1.8527744E-2,7E0,1.2E1,2E0,9.195886E-2,-2.6001398E-2,1E0,1E1,1.1782627E-2,-3.689515E-2,2.0295471E-2,5.8433245E-5,4.493938E-3,-2.8995222E-3],"split_indices":[2,2,0,3,1,0,2,3,3,0,0,0,2,0,0,0,0,0,0],"split_type":[0,0,0,0,0,0,0,0,0,0,0,0,0,0,0,0,0,0,0],"sum_hessian":[6.2281094E3,6.225684E3,2.4252203E0,3.6127377E0,6.2220713E3,1.1313175E0,2.4814203E0,6.2189097E3,3.1612945E0,1.2943953E0,1.1870248E0,5.7187617E3,5.00148E2,1.8828746E0,1.2784199E0,6.483182E0,5.712279E3,1.3309174E2,3.6705627E2],"tree_param":{"num_deleted":"0","num_feature":"4","num_nodes":"19","size_leaf_vector":"1"}},{"base_weights":[-1.632089E-5,-7.0429785E-5,3.7967853E-2,-4.0795457E-2,1.8264114E-5,-2.6892365E-3,-6.192005E-2,-1.2149066E-3,5.042452E-4,5.149489E-2,-6.6619635E-2,1.2400153E-2,-2.5756652E-3,4.1533838E-4,4.582493E-2,-3.8914617E-2,4.9547385E-2,4.8385705E-3,2.5177007E-3,-3.7091367E-3,4.281358E-4,-2.2866372E-3,3.647444E-4],"categories":[],"categories_nodes":[],"categories_segments":[],"categories_sizes":[],"default_left":[0,0,0,0,0,0,0,0,0,0,0,0,0,0,0,0,0,0,0,0,0,0,0],"id":55,"left_children":[1,3,-1,5,7,9,-1,11,13,15,-1,17,19,21,-1,-1,-1,-1,-1,-1,-1,-1,-1],"loss_changes":[4.267139E-2,2.24947E-2,0E0,8.484952E-2,3.725201E-3,1.5425621E-1,0E0,3.2586668E-2,6.0288753E-2,2.3660141E-1,0E0,2.2530258E-3,6.263995E-2,2.8685702E-2,0E0,0E0,0E0,0E0,0E0,0E0,0E0,0E0,0E0],"parents":[2147483647,0,0,1,1,3,3,4,4,5,5,7,7,8,8,9,9,11,11,12,12,13,13],"right_children":[2,4,-1,6,8,10,-1,12,14,16,-1,18,20,22,-1,-1,-1,-1,-1,-1,-1,-1,-1],"split_conditions":[2.2E1,1E0,3.7967853E-2,1.2E1,1E1,1E0,-6.192005E-2,2E0,1E0,7E0,-6.6619635E-2,9E0,5E0,2E0,4.582493E-2,-3.8914617E-2,4.9547385E-2,4.8385705E-3,2.5177007E-3,-3.7091367E-3,4.281358E-4,-2.2866372E-3,3.647444E-4],"split_indices":[2,0,0,3,2,1,0,3,1,3,0,2,3,3,0,0,0,0,0,0,0,0,0],"split_type":[0,0,0,0,0,0,0,0,0,0,0,0,0,0,0,0,0,0,0,0,0,0,0],"sum_hessian":[6.2281187E3,6.2264565E3,1.6622547E0,1.2533577E1,6.213923E3,1.1015183E1,1.5183935E0,1.7561685E3,4.4577544E3,9.447095E0,1.5680884E0,1.5883487E2,1.5973335E3,4.456155E3,1.5995326E0,3.5870774E0,5.860018E0,8.071893E1,7.811593E1,4.6301672E2,1.1343168E3,4.0283426E2,4.0533206E3],"tree_param":{"num_deleted":"0","num_feature":"4","num_nodes":"23","size_leaf_vector":"1"}},{"base_weights":[-1.9619074E-5,4.6740293E-5,-3.6332823E-2,7.1282245E-2,-6.6341718E-6,-1.3081816E-2,1.1858797E-1,1.731836E-5,-3.5962917E-2,7.376192E-2,-2.327457E-2,-4.712867E-4,1.2215849E-3,1.2571685E-2,-3.5656452E-2,-4.0716E-3,2.4747098E-4,8.724104E-3,-4.7883645E-4],"categories":[],"categories_nodes":[],"categories_segments":[],"categories_sizes":[],"default_left":[0,0,0,0,0,0,0,0,0,0,0,0,0,0,0,0,0,0,0],"id":56,"left_children":[1,3,-1,5,7,-1,9,11,13,-1,-1,15,17,-1,-1,-1,-1,-1,-1],"loss_changes":[5.005927E-2,2.3675336E-2,0E0,3.0508867E-2,5.3601707E-3,0E0,1.0824558E-1,3.6604244E-3,3.1723924E-2,0E0,0E0,7.5158864E-2,1.4098871E-1,0E0,0E0,0E0,0E0,0E0,0E0],"parents":[2147483647,0,0,1,1,3,3,4,4,6,6,7,7,8,8,11,11,12,12],"right_children":[2,4,-1,6,8,-1,10,12,14,-1,-1,16,18,-1,-1,-1,-1,-1,-1],"split_conditions":[2.1E1,8E0,-3.6332823E-2,1.1E1,1E0,-1.3081816E-2,7E0,1.9E1,1.4E1,7.376192E-2,-2.327457E-2,2E0,2E0,1.2571685E-2,-3.5656452E-2,-4.0716E-3,2.4747098E-4,8.724104E-3,-4.7883645E-4],"split_indices":[2,2,0,3,1,0,2,2,2,0,0,3,3,0,0,0,0,0,0],"split_type":[0,0,0,0,0,0,0,0,0,0,0,0,0,0,0,0,0,0,0],"sum_hessian":[6.228105E3,6.225693E3,2.4121768E0,3.66206E0,6.222031E3,1.0908915E0,2.5711684E0,6.2188877E3,3.1432374E0,1.4057062E0,1.1654624E0,4.424394E3,1.7944935E3,1.8756807E0,1.2675568E0,3.9748685E2,4.0269072E3,1.6397238E2,1.6305212E3],"tree_param":{"num_deleted":"0","num_feature":"4","num_nodes":"19","size_leaf_vector":"1"}},{"base_weights":[-1.765065E-5,-7.132393E-5,3.762296E-2,-4.1947488E-2,1.99877E-5,2.2457259E-2,-1.3289198E-1,8.899658E-4,-9.4282965E-4,-1.2049132E-1,6.4346865E-2,6.432816E-2,-1.549629E-1,4.167251E-3,-3.4376637E-3,-5.2064224E-3,4.5670513E-3,-7.6663055E-2,1.6827934E-4,-4.5292117E-2,5.906636E-2,-3.8058346E-3,2.3022105E-3,5.010745E-3,-2.2992238E-3,-6.829506E-3,-4.864394E-4,1.1018773E-5,2.6957234E-3],"categories":[],"categories_nodes":[],"categories_segments":[],"categories_sizes":[],"default_left":[0,0,0,0,0,0,0,0,0,0,0,0,0,0,0,0,0,0,0,0,0,0,0,0,0,0,0,0,0],"id":57,"left_children":[1,3,-1,5,7,9,11,13,15,17,-1,19,-1,21,23,25,27,-1,-1,-1,-1,-1,-1,-1,-1,-1,-1,-1,-1],"loss_changes":[4.1943442E-2,2.3812918E-2,0E0,8.234905E-2,5.2065556E-3,2.6707464E-1,4.6920562E-1,4.6326045E-2,6.9336355E-2,9.296947E-2,0E0,1.6372015E-1,0E0,1.0994322E-1,1.19953826E-1,1.0469599E-1,2.5776144E-2,0E0,0E0,0E0,0E0,0E0,0E0,0E0,0E0,0E0,0E0,0E0,0E0],"parents":[2147483647,0,0,1,1,3,3,4,4,5,5,6,6,7,7,8,8,9,9,11,11,13,13,14,14,15,15,16,16],"right_children":[2,4,-1,6,8,10,12,14,16,18,-1,20,-1,22,24,26,28,-1,-1,-1,-1,-1,-1,-1,-1,-1,-1,-1,-1],"split_conditions":[2.2E1,1E0,3.762296E-2,1.4E1,7E0,1.3E1,1.1E1,1.8E1,1.8E1,1.1E1,6.4346865E-2,8E0,-1.549629E-1,2E0,2E0,8E0,1E1,-7.6663055E-2,1.6827934E-4,-4.5292117E-2,5.906636E-2,-3.8058346E-3,2.3022105E-3,5.010745E-3,-2.2992238E-3,-6.829506E-3,-4.864394E-4,1.1018773E-5,2.6957234E-3],"split_indices":[2,0,0,2,3,2,3,2,2,3,0,3,0,3,3,3,3,0,0,0,0,0,0,0,0,0,0,0,0],"split_type":[0,0,0,0,0,0,0,0,0,0,0,0,0,0,0,0,0,0,0,0,0,0,0,0,0,0,0,0,0],"sum_hessian":[6.228031E3,6.2263657E3,1.664972E0,1.25498E1,6.213816E3,7.787759E0,4.762041E0,3.2643264E3,2.9494895E3,4.6780047E0,3.109754E0,3.694941E0,1.0670998E0,1.8576088E3,1.4067178E3,1.6628314E3,1.2866581E3,1.6859989E0,2.9920058E0,1.3550972E0,2.339844E0,3.194993E2,1.5381094E3,2.4348523E2,1.1632325E3,2.810313E2,1.3818002E3,6.3580206E2,6.5085596E2],"tree_param":{"num_deleted":"0","num_feature":"4","num_nodes":"29","size_leaf_vector":"1"}},{"base_weights":[-3.6373058E-5,2.543676E-5,-1.1376103E-1,7.4147284E-2,-2.994566E-5,-1.0256871E-2,-4.0739566E-2,5.5693584E-3,3.2148667E-2,-2.9133566E-2,1.3404575E-5,-1.534546E-1,1.4554581E-1,2.463354E-4,-2.6455924E-3,3.9198594E-3,-9.703883E-2,7.4265815E-2,-2.20284E-2,-4.644785E-4,2.875644E-4,-1.8344453E-3,5.05109E-3],"categories":[],"categories_nodes":[],"categories_segments":[],"categories_sizes":[],"default_left":[0,0,0,0,0,0,0,0,0,0,0,0,0,0,0,0,0,0,0,0,0,0,0],"id":58,"left_children":[1,3,5,7,9,-1,-1,-1,-1,11,13,15,17,19,21,-1,-1,-1,-1,-1,-1,-1,-1],"loss_changes":[4.3788627E-2,2.5562905E-2,1.2909509E-3,6.542446E-3,7.851629E-3,0E0,0E0,0E0,0E0,2.2333904E-1,3.8498295E-3,1.7109011E-1,1.1560459E-1,7.3061376E-3,3.3941753E-2,0E0,0E0,0E0,0E0,0E0,0E0,0E0,0E0],"parents":[2147483647,0,0,1,1,2,2,3,3,4,4,9,9,10,10,11,11,12,12,13,13,14,14],"right_children":[2,4,6,8,10,-1,-1,-1,-1,12,14,16,18,20,22,-1,-1,-1,-1,-1,-1,-1,-1],"split_conditions":[2.1E1,8E0,8E0,7E0,1E0,-1.0256871E-2,-4.0739566E-2,5.5693584E-3,3.2148667E-2,1.5E1,1.2E1,4E0,1E1,1E1,2E1,3.9198594E-3,-9.703883E-2,7.4265815E-2,-2.20284E-2,-4.644785E-4,2.875644E-4,-1.8344453E-3,5.05109E-3],"split_indices":[2,2,3,2,0,0,0,0,0,2,3,3,3,2,2,0,0,0,0,0,0,0,0],"split_type":[0,0,0,0,0,0,0,0,0,0,0,0,0,0,0,0,0,0,0,0,0,0,0],"sum_hessian":[6.2280312E3,6.2256475E3,2.3838887E0,3.6493614E0,6.221998E3,1.0703982E0,1.3134905E0,1.9420698E0,1.7072916E0,8.255913E0,6.213742E3,4.8941827E0,3.3617306E0,5.7140894E3,4.9965268E2,2.9388049E0,1.9553777E0,2.2043445E0,1.1573861E0,1.6231031E3,4.0909863E3,4.2471124E2,7.4941444E1],"tree_param":{"num_deleted":"0","num_feature":"4","num_nodes":"23","size_leaf_vector":"1"}},{"base_weights":[-3.6474583E-5,-8.674857E-5,3.4958255E-2,-4.429375E-2,9.871824E-6,1.8792389E-2,-1.3313407E-1,2.5722753E-5,-9.545533E-3,-1.0378773E-1,5.256831E-2,-7.224918E-2,-3.220654E-2,7.6449837E-4,-5.1225536E-4,-6.617006E-2,-9.313603E-4,-3.4246232E-2,1.3014182E-2,-4.4779014E-3,6.971937E-4,3.0045244E-3,-4.6887554E-4],"categories":[],"categories_nodes":[],"categories_segments":[],"categories_sizes":[],"default_left":[0,0,0,0,0,0,0,0,0,0,0,0,0,0,0,0,0,0,0,0,0,0,0],"id":59,"left_children":[1,3,-1,5,7,9,11,13,-1,15,-1,-1,17,19,21,-1,-1,-1,-1,-1,-1,-1,-1],"loss_changes":[3.6513004E-2,2.6599228E-2,0E0,7.861911E-2,3.136212E-3,1.8728001E-1,5.4886788E-2,2.4695816E-3,0E0,6.482941E-2,0E0,0E0,3.0530702E-2,6.410067E-2,3.978396E-2,0E0,0E0,0E0,0E0,0E0,0E0,0E0,0E0],"parents":[2147483647,0,0,1,1,3,3,4,4,5,5,6,6,7,7,9,9,12,12,13,13,14,14],"right_children":[2,4,-1,6,8,10,12,14,-1,16,-1,-1,18,20,22,-1,-1,-1,-1,-1,-1,-1,-1],"split_conditions":[2.2E1,1E0,3.4958255E-2,1.4E1,1E0,1.3E1,1.6E1,1.1E1,-9.545533E-3,1.1E1,5.256831E-2,-7.224918E-2,9E0,2E0,2E0,-6.617006E-2,-9.313603E-4,-3.4246232E-2,1.3014182E-2,-4.4779014E-3,6.971937E-4,3.0045244E-3,-4.6887554E-4],"split_indices":[2,0,0,2,1,2,2,2,0,3,0,0,3,3,3,0,0,0,0,0,0,0,0],"split_type":[0,0,0,0,0,0,0,0,0,0,0,0,0,0,0,0,0,0,0,0,0,0,0],"sum_hessian":[6.2280186E3,6.226332E3,1.6861582E0,1.2581219E1,6.213751E3,7.8180423E0,4.7631764E0,6.2116567E3,2.0942972E0,4.5720243E0,3.2460175E0,1.6337166E0,3.1294599E0,2.6171914E3,3.5944653E3,1.5655234E0,3.0065012E0,1.2567388E0,1.8727211E0,2.3582713E2,2.3813643E3,3.2541095E2,3.2690544E3],"tree_param":{"num_deleted":"0","num_feature":"4","num_nodes":"23","size_leaf_vector":"1"}},{"base_weights":[-4.1271873E-5,1.9388639E-5,-3.3565722E-2,7.4400894E-2,-3.6171867E-5,7.470328E-3,3.00651E-2,-2.7811615E-2,5.1387838E-6,-1.4288628E-1,1.2995256E-1,3.6652214E-4,-1.1601506E-3,-4.6100575E-3,-8.335981E-2,6.30775E-2,-1.696723E-2,3.722299E-4,-1.450201E-3,-2.1516304E-3,1.9226132E-3],"categories":[],"categories_nodes":[],"categories_segments":[],"categories_sizes":[],"default_left":[0,0,0,0,0,0,0,0,0,0,0,0,0,0,0,0,0,0,0,0,0],"id":60,"left_children":[1,3,-1,5,7,-1,-1,9,11,13,15,17,19,-1,-1,-1,-1,-1,-1,-1,-1],"loss_changes":[4.226321E-2,2.5735373E-2,0E0,3.4442693E-3,7.140541E-3,0E0,0E0,1.8635291E-1,2.617558E-3,9.591203E-2,7.8118525E-2,2.1576542E-2,6.699785E-2,0E0,0E0,0E0,0E0,0E0,0E0,0E0,0E0],"parents":[2147483647,0,0,1,1,3,3,4,4,7,7,8,8,9,9,10,10,11,11,12,12],"right_children":[2,4,-1,6,8,-1,-1,10,12,14,16,18,20,-1,-1,-1,-1,-1,-1,-1,-1],"split_conditions":[2.1E1,8E0,-3.3565722E-2,7E0,1E0,7.470328E-3,3.00651E-2,1.5E1,1E1,4E0,1E1,2E1,1.8E1,-4.6100575E-3,-8.335981E-2,6.30775E-2,-1.696723E-2,3.722299E-4,-1.450201E-3,-2.1516304E-3,1.9226132E-3],"split_indices":[2,2,0,2,0,0,0,2,3,3,3,2,2,0,0,0,0,0,0,0,0],"split_type":[0,0,0,0,0,0,0,0,0,0,0,0,0,0,0,0,0,0,0,0,0],"sum_hessian":[6.228019E3,6.225642E3,2.376743E0,3.6481085E0,6.221994E3,1.9238588E0,1.7242498E0,8.241951E0,6.213752E3,4.8202906E0,3.4216604E0,4.743399E3,1.470353E3,3.0513933E0,1.7688975E0,2.3028083E0,1.1188521E0,4.0614097E3,6.8198944E2,8.194867E2,6.508663E2],"tree_param":{"num_deleted":"0","num_feature":"4","num_nodes":"21","size_leaf_vector":"1"}},{"base_weights":[-3.727024E-5,-8.716772E-5,3.4665495E-2,-4.163747E-2,3.3864885E-6,1.624268E-2,-1.24043584E-1,7.2674773E-4,-5.2342284E-4,-9.542554E-2,1.54922E-1,-1.1611021E-3,-5.6528267E-2,6.6239955E-3,-2.4951464E-3,2.8970678E-4,-9.562851E-3,3.8531978E-2,-1.5675563E-1,7.7499874E-2,-2.0983323E-2,-1.0173785E-3,8.141442E-3,5.086521E-4,-3.2949047E-3,-9.1758673E-4,1.0312569E-3,-4.9075694E-3,3.1247481E-3],"categories":[],"categories_nodes":[],"categories_segments":[],"categories_sizes":[],"default_left":[0,0,0,0,0,0,0,0,0,0,0,0,0,0,0,0,0,0,0,0,0,0,0,0,0,0,0,0,0],"id":61,"left_children":[1,3,-1,5,7,9,11,13,15,17,19,-1,-1,21,23,25,27,-1,-1,-1,-1,-1,-1,-1,-1,-1,-1,-1,-1],"loss_changes":[3.593608E-2,2.3430517E-2,0E0,6.6606574E-2,2.3686418E-3,1.5166607E-1,4.339683E-2,4.9782805E-2,2.6437681E-2,5.9442925E-1,1.1861457E-1,0E0,0E0,1.9027676E-1,6.0293525E-2,3.4798898E-2,4.0472947E-2,0E0,0E0,0E0,0E0,0E0,0E0,0E0,0E0,0E0,0E0,0E0,0E0],"parents":[2147483647,0,0,1,1,3,3,4,4,5,5,6,6,7,7,8,8,9,9,10,10,13,13,14,14,15,15,16,16],"right_children":[2,4,-1,6,8,10,12,14,16,18,20,-1,-1,22,24,26,28,-1,-1,-1,-1,-1,-1,-1,-1,-1,-1,-1,-1],"split_conditions":[2.2E1,1E0,3.4665495E-2,1.4E1,1.1E1,1.1E1,9E0,5E0,1.2E1,4E0,1.2E1,-1.1611021E-3,-5.6528267E-2,1E1,1E1,6E0,2E1,3.8531978E-2,-1.5675563E-1,7.7499874E-2,-2.0983323E-2,-1.0173785E-3,8.141442E-3,5.086521E-4,-3.2949047E-3,-9.1758673E-4,1.0312569E-3,-4.9075694E-3,3.1247481E-3],"split_indices":[2,0,0,2,2,3,3,3,3,3,3,0,0,2,2,3,2,0,0,0,0,0,0,0,0,0,0,0,