{"learner":{"attributes":{"scikit_learn":"{\"_estimator_type\": \"classifier\"}"},"feature_names":[],"feature_types":[],"gradient_booster":{"model":{"cats":{"enc":[],"feature_segments":[],"sorted_idx":[]},"gbtree_model_param":{"num_parallel_tree":"1","num_trees":"1500"},"iteration_indptr":[0,5,10,15,20,25,30,35,40,45,50,55,60,65,70,75,80,85,90,95,100,105,110,115,120,125,130,135,140,145,150,155,160,165,170,175,180,185,190,195,200,205,210,215,220,225,230,235,240,245,250,255,260,265,270,275,280,285,290,295,300,305,310,315,320,325,330,335,340,345,350,355,360,365,370,375,380,385,390,395,400,405,410,415,420,425,430,435,440,445,450,455,460,465,470,475,480,485,490,495,500,505,510,515,520,525,530,535,540,545,550,555,560,565,570,575,580,585,590,595,600,605,610,615,620,625,630,635,640,645,650,655,660,665,670,675,680,685,690,695,700,705,710,715,720,725,730,735,740,745,750,755,760,765,770,775,780,785,790,795,800,805,810,815,820,825,830,835,840,845,850,855,860,865,870,875,880,885,890,895,900,905,910,915,920,925,930,935,940,945,950,955,960,965,970,975,980,985,990,995,1000,1005,1010,1015,1020,1025,1030,1035,1040,1045,1050,1055,1060,1065,1070,1075,1080,1085,1090,1095,1100,1105,1110,1115,1120,1125,1130,1135,1140,1145,1150,1155,1160,1165,1170,1175,1180,1185,1190,1195,1200,1205,1210,1215,1220,1225,1230,1235,1240,1245,1250,1255,1260,1265,1270,1275,1280,1285,1290,1295,1300,1305,1310,1315,1320,1325,1330,1335,1340,1345,1350,1355,1360,1365,1370,1375,1380,1385,1390,1395,1400,1405,1410,1415,1420,1425,1430,1435,1440,1445,1450,1455,1460,1465,1470,1475,1480,1485,1490,1495,1500],"tree_info":[0,1,2,3,4,0,1,2,3,4,0,1,2,3,4,0,1,2,3,4,0,1,2,3,4,0,1,2,3,4,0,1,2,3,4,0,1,2,3,4,0,1,2,3,4,0,1,2,3,4,0,1,2,3,4,0,1,2,3,4,0,1,2,3,4,0,1,2,3,4,0,1,2,3,4,0,1,2,3,4,0,1,2,3,4,0,1,2,3,4,0,1,2,3,4,0,1,2,3,4,0,1,2,3,4,0,1,2,3,4,0,1,2,3,4,0,1,2,3,4,0,1,2,3,4,0,1,2,3,4,0,1,2,3,4,0,1,2,3,4,0,1,2,3,4,0,1,2,3,4,0,1,2,3,4,0,1,2,3,4,0,1,2,3,4,0,1,2,3,4,0,1,2,3,4,0,1,2,3,4,0,1,2,3,4,0,1,2,3,4,0,1,2,3,4,0,1,2,3,4,0,1,2,3,4,0,1,2,3,4,0,1,2,3,4,0,1,2,3,4,0,1,2,3,4,0,1,2,3,4,0,1,2,3,4,0,1,2,3,4,0,1,2,3,4,0,1,2,3,4,0,1,2,3,4,0,1,2,3,4,0,1,2,3,4,0,1,2,3,4,0,1,2,3,4,0,1,2,3,4,0,1,2,3,4,0,1,2,3,4,0,1,2,3,4,0,1,2,3,4,0,1,2,3,4,0,1,2,3,4,0,1,2,3,4,0,1,2,3,4,0,1,2,3,4,0,1,2,3,4,0,1,2,3,4,0,1,2,3,4,0,1,2,3,4,0,1,2,3,4,0,1,2,3,4,0,1,2,3,4,0,1,2,3,4,0,1,2,3,4,0,1,2,3,4,0,1,2,3,4,0,1,2,3,4,0,1,2,3,4,0,1,2,3,4,0,1,2,3,4,0,1,2,3,4,0,1,2,3,4,0,1,2,3,4,0,1,2,3,4,0,1,2,3,4,0,1,2,3,4,0,1,2,3,4,0,1,2,3,4,0,1,2,3,4,0,1,2,3,4,0,1,2,3,4,0,1,2,3,4,0,1,2,3,4,0,1,2,3,4,0,1,2,3,4,0,1,2,3,4,0,1,2,3,4,0,1,2,3,4,0,1,2,3,4,0,1,2,3,4,0,1,2,3,4,0,1,2,3,4,0,1,2,3,4,0,1,2,3,4,0,1,2,3,4,0,1,2,3,4,0,1,2,3,4,0,1,2,3,4,0,1,2,3,4,0,1,2,3,4,0,1,2,3,4,0,1,2,3,4,0,1,2,3,4,0,1,2,3,4,0,1,2,3,4,0,1,2,3,4,0,1,2,3,4,0,1,2,3,4,0,1,2,3,4,0,1,2,3,4,0,1,2,3,4,0,1,2,3,4,0,1,2,3,4,0,1,2,3,4,0,1,2,3,4,0,1,2,3,4,0,1,2,3,4,0,1,2,3,4,0,1,2,3,4,0,1,2,3,4,0,1,2,3,4,0,1,2,3,4,0,1,2,3,4,0,1,2,3,4,0,1,2,3,4,0,1,2,3,4,0,1,2,3,4,0,1,2,3,4,0,1,2,3,4,0,1,2,3,4,0,1,2,3,4,0,1,2,3,4,0,1,2,3,4,0,1,2,3,4,0,1,2,3,4,0,1,2,3,4,0,1,2,3,4,0,1,2,3,4,0,1,2,3,4,0,1,2,3,4,0,1,2,3,4,0,1,2,3,4,0,1,2,3,4,0,1,2,3,4,0,1,2,3,4,0,1,2,3,4,0,1,2,3,4,0,1,2,3,4,0,1,2,3,4,0,1,2,3,4,0,1,2,3,4,0,1,2,3,4,0,1,2,3,4,0,1,2,3,4,0,1,2,3,4,0,1,2,3,4,0,1,2,3,4,0,1,2,3,4,0,1,2,3,4,0,1,2,3,4,0,1,2,3,4,0,1,2,3,4,0,1,2,3,4,0,1,2,3,4,0,1,2,3,4,0,1,2,3,4,0,1,2,3,4,0,1,2,3,4,0,1,2,3,4,0,1,2,3,4,0,1,2,3,4,0,1,2,3,4,0,1,2,3,4,0,1,2,3,4,0,1,2,3,4,0,1,2,3,4,0,1,2,3,4,0,1,2,3,4,0,1,2,3,4,0,1,2,3,4,0,1,2,3,4,0,1,2,3,4,0,1,2,3,4,0,1,2,3,4,0,1,2,3,4,0,1,2,3,4,0,1,2,3,4,0,1,2,3,4,0,1,2,3,4,0,1,2,3,4,0,1,2,3,4,0,1,2,3,4,0,1,2,3,4,0,1,2,3,4,0,1,2,3,4,0,1,2,3,4,0,1,2,3,4,0,1,2,3,4,0,1,2,3,4,0,1,2,3,4,0,1,2,3,4,0,1,2,3,4,0,1,2,3,4,0,1,2,3,4,0,1,2,3,4,0,1,2,3,4,0,1,2,3,4,0,1,2,3,4,0,1,2,3,4,0,1,2,3,4,0,1,2,3,4,0,1,2,3,4,0,1,2,3,4,0,1,2,3,4,0,1,2,3,4,0,1,2,3,4,0,1,2,3,4,0,1,2,3,4,0,1,2,3,4,0,1,2,3,4,0,1,2,3,4,0,1,2,3,4,0,1,2,3,4,0,1,2,3,4,0,1,2,3,4,0,1,2,3,4,0,1,2,3,4,0,1,2,3,4,0,1,2,3,4,0,1,2,3,4,0,1,2,3,4,0,1,2,3,4,0,1,2,3,4,0,1,2,3,4,0,1,2,3,4,0,1,2,3,4,0,1,2,3,4,0,1,2,3,4,0,1,2,3,4,0,1,2,3,4,0,1,2,3,4,0,1,2,3,4,0,1,2,3,4,0,1,2,3,4,0,1,2,3,4,0,1,2,3,4,0,1,2,3,4,0,1,2,3,4,0,1,2,3,4,0,1,2,3,4,0,1,2,3,4,0,1,2,3,4,0,1,2,3,4,0,1,2,3,4,0,1,2,3,4,0,1,2,3,4,0,1,2,3,4,0,1,2,3,4,0,1,2,3,4,0,1,2,3,4,0,1,2,3,4,0,1,2,3,4,0,1,2,3,4,0,1,2,3,4,0,1,2,3,4,0,1,2,3,4,0,1,2,3,4,0,1,2,3,4,0,1,2,3,4,0,1,2,3,4,0,1,2,3,4,0,1,2,3,4,0,1,2,3,4,0,1,2,3,4,0,1,2,3,4,0,1,2,3,4,0,1,2,3,4,0,1,2,3,4,0,1,2,3,4,0,1,2,3,4,0,1,2,3,4,0,1,2,3,4,0,1,2,3,4,0,1,2,3,4,0,1,2,3,4,0,1,2,3,4,0,1,2,3,4,0,1,2,3,4,0,1,2,3,4,0,1,2,3,4],"trees":[{"base_weights":[-1.5347798E-5,5.934877E-1,-1.4323033E-1,5.1217407E-1,-2.3665433E-1,4.5462424E-1,-2.9701528E-1,3.7552124E-1,-3.3925766E-1,2.4420266E-1,-3.7351215E-1,2.5403628E-1,-2.0138927E-2],"categories":[],"categories_nodes":[],"categories_segments":[],"categories_sizes":[],"default_left":[0,0,0,0,0,0,0,0,0,0,0,0,0],"id":0,"left_children":[1,-1,3,-1,5,-1,7,-1,9,-1,11,-1,-1],"loss_changes":[6.506932E2,0E0,3.6943027E2,0E0,2.1433028E2,0E0,1.2601756E2,0E0,6.8618256E1,0E0,6.1396954E1,0E0,0E0],"parents":[2147483647,0,0,2,2,4,4,6,6,8,8,10,10],"right_children":[2,-1,4,-1,6,-1,8,-1,10,-1,12,-1,-1],"split_conditions":[8.520075E-2,5.934877E-1,5.043227E-1,5.1217407E-1,3.7484628E-1,4.5462424E-1,3.9967328E-1,3.7552124E-1,9.741841E-2,2.4420266E-1,1.0009895E-1,2.5403628E-1,-2.0138927E-2],"split_indices":[3689,0,3071,0,2203,0,949,0,3044,0,499,0,0],"split_type":[0,0,0,0,0,0,0,0,0,0,0,0,0],"sum_hessian":[3.8077667E2,3.5633435E0,3.7721332E2,2.3941214E0,3.7481918E2,1.4476084E0,3.7337158E2,1.0578676E0,3.7231372E2,1.5032855E0,3.7081042E2,1.0578676E0,3.6975256E2],"tree_param":{"num_deleted":"0","num_feature":"4000","num_nodes":"13","size_leaf_vector":"1"}},{"base_weights":[-7.3413E-6,3.960267E-1,-1.1353664E-1,3.4270963E-1,-2.2939888E-1,3.6563885E-1,-3.2398677E-1,3.499609E-1,-3.9966816E-1,2.4949168E-1,-4.221686E-1,2.3448138E-1,-2.1938233E-2],"categories":[],"categories_nodes":[],"categories_segments":[],"categories_sizes":[],"default_left":[0,0,0,0,0,0,0,0,0,0,0,0,0],"id":1,"left_children":[1,-1,3,-1,5,-1,7,-1,9,-1,11,-1,-1],"loss_changes":[6.215921E2,0E0,5.5173987E2,0E0,4.8128406E2,0E0,3.7078256E2,0E0,8.1913284E1,0E0,5.773506E1,0E0,0E0],"parents":[2147483647,0,0,2,2,4,4,6,6,8,8,10,10],"right_children":[2,-1,4,-1,6,-1,8,-1,10,-1,12,-1,-1],"split_conditions":[3.4772354E-1,3.960267E-1,4.945525E-1,3.4270963E-1,1.6380389E-1,3.6563885E-1,3.8118935E-1,3.499609E-1,3.2209718E-1,2.4949168E-1,3.7271947E-1,2.3448138E-1,-2.1938233E-2],"split_indices":[161,0,1095,0,1384,0,1118,0,2618,0,203,0,0],"split_type":[0,0,0,0,0,0,0,0,0,0,0,0,0],"sum_hessian":[6.8926184E2,8.7682085E0,6.8049365E2,1.0179185E1,6.7031445E2,7.357233E0,6.629572E2,5.845473E0,6.5711176E2,1.8141122E0,6.5529767E2,1.2094082E0,6.5408826E2],"tree_param":{"num_deleted":"0","num_feature":"4000","num_nodes":"13","size_leaf_vector":"1"}},{"base_weights":[-1.9438176E-5,1.0901358E1,-1.7546025E-1,-1.3858988E-2,7.237924E-1,5.368776E-1,-2.4928598E-1,3.7819204E-1,-3.007557E-1,1.5807736E-1,-3.261387E-1,1.12219416E-1,-3.4511456E-1,-1.7872104E-2,5.7164468E-2],"categories":[],"categories_nodes":[],"categories_segments":[],"categories_sizes":[],"default_left":[0,0,0,0,0,0,0,0,0,0,0,0,1,0,0],"id":2,"left_children":[1,3,5,-1,-1,-1,7,-1,9,-1,11,-1,13,-1,-1],"loss_changes":[5.9789734E2,2.0185931E2,2.50552E2,0E0,0E0,0E0,1.25561554E2,0E0,2.7882376E1,0E0,1.5613564E1,0E0,5.9654884E0,0E0,0E0],"parents":[2147483647,0,0,1,1,2,2,6,6,8,8,10,10,12,12],"right_children":[2,4,6,-1,-1,-1,8,-1,10,-1,12,-1,14,-1,-1],"split_conditions":[9.393667E-2,9.744718E-2,3.9534646E-1,-1.3858988E-2,7.237924E-1,5.368776E-1,4.6538562E-1,3.7819204E-1,1.205459E-1,1.5807736E-1,1.00616775E-1,1.12219416E-1,1.7244299E-1,-1.7872104E-2,5.7164468E-2],"split_indices":[1492,586,222,0,0,0,77,0,2847,0,1492,0,2171,0,0],"split_type":[0,0,0,0,0,0,0,0,0,0,0,0,0,0,0],"sum_hessian":[3.1061835E2,3.951425E0,3.0666693E2,1.1808857E0,2.7705395E0,1.0900483E0,3.0557687E2,1.0446296E0,3.0453226E2,1.3171418E0,3.0321512E2,1.3625604E0,3.0185254E2,3.0012665E2,1.7259098E0],"tree_param":{"num_deleted":"0","num_feature":"4000","num_nodes":"15","size_leaf_vector":"1"}},{"base_weights":[-1.8554804E-6,2.1022806E0,-2.7518743E-1,-1.3799933E-1,2.4642024E0,-4.0291074E-1,2.3892918E0,-3.0246386E-1,6.328079E-1,-4.5020342E-1,2.7330747E0,3.4492302E0,-4.5567217E-1,5.5635244E-2,2.925849E0,3.7398305E-2,-4.3519622E-1,1.5152974E-1,5.7811417E-2,9.468491E-3,-2.6112875E-2,-2.5547028E-2,2.9646468E0,3.3639953E-2,1.7974578E-1,1.7937575E-1,-5.008667E-1,-1.9544806E-1,7.126131E-1,2.8974578E-1,3.5212379E0,2.3005232E-2,-2.6851801E-2,9.468491E-3,2.9729984E-3,6.685825E-2,3.240982E0,1.4403844E-1,-5.2131784E-1,-3.841969E-1,3.3639953E-2,2.9729984E-3,5.7811417E-2,5.5850614E-2,-1.648776E-2,3.3639953E-2,1.7916635E-1,6.0301412E-2,-1.5303387E-2,-2.3066081E-2,1.6946664E-1,1.5110826E-1,-2.660281E-2,9.468491E-3,-2.4622219E-2,3.3639953E-2,-1.0614707E-2],"categories":[],"categories_nodes":[],"categories_segments":[],"categories_sizes":[],"default_left":[0,0,1,1,0,0,0,0,0,0,0,1,0,1,0,0,0,0,0,0,0,0,0,0,0,0,0,1,0,0,0,0,0,0,0,0,0,0,0,0,0,0,0,0,0,0,0,0,0,0,0,0,0,0,0,0,0],"id":3,"left_children":[1,3,5,7,9,11,13,15,17,19,21,23,25,27,29,-1,31,33,-1,-1,-1,-1,35,-1,-1,-1,37,39,41,43,45,-1,-1,-1,-1,47,49,-1,51,53,-1,-1,-1,-1,55,-1,-1,-1,-1,-1,-1,-1,-1,-1,-1,-1,-1],"loss_changes":[8.4670123E2,1.3769421E2,4.4138803E2,3.2983193E0,1.1555499E2,2.5274583E2,7.41431E1,3.2360482E0,9.919218E-1,7.063556E-1,1.0196423E2,4.382614E0,2.2472899E2,2.137389E0,7.4677246E1,0E0,1.9945455E0,1.1586547E-3,0E0,0E0,0E0,0E0,9.984033E1,0E0,0E0,0E0,8.500342E1,1.8232923E0,9.64069E-1,2.54567E0,4.531555E0,0E0,0E0,0E0,0E0,5.424244E0,6.4206055E1,0E0,4.7307037E1,6.1974597E-1,0E0,0E0,0E0,0E0,1.2584903E0,0E0,0E0,0E0,0E0,0E0,0E0,0E0,0E0,0E0,0E0,0E0,0E0],"parents":[2147483647,0,0,1,1,2,2,3,3,4,4,5,5,6,6,7,7,8,8,9,9,10,10,11,11,12,12,13,13,14,14,16,16,17,17,22,22,26,26,27,27,28,28,29,29,30,30,35,35,36,36,38,38,39,39,44,44],"right_children":[2,4,6,8,10,12,14,16,18,20,22,24,26,28,30,-1,32,34,-1,-1,-1,-1,36,-1,-1,-1,38,40,42,44,46,-1,-1,-1,-1,48,50,-1,52,54,-1,-1,-1,-1,56,-1,-1,-1,-1,-1,-1,-1,-1,-1,-1,-1,-1],"split_conditions":[1.1663906E-1,1.0085716E-1,8.194235E-2,7.5299665E-2,1.0553194E-1,4.8683602E-1,6.1486848E-2,1.4060484E-1,4.6049442E-2,1.00623704E-1,1.17232814E-1,7.1936004E-2,4.413122E-1,1.2542999E-1,4.478265E-1,3.7398305E-2,1.1301263E-1,7.934609E-2,5.7811417E-2,9.468491E-3,-2.6112875E-2,-2.5547028E-2,1.641985E-1,3.3639953E-2,1.7974578E-1,1.7937575E-1,1.6397695E-1,1.8090792E-1,8.674374E-2,2.8143656E-1,7.283443E-2,2.3005232E-2,-2.6851801E-2,9.468491E-3,2.9729984E-3,1.482891E-1,3.6078888E-1,1.4403844E-1,1.5150115E-1,9.366429E-2,3.3639953E-2,2.9729984E-3,5.7811417E-2,5.5850614E-2,8.356429E-2,3.3639953E-2,1.7916635E-1,6.0301412E-2,-1.5303387E-2,-2.3066081E-2,1.6946664E-1,1.5110826E-1,-2.660281E-2,9.468491E-3,-2.4622219E-2,3.3639953E-2,-1.0614707E-2],"split_indices":[255,2766,1465,195,2747,1459,3517,211,1800,268,3367,2590,215,97,1113,0,1642,195,0,0,0,0,2069,0,0,0,875,1507,2296,1642,122,0,0,0,0,1118,310,0,276,1532,0,0,0,0,122,0,0,0,0,0,0,0,0,0,0,0,0],"split_type":[0,0,0,0,0,0,0,0,0,0,0,0,0,0,0,0,0,0,0,0,0,0,0,0,0,0,0,0,0,0,0,0,0,0,0,0,0,0,0,0,0,0,0,0,0,0,0,0,0,0,0,0,0,0,0,0,0],"sum_hessian":[1.46157E3,1.6840431E2,1.2931655E3,2.3508215E1,1.4489609E2,1.2348225E3,5.8343117E1,1.9875128E1,3.6330879E0,1.218153E1,1.3271457E2,1.5814618E1,1.2190078E3,1.1112975E1,4.7230145E1,1.7096884E0,1.816544E1,2.5645328E0,1.0685552E0,1.0685552E0,1.1112975E1,8.762154E0,1.2395241E2,1.0685552E0,1.4746062E1,1.26089525E1,1.2063989E3,8.548442E0,2.5645328E0,8.975864E0,3.825428E1,1.4959774E0,1.6669462E1,1.0685552E0,1.4959774E0,1.0899263E1,1.1305315E2,6.4113317E0,1.1999875E3,7.479887E0,1.0685552E0,1.4959774E0,1.0685552E0,1.7096884E0,7.2661757E0,1.0685552E0,3.7185722E1,2.1371105E0,8.762154E0,4.274221E0,1.0877892E2,2.7782438E0,1.1972094E3,1.0685552E0,6.4113317E0,1.0685552E0,6.1976204E0],"tree_param":{"num_deleted":"0","num_feature":"4000","num_nodes":"57","size_leaf_vector":"1"}},{"base_weights":[8.225871E-6,-1.7454414E0,2.8815624E-1,5.598991E-1,-2.0635757E0,-2.0457141E0,3.8600647E-1,5.8207315E-1,-7.7876956E-3,-2.0592786E-1,-2.076044E0,-2.0802536E0,1.6577123E-2,-1.031571E-1,4.3217054E-1,6.0541576E-1,-7.7876956E-3,1.6577123E-2,-3.2152515E-2,-5.743159E-1,-2.0884137E0,-3.3884212E-2,-2.1024537E0,-1.9153292E0,4.667011E-1,-7.7876956E-3,3.1501092E-2,-5.204249E-2,1.6577123E-2,-2.0948188E0,-7.7876956E-3,-3.3884212E-2,-2.1256456E0,-2.2740439E-2,-9.872364E-2,-1.05532244E-1,4.9838033E-1,-7.7876956E-3,-1.0506352E-1,-1.0687413E-1,-3.2152515E-2,-9.094157E-2,2.5897998E-2],"categories":[],"categories_nodes":[],"categories_segments":[],"categories_sizes":[],"default_left":[0,0,0,1,0,1,0,1,0,0,0,0,0,0,0,0,0,0,0,0,1,0,0,0,0,0,0,0,0,0,0,0,1,0,0,0,0,0,0,0,0,0,0],"id":4,"left_children":[1,3,5,7,9,11,13,15,-1,17,19,21,-1,-1,23,25,-1,-1,-1,27,29,-1,31,33,35,-1,-1,-1,-1,37,-1,-1,39,-1,-1,-1,41,-1,-1,-1,-1,-1,-1],"loss_changes":[1.2073396E3,2.5061646E2,4.7131982E2,7.576847E-1,6.500244E0,7.510254E0,2.2456577E2,8.001089E-1,0E0,9.425186E-1,4.317505E0,1.1289062E0,0E0,0E0,1.5835773E2,8.4597874E-1,0E0,0E0,0E0,1.9534285E0,3.315796E0,0E0,1.2115173E0,1.5513611E0,1.5742432E2,0E0,0E0,0E0,0E0,3.3398438E0,0E0,0E0,3.2958984E-3,0E0,0E0,0E0,8.681607E1,0E0,0E0,0E0,0E0,0E0,0E0],"parents":[2147483647,0,0,1,1,2,2,3,3,4,4,5,5,6,6,7,7,9,9,10,10,11,11,14,14,15,15,19,19,20,20,22,22,23,23,24,24,29,29,32,32,36,36],"right_children":[2,4,6,8,10,12,14,16,-1,18,20,22,-1,-1,24,26,-1,-1,-1,28,30,-1,32,34,36,-1,-1,-1,-1,38,-1,-1,40,-1,-1,-1,42,-1,-1,-1,-1,-1,-1],"split_conditions":[8.247635E-2,1.2007978E-1,3.9525998E-1,1.5460443E-1,2.121473E-1,2.0424674E-1,5.5376196E-1,2.4512878E-1,-7.7876956E-3,1.2536903E-1,2.8389215E-2,1.21102355E-1,1.6577123E-2,-1.031571E-1,9.686805E-2,9.467358E-2,-7.7876956E-3,1.6577123E-2,-3.2152515E-2,6.9085956E-2,2.0561914E-1,-3.3884212E-2,1.2869947E-1,1.0565501E-1,4.945525E-1,-7.7876956E-3,3.1501092E-2,-5.204249E-2,1.6577123E-2,4.114015E-1,-7.7876956E-3,-3.3884212E-2,2.4778979E-1,-2.2740439E-2,-9.872364E-2,-1.05532244E-1,1.6951276E-1,-7.7876956E-3,-1.0506352E-1,-1.0687413E-1,-3.2152515E-2,-9.094157E-2,2.5897998E-2],"split_indices":[195,209,1465,240,1055,3135,1050,287,0,2811,677,525,0,0,255,1990,0,0,0,1683,125,0,883,712,1095,0,0,0,0,761,0,0,159,0,0,0,1231,0,0,0,0,0,0],"split_type":[0,0,0,0,0,0,0,0,0,0,0,0,0,0,0,0,0,0,0,0,0,0,0,0,0,0,0,0,0,0,0,0,0,0,0,0,0,0,0,0,0,0,0],"sum_hessian":[2.3985266E3,3.3913956E2,2.0593872E3,4.103343E1,2.981061E2,8.206686E1,1.9773203E3,3.998129E1,1.0521393E0,2.1042786E0,2.9600183E2,8.101472E1,1.0521393E0,3.577273E1,1.9415476E3,3.892915E1,1.0521393E0,1.0521393E0,1.0521393E0,2.8057046E0,2.9319614E2,1.7535653E0,7.9261154E1,2.735562E1,1.914192E3,1.0521393E0,3.787701E1,1.7535653E0,1.0521393E0,2.9214398E2,1.0521393E0,1.7535653E0,7.750759E1,1.4028523E0,2.5952768E1,2.2445637E1,1.8917463E3,1.0521393E0,2.9109186E2,7.645545E1,1.0521393E0,1.5080662E1,1.8766656E3],"tree_param":{"num_deleted":"0","num_feature":"4000","num_nodes":"43","size_leaf_vector":"1"}},{"base_weights":[1.1382892E-3,6.288559E0,-1.6387059E-1,3.816042E-1,-1.5889375E-2,3.307149E-1,-2.5244266E-1,3.3511958E-1,-3.0567586E-1,3.195387E-1,-3.433555E-1,2.1817897E-1,-3.7025294E-1,-1.9172087E-2,8.488735E-2],"categories":[],"categories_nodes":[],"categories_segments":[],"categories_sizes":[],"default_left":[0,1,0,0,0,0,0,0,0,0,0,0,1,0,0],"id":5,"left_children":[1,3,5,-1,-1,-1,7,-1,9,-1,11,-1,13,-1,-1],"loss_changes":[3.960915E2,8.908301E1,2.2501768E2,0E0,0E0,0E0,1.3836308E2,0E0,9.463161E1,0E0,4.7857754E1,0E0,1.0581512E1,0E0,0E0],"parents":[2147483647,0,0,1,1,2,2,6,6,8,8,10,10,12,12],"right_children":[2,4,6,-1,-1,-1,8,-1,10,-1,12,-1,14,-1,-1],"split_conditions":[9.689332E-2,6.754058E-2,5.043227E-1,3.816042E-1,-1.5889375E-2,3.307149E-1,3.6665708E-1,3.3511958E-1,4.017645E-1,3.195387E-1,1.7233457E-1,2.1817897E-1,1.1577199E-1,-1.9172087E-2,8.488735E-2],"split_indices":[3689,3897,3071,0,0,0,1014,0,2118,0,1263,0,1247,0,0],"split_type":[0,0,0,0,0,0,0,0,0,0,0,0,0,0,0],"sum_hessian":[3.797889E2,8.763365E0,3.7102554E2,7.153334E0,1.6100305E0,3.835412E0,3.6719016E2,1.8403858E0,3.6534976E2,1.100833E0,3.6424893E2,1.1535423E0,3.630954E2,3.6160382E2,1.4915738E0],"tree_param":{"num_deleted":"0","num_feature":"4000","num_nodes":"15","size_leaf_vector":"1"}},{"base_weights":[-9.483675E-4,4.796651E0,-1.2420288E-1,2.472297E-1,6.0819745E-2,2.5955725E-1,-2.2542395E-1,2.5059608E-1,-3.198306E-1,2.4668327E-1,-3.961479E-1,2.0109382E-1,-4.1900283E-1,1.9489321E-1,-2.1794965E-2],"categories":[],"categories_nodes":[],"categories_segments":[],"categories_sizes":[],"default_left":[0,1,0,0,0,0,0,0,0,0,0,0,0,0,0],"id":6,"left_children":[1,3,5,-1,-1,-1,7,-1,9,-1,11,-1,13,-1,-1],"loss_changes":[4.0912848E2,3.1646118E0,3.640929E2,0E0,0E0,0E0,3.2936676E2,0E0,2.6340326E2,0E0,6.668086E1,0E0,4.8474106E1,0E0,0E0],"parents":[2147483647,0,0,1,1,2,2,6,6,8,8,10,10,12,12],"right_children":[2,4,6,-1,-1,-1,8,-1,10,-1,12,-1,14,-1,-1],"split_conditions":[4.945525E-1,7.250064E-2,3.4772354E-1,2.472297E-1,6.0819745E-2,2.5955725E-1,1.6380389E-1,2.5059608E-1,3.8118935E-1,2.4668327E-1,3.2209718E-1,2.0109382E-1,3.7271947E-1,1.9489321E-1,-2.1794965E-2],"split_indices":[1095,255,161,0,0,0,1384,0,1118,0,2618,0,203,0,0],"split_type":[0,0,0,0,0,0,0,0,0,0,0,0,0,0,0],"sum_hessian":[6.898758E2,1.632987E1,6.7354596E2,1.5315915E1,1.0139558E0,1.1647062E1,6.6189886E2,1.0797602E1,6.5110126E2,8.411732E0,6.426896E2,2.407092E0,6.402825E2,1.6008134E0,6.3868164E2],"tree_param":{"num_deleted":"0","num_feature":"4000","num_nodes":"15","size_leaf_vector":"1"}},{"base_weights":[9.956784E-4,6.368419E0,-1.8665253E-1,-1.6913028E-2,4.1422716E-1,3.7377873E-1,-2.608947E-1,-3.1301382E-1,3.0286235E-1,2.595353E0,-3.4188533E-1,2.0974265E-1,-1.3061049E-2,5.7241417E-2,-3.5442206E-1,-1.8353237E-2,5.5049717E-2],"categories":[],"categories_nodes":[],"categories_segments":[],"categories_sizes":[],"default_left":[0,0,0,0,0,0,1,0,0,1,0,0,0,0,1,0,0],"id":7,"left_children":[1,3,5,-1,-1,-1,7,9,-1,11,13,-1,-1,-1,15,-1,-1],"loss_changes":[3.7265967E2,1.1753894E2,1.7429729E2,0E0,0E0,0E0,1.0102321E2,2.6037325E1,0E0,1.5079384E1,5.9498787E0,0E0,0E0,0E0,5.8456917E0,0E0,0E0],"parents":[2147483647,0,0,1,1,2,2,6,6,7,7,9,9,10,10,14,14],"right_children":[2,4,6,-1,-1,-1,8,10,-1,12,14,-1,-1,-1,16,-1,-1],"split_conditions":[9.888245E-2,1.0264249E-1,3.9534646E-1,-1.6913028E-2,4.1422716E-1,3.7377873E-1,1.283614E-1,1.2622073E-1,3.0286235E-1,1.1121027E-1,9.64133E-2,2.0974265E-1,-1.3061049E-2,5.7241417E-2,1.7244299E-1,-1.8353237E-2,5.5049717E-2],"split_indices":[1492,586,222,0,0,0,77,314,0,196,1978,0,0,0,2171,0,0],"split_type":[0,0,0,0,0,0,0,0,0,0,0,0,0,0,0,0,0],"sum_hessian":[3.0989716E2,7.9283447E0,3.019688E2,1.9447913E0,5.9835534E0,1.9411293E0,3.0002768E2,2.9851562E2,1.5120344E0,2.0604784E0,2.9645514E2,1.0205464E0,1.0399321E0,1.723721E0,2.9473145E2,2.929346E2,1.7968189E0],"tree_param":{"num_deleted":"0","num_feature":"4000","num_nodes":"17","size_leaf_vector":"1"}},{"base_weights":[-1.369391E-3,1.7009434E0,-2.7928847E-1,-1.6777167E-1,1.9621755E0,-4.0880123E-1,1.9754953E0,-2.9431334E-1,7.418636E-1,-4.6937546E-1,2.182569E0,2.7751172E0,-4.5971012E-1,2.3475522E-2,2.3757148E0,3.1763464E-2,-3.6905667E-1,5.0233165E-3,5.4757267E-2,1.0117573E-2,-2.6510376E-2,-2.5932891E-2,2.3742497E0,1.4272015E-1,3.477965E-2,1.4750008E-1,-5.0386184E-1,-2.135043E-1,6.4500725E-1,1.782431E-1,2.7881234E0,-4.920885E-1,3.818608E-1,3.362017E-2,2.561167E0,1.1249816E-1,-5.207578E-1,-3.9344966E-1,3.077815E-2,1.8485956E-3,5.3453576E-2,5.052779E-2,-1.3680412E-1,3.0725231E-2,2.8290894E0,8.466362E-3,-2.7037451E-2,3.0804172E-2,1.8567493E-3,5.441741E-2,-1.59324E-2,-5.6599784E-3,1.345668E-1,1.1160475E-1,-2.6379336E-2,8.231342E-3,-2.4878683E-2,3.1146958E-2,-1.7477972E-2,3.4224004E-2,1.4313017E-1],"categories":[],"categories_nodes":[],"categories_segments":[],"categories_sizes":[],"default_left":[0,0,1,1,0,0,0,0,0,0,0,1,0,1,0,0,1,0,0,0,0,0,0,0,0,0,0,1,0,0,0,0,0,0,0,0,0,0,0,0,0,0,0,0,0,0,0,0,0,0,0,0,0,0,0,0,0,0,0,0,0],"id":8,"left_children":[1,3,5,7,9,11,13,15,17,19,21,23,25,27,29,-1,31,-1,-1,-1,-1,-1,33,-1,-1,-1,35,37,39,41,43,45,47,49,51,-1,53,55,-1,-1,-1,-1,57,-1,59,-1,-1,-1,-1,-1,-1,-1,-1,-1,-1,-1,-1,-1,-1,-1,-1],"loss_changes":[6.9294464E2,1.0067816E2,3.684962E2,3.2264113E0,9.771619E1,1.9441254E2,5.3509705E1,1.8781688E0,6.774974E-1,7.536452E-1,8.698059E1,1.1297302E0,1.7817284E2,2.0047514E0,5.1059082E1,0E0,2.2693193E0,0E0,0E0,0E0,0E0,0E0,6.764734E1,0E0,0E0,0E0,5.51214E1,1.7233508E0,9.2680216E-1,2.7755835E0,2.52063E0,7.2865057E-1,2.7866846E-1,4.9771647E0,5.020929E1,0E0,2.285736E1,5.913974E-1,0E0,0E0,0E0,0E0,1.5394564E0,0E0,1.394928E0,0E0,0E0,0E0,0E0,0E0,0E0,0E0,0E0,0E0,0E0,0E0,0E0,0E0,0E0,0E0,0E0],"parents":[2147483647,0,0,1,1,2,2,3,3,4,4,5,5,6,6,7,7,8,8,9,9,10,10,11,11,12,12,13,13,14,14,16,16,22,22,26,26,27,27,28,28,29,29,30,30,31,31,32,32,33,33,34,34,36,36,37,37,42,42,44,44],"right_children":[2,4,6,8,10,12,14,16,18,20,22,24,26,28,30,-1,32,-1,-1,-1,-1,-1,34,-1,-1,-1,36,38,40,42,44,46,48,50,52,-1,54,56,-1,-1,-1,-1,58,-1,60,-1,-1,-1,-1,-1,-1,-1,-1,-1,-1,-1,-1,-1,-1,-1,-1],"split_conditions":[1.1980549E-1,1.0085716E-1,8.194235E-2,1.2398953E-1,1.087533E-1,5.5376196E-1,6.1486848E-2,1.1596346E-1,1.2260796E-1,1.375002E-1,1.17232814E-1,1.6328643E-1,4.413122E-1,1.2542999E-1,2.2390826E-1,3.1763464E-2,7.721613E-2,5.0233165E-3,5.4757267E-2,1.0117573E-2,-2.6510376E-2,-2.5932891E-2,1.641985E-1,1.4272015E-1,3.477965E-2,1.4750008E-1,1.6397695E-1,1.8090792E-1,8.674374E-2,2.8143656E-1,7.283443E-2,4.7142256E-2,7.934609E-2,1.482891E-1,1.9563836E-1,1.1249816E-1,1.5150115E-1,9.366429E-2,3.077815E-2,1.8485956E-3,5.3453576E-2,5.052779E-2,8.356429E-2,3.0725231E-2,1.971277E-1,8.466362E-3,-2.7037451E-2,3.0804172E-2,1.8567493E-3,5.441741E-2,-1.59324E-2,-5.6599784E-3,1.345668E-1,1.1160475E-1,-2.6379336E-2,8.231342E-3,-2.4878683E-2,3.1146958E-2,-1.7477972E-2,3.4224004E-2,1.4313017E-1],"split_indices":[255,2766,1465,1838,2747,1050,3517,97,202,409,3367,2689,215,97,1113,0,195,0,0,0,0,0,2069,0,0,0,875,1507,2296,1642,122,1683,195,1118,211,0,276,1532,0,0,0,0,122,0,889,0,0,0,0,0,0,0,0,0,0,0,0,0,0,0,0],"split_type":[0,0,0,0,0,0,0,0,0,0,0,0,0,0,0,0,0,0,0,0,0,0,0,0,0,0,0,0,0,0,0,0,0,0,0,0,0,0,0,0,0,0,0,0,0,0,0,0,0,0,0,0,0,0,0,0,0,0,0,0,0],"sum_hessian":[1.4626693E3,2.0456224E2,1.258107E3,2.5132875E1,1.7942937E2,1.1905421E3,6.756498E1,2.2657396E1,2.475479E0,1.4817841E1,1.6461153E2,1.7894302E1,1.1726478E3,1.1675901E1,5.588908E1,1.1280833E0,2.1529314E1,1.3353952E0,1.1400838E0,1.0372953E0,1.3780545E1,1.0793935E1,1.538176E2,1.6878168E1,1.0161343E0,1.4148961E1,1.1584988E3,8.928209E0,2.7476923E0,9.057806E0,4.6831276E1,1.8794645E1,2.7346683E0,1.146239E1,1.423552E2,6.2586174E0,1.1522402E3,7.7676964E0,1.1605128E0,1.5756564E0,1.172036E0,1.8809513E0,7.1768546E0,1.162276E0,4.5669E1,1.118036E0,1.7676609E1,1.1596079E0,1.5750604E0,2.3466694E0,9.115721E0,6.6132793E0,1.3574193E2,2.0448973E0,1.1501953E3,1.1300215E0,6.637675E0,1.1483103E0,6.0285444E0,1.0323329E0,4.4636665E1],"tree_param":{"num_deleted":"0","num_feature":"4000","num_nodes":"61","size_leaf_vector":"1"}},{"base_weights":[7.9947436E-4,-1.5175459E0,2.836391E-1,5.586435E-1,-1.7938466E0,-1.7704725E0,3.8067514E-1,5.7946867E-1,-8.420832E-3,-1.9228716E-1,-1.8036445E0,-1.7999262E0,1.719784E-2,-1.7872016E0,4.268107E-1,-8.4195E-3,6.0129035E-1,1.6646964E-2,-3.0912861E-2,-1.8114114E0,-1.3657612E-2,-2.973573E-2,-1.8191017E0,-2.8057206E-2,-1.8091631E0,-9.225299E-2,4.577918E-1,3.1203732E-2,-7.987812E-3,-1.8172277E0,-4.7922633E-3,-1.8295144E0,-2.7946496E-2,-2.858442E-2,-9.156955E-2,-1.6543981E0,4.9090078E-1,-6.77878E-3,-9.112157E-2,-2.7946496E-2,-9.201043E-2,-8.555769E-2,-1.9140225E-2,-8.044899E-2,2.5533138E-2],"categories":[],"categories_nodes":[],"categories_segments":[],"categories_sizes":[],"default_left":[0,0,0,1,0,1,0,0,0,0,1,0,0,0,0,0,1,0,0,1,0,0,1,0,0,0,0,0,0,0,0,0,0,0,0,1,0,0,0,0,0,0,0,0,0],"id":9,"left_children":[1,3,5,7,9,11,13,15,-1,17,19,21,-1,23,25,-1,27,-1,-1,29,-1,-1,31,-1,33,-1,35,-1,-1,37,-1,39,-1,-1,-1,41,43,-1,-1,-1,-1,-1,-1,-1,-1],"loss_changes":[1.0300509E3,2.1706427E2,4.0368475E2,7.789335E-1,4.873047E0,6.310211E0,1.9394595E2,8.1884575E-1,0E0,9.088022E-1,3.43396E0,1.0047607E0,0E0,7.373047E-2,1.3401837E2,0E0,8.443413E-1,0E0,0E0,3.1052246E0,0E0,0E0,1.3720703E-1,0E0,3.3493042E-2,0E0,1.3140561E2,0E0,0E0,2.6186523E0,0E0,1.5667725E-1,0E0,0E0,0E0,1.441452E0,7.71514E1,0E0,0E0,0E0,0E0,0E0,0E0,0E0,0E0],"parents":[2147483647,0,0,1,1,2,2,3,3,4,4,5,5,6,6,7,7,9,9,10,10,11,11,13,13,14,14,16,16,19,19,22,22,24,24,26,26,29,29,31,31,35,35,36,36],"right_children":[2,4,6,8,10,12,14,16,-1,18,20,22,-1,24,26,-1,28,-1,-1,30,-1,-1,32,-1,34,-1,36,-1,-1,38,-1,40,-1,-1,-1,42,44,-1,-1,-1,-1,-1,-1,-1,-1],"split_conditions":[8.331408E-2,1.2131206E-1,3.9525998E-1,1.1439988E-1,2.121473E-1,2.0424674E-1,5.5376196E-1,1.7147334E-1,-8.420832E-3,1.2536903E-1,1.3243489E-1,1.2277847E-1,1.719784E-2,1.96574E-1,4.945525E-1,-8.4195E-3,1.5460443E-1,1.6646964E-2,-3.0912861E-2,1.6534919E-1,-1.3657612E-2,-2.973573E-2,1.6260415E-1,-2.8057206E-2,1.7528841E-1,-9.225299E-2,9.686805E-2,3.1203732E-2,-7.987812E-3,4.114015E-1,-4.7922633E-3,4.8088944E-1,-2.7946496E-2,-2.858442E-2,-9.156955E-2,9.424791E-2,1.6951276E-1,-6.77878E-3,-9.112157E-2,-2.7946496E-2,-9.201043E-2,-8.555769E-2,-1.9140225E-2,-8.044899E-2,2.5533138E-2],"split_indices":[195,209,1465,407,1055,3135,1050,2439,0,2811,125,2815,0,665,1095,0,240,0,0,1742,0,0,465,0,1909,0,255,0,0,761,0,2821,0,0,0,712,1231,0,0,0,0,0,0,0,0],"split_type":[0,0,0,0,0,0,0,0,0,0,0,0,0,0,0,0,0,0,0,0,0,0,0,0,0,0,0,0,0,0,0,0,0,0,0,0,0,0,0,0,0,0,0,0,0],"sum_hessian":[2.3965427E3,3.75643E2,2.0208998E3,4.3999363E1,3.3164362E2,9.038275E1,1.930517E3,4.297153E1,1.027834E0,2.1419916E0,3.2950165E2,8.9287735E1,1.0950199E0,3.944173E1,1.8910753E3,1.0278844E0,4.1943645E1,1.0570424E0,1.0849493E0,3.2765533E2,1.8463126E0,1.8997513E0,8.7387985E1,1.1612836E0,3.828045E1,2.4653555E1,1.8664218E3,4.0899178E1,1.0444676E0,3.2648917E2,1.1661553E0,8.622373E1,1.1642509E0,1.1469446E0,3.7133503E1,2.8049263E1,1.8383724E3,1.0906061E0,3.2539856E2,1.1642509E0,8.505948E1,2.6519909E1,1.5293552E0,1.6389837E1,1.8219827E3],"tree_param":{"num_deleted":"0","num_feature":"4000","num_nodes":"45","size_leaf_vector":"1"}},{"base_weights":[2.4645727E-3,4.6054525E0,-1.595939E-1,2.662396E-1,-1.5843429E-2,2.4568844E-1,-2.4792169E-1,2.7498314E-1,-2.9897258E-1,2.7352529E0,-3.7357274E-1,-2.0722864E-2,2.8359455E-1,1.8573232E-1,-3.9592093E-1,6.0423393E-2,-2.0207072E-2],"categories":[],"categories_nodes":[],"categories_segments":[],"categories_sizes":[],"default_left":[0,1,0,0,0,0,0,0,0,0,0,0,0,0,0,0,0],"id":10,"left_children":[1,3,5,-1,-1,-1,7,-1,9,11,13,-1,-1,-1,15,-1,-1],"loss_changes":[2.8371173E2,4.74881E1,1.6586343E2,0E0,0E0,0E0,1.0788518E2,0E0,8.2472824E1,8.333029E1,3.363866E1,0E0,0E0,0E0,5.1186714E0,0E0,0E0],"parents":[2147483647,0,0,1,1,2,2,6,6,8,8,9,9,10,10,14,14],"right_children":[2,4,6,-1,-1,-1,8,-1,10,12,14,-1,-1,-1,16,-1,-1],"split_conditions":[9.689332E-2,6.10152E-2,5.043227E-1,2.662396E-1,-1.5843429E-2,2.4568844E-1,3.9967328E-1,2.7498314E-1,9.785409E-2,1.0126284E-1,9.407664E-2,-2.0722864E-2,2.8359455E-1,1.8573232E-1,3.2997617E-1,6.0423393E-2,-2.0207072E-2],"split_indices":[3689,1800,3071,0,0,0,949,0,2747,407,499,0,0,0,3512,0,0],"split_type":[0,0,0,0,0,0,0,0,0,0,0,0,0,0,0,0,0],"sum_hessian":[3.7834918E2,1.1935098E1,3.664141E2,1.0341975E1,1.593123E0,5.3352876E0,3.610788E2,2.2392833E0,3.588395E2,7.7549634E0,3.5108453E2,4.1561375E0,3.598826E0,1.0105189E0,3.5007404E2,1.040261E0,3.4903375E2],"tree_param":{"num_deleted":"0","num_feature":"4000","num_nodes":"17","size_leaf_vector":"1"}},{"base_weights":[-1.2864072E-3,2.0189463E-1,-1.10467866E-1,1.9726503E-1,-2.0121464E-1,1.8696228E-1,-2.7818322E-1,-3.6067858E-1,3.4213367E0,3.5199594E0,-4.15688E-1,3.189016E-2,1.8074259E-1,4.881871E-2,1.9153713E-1,1.6459577E-1,-2.1644285E-2],"categories":[],"categories_nodes":[],"categories_segments":[],"categories_sizes":[],"default_left":[0,0,0,0,0,0,1,0,0,0,0,0,0,0,0,0,0],"id":11,"left_children":[1,-1,3,-1,5,-1,7,9,11,13,15,-1,-1,-1,-1,-1,-1],"loss_changes":[3.0460126E2,0E0,2.4830986E2,0E0,2.008317E2,0E0,1.9871048E2,1.3677106E2,5.348343E0,3.3466415E0,4.133246E1,0E0,0E0,0E0,0E0,0E0,0E0],"parents":[2147483647,0,0,2,2,4,4,6,6,7,7,8,8,9,9,10,10],"right_children":[2,-1,4,-1,6,-1,8,10,12,14,16,-1,-1,-1,-1,-1,-1],"split_conditions":[3.2144123E-1,2.0189463E-1,3.4772354E-1,1.9726503E-1,1.6380389E-1,1.8696228E-1,9.893005E-2,3.8118935E-1,9.889135E-2,1.5194456E-1,3.7271947E-1,3.189016E-2,1.8074259E-1,4.881871E-2,1.9153713E-1,1.6459577E-1,-2.1644285E-2],"split_indices":[2867,0,161,0,1384,0,1095,1118,1465,223,203,0,0,0,0,0,0],"split_type":[0,0,0,0,0,0,0,0,0,0,0,0,0,0,0,0,0],"sum_hessian":[6.886889E2,1.717868E1,6.7151025E2,1.3766459E1,6.577438E2,1.16898985E1,6.460539E2,6.3284467E2,1.3209257E1,7.965009E0,6.2487964E2,1.1378748E0,1.2071382E1,1.3181721E0,6.646837E0,2.0059485E0,6.2287366E2],"tree_param":{"num_deleted":"0","num_feature":"4000","num_nodes":"17","size_leaf_vector":"1"}},{"base_weights":[2.3787494E-3,4.664757E0,-1.8222405E-1,-1.6720355E-2,2.8228548E-1,2.7715528E-1,-2.5651148E-1,-3.0902722E-1,2.407335E-1,2.3087466E0,-3.3822128E-1,2.1096663E-1,-1.4809278E-2,7.368496E-1,-3.5656425E-1,-7.3743933E-3,1.08101025E-1,6.1166357E-2,-1.8324494E-2],"categories":[],"categories_nodes":[],"categories_segments":[],"categories_sizes":[],"default_left":[0,0,0,0,0,0,1,0,0,1,0,0,0,0,0,0,0,0,0],"id":12,"left_children":[1,3,5,-1,-1,-1,7,9,-1,11,13,-1,-1,15,17,-1,-1,-1,-1],"loss_changes":[2.674089E2,5.9916534E1,1.2853783E2,0E0,0E0,0E0,8.031738E1,2.324208E1,0E0,1.8018658E1,6.0118103E0,0E0,0E0,6.8938494E0,4.9538994E0,0E0,0E0,0E0,0E0],"parents":[2147483647,0,0,1,1,2,2,6,6,7,7,9,9,10,10,13,13,14,14],"right_children":[2,4,6,-1,-1,-1,8,10,-1,12,14,-1,-1,16,18,-1,-1,-1,-1],"split_conditions":[9.888245E-2,1.0264249E-1,3.9534646E-1,-1.6720355E-2,2.8228548E-1,2.7715528E-1,1.283614E-1,1.2622073E-1,2.407335E-1,1.08148985E-1,9.7816765E-2,2.1096663E-1,-1.4809278E-2,9.844415E-2,2.582476E-1,-7.3743933E-3,1.08101025E-1,6.1166357E-2,-1.8324494E-2],"split_indices":[1492,586,222,0,0,0,77,314,0,1916,1652,0,0,1653,364,0,0,0,0],"split_type":[0,0,0,0,0,0,0,0,0,0,0,0,0,0,0,0,0,0,0],"sum_hessian":[3.087044E2,1.0833041E1,2.9787137E2,1.885121E0,8.94792E0,2.8724785E0,2.9499887E2,2.929047E2,2.0941777E0,2.369325E0,2.9053537E2,1.0093038E0,1.3600211E0,4.2168617E0,2.863185E2,3.1554039E0,1.0614581E0,1.0243251E0,2.852942E2],"tree_param":{"num_deleted":"0","num_feature":"4000","num_nodes":"19","size_leaf_vector":"1"}},{"base_weights":[-2.43802E-3,1.4695132E0,-2.7309513E-1,-1.7839903E-1,1.6805813E0,-4.0261093E-1,1.691137E0,-3.0085418E-1,6.8430364E-1,-4.6739602E-1,1.8513734E0,2.3275368E0,-4.54152E-1,-3.1263183E-4,2.0091605E0,2.9553592E-2,-3.7361568E-1,4.1320766E-3,5.1106066E-2,1.070114E-2,-2.6455352E-2,-2.5764717E-2,1.995173E0,1.1935135E-1,3.1904783E-2,-5.000277E-1,2.4617481E0,-2.2669028E-1,5.926978E-1,1.4659613E-1,2.3261192E0,-4.9388418E-1,3.4205803E-1,8.997333E-3,2.1390193E0,1.955856E0,-5.1732075E-1,2.5924984E-2,1.2932643E-1,-3.999624E-1,2.8404955E-2,1.0068287E-3,4.9907986E-2,4.625837E-2,-1.5166633E-1,8.397759E-3,2.3665261E0,7.9720495E-3,-2.710039E-2,2.841509E-2,1.0059759E-3,4.9787726E-2,-1.6378315E-2,-2.4499986E-2,1.112723E-1,3.0005684E-2,1.0484822E-1,9.8902546E-2,-2.6216257E-2,7.2683105E-3,-2.5056968E-2,2.9139206E-2,-1.7846545E-2,2.8310552E-2,1.1991658E-1],"categories":[],"categories_nodes":[],"categories_segments":[],"categories_sizes":[],"default_left":[0,0,1,1,0,0,0,0,0,0,0,1,1,1,0,0,1,0,0,0,0,0,0,0,0,0,0,1,0,0,0,0,0,0,0,0,0,0,0,0,0,0,0,0,0,0,0,0,0,0,0,0,0,0,0,0,0,0,0,0,0,0,0,0,0],"id":13,"left_children":[1,3,5,7,9,11,13,15,17,19,21,23,25,27,29,-1,31,-1,-1,-1,-1,-1,33,-1,-1,35,37,39,41,43,45,47,49,51,53,55,57,-1,-1,59,-1,-1,-1,-1,61,-1,63,-1,-1,-1,-1,-1,-1,-1,-1,-1,-1,-1,-1,-1,-1,-1,-1,-1,-1],"loss_changes":[5.822869E2,7.925867E1,3.1475394E2,3.0242712E0,7.47251E1,1.6414647E2,4.118422E1,1.7820885E0,6.5161645E-1,7.704034E-1,6.456799E1,6.5159607E-1,1.5350955E2,1.8951744E0,3.770395E1,0E0,2.136162E0,0E0,0E0,0E0,0E0,0E0,5.0325867E1,0E0,0E0,4.864456E1,2.975357E0,1.6341214E0,8.853941E-1,2.5644696E0,4.3992615E0,7.1447897E-1,2.7110243E-1,4.6118293E0,3.842456E1,2.8187752E-1,2.051712E1,0E0,0E0,5.680051E-1,0E0,0E0,0E0,0E0,1.475398E0,0E0,1.7293396E0,0E0,0E0,0E0,0E0,0E0,0E0,0E0,0E0,0E0,0E0,0E0,0E0,0E0,0E0,0E0,0E0,0E0,0E0],"parents":[2147483647,0,0,1,1,2,2,3,3,4,4,5,5,6,6,7,7,8,8,9,9,10,10,11,11,12,12,13,13,14,14,16,16,22,22,25,25,26,26,27,27,28,28,29,29,30,30,31,31,32,32,33,33,34,34,35,35,36,36,39,39,44,44,46,46],"right_children":[2,4,6,8,10,12,14,16,18,20,22,24,26,28,30,-1,32,-1,-1,-1,-1,-1,34,-1,-1,36,38,40,42,44,46,48,50,52,54,56,58,-1,-1,60,-1,-1,-1,-1,62,-1,64,-1,-1,-1,-1,-1,-1,-1,-1,-1,-1,-1,-1,-1,-1,-1,-1,-1,-1],"split_conditions":[1.1980549E-1,1.0085716E-1,8.194235E-2,1.2398953E-1,1.087533E-1,5.5376196E-1,6.1486848E-2,1.1596346E-1,1.2260796E-1,7.735656E-2,1.17232814E-1,1.6328643E-1,1.0495365E-1,1.2542999E-1,2.2390826E-1,2.9553592E-2,7.721613E-2,4.1320766E-3,5.1106066E-2,1.070114E-2,-2.6455352E-2,-2.5764717E-2,1.641985E-1,1.1935135E-1,3.1904783E-2,1.6397695E-1,6.489394E-2,1.8090792E-1,8.674374E-2,2.8143656E-1,2.8814796E-1,6.4302474E-2,7.934609E-2,1.482891E-1,3.6078888E-1,1.6457589E-1,1.5150115E-1,2.5924984E-2,1.2932643E-1,9.366429E-2,2.8404955E-2,1.0068287E-3,4.9907986E-2,4.625837E-2,8.356429E-2,8.397759E-3,7.283443E-2,7.9720495E-3,-2.710039E-2,2.841509E-2,1.0059759E-3,4.9787726E-2,-1.6378315E-2,-2.4499986E-2,1.112723E-1,3.0005684E-2,1.0484822E-1,9.8902546E-2,-2.6216257E-2,7.2683105E-3,-2.5056968E-2,2.9139206E-2,-1.7846545E-2,2.8310552E-2,1.1991658E-1],"split_indices":[255,2766,1465,1838,2747,1050,3517,97,202,1268,3367,2689,2846,97,1113,0,195,0,0,0,0,0,2069,0,0,875,1683,1507,2296,1642,3135,752,195,1118,310,205,276,0,0,1532,0,0,0,0,122,0,122,0,0,0,0,0,0,0,0,0,0,0,0,0,0,0,0,0,0],"split_type":[0,0,0,0,0,0,0,0,0,0,0,0,0,0,0,0,0,0,0,0,0,0,0,0,0,0,0,0,0,0,0,0,0,0,0,0,0,0,0,0,0,0,0,0,0,0,0,0,0,0,0,0,0,0,0,0,0,0,0,0,0,0,0,0,0],"sum_hessian":[1.459578E3,2.2600964E2,1.2335684E3,2.5678646E1,2.0033101E2,1.1580077E3,7.556066E1,2.3057102E1,2.6215434E0,1.4627733E1,1.8570328E2,2.0638163E1,1.1373695E3,1.21165E1,6.3444164E1,1.2017972E0,2.1855305E1,1.3901979E0,1.2313457E0,1.0097566E0,1.3617977E1,1.0489102E1,1.7521417E2,1.9537289E1,1.1008743E0,1.1205682E3,1.680134E1,9.216062E0,2.9004383E0,9.439098E0,5.4005066E1,1.897626E1,2.8790452E0,1.1904453E1,1.6330971E2,7.051451E0,1.1135167E3,1.3248165E0,1.5476523E1,7.974344E0,1.2417183E0,1.6376051E0,1.2628332E0,2.0322764E0,7.406822E0,1.0873188E0,5.2917744E1,1.1431899E0,1.783307E1,1.241398E0,1.6376474E0,2.5295568E0,9.374897E0,5.0491815E0,1.5826053E2,1.1599289E0,5.8915224E0,2.3291497E0,1.1111876E3,1.1796197E0,6.794724E0,1.2161543E0,6.1906676E0,1.2450541E0,5.167269E1],"tree_param":{"num_deleted":"0","num_feature":"4000","num_nodes":"65","size_leaf_vector":"1"}},{"base_weights":[1.1631247E-3,-1.3360429E0,2.8145543E-1,5.4267615E-1,-1.5979884E0,-1.5682296E0,3.7539282E-1,5.606703E-1,-8.99079E-3,-1.7666148E-1,-1.6060958E0,-1.5949676E0,1.7719327E-2,-1.5899725E0,4.215844E-1,5.793651E-1,-8.846323E-3,1.6762944E-2,-2.9600764E-2,-4.2402208E-1,-1.6154826E0,-2.6849052E-2,-1.6120871E0,-2.5593588E-2,-1.6092093E0,-8.238696E-2,4.5275688E-1,-8.648755E-3,5.987995E-1,-4.2523004E-2,1.8358974E-2,-3.338686E-3,-1.620588E0,-2.6923073E-2,-1.6298784E0,-8.1434205E-2,-2.6094386E-2,-1.4393923E0,4.825093E-1,3.0952498E-2,-8.56631E-3,-5.77349E-3,-8.125189E-2,-2.4608377E-2,-8.201688E-2,-7.471552E-2,-1.6544422E-2,-9.679325E-2,2.4971327E-2],"categories":[],"categories_nodes":[],"categories_segments":[],"categories_sizes":[],"default_left":[0,0,0,1,0,1,0,1,0,0,0,0,0,0,0,0,0,0,0,0,0,0,0,0,1,0,0,0,1,0,0,0,0,0,0,0,0,1,0,0,0,0,0,0,0,0,0,0,0],"id":14,"left_children":[1,3,5,7,9,11,13,15,-1,17,19,21,-1,23,25,27,-1,-1,-1,29,31,-1,33,-1,35,-1,37,-1,39,-1,-1,-1,41,-1,43,-1,-1,45,47,-1,-1,-1,-1,-1,-1,-1,-1,-1,-1],"loss_changes":[8.9513916E2,2.045346E2,3.436496E2,7.688999E-1,3.904663E0,5.480652E0,1.7132294E2,7.972393E-1,0E0,8.7571704E-1,3.3236694E0,8.4573364E-1,0E0,7.58667E-2,1.19269714E2,8.254509E-1,0E0,0E0,0E0,1.7300781E0,2.7230835E0,0E0,8.889313E-1,0E0,4.2510986E-2,0E0,1.0264218E2,0E0,8.601265E-1,0E0,0E0,0E0,2.2024536E0,0E0,2.693634E-1,0E0,0E0,1.2274742E0,7.393927E1,0E0,0E0,0E0,0E0,0E0,0E0,0E0,0E0,0E0,0E0],"parents":[2147483647,0,0,1,1,2,2,3,3,4,4,5,5,6,6,7,7,9,9,10,10,11,11,13,13,14,14,15,15,19,19,20,20,22,22,24,24,26,26,28,28,32,32,34,34,37,37,38,38],"right_children":[2,4,6,8,10,12,14,16,-1,18,20,22,-1,24,26,28,-1,-1,-1,30,32,-1,34,-1,36,-1,38,-1,40,-1,-1,-1,42,-1,44,-1,-1,46,48,-1,-1,-1,-1,-1,-1,-1,-1,-1,-1],"split_conditions":[8.485036E-2,1.23766944E-1,3.9525998E-1,1.6653417E-1,2.121473E-1,2.0424674E-1,5.5376196E-1,1.5503277E-1,-8.99079E-3,1.2536903E-1,2.8389215E-2,1.21102355E-1,1.7719327E-2,1.7171098E-1,4.945525E-1,1.7147334E-1,-8.846323E-3,1.6762944E-2,-2.9600764E-2,6.9085956E-2,4.522217E-1,-2.6849052E-2,1.2869947E-1,-2.5593588E-2,1.5688218E-1,-8.238696E-2,9.686805E-2,-8.648755E-3,1.5086398E-1,-4.2523004E-2,1.8358974E-2,-3.338686E-3,4.114015E-1,-2.6923073E-2,2.8422225E-1,-8.1434205E-2,-2.6094386E-2,9.424791E-2,4.8044658E-1,3.0952498E-2,-8.56631E-3,-5.77349E-3,-8.125189E-2,-2.4608377E-2,-8.201688E-2,-7.471552E-2,-1.6544422E-2,-9.679325E-2,2.4971327E-2],"split_indices":[195,209,1465,566,1055,3135,1050,411,0,2811,677,525,0,2031,1095,2439,0,0,0,1683,3883,0,883,0,2090,0,255,0,240,0,0,0,761,0,431,0,0,712,80,0,0,0,0,0,0,0,0,0,0],"split_type":[0,0,0,0,0,0,0,0,0,0,0,0,0,0,0,0,0,0,0,0,0,0,0,0,0,0,0,0,0,0,0,0,0,0,0,0,0,0,0,0,0,0,0,0,0,0,0,0,0],"sum_hessian":[2.386254E3,4.1285538E2,1.9733986E3,5.0388515E1,3.6246686E2,9.4618E1,1.8787806E3,4.9382587E1,1.0059279E0,2.185086E0,3.6028177E2,9.3488266E1,1.129734E0,4.2375145E1,1.8364054E3,4.837112E1,1.011467E0,1.065142E0,1.119944E0,3.2021744E0,3.5707962E2,2.0040514E0,9.1484215E1,1.2268559E0,4.114829E1,2.6483639E1,1.8099218E3,1.0191149E0,4.7352005E1,2.032052E0,1.1701224E0,1.2195188E0,3.5586008E2,2.000956E0,8.948326E1,3.993514E1,1.2131519E0,2.7285416E1,1.7826364E3,4.6329933E1,1.0220734E0,1.1284475E0,3.5473163E2,1.2528982E0,8.823036E1,2.5665827E1,1.6195883E0,1.1595454E1,1.7710409E3],"tree_param":{"num_deleted":"0","num_feature":"4000","num_nodes":"49","size_leaf_vector":"1"}},{"base_weights":[4.168647E-3,3.6786966E0,-1.5525134E-1,4.1382866E0,-1.5682822E-2,1.9739212E-1,-2.4337803E-1,5.724907E-2,2.1500778E-1,2.2238135E-1,-2.9475605E-1,2.376769E0,-3.70065E-1,-2.0557856E-2,2.1877745E-1,1.9304495E-1,-3.9574504E-1,-2.0208173E-2,6.1160214E-2],"categories":[],"categories_nodes":[],"categories_segments":[],"categories_sizes":[],"default_left":[0,1,0,0,0,0,0,0,0,0,0,0,0,0,0,0,1,0,0],"id":15,"left_children":[1,3,5,7,-1,-1,9,-1,-1,-1,11,13,15,-1,-1,-1,17,-1,-1],"loss_changes":[2.215912E2,3.0158417E1,1.320638E2,1.9449005E0,0E0,0E0,8.708559E1,0E0,0E0,0E0,7.1893906E1,5.647608E1,3.8921368E1,0E0,0E0,0E0,5.168976E0,0E0,0E0],"parents":[2147483647,0,0,1,1,2,2,3,3,6,6,10,10,11,11,12,12,16,16],"right_children":[2,4,6,8,-1,-1,10,-1,-1,-1,12,14,16,-1,-1,-1,18,-1,-1],"split_conditions":[9.689332E-2,6.754058E-2,5.043227E-1,5.89437E-2,-1.5682822E-2,1.9739212E-1,3.9967328E-1,5.724907E-2,2.1500778E-1,2.2238135E-1,9.785409E-2,1.0126284E-1,4.0071565E-1,-2.0557856E-2,2.1877745E-1,1.9304495E-1,2.0129207E-1,-2.0208173E-2,6.1160214E-2],"split_indices":[3689,3897,3071,3689,0,0,949,0,0,0,2747,407,225,0,0,0,3512,0,0],"split_type":[0,0,0,0,0,0,0,0,0,0,0,0,0,0,0,0,0,0,0],"sum_hessian":[3.7630054E2,1.4729086E1,3.6157147E2,1.3175771E1,1.5533155E0,6.6816773E0,3.5488977E2,1.0901455E0,1.2085625E1,2.9177918E0,3.51972E2,8.81203E0,3.4315997E2,4.011303E0,4.800727E0,1.1692646E0,3.419907E2,3.4096805E2,1.0226485E0],"tree_param":{"num_deleted":"0","num_feature":"4000","num_nodes":"19","size_leaf_vector":"1"}},{"base_weights":[-1.4431409E-3,2.930286E0,-1.1838865E-1,3.2579403E-2,3.003698E0,1.1946069E0,-3.6471036E-1,1.533008E-1,5.0556134E-2,4.803652E-1,3.2598615E0,1.913908E-1,-4.169138E-1,1.1400283E-1,1.5309058E-1,3.3721995E0,4.2790107E-2,-4.750734E-1,2.8292463E0,1.5108113E-1,-2.1005788E-1,3.4375389E0,5.4035004E-2,-4.8946977E-1,1.0632727E-1,1.5193948E-1,4.573218E-2,-1.2557849E-2,5.0129414E-2,5.446307E-2,1.7537901E-1,-2.4744987E-2,3.792758E-2],"categories":[],"categories_nodes":[],"categories_segments":[],"categories_sizes":[],"default_left":[0,0,0,0,1,1,0,0,0,1,1,0,1,0,0,1,0,1,1,0,1,0,0,1,0,0,0,0,0,0,0,0,0],"id":16,"left_children":[1,3,5,-1,7,9,11,-1,-1,13,15,-1,17,19,-1,21,-1,23,25,-1,27,29,-1,31,-1,-1,-1,-1,-1,-1,-1,-1,-1],"loss_changes":[2.359678E2,2.4592896E0,2.144862E2,0E0,4.147339E-2,1.5299794E2,1.2373383E2,0E0,0E0,7.439279E1,4.3391724E0,0E0,1.055765E2,6.682394E1,0E0,6.088257E-2,0E0,2.138697E1,1.1768188E0,0E0,3.448321E0,1.3677979E-1,0E0,4.041977E0,0E0,0E0,0E0,0E0,0E0,0E0,0E0,0E0,0E0],"parents":[2147483647,0,0,1,1,2,2,4,4,5,5,6,6,9,9,10,10,12,12,13,13,15,15,17,17,18,18,20,20,21,21,23,23],"right_children":[2,4,6,-1,8,10,12,-1,-1,14,16,-1,18,20,-1,22,-1,24,26,-1,28,30,-1,32,-1,-1,-1,-1,-1,-1,-1,-1,-1],"split_conditions":[4.945525E-1,1.2172295E-1,7.683948E-2,3.2579403E-2,7.205447E-2,4.925763E-2,4.8044658E-1,1.533008E-1,5.0556134E-2,1.11582644E-1,3.5943456E-2,1.913908E-1,1.18370436E-1,1.9563836E-1,1.5309058E-1,1.3620332E-1,4.2790107E-2,1.6882215E-1,1.0757924E-1,1.5108113E-1,1.4561038E-1,1.905419E-1,5.4035004E-2,1.8747663E-1,1.0632727E-1,1.5193948E-1,4.573218E-2,-1.2557849E-2,5.0129414E-2,5.446307E-2,1.7537901E-1,-2.4744987E-2,3.792758E-2],"split_indices":[1095,1286,195,0,195,2766,80,0,0,223,677,0,1113,211,0,1388,0,203,1642,0,270,1123,0,859,0,0,0,0,0,0,0,0,0],"split_type":[0,0,0,0,0,0,0,0,0,0,0,0,0,0,0,0,0,0,0,0,0,0,0,0,0,0,0,0,0,0,0,0,0],"sum_hessian":[6.862368E2,2.540087E1,6.60836E2,1.1010258E0,2.4299843E1,1.0378258E2,5.570534E2,2.3040525E1,1.2593164E0,7.8029625E1,2.5752949E1,5.9613905E0,5.51092E2,6.924627E1,8.783361E0,2.4218542E1,1.5344069E0,5.4223083E2,8.861189E0,6.10903E0,6.3137238E1,2.3060865E1,1.1576779E0,5.400542E2,2.1765933E0,7.4578075E0,1.4033816E0,6.1834423E1,1.3028121E0,1.14729E0,2.1913574E1,5.3831555E2,1.7386894E0],"tree_param":{"num_deleted":"0","num_feature":"4000","num_nodes":"33","size_leaf_vector":"1"}},{"base_weights":[4.5166872E-3,3.6998792E0,-1.8049587E-1,-1.758879E-2,2.2201061E-1,2.1653557E-1,-2.5487894E-1,-3.0788735E-1,1.973599E-1,2.5912014E-1,-3.4550536E-1,5.5948425E-2,-3.585167E-1,-1.8582953E-2,5.4353863E-2],"categories":[],"categories_nodes":[],"categories_segments":[],"categories_sizes":[],"default_left":[0,0,0,0,0,0,1,0,0,0,0,0,1,0,0],"id":17,"left_children":[1,3,5,-1,-1,-1,7,9,-1,-1,11,-1,13,-1,-1],"loss_changes":[2.1114568E2,4.5730164E1,9.9801865E1,0E0,0E0,0E0,6.587935E1,6.1192955E1,0E0,0E0,5.8622017E0,0E0,5.815357E0,0E0,0E0],"parents":[2147483647,0,0,1,1,2,2,6,6,7,7,10,10,12,12],"right_children":[2,4,6,-1,-1,-1,8,10,-1,-1,12,-1,14,-1,-1],"split_conditions":[1.00616775E-1,1.04402944E-1,3.9534646E-1,-1.758879E-2,2.2201061E-1,2.1653557E-1,1.283614E-1,4.7368884E-1,1.973599E-1,2.5912014E-1,9.64133E-2,5.5948425E-2,1.7244299E-1,-1.8582953E-2,5.4353863E-2],"split_indices":[1492,586,222,0,0,0,77,119,0,0,1978,0,2171,0,0],"split_type":[0,0,0,0,0,0,0,0,0,0,0,0,0,0,0],"sum_hessian":[3.068564E2,1.37248125E1,2.931316E2,2.2014856E0,1.1523327E1,3.826705E0,2.8930487E2,2.86616E2,2.688876E0,1.0197597E0,2.8559625E2,1.7665397E0,2.838297E2,2.820088E2,1.8209296E0],"tree_param":{"num_deleted":"0","num_feature":"4000","num_nodes":"15","size_leaf_vector":"1"}},{"base_weights":[-3.3411067E-3,1.2965347E0,-2.6726416E-1,-1.8556672E-1,1.473198E0,-3.996253E-1,1.4422058E0,-3.0491254E-1,6.375662E-1,-4.649749E-1,1.6115278E0,2.0069842E0,-4.5194268E-1,-1.6265128E-2,1.7257922E0,3.484514E-2,-3.7850675E-1,3.4697252E-4,5.7531912E-2,1.0890683E-2,-2.6378417E-2,-2.559113E-2,1.7249775E0,2.8201345E-2,1.02952324E-1,-4.9886334E-1,2.150751E0,-1.8304849E-1,4.0582466E-1,2.0313077E0,1.5517403E-1,-4.9579662E-1,3.1184742E-1,1.8386519E0,-6.1863355E-2,1.7921765E0,-5.1574284E-1,2.375986E-2,2.2536821E0,1.8194366E-2,-3.159207E-1,-5.755796E-4,3.3359434E-2,8.100827E-3,2.0629392E0,-6.440129E-2,4.2720523E-2,7.535527E-3,-2.7154777E-2,2.6620243E-2,3.3395312E-4,-5.92191E-3,9.675284E-2,3.6824927E-2,-1.6308213E-2,2.7585581E-2,9.674234E-2,8.875714E-2,-2.6146844E-2,3.3143863E-2,1.154961E-1,-1.9908471E-2,1.0138537E-2,4.3404844E-2,1.0528495E-1,2.9389232E-2,-1.0389337E-2],"categories":[],"categories_nodes":[],"categories_segments":[],"categories_sizes":[],"default_left":[0,0,1,1,0,0,0,0,0,0,0,1,1,0,1,0,1,0,0,0,0,0,1,0,0,0,0,0,0,0,1,0,0,0,0,0,0,0,0,0,1,0,0,0,0,0,0,0,0,0,0,0,0,0,0,0,0,0,0,0,0,0,0,0,0,0,0],"id":18,"left_children":[1,3,5,7,9,11,13,15,17,19,21,23,25,27,29,-1,31,-1,-1,-1,-1,-1,33,-1,-1,35,37,39,41,43,45,47,49,51,53,55,57,-1,59,-1,61,-1,-1,-1,63,65,-1,-1,-1,-1,-1,-1,-1,-1,-1,-1,-1,-1,-1,-1,-1,-1,-1,-1,-1,-1,-1],"loss_changes":[4.9914435E2,6.456714E1,2.7422055E2,2.8507628E0,5.960205E1,1.4233339E2,3.6064423E1,2.0548213E0,1.2045821E0,7.73046E-1,5.0293274E1,6.4782715E-1,1.3542618E2,1.1425035E0,3.4691605E1,0E0,2.0394847E0,0E0,0E0,0E0,0E0,0E0,3.970935E1,0E0,0E0,4.2747803E1,2.3215942E0,9.554585E-1,5.103621E-1,3.27211E0,2.0452626E0,7.021084E-1,2.6529902E-1,3.4815002E1,2.9046562E0,3.7193298E-1,1.8634552E1,0E0,1.029129E-1,0E0,5.005403E-1,0E0,0E0,0E0,1.2319794E0,1.1316038E0,0E0,0E0,0E0,0E0,0E0,0E0,0E0,0E0,0E0,0E0,0E0,0E0,0E0,0E0,0E0,0E0,0E0,0E0,0E0,0E0,0E0],"parents":[2147483647,0,0,1,1,2,2,3,3,4,4,5,5,6,6,7,7,8,8,9,9,10,10,11,11,12,12,13,13,14,14,16,16,22,22,25,25,26,26,27,27,28,28,29,29,30,30,31,31,32,32,33,33,34,34,35,35,36,36,38,38,40,40,44,44,45,45],"right_children":[2,4,6,8,10,12,14,16,18,20,22,24,26,28,30,-1,32,-1,-1,-1,-1,-1,34,-1,-1,36,38,40,42,44,46,48,50,52,54,56,58,-1,60,-1,62,-1,-1,-1,64,66,-1,-1,-1,-1,-1,-1,-1,-1,-1,-1,-1,-1,-1,-1,-1,-1,-1,-1,-1,-1,-1],"split_conditions":[1.1980549E-1,1.0085716E-1,7.648194E-2,1.2398953E-1,1.087533E-1,5.5376196E-1,1.0683972E-1,1.1267167E-1,1.2308156E-1,7.735656E-2,1.17232814E-1,1.1561326E-1,1.0495365E-1,5.9286878E-2,1.1675096E-1,3.484514E-2,7.721613E-2,3.4697252E-4,5.7531912E-2,1.0890683E-2,-2.6378417E-2,-2.559113E-2,1.11582644E-1,2.8201345E-2,1.02952324E-1,3.52624E-1,6.489394E-2,1.4166638E-1,9.030529E-2,2.8814796E-1,1.0757924E-1,4.7142256E-2,7.934609E-2,1.9563836E-1,1.482891E-1,1.6457589E-1,1.5150115E-1,2.375986E-2,1.7854476E-1,1.8194366E-2,1.8090792E-1,-5.755796E-4,3.3359434E-2,8.100827E-3,1.1569521E-1,1.324009E-1,4.2720523E-2,7.535527E-3,-2.7154777E-2,2.6620243E-2,3.3395312E-4,-5.92191E-3,9.675284E-2,3.6824927E-2,-1.6308213E-2,2.7585581E-2,9.674234E-2,8.875714E-2,-2.6146844E-2,3.3143863E-2,1.154961E-1,-1.9908471E-2,1.0138537E-2,4.3404844E-2,1.0528495E-1,2.9389232E-2,-1.0389337E-2],"split_indices":[255,2766,1465,1838,2747,1050,2766,97,202,1268,3367,860,2846,3517,1113,0,195,0,0,0,0,0,223,0,0,264,1683,97,1465,3135,1642,1683,195,211,1118,205,276,0,58,0,1507,0,0,0,2811,97,0,0,0,0,0,0,0,0,0,0,0,0,0,0,0,0,0,0,0,0,0],"split_type":[0,0,0,0,0,0,0,0,0,0,0,0,0,0,0,0,0,0,0,0,0,0,0,0,0,0,0,0,0,0,0,0,0,0,0,0,0,0,0,0,0,0,0,0,0,0,0,0,0,0,0,0,0,0,0,0,0,0,0,0,0,0,0,0,0,0,0],"sum_hessian":[1.4529364E3,2.4455243E2,1.208384E3,2.6040205E1,2.1851224E2,1.122256E3,8.612801E1,2.329259E1,2.7476156E0,1.4399253E1,2.0411298E2,2.3082756E1,1.0991732E3,1.4174077E1,7.195394E1,1.0143957E0,2.2278194E1,1.6872766E0,1.060339E0,1.0009342E0,1.3398318E1,1.0174433E1,1.9393855E2,1.2159214E0,2.1866835E1,1.0805026E3,1.8670681E1,1.056556E1,3.6085172E0,5.9991184E1,1.1962755E1,1.9283745E1,2.9944494E0,1.8231134E2,1.1627198E1,7.1332917E0,1.0733693E3,1.4056464E0,1.7265034E1,1.7252729E0,8.840287E0,1.757755E0,1.8507621E0,1.1001334E0,5.889105E1,9.794857E0,2.1678987E0,1.1655835E0,1.811816E1,1.3059559E0,1.6884934E0,8.548183E0,1.7376317E2,2.4475133E0,9.179686E0,1.2378335E0,5.895458E0,2.5908046E0,1.0707784E3,1.0261409E0,1.6238894E1,7.830902E0,1.0093852E0,2.7707007E0,5.612035E1,1.2067311E0,8.588126E0],"tree_param":{"num_deleted":"0","num_feature":"4000","num_nodes":"67","size_leaf_vector":"1"}},{"base_weights":[1.2176977E-3,-1.219385E0,2.7364397E-1,5.3395027E-1,-1.4444335E0,-1.4184316E0,3.6629024E-1,5.5231464E-1,-9.069178E-3,-1.607979E-1,-1.4515108E0,-1.4417963E0,1.7547494E-2,-1.4395573E0,4.1212845E-1,-8.875727E-3,5.714026E-1,1.6891446E-2,-2.8308053E-2,-3.8075322E-1,-1.4598867E0,-2.4553467E-2,-1.4570881E0,-2.3762222E-2,-1.4565132E0,-7.4781224E-2,4.4320047E-1,5.911803E-1,-8.321914E-3,-3.9120402E-2,1.855282E-2,-1.464511E0,-2.1636097E-3,-2.4669735E-2,-1.4729248E0,-2.377727E-2,-7.372102E-2,-1.3047379E0,4.7287646E-1,3.0605137E-2,-4.1945223E-3,-7.368455E-2,-3.0758563E-2,-2.2458958E-2,-7.411825E-2,-6.778741E-2,-1.4406078E-2,-7.0432805E-2,2.465694E-2],"categories":[],"categories_nodes":[],"categories_segments":[],"categories_sizes":[],"default_left":[0,0,0,1,0,1,0,0,0,0,0,0,0,0,0,0,1,0,0,0,1,0,0,0,0,0,0,1,0,0,0,1,0,0,0,0,0,1,0,0,0,0,0,0,0,0,0,0,0],"id":19,"left_children":[1,3,5,7,9,11,13,15,-1,17,19,21,-1,23,25,-1,27,-1,-1,29,31,-1,33,-1,35,-1,37,39,-1,-1,-1,41,-1,-1,43,-1,-1,45,47,-1,-1,-1,-1,-1,-1,-1,-1,-1,-1],"loss_changes":[7.8848883E2,1.71495E2,3.044157E2,7.563257E-1,3.2525635E0,4.674713E0,1.527963E2,7.832756E-1,0E0,8.4384936E-1,2.8655396E0,7.3420715E-1,0E0,5.5671692E-2,1.0700571E2,0E0,7.9788876E-1,0E0,0E0,1.592952E0,2.4140625E0,0E0,7.6330566E-1,0E0,7.993317E-2,0E0,9.222232E1,7.1380234E-1,0E0,0E0,0E0,2.0321655E0,0E0,0E0,2.575531E-1,0E0,0E0,1.15205E0,6.6925964E1,0E0,0E0,0E0,0E0,0E0,0E0,0E0,0E0,0E0,0E0],"parents":[2147483647,0,0,1,1,2,2,3,3,4,4,5,5,6,6,7,7,9,9,10,10,11,11,13,13,14,14,16,16,19,19,20,20,22,22,24,24,26,26,27,27,31,31,34,34,37,37,38,38],"right_children":[2,4,6,8,10,12,14,16,-1,18,20,22,-1,24,26,-1,28,-1,-1,30,32,-1,34,-1,36,-1,38,40,-1,-1,-1,42,-1,-1,44,-1,-1,46,48,-1,-1,-1,-1,-1,-1,-1,-1,-1,-1],"split_conditions":[8.485036E-2,1.23766944E-1,3.9525998E-1,1.1439988E-1,2.121473E-1,2.0424674E-1,5.5376196E-1,1.7147334E-1,-9.069178E-3,1.2536903E-1,2.8389215E-2,1.21102355E-1,1.7547494E-2,1.96574E-1,4.945525E-1,-8.875727E-3,1.5460443E-1,1.6891446E-2,-2.8308053E-2,6.9085956E-2,1.6534919E-1,-2.4553467E-2,1.2869947E-1,-2.3762222E-2,1.00778505E-1,-7.4781224E-2,9.686805E-2,1.5916376E-1,-8.321914E-3,-3.9120402E-2,1.855282E-2,1.3608336E-1,-2.1636097E-3,-2.4669735E-2,2.5148413E-1,-2.377727E-2,-7.372102E-2,9.424791E-2,1.6951276E-1,3.0605137E-2,-4.1945223E-3,-7.368455E-2,-3.0758563E-2,-2.2458958E-2,-7.411825E-2,-6.778741E-2,-1.4406078E-2,-7.0432805E-2,2.465694E-2],"split_indices":[195,209,1465,407,1055,3135,1050,2439,0,2811,677,525,0,665,1095,0,240,0,0,1683,1742,0,883,0,875,0,255,579,0,0,0,3071,0,0,1476,0,0,712,1231,0,0,0,0,0,0,0,0,0,0],"split_type":[0,0,0,0,0,0,0,0,0,0,0,0,0,0,0,0,0,0,0,0,0,0,0,0,0,0,0,0,0,0,0,0,0,0,0,0,0,0,0,0,0,0,0,0,0,0,0,0,0],"sum_hessian":[2.3692185E3,4.3166632E2,1.9375521E3,4.8947487E1,3.8271884E2,9.983695E1,1.8377152E3,4.7944523E1,1.0029622E0,2.2286165E0,3.8049023E2,9.871851E1,1.1184366E0,4.47397E1,1.7929755E3,1.0104419E0,4.6934082E1,1.0740532E0,1.1545634E0,3.3138177E0,3.7717642E2,2.08686E0,9.663166E1,1.2746735E0,4.3465027E1,2.7979233E1,1.7649962E3,4.5902443E1,1.0316372E0,2.1333659E0,1.1804519E0,3.7591547E2,1.2609346E0,2.0821846E0,9.454947E1,1.2732245E0,4.2191803E1,2.8748034E1,1.7362482E3,4.4613033E1,1.2894114E0,3.7116864E2,4.7468367E0,1.3077751E0,9.32417E1,2.7056828E1,1.6912056E0,1.7768505E1,1.7184797E3],"tree_param":{"num_deleted":"0","num_feature":"4000","num_nodes":"49","size_leaf_vector":"1"}},{"base_weights":[6.0443194E-3,3.0597165E0,-1.5075973E-1,3.384461E0,-1.5596206E-2,1.6402978E-1,-2.3863913E-1,5.4213066E-2,1.7430833E-1,1.8548018E-1,-2.9033267E-1,2.0942113E0,-3.663235E-1,-2.039033E-2,1.7723578E-1,1.6731952E-1,-3.9245296E-1,6.1917525E-2,-2.005393E-2],"categories":[],"categories_nodes":[],"categories_segments":[],"categories_sizes":[],"default_left":[0,1,0,0,0,0,0,0,0,0,0,0,0,0,0,0,0,0,0],"id":20,"left_children":[1,3,5,7,-1,-1,9,-1,-1,-1,11,13,15,-1,-1,-1,17,-1,-1],"loss_changes":[1.7990956E2,2.1148636E1,1.08559616E2,1.557312E-1,0E0,0E0,7.239351E1,0E0,0E0,0E0,6.3433357E1,4.074803E1,3.3909393E1,0E0,0E0,0E0,5.202713E0,0E0,0E0],"parents":[2147483647,0,0,1,1,2,2,3,3,6,6,10,10,11,11,12,12,16,16],"right_children":[2,4,6,8,-1,-1,10,-1,-1,-1,12,14,16,-1,-1,-1,18,-1,-1],"split_conditions":[9.689332E-2,6.10152E-2,5.043227E-1,5.89437E-2,-1.5596206E-2,1.6402978E-1,3.9967328E-1,5.4213066E-2,1.7430833E-1,1.8548018E-1,9.785409E-2,1.0126284E-1,4.0071565E-1,-2.039033E-2,1.7723578E-1,1.6731952E-1,2.9950517E-1,6.1917525E-2,-2.005393E-2],"split_indices":[3689,1800,3071,3689,0,0,949,0,0,0,2747,407,225,0,0,0,3512,0,0],"split_type":[0,0,0,0,0,0,0,0,0,0,0,0,0,0,0,0,0,0,0],"sum_hessian":[3.737655E2,1.7351017E1,3.564145E2,1.5823182E1,1.5278355E0,7.992868E0,3.4842163E2,1.1637722E0,1.46594095E1,3.5883663E0,3.4483325E2,9.82955E0,3.350037E2,3.8710732E0,5.958477E0,1.4531753E0,3.3355054E2,1.0048426E0,3.325457E2],"tree_param":{"num_deleted":"0","num_feature":"4000","num_nodes":"19","size_leaf_vector":"1"}},{"base_weights":[-9.6484995E-4,1.161935E0,-2.498355E-1,4.9661505E-1,2.6748176E0,2.4790401E0,-3.5995966E-1,8.649588E-2,2.4862537E0,2.738584E0,1.1386458E-2,2.5442E0,3.218876E-2,1.6704644E-1,-4.132386E-1,1.2565425E-1,-2.125418E-1,1.0324929E0,1.3484824E-1,4.4771362E-2,1.3946357E-1,3.2824945E-2,1.3066538E-1,-4.725773E-1,2.4145982E0,-2.5291845E-1,4.6913084E-2,7.3032744E-2,6.6226744E-3,-4.8734754E-1,9.518894E-2,1.2850402E-1,4.2519048E-2,-1.7815888E-2,4.8731114E-3,-2.4647126E-2,3.5432115E-2],"categories":[],"categories_nodes":[],"categories_segments":[],"categories_sizes":[],"default_left":[0,1,0,1,1,1,0,0,0,0,0,0,0,0,1,0,1,0,0,0,0,0,0,1,1,1,0,0,0,1,0,0,0,0,0,0,0],"id":21,"left_children":[1,3,5,7,9,11,13,15,17,19,-1,21,-1,-1,23,-1,25,27,-1,-1,-1,-1,-1,29,31,33,-1,-1,-1,35,-1,-1,-1,-1,-1,-1,-1],"loss_changes":[1.9797638E2,1.2005052E2,1.7022452E2,6.913072E1,5.088318E0,9.910431E-1,1.0834834E2,5.2414616E1,1.6533203E0,8.269348E-1,0E0,1.0097351E0,0E0,0E0,9.102828E1,0E0,3.23777E0,1.1377113E0,0E0,0E0,0E0,0E0,0E0,1.9372757E1,5.318756E-1,2.3234234E0,0E0,0E0,0E0,3.8493805E0,0E0,0E0,0E0,0E0,0E0,0E0,0E0],"parents":[2147483647,0,0,1,1,2,2,3,3,4,4,5,5,6,6,7,7,8,8,9,9,11,11,14,14,16,16,17,17,23,23,24,24,25,25,29,29],"right_children":[2,4,6,8,10,12,14,16,18,20,-1,22,-1,-1,24,-1,26,28,-1,-1,-1,-1,-1,30,32,34,-1,-1,-1,36,-1,-1,-1,-1,-1,-1,-1],"split_conditions":[7.683948E-2,4.925763E-2,4.945525E-1,9.720327E-2,3.784391E-2,1.7423123E-1,4.8044658E-1,1.9563836E-1,1.482891E-1,1.2628146E-1,1.1386458E-2,1.3862422E-1,3.218876E-2,1.6704644E-1,1.18370436E-1,1.2565425E-1,1.4561038E-1,1.4367029E-1,1.3484824E-1,4.4771362E-2,1.3946357E-1,3.2824945E-2,1.3066538E-1,1.6882215E-1,1.0757924E-1,7.9373986E-2,4.6913084E-2,7.3032744E-2,6.6226744E-3,1.8747663E-1,9.518894E-2,1.2850402E-1,4.2519048E-2,-1.7815888E-2,4.8731114E-3,-2.4647126E-2,3.5432115E-2],"split_indices":[195,2766,1095,2069,677,451,80,211,1118,97,0,1838,0,0,1113,0,270,223,0,0,0,0,0,203,1642,3850,0,0,0,859,0,0,0,0,0,0,0],"split_type":[0,0,0,0,0,0,0,0,0,0,0,0,0,0,0,0,0,0,0,0,0,0,0,0,0,0,0,0,0,0,0,0,0,0,0,0,0],"sum_hessian":[6.82062E2,1.1958894E2,5.62473E2,8.398371E1,3.5605236E1,2.0983782E1,5.4148926E2,7.049602E1,1.3487692E1,3.45849E1,1.0203377E0,1.989127E1,1.0925117E0,6.809055E0,5.346802E2,6.922047E0,6.357397E1,2.454356E0,1.1033337E1,1.4252099E0,3.3159687E1,1.0732999E0,1.881797E1,5.2450696E2,1.0173251E1,6.2172825E1,1.4011467E0,1.2410779E0,1.2132779E0,5.22057E2,2.4499269E0,8.668556E0,1.5046945E0,4.79929E1,1.4179921E1,5.2021124E2,1.845772E0],"tree_param":{"num_deleted":"0","num_feature":"4000","num_nodes":"37","size_leaf_vector":"1"}},{"base_weights":[6.6279075E-3,3.07477E0,-1.7561315E-1,-1.7400267E-2,1.7912234E-1,1.7695631E-1,-2.4992144E-1,-3.0328834E-1,1.6463254E-1,2.2167774E-1,-3.4148005E-1,5.3703677E-2,-3.5471857E-1,5.4269075E-2,-1.840741E-2],"categories":[],"categories_nodes":[],"categories_segments":[],"categories_sizes":[],"default_left":[0,0,0,0,0,0,1,0,0,0,0,0,0,0,0],"id":22,"left_children":[1,3,5,-1,-1,-1,7,9,-1,-1,11,-1,13,-1,-1],"loss_changes":[1.7149341E2,3.1128067E1,8.080973E1,0E0,0E0,0E0,5.4842186E1,5.2437992E1,0E0,0E0,5.6312943E0,0E0,5.7823677E0,0E0,0E0],"parents":[2147483647,0,0,1,1,2,2,6,6,7,7,10,10,12,12],"right_children":[2,4,6,-1,-1,-1,8,10,-1,-1,12,-1,14,-1,-1],"split_conditions":[1.00616775E-1,1.04402944E-1,3.9534646E-1,-1.7400267E-2,1.7912234E-1,1.7695631E-1,1.283614E-1,4.7368884E-1,1.6463254E-1,2.2167774E-1,9.64133E-2,5.3703677E-2,1.7489383E-1,5.4269075E-2,-1.840741E-2],"split_indices":[1492,586,222,0,0,0,77,119,0,0,1978,0,2171,0,0],"split_type":[0,0,0,0,0,0,0,0,0,0,0,0,0,0,0],"sum_hessian":[3.0474274E2,1.619628E1,2.8854648E2,2.1326165E0,1.4063663E1,4.744352E0,2.8380212E2,2.8049106E2,3.311055E0,1.3229375E0,2.7916812E2,1.8441709E0,2.7732394E2,1.8248018E0,2.7549915E2],"tree_param":{"num_deleted":"0","num_feature":"4000","num_nodes":"15","size_leaf_vector":"1"}},{"base_weights":[-4.088137E-3,1.1619723E0,-2.6173156E-1,-1.900628E-1,1.3136282E0,-3.9390674E-1,1.2866664E0,-3.0706587E-1,6.000401E-1,-4.6212974E-1,1.4292324E0,1.7698017E0,-4.4672662E-1,-3.0301504E-2,1.5289891E0,3.277179E-2,-3.795345E-1,-2.142886E-4,5.4731455E-2,9.867039E-3,-2.6261935E-2,-2.541837E-2,1.5220811E0,1.813674E0,2.5983173E-2,-4.9447283E-1,1.9230258E0,-1.9012636E-1,3.6985314E-1,1.7852814E0,1.3251778E-1,-4.9543703E-1,2.824251E-1,-3.3608827E-1,1.6056753E0,9.299577E-1,1.9011817E0,1.6065637E0,-5.116986E-1,2.2245554E-2,2.0097225E0,1.696462E-2,-3.1961286E-1,-1.169551E-3,3.0902714E-2,7.825786E-3,1.8105654E0,-7.627176E-2,3.9349817E-2,7.1329414E-3,-2.713716E-2,2.48287E-2,-3.1331778E-4,-2.6343504E-2,2.853228E-2,3.550331E-4,8.448556E-2,5.9046395E-2,6.1705704E-3,2.9856592E-2,9.7132854E-2,2.5451813E-2,8.656614E-2,8.049955E-2,-2.5952583E-2,1.0323111E-1,2.9239446E-2,9.690247E-3,-2.0032829E-2,8.9798495E-3,9.166039E-2,2.7791345E-2,-1.0766594E-2],"categories":[],"categories_nodes":[],"categories_segments":[],"categories_sizes":[],"default_left":[0,0,1,1,0,0,0,0,0,0,0,1,1,0,1,0,1,0,0,0,0,0,0,0,0,0,0,0,0,0,1,0,0,1,0,0,0,0,0,0,1,0,0,0,0,0,0,0,0,0,0,0,0,0,0,0,0,0,0,0,0,0,0,0,0,0,0,0,0,0,0,0,0],"id":23,"left_children":[1,3,5,7,9,11,13,15,17,19,21,23,25,27,29,-1,31,-1,-1,-1,-1,-1,33,35,-1,37,39,41,43,45,47,49,51,53,55,57,59,61,63,-1,65,-1,67,-1,-1,-1,69,71,-1,-1,-1,-1,-1,-1,-1,-1,-1,-1,-1,-1,-1,-1,-1,-1,-1,-1,-1,-1,-1,-1,-1,-1,-1],"loss_changes":[4.3414807E2,5.387201E1,2.4273615E2,2.703272E0,4.8957214E1,1.25506134E2,2.9827957E1,1.9503951E0,1.156393E0,7.3357606E-1,4.0556152E1,4.94812E-1,1.2157024E2,1.0605397E0,2.7979813E1,0E0,1.9291668E0,0E0,0E0,0E0,0E0,0E0,3.335666E1,1.5878296E-1,0E0,3.867122E1,1.830162E0,9.121914E-1,4.7891408E-1,2.4565277E0,1.878194E0,6.874566E-1,2.5731313E-1,2.0170836E0,2.7170837E1,7.0491576E-1,1.4373779E-2,3.1624222E-1,1.7029938E1,0E0,3.4132385E-1,0E0,4.9105453E-1,0E0,0E0,0E0,2.08667E0,1.0865011E0,0E0,0E0,0E0,0E0,0E0,0E0,0E0,0E0,0E0,0E0,0E0,0E0,0E0,0E0,0E0,0E0,0E0,0E0,0E0,0E0,0E0,0E0,0E0,0E0,0E0],"parents":[2147483647,0,0,1,1,2,2,3,3,4,4,5,5,6,6,7,7,8,8,9,9,10,10,11,11,12,12,13,13,14,14,16,16,22,22,23,23,25,25,26,26,27,27,28,28,29,29,30,30,31,31,32,32,33,33,34,34,35,35,36,36,37,37,38,38,40,40,42,42,46,46,47,47],"right_children":[2,4,6,8,10,12,14,16,18,20,22,24,26,28,30,-1,32,-1,-1,-1,-1,-1,34,36,-1,38,40,42,44,46,48,50,52,54,56,58,60,62,64,-1,66,-1,68,-1,-1,-1,70,72,-1,-1,-1,-1,-1,-1,-1,-1,-1,-1,-1,-1,-1,-1,-1,-1,-1,-1,-1,-1,-1,-1,-1,-1,-1],"split_conditions":[1.1980549E-1,1.0085716E-1,7.648194E-2,1.2398953E-1,1.087533E-1,5.5376196E-1,1.0683972E-1,1.1267167E-1,7.1591444E-2,9.318955E-2,1.17232814E-1,1.6328643E-1,1.0495365E-1,5.9286878E-2,1.1675096E-1,3.277179E-2,7.721613E-2,-2.142886E-4,5.4731455E-2,9.867039E-3,-2.6261935E-2,-2.541837E-2,1.4518845E-1,6.803938E-2,2.5983173E-2,3.52624E-1,6.489394E-2,1.4166638E-1,9.030529E-2,2.8814796E-1,1.0757924E-1,6.4302474E-2,7.934609E-2,1.23698816E-1,3.523926E-1,6.582818E-2,6.082428E-1,1.6457589E-1,1.5150115E-1,2.2245554E-2,1.4061484E-1,1.696462E-2,1.4478742E-1,-1.169551E-3,3.0902714E-2,7.825786E-3,1.8075755E-1,1.324009E-1,3.9349817E-2,7.1329414E-3,-2.713716E-2,2.48287E-2,-3.1331778E-4,-2.6343504E-2,2.853228E-2,3.550331E-4,8.448556E-2,5.9046395E-2,6.1705704E-3,2.9856592E-2,9.7132854E-2,2.5451813E-2,8.656614E-2,8.049955E-2,-2.5952583E-2,1.0323111E-1,2.9239446E-2,9.690247E-3,-2.0032829E-2,8.9798495E-3,9.166039E-2,2.7791345E-2,-1.0766594E-2],"split_indices":[255,2766,1465,1838,2747,1050,2766,97,944,293,3367,2689,2846,3517,1113,0,195,0,0,0,0,0,2721,361,0,264,1683,97,1465,3135,1642,752,195,2069,2069,361,866,205,276,0,883,0,1118,0,0,0,889,97,0,0,0,0,0,0,0,0,0,0,0,0,0,0,0,0,0,0,0,0,0,0,0,0,0],"split_type":[0,0,0,0,0,0,0,0,0,0,0,0,0,0,0,0,0,0,0,0,0,0,0,0,0,0,0,0,0,0,0,0,0,0,0,0,0,0,0,0,0,0,0,0,0,0,0,0,0,0,0,0,0,0,0,0,0,0,0,0,0,0,0,0,0,0,0,0,0,0,0,0,0],"sum_hessian":[1.443087E3,2.6051596E2,1.182571E3,2.6249012E1,2.3426695E2,1.0902502E3,9.23209E1,2.3395786E1,2.8532257E0,1.413569E1,2.2013127E2,2.5206043E1,1.0650442E3,1.448317E1,7.783773E1,1.0749038E0,2.2320883E1,1.7303226E0,1.1229031E0,1.0488216E0,1.3086867E1,9.861565E0,2.102697E2,2.3915958E1,1.2900838E0,1.044785E3,2.0259176E1,1.0724564E1,3.7586057E0,6.553227E1,1.2305461E1,1.9209118E1,3.1117644E0,8.922217E0,2.0134749E2,3.2024496E0,2.0713509E1,7.7459407E0,1.0370391E3,1.4621632E0,1.8797012E1,1.78915E0,8.935413E0,1.8048309E0,1.9537749E0,1.1116478E0,6.442062E1,9.999057E0,2.3064039E0,1.1866858E0,1.8022432E1,1.3731143E0,1.73865E0,7.7173753E0,1.2048419E0,1.01102E1,1.9123729E2,2.0884237E0,1.1140261E0,1.1131042E0,1.9600405E1,1.309162E0,6.4367785E0,2.828842E0,1.0342102E3,1.76674E1,1.1296121E0,1.0284896E0,7.9069242E0,1.00439E0,6.3416233E1,1.2626494E0,8.736407E0],"tree_param":{"num_deleted":"0","num_feature":"4000","num_nodes":"73","size_leaf_vector":"1"}},{"base_weights":[9.677307E-4,-1.0145857E0,2.9638585E-1,5.572319E-1,-1.3277402E0,-1.3165199E0,3.822826E-1,-9.066623E-3,5.6775963E-1,-1.3383507E0,-5.428682E-1,-1.3405554E0,1.7373499E-2,-1.3194581E0,4.3028283E-1,5.7845753E-1,-8.510119E-3,-1.4253983E-1,-1.3443198E0,2.0395545E-2,-8.0018604E-1,-2.2880385E-2,-1.3567064E0,-2.1957941E-2,-1.3350607E0,-6.881073E-2,4.630148E-1,5.89542E-1,-4.826104E-3,1.7122734E-2,-2.7022857E-2,-1.3498464E0,-7.544461E-3,-2.859697E-1,-5.4549105E-2,-2.292569E-2,-1.3736132E0,-2.2300724E-2,-6.755079E-2,-1.2793874E0,4.8685333E-1,3.0044034E-2,-4.2708013E-3,-1.0840478E-3,-6.7690484E-2,-2.2598682E-2,-1.660452E-6,-2.0153755E-2,-6.921913E-2,-1.3761874E-3,-6.768697E-2,-8.4625676E-2,2.5251511E-2],"categories":[],"categories_nodes":[],"categories_segments":[],"categories_sizes":[],"default_left":[0,0,0,0,1,1,0,0,1,0,0,0,0,0,0,1,0,0,1,0,0,0,0,0,0,0,0,1,0,0,0,0,0,0,0,0,0,0,0,0,0,0,0,0,0,0,0,0,0,0,0,0,0],"id":24,"left_children":[1,3,5,7,9,11,13,-1,15,17,19,21,-1,23,25,27,-1,29,31,-1,33,-1,35,-1,37,-1,39,41,-1,-1,-1,43,-1,45,-1,-1,47,-1,-1,49,51,-1,-1,-1,-1,-1,-1,-1,-1,-1,-1,-1,-1],"loss_changes":[7.0441E2,2.6116956E2,2.5249156E2,7.9187965E-1,2.9500732E0,4.1529846E0,1.4168883E2,0E0,7.900257E-1,2.9127808E0,2.1787028E0,6.780853E-1,0E0,6.802368E-2,1.00035675E2,7.0464516E-1,0E0,8.178544E-1,2.6497803E0,0E0,6.2949324E-1,0E0,7.2076416E-1,0E0,5.4473877E-2,0E0,6.923413E1,7.042694E-1,0E0,0E0,0E0,2.2368774E0,0E0,1.722705E-1,0E0,0E0,3.4918213E-1,0E0,0E0,2.0635338E0,6.5436554E1,0E0,0E0,0E0,0E0,0E0,0E0,0E0,0E0,0E0,0E0,0E0,0E0],"parents":[2147483647,0,0,1,1,2,2,3,3,4,4,5,5,6,6,8,8,9,9,10,10,11,11,13,13,14,14,15,15,17,17,18,18,20,20,22,22,24,24,26,26,27,27,31,31,33,33,36,36,39,39,40,40],"right_children":[2,4,6,8,10,12,14,-1,16,18,20,22,-1,24,26,28,-1,30,32,-1,34,-1,36,-1,38,-1,40,42,-1,-1,-1,44,-1,46,-1,-1,48,-1,-1,50,52,-1,-1,-1,-1,-1,-1,-1,-1,-1,-1,-1,-1],"split_conditions":[9.980202E-2,1.4525934E-1,3.9525998E-1,1.7147334E-1,1.2593545E-1,2.0424674E-1,5.5376196E-1,-9.066623E-3,1.5460443E-1,2.121473E-1,1.7787376E-1,1.2869947E-1,1.7373499E-2,1.7171098E-1,4.945525E-1,1.2674303E-1,-8.510119E-3,1.2536903E-1,1.3243489E-1,2.0395545E-2,1.3796885E-1,-2.2880385E-2,1.21102355E-1,-2.1957941E-2,1.7528841E-1,-6.881073E-2,1.6951276E-1,2.4497013E-1,-4.826104E-3,1.7122734E-2,-2.7022857E-2,4.522217E-1,-7.544461E-3,1.3375475E-1,-5.4549105E-2,-2.292569E-2,1.9922295E-1,-2.2300724E-2,-6.755079E-2,1.3091247E-1,4.8044658E-1,3.0044034E-2,-4.2708013E-3,-1.0840478E-3,-6.7690484E-2,-2.2598682E-2,-1.660452E-6,-2.0153755E-2,-6.921913E-2,-1.3761874E-3,-6.768697E-2,-8.4625676E-2,2.5251511E-2],"split_indices":[195,275,1465,2439,3071,3135,1050,0,240,1055,781,883,0,2031,1095,575,0,2811,125,0,3071,0,525,0,1909,0,1231,287,0,0,0,3883,0,3071,0,0,2779,0,0,3071,80,0,0,0,0,0,0,0,0,0,0,0,0],"split_type":[0,0,0,0,0,0,0,0,0,0,0,0,0,0,0,0,0,0,0,0,0,0,0,0,0,0,0,0,0,0,0,0,0,0,0,0,0,0,0,0,0,0,0,0,0,0,0,0,0,0,0,0,0],"sum_hessian":[2.3459302E3,5.280901E2,1.81784E3,8.760328E1,4.4048682E2,9.119127E1,1.7266487E3,1.0031557E0,8.660012E1,4.3391568E2,6.571143E0,9.008442E1,1.1068542E0,4.6640068E1,1.6800087E3,8.5575714E1,1.0244092E0,2.2788224E0,4.3163687E2,1.2749633E0,5.29618E0,2.145161E0,8.7939255E1,1.3198647E0,4.5320206E1,2.9167938E1,1.6508407E3,8.4317635E1,1.2580802E0,1.0898546E0,1.188968E0,4.295168E2,2.1200588E0,2.6296167E0,2.6665633E0,2.1442444E0,8.579501E1,1.3094505E0,4.4010754E1,2.1570126E1,1.6292706E3,8.303252E1,1.285121E0,1.2971023E0,4.282197E2,1.296335E0,1.3332816E0,1.363277E0,8.443173E1,1.2861094E0,2.0284016E1,1.27145405E1,1.616556E3],"tree_param":{"num_deleted":"0","num_feature":"4000","num_nodes":"53","size_leaf_vector":"1"}},{"base_weights":[8.119983E-3,2.4991448E0,-1.5520957E-1,2.946613E0,-1.9236436E-2,1.4033537E-1,-2.4363694E-1,4.869019E-2,1.5163018E-1,1.560392E-1,-2.932763E-1,1.8626972E0,-3.7059766E-1,-2.0218743E-2,1.4799725E-1,1.1945411E-1,-3.8839385E-1,-1.9863075E-2,6.0540732E-2],"categories":[],"categories_nodes":[],"categories_segments":[],"categories_sizes":[],"default_left":[0,1,0,0,0,0,0,0,0,0,0,0,0,0,0,0,1,0,0],"id":25,"left_children":[1,3,5,7,-1,-1,9,-1,-1,-1,11,13,15,-1,-1,-1,17,-1,-1],"loss_changes":[1.5163486E2,3.0727188E1,9.230439E1,4.342804E-1,0E0,0E0,5.7796486E1,0E0,0E0,0E0,5.6794518E1,3.0594887E1,1.6925308E1,0E0,0E0,0E0,5.0829277E0,0E0,0E0],"parents":[2147483647,0,0,1,1,2,2,3,3,6,6,10,10,11,11,12,12,16,16],"right_children":[2,4,6,8,-1,-1,10,-1,-1,-1,12,14,16,-1,-1,-1,18,-1,-1],"split_conditions":[1.051951E-1,6.754058E-2,5.043227E-1,9.302407E-2,-1.9236436E-2,1.4033537E-1,3.9967328E-1,4.869019E-2,1.5163018E-1,1.560392E-1,9.785409E-2,1.0126284E-1,1.6040981E-1,-2.0218743E-2,1.4799725E-1,1.1945411E-1,2.0342098E-1,-1.9863075E-2,6.0540732E-2],"split_indices":[3689,3897,3071,1920,0,0,949,0,0,0,2747,407,225,0,0,0,3512,0,0],"split_type":[0,0,0,0,0,0,0,0,0,0,0,0,0,0,0,0,0,0,0],"sum_hessian":[3.7074387E2,2.1932873E1,3.48811E2,1.8968E1,2.9648721E0,9.220651E0,3.3959036E2,1.3070066E0,1.7660994E1,4.037981E0,3.3555237E2,1.08180895E1,3.2473428E2,3.7341862E0,7.083903E0,1.2269233E0,3.2350735E2,3.2247083E2,1.0365208E0],"tree_param":{"num_deleted":"0","num_feature":"4000","num_nodes":"19","size_leaf_vector":"1"}},{"base_weights":[-5.9002015E-4,1.0504533E0,-2.449198E-1,4.5679477E-1,2.2904465E0,2.1374245E0,-3.5545236E-1,7.32674E-2,2.161065E0,2.338016E0,1.1146276E-2,2.1886687E0,2.9825224E-2,1.3869178E-1,-4.0950808E-1,1.11119665E-1,-2.1520881E-1,9.560515E-1,1.161757E-1,2.3717685E0,3.1008322E-2,2.9045356E-2,2.2486396E0,-4.7000903E-1,2.1042597E0,-2.5488564E-1,4.416285E-2,6.803247E-2,5.693224E-3,4.170611E-2,1.2059448E-1,3.0609295E-2,2.308176E0,-4.8515964E-1,8.596995E-2,1.1126273E-1,3.966881E-2,-1.7834337E-2,4.1967444E-3,1.1839241E-1,3.195959E-2,-2.4546435E-2,3.319991E-2],"categories":[],"categories_nodes":[],"categories_segments":[],"categories_sizes":[],"default_left":[0,1,0,1,1,1,0,0,0,1,0,0,0,0,1,0,1,0,0,0,0,0,0,1,1,1,0,0,0,0,0,0,1,1,0,0,0,0,0,0,0,0,0],"id":26,"left_children":[1,3,5,7,9,11,13,15,17,19,-1,21,-1,-1,23,-1,25,27,-1,29,-1,-1,31,33,35,37,-1,-1,-1,-1,-1,-1,39,41,-1,-1,-1,-1,-1,-1,-1,-1,-1],"loss_changes":[1.7436554E2,9.32298E1,1.4583138E2,5.7266773E1,3.5322723E0,6.345825E-1,9.034016E1,4.5582E1,9.3097687E-1,8.5891724E-1,0E0,9.5038605E-1,0E0,0E0,7.99617E1,0E0,3.0603886E0,1.0759218E0,0E0,3.975067E-1,0E0,0E0,7.513046E-1,1.768097E1,1.991539E-1,2.2223206E0,0E0,0E0,0E0,0E0,0E0,0E0,5.852661E-1,3.6750336E0,0E0,0E0,0E0,0E0,0E0,0E0,0E0,0E0,0E0],"parents":[2147483647,0,0,1,1,2,2,3,3,4,4,5,5,6,6,7,7,8,8,9,9,11,11,14,14,16,16,17,17,19,19,22,22,23,23,24,24,25,25,32,32,33,33],"right_children":[2,4,6,8,10,12,14,16,18,20,-1,22,-1,-1,24,-1,26,28,-1,30,-1,-1,32,34,36,38,-1,-1,-1,-1,-1,-1,40,42,-1,-1,-1,-1,-1,-1,-1,-1,-1],"split_conditions":[7.683948E-2,4.925763E-2,4.945525E-1,9.720327E-2,3.784391E-2,1.8401578E-1,4.8044658E-1,1.9563836E-1,1.482891E-1,1.435971E-1,1.1146276E-2,8.672172E-2,2.9825224E-2,1.3869178E-1,1.18370436E-1,1.11119665E-1,1.4561038E-1,1.4367029E-1,1.161757E-1,1.2628146E-1,3.1008322E-2,2.9045356E-2,1.3862422E-1,1.6882215E-1,1.0757924E-1,7.9373986E-2,4.416285E-2,6.803247E-2,5.693224E-3,4.170611E-2,1.2059448E-1,3.0609295E-2,1.6555363E-1,1.8747663E-1,8.596995E-2,1.1126273E-1,3.966881E-2,-1.7834337E-2,4.1967444E-3,1.1839241E-1,3.195959E-2,-2.4546435E-2,3.319991E-2],"split_indices":[195,2766,1095,2069,677,3332,80,211,1118,1388,0,37,0,0,1113,0,270,223,0,97,0,0,1838,203,1642,3850,0,0,0,0,0,0,97,859,0,0,0,0,0,0,0,0,0],"split_type":[0,0,0,0,0,0,0,0,0,0,0,0,0,0,0,0,0,0,0,0,0,0,0,0,0,0,0,0,0,0,0,0,0,0,0,0,0,0,0,0,0,0,0],"sum_hessian":[6.7698846E2,1.2706943E2,5.4991907E2,8.68551E1,4.0214325E1,2.3569984E1,5.2634906E2,7.175126E1,1.5103844E1,3.9181995E1,1.0323296E0,2.2404541E1,1.1654422E0,8.083452E0,5.182656E2,7.6979804E0,6.4053276E1,2.6122139E0,1.2491631E1,3.805365E1,1.1283468E0,1.189939E0,2.1214603E1,5.0687915E2,1.1386457E1,6.2561504E1,1.4917736E0,1.348677E0,1.2635368E0,1.521768E0,3.653188E1,1.1407884E0,2.0073814E1,5.0416873E2,2.71042E0,9.78571E0,1.6007473E0,4.8066765E1,1.4494738E1,1.8976599E1,1.0972161E0,5.0222025E2,1.9484801E0],"tree_param":{"num_deleted":"0","num_feature":"4000","num_nodes":"43","size_leaf_vector":"1"}},{"base_weights":[8.971697E-3,2.6405344E0,-1.7060392E-1,-1.7206155E-2,1.5075597E-1,1.4865594E-1,-2.447404E-1,-2.984334E-1,1.4034924E-1,1.9064622E-1,-3.37187E-1,-3.506845E-1,5.2433915E-2,5.16333E-2,-1.8217746E-2],"categories":[],"categories_nodes":[],"categories_segments":[],"categories_sizes":[],"default_left":[0,0,0,0,0,0,1,0,0,0,1,0,0,0,0],"id":27,"left_children":[1,3,5,-1,-1,-1,7,9,-1,-1,11,13,-1,-1,-1],"loss_changes":[1.4375587E2,2.2763062E1,6.710863E1,0E0,0E0,0E0,4.6583115E1,4.514234E1,0E0,0E0,5.485735E0,5.51466E0,0E0,0E0,0E0],"parents":[2147483647,0,0,1,1,2,2,6,6,7,7,10,10,11,11],"right_children":[2,4,6,-1,-1,-1,8,10,-1,-1,12,14,-1,-1,-1],"split_conditions":[1.00616775E-1,1.04402944E-1,3.9534646E-1,-1.7206155E-2,1.5075597E-1,1.4865594E-1,1.283614E-1,4.7368884E-1,1.4034924E-1,1.9064622E-1,1.7244299E-1,9.64133E-2,5.2433915E-2,5.16333E-2,-1.8217746E-2],"split_indices":[1492,586,222,0,0,0,77,119,0,0,2171,1978,0,0,0],"split_type":[0,0,0,0,0,0,0,0,0,0,0,0,0,0,0],"sum_hessian":[3.0225043E2,1.8432337E1,2.8381808E2,2.064435E0,1.6367903E1,5.638001E0,2.7818008E2,2.7425693E2,3.9231536E0,1.6515881E0,2.7260535E2,2.707157E2,1.8896489E0,1.9196564E0,2.6879605E2],"tree_param":{"num_deleted":"0","num_feature":"4000","num_nodes":"15","size_leaf_vector":"1"}},{"base_weights":[-4.6759984E-3,1.0552583E0,-2.5653452E-1,-1.9237837E-1,1.1881341E0,-3.8841918E-1,1.1624104E0,-3.0761307E-1,5.690124E-1,-4.5902523E-1,1.287253E0,1.5911893E0,-4.4170532E-1,-4.0260546E-2,1.3735012E0,3.0868446E-2,-3.7922114E-1,-5.40863E-4,5.1969837E-2,-2.619873E-2,9.42423E-3,-2.5209084E-2,1.3650469E0,1.6369715E0,9.017561E-3,-4.901529E-1,1.7174416E0,-1.947977E-1,3.4293902E-1,1.5941538E0,1.139061E-1,-4.942911E-1,2.5872976E-1,-3.3683014E-1,1.4368433E0,8.61065E-1,1.710877E0,1.445601E0,-5.076994E-1,2.0616133E-2,1.7913975E0,1.5925026E-2,-3.215379E-1,-1.5800933E-3,2.8998015E-2,7.566051E-3,1.615047E0,-8.5414566E-2,3.6417432E-2,7.0858593E-3,-2.7095793E-2,2.339721E-2,-8.5024507E-4,-2.6296869E-2,2.7024088E-2,-7.0263864E-3,7.519012E-2,5.5024948E-2,5.1850895E-3,8.742875E-2,2.7088061E-2,8.364457E-3,7.9196356E-2,7.368415E-2,-2.5760291E-2,2.7161336E-2,9.1889605E-2,9.138574E-3,-2.0073596E-2,7.948793E-3,8.172944E-2,2.6409114E-2,-1.1043314E-2],"categories":[],"categories_nodes":[],"categories_segments":[],"categories_sizes":[],"default_left":[0,0,1,1,0,0,0,0,0,1,0,1,1,0,1,0,1,0,0,0,0,0,0,0,0,0,0,0,0,0,1,0,0,1,0,0,1,0,0,0,0,0,0,0,0,0,0,0,0,0,0,0,0,0,0,0,0,0,0,0,0,0,0,0,0,0,0,0,0,0,0,0,0],"id":28,"left_children":[1,3,5,7,9,11,13,15,17,19,21,23,25,27,29,-1,31,-1,-1,-1,-1,-1,33,35,-1,37,39,41,43,45,47,49,51,53,55,57,59,61,63,-1,65,-1,67,-1,-1,-1,69,71,-1,-1,-1,-1,-1,-1,-1,-1,-1,-1,-1,-1,-1,-1,-1,-1,-1,-1,-1,-1,-1,-1,-1,-1,-1],"loss_changes":[3.8236407E2,4.581845E1,2.1702707E2,2.5729134E0,4.1190125E1,1.1247969E2,2.5104843E1,1.8493748E0,1.0867982E0,7.233565E-1,3.341324E1,1.5128403E0,1.088624E2,9.96774E-1,2.3155228E1,0E0,1.8349063E0,0E0,0E0,0E0,0E0,0E0,2.8015137E1,7.446289E-2,0E0,3.5065155E1,1.4701996E0,8.719311E-1,4.5113277E-1,1.9071655E0,1.726993E0,6.839185E-1,2.5081152E-1,1.9318186E0,2.3065826E1,6.765809E-1,9.4078064E-2,1.386488E0,1.5668396E1,0E0,2.3847198E-1,0E0,4.7584736E-1,0E0,0E0,0E0,1.7390747E0,1.0440966E0,0E0,0E0,0E0,0E0,0E0,0E0,0E0,0E0,0E0,0E0,0E0,0E0,0E0,0E0,0E0,0E0,0E0,0E0,0E0,0E0,0E0,0E0,0E0,0E0,0E0],"parents":[2147483647,0,0,1,1,2,2,3,3,4,4,5,5,6,6,7,7,8,8,9,9,10,10,11,11,12,12,13,13,14,14,16,16,22,22,23,23,25,25,26,26,27,27,28,28,29,29,30,30,31,31,32,32,33,33,34,34,35,35,36,36,37,37,38,38,40,40,42,42,46,46,47,47],"right_children":[2,4,6,8,10,12,14,16,18,20,22,24,26,28,30,-1,32,-1,-1,-1,-1,-1,34,36,-1,38,40,42,44,46,48,50,52,54,56,58,60,62,64,-1,66,-1,68,-1,-1,-1,70,72,-1,-1,-1,-1,-1,-1,-1,-1,-1,-1,-1,-1,-1,-1,-1,-1,-1,-1,-1,-1,-1,-1,-1,-1,-1],"split_conditions":[1.1980549E-1,1.0085716E-1,7.648194E-2,1.2398953E-1,1.087533E-1,5.5376196E-1,1.0683972E-1,1.1267167E-1,7.1591444E-2,1.1965851E-1,1.17232814E-1,1.9502269E-1,1.0495365E-1,5.9286878E-2,1.1675096E-1,3.0868446E-2,7.721613E-2,-5.40863E-4,5.1969837E-2,-2.619873E-2,9.42423E-3,-2.5209084E-2,1.4518845E-1,6.803938E-2,9.017561E-3,3.52624E-1,6.489394E-2,1.4166638E-1,9.030529E-2,2.8814796E-1,1.0757924E-1,4.7142256E-2,7.934609E-2,1.23698816E-1,1.9563836E-1,6.582818E-2,1.05722405E-1,1.3811721E-1,1.5150115E-1,2.0616133E-2,1.9134742E-1,1.5925026E-2,1.4478742E-1,-1.5800933E-3,2.8998015E-2,7.566051E-3,7.589464E-2,1.324009E-1,3.6417432E-2,7.0858593E-3,-2.7095793E-2,2.339721E-2,-8.5024507E-4,-2.6296869E-2,2.7024088E-2,-7.0263864E-3,7.519012E-2,5.5024948E-2,5.1850895E-3,8.742875E-2,2.7088061E-2,8.364457E-3,7.9196356E-2,7.368415E-2,-2.5760291E-2,2.7161336E-2,9.1889605E-2,9.138574E-3,-2.0073596E-2,7.948793E-3,8.172944E-2,2.6409114E-2,-1.1043314E-2],"split_indices":[255,2766,1465,1838,2747,1050,2766,97,944,752,3367,3130,2846,3517,1113,0,195,0,0,0,0,0,2721,361,0,264,1683,97,1465,3135,1642,1683,195,2069,211,361,2823,205,276,0,1001,0,1118,0,0,0,1554,97,0,0,0,0,0,0,0,0,0,0,0,0,0,0,0,0,0,0,0,0,0,0,0,0,0],"split_type":[0,0,0,0,0,0,0,0,0,0,0,0,0,0,0,0,0,0,0,0,0,0,0,0,0,0,0,0,0,0,0,0,0,0,0,0,0,0,0,0,0,0,0,0,0,0,0,0,0,0,0,0,0,0,0,0,0,0,0,0,0,0,0,0,0,0,0,0,0,0,0,0,0],"sum_hessian":[1.4303107E3,2.7400098E2,1.1563097E3,2.6329777E1,2.4767119E2,1.05864E3,9.766967E1,2.33863E1,2.9434762E0,1.3851746E1,2.3381944E2,2.6992512E1,1.0316475E3,1.4704031E1,8.296564E1,1.1327492E0,2.225355E1,1.7559583E0,1.1875179E0,1.27623825E1,1.0893633E0,9.503017E0,2.2431644E2,2.598888E1,1.0036321E0,1.0097631E3,2.1884382E1,1.0828683E1,3.8753483E0,7.0372375E1,1.259326E1,1.904374E1,3.209812E0,8.930678E0,2.1538576E2,3.3603797E0,2.26285E1,8.339592E0,1.0014235E3,1.5262092E0,2.0358173E1,1.8446851E0,8.983997E0,1.8378499E0,2.0374985E0,1.1221504E0,6.925023E1,1.0158806E1,2.4344542E0,1.1890308E0,1.7854708E1,1.4287002E0,1.7811117E0,7.6764984E0,1.2541798E0,8.726022E0,2.0665973E2,2.208967E0,1.1514125E0,2.1441483E1,1.1870183E0,1.0300432E0,7.309549E0,3.04237E0,9.9838116E2,1.1850557E0,1.9173119E1,1.0531389E0,7.930859E0,1.038075E0,6.821215E1,1.3127283E0,8.846078E0],"tree_param":{"num_deleted":"0","num_feature":"4000","num_nodes":"73","size_leaf_vector":"1"}},{"base_weights":[5.83882E-4,-9.467608E-1,2.8868082E-1,5.4943883E-1,-1.226495E0,-1.220593E0,3.7361094E-1,5.6015706E-1,-8.689259E-3,-1.2362739E0,-4.995851E-1,-1.2425104E0,1.7202979E-2,-1.223773E0,4.212976E-1,5.7127833E-1,-5.446335E-3,1.6922068E-3,-1.2407981E0,2.0710131E-2,-7.4705535E-1,-6.229138E-1,-1.2670887E0,-2.0437457E-2,-1.2383639E0,-6.408166E-2,4.5398068E-1,-5.216064E-3,5.82693E-1,-1.2458942E0,-6.5296344E-3,-2.5830454E-1,-5.1400084E-2,-4.8088618E-2,-4.3475176E-3,-1.8852895E-2,-1.2768888E0,-6.2647924E-2,-2.0991987E-2,-1.1803406E0,4.7780186E-1,2.9718732E-2,-4.577695E-3,-6.247897E-2,-2.6181637E-4,-2.1131E-2,7.048461E-4,-2.1231545E-2,-6.425499E-2,-6.1153615E-4,-6.245932E-2,-7.637965E-2,2.4803165E-2],"categories":[],"categories_nodes":[],"categories_segments":[],"categories_sizes":[],"default_left":[0,0,0,1,1,1,0,1,0,0,0,0,0,0,0,0,0,0,1,0,0,0,0,0,1,0,0,0,1,1,0,0,0,0,0,0,0,0,0,0,0,0,0,0,0,0,0,0,0,0,0,0,0],"id":29,"left_children":[1,3,5,7,9,11,13,15,-1,17,19,21,-1,23,25,27,-1,-1,29,-1,31,33,35,-1,37,-1,39,-1,41,43,-1,45,-1,-1,-1,-1,47,-1,-1,49,51,-1,-1,-1,-1,-1,-1,-1,-1,-1,-1,-1,-1],"loss_changes":[6.3306305E2,2.2706113E2,2.2844583E2,7.631397E-1,2.6239014E0,3.6849976E0,1.2884125E2,6.9376945E-1,0E0,2.6237183E0,2.0577412E0,6.405945E-1,0E0,7.759094E-2,9.166736E1,7.058315E-1,0E0,0E0,2.3703003E0,0E0,6.1880684E-1,9.242468E-1,2.978363E-1,0E0,4.4181824E-2,0E0,6.310623E1,0E0,7.034836E-1,2.0305176E0,0E0,1.7095928E-1,0E0,0E0,0E0,0E0,6.977844E-2,0E0,0E0,1.8638878E0,5.8769928E1,0E0,0E0,0E0,0E0,0E0,0E0,0E0,0E0,0E0,0E0,0E0,0E0],"parents":[2147483647,0,0,1,1,2,2,3,3,4,4,5,5,6,6,7,7,9,9,10,10,11,11,13,13,14,14,15,15,18,18,20,20,21,21,22,22,24,24,26,26,28,28,29,29,31,31,36,36,39,39,40,40],"right_children":[2,4,6,8,10,12,14,16,-1,18,20,22,-1,24,26,28,-1,-1,30,-1,32,34,36,-1,38,-1,40,-1,42,44,-1,46,-1,-1,-1,-1,48,-1,-1,50,52,-1,-1,-1,-1,-1,-1,-1,-1,-1,-1,-1,-1],"split_conditions":[9.980202E-2,1.4525934E-1,3.9525998E-1,1.5460443E-1,1.2593545E-1,2.0424674E-1,5.5376196E-1,1.4565039E-1,-8.689259E-3,2.3536666E-1,1.7787376E-1,3.5943456E-2,1.7202979E-2,1.96574E-1,4.945525E-1,1.4807731E-1,-5.446335E-3,1.6922068E-3,1.3243489E-1,2.0710131E-2,1.3796885E-1,7.7001125E-2,1.9922295E-1,-2.0437457E-2,1.5688218E-1,-6.408166E-2,1.6951276E-1,-5.216064E-3,2.4497013E-1,1.6534919E-1,-6.5296344E-3,1.3375475E-1,-5.1400084E-2,-4.8088618E-2,-4.3475176E-3,-1.8852895E-2,1.8075755E-1,-6.2647924E-2,-2.0991987E-2,1.3091247E-1,4.8044658E-1,2.9718732E-2,-4.577695E-3,-6.247897E-2,-2.6181637E-4,-2.1131E-2,7.048461E-4,-2.1231545E-2,-6.425499E-2,-6.1153615E-4,-6.245932E-2,-7.637965E-2,2.4803165E-2],"split_indices":[195,275,1465,240,3071,3135,1050,566,0,1482,781,677,0,665,1095,410,0,0,125,0,3071,3638,2779,0,2090,0,1231,0,287,1742,0,3071,0,0,0,0,889,0,0,3071,80,0,0,0,0,0,0,0,0,0,0,0,0],"split_type":[0,0,0,0,0,0,0,0,0,0,0,0,0,0,0,0,0,0,0,0,0,0,0,0,0,0,0,0,0,0,0,0,0,0,0,0,0,0,0,0,0,0,0,0,0,0,0,0,0,0,0,0,0],"sum_hessian":[2.31753E3,5.398998E2,1.7776302E3,8.488985E1,4.5500995E2,9.3989655E1,1.6836406E3,8.387232E1,1.0175246E0,4.482787E2,6.7312527E0,9.289429E1,1.0953681E0,4.8089806E1,1.6355508E3,8.2644806E1,1.2275156E0,1.5681407E0,4.4671054E2,1.2908866E0,5.440366E0,4.549481E0,8.834481E1,1.3560623E0,4.673374E1,3.0079187E1,1.6054716E3,1.2378955E0,8.1406906E1,4.4454776E2,2.1628032E0,2.6863832E0,2.7539825E0,2.3005211E0,2.2489595E0,1.3921065E0,8.6952705E1,4.539361E1,1.3401356E0,2.2367023E1,1.5831046E3,8.0136955E1,1.2699529E0,4.4322403E2,1.3237188E0,1.331655E0,1.3547283E0,1.332755E0,8.561995E1,1.3104378E0,2.1056585E1,1.3540072E1,1.5695645E3],"tree_param":{"num_deleted":"0","num_feature":"4000","num_nodes":"53","size_leaf_vector":"1"}},{"base_weights":[1.0269755E-2,2.2012422E0,-1.5048665E-1,2.549404E0,-1.9059984E-2,2.454108E0,-2.3870648E-1,2.618181E0,3.172392E-2,3.4020167E-2,2.5664563E0,1.3705081E-1,-2.886713E-1,1.3424033E-1,3.379925E-2,1.3502178E-1,3.4324627E-2,1.6747043E0,-3.666E-1,-2.0048918E-2,1.2686731E-1,1.0827271E-1,-3.847107E-1,6.1362606E-2,-1.9690592E-2],"categories":[],"categories_nodes":[],"categories_segments":[],"categories_sizes":[],"default_left":[0,1,0,1,0,0,0,1,0,0,0,0,0,0,0,0,0,0,0,0,0,0,0,0,0],"id":30,"left_children":[1,3,5,7,-1,9,11,13,-1,-1,15,-1,17,-1,-1,-1,-1,19,21,-1,-1,-1,23,-1,-1],"loss_changes":[1.3006154E2,2.3666885E1,7.964918E1,1.2854156E0,0E0,5.177765E-1,5.0476837E1,9.384155E-1,0E0,0E0,7.464981E-1,0E0,5.0971485E1,0E0,0E0,0E0,0E0,2.3837036E1,1.5387363E1,0E0,0E0,0E0,5.118923E0,0E0,0E0],"parents":[2147483647,0,0,1,1,2,2,3,3,5,5,6,6,7,7,10,10,12,12,17,17,18,18,22,22],"right_children":[2,4,6,8,-1,10,12,14,-1,-1,16,-1,18,-1,-1,-1,-1,20,22,-1,-1,-1,24,-1,-1],"split_conditions":[1.051951E-1,6.754058E-2,5.043227E-1,7.099728E-2,-1.9059984E-2,6.29075E-2,3.9967328E-1,1.4290088E-1,3.172392E-2,3.4020167E-2,5.071036E-2,1.3705081E-1,9.785409E-2,1.3424033E-1,3.379925E-2,1.3502178E-1,3.4324627E-2,1.0126284E-1,1.6040981E-1,-2.0048918E-2,1.2686731E-1,1.0827271E-1,2.9950517E-1,6.1362606E-2,-1.9690592E-2],"split_indices":[3689,3897,3071,1938,0,752,949,3079,0,0,1800,0,2747,0,0,0,0,407,225,0,0,0,3512,0,0],"split_type":[0,0,0,0,0,0,0,0,0,0,0,0,0,0,0,0,0,0,0,0,0,0,0,0,0],"sum_hessian":[3.6732922E2,2.4241756E1,3.430875E2,2.137306E1,2.868697E0,1.0361365E1,3.327261E2,2.0277517E1,1.0955426E0,1.0375284E0,9.323837E0,4.5990067E0,3.281271E2,1.9235308E1,1.0422097E0,8.296165E0,1.0276712E0,1.1744326E1,3.1638278E2,3.6050513E0,8.139275E0,1.4048364E0,3.1497794E2,1.0169297E0,3.1396103E2],"tree_param":{"num_deleted":"0","num_feature":"4000","num_nodes":"25","size_leaf_vector":"1"}},{"base_weights":[-5.5883753E-5,9.60278E-1,-2.4015452E-1,4.331197E-1,2.0279164E0,1.8841432E0,-3.5103223E-1,7.8522526E-2,1.9286026E0,2.0536551E0,2.9414166E-2,1.9273409E0,2.7475554E-2,1.186439E-1,-4.0579587E-1,9.8904975E-2,-2.0572302E-1,8.9698106E-1,1.0298943E-1,2.0939338E0,8.7744653E-1,2.8586948E-2,1.9708287E0,-4.6741292E-1,1.8650135E0,-2.441009E-1,4.1625183E-2,6.390076E-2,5.067972E-3,2.1349282E0,4.418442E-2,-1.4115755E-2,8.069705E-2,1.00657396E-1,3.0025197E-2,-4.8294213E-1,7.828289E-2,9.8142266E-2,3.7144266E-2,2.8752698E-2,-1.4081597E-2,3.930445E-2,1.08537965E-1,-2.4444614E-2,3.1278748E-2],"categories":[],"categories_nodes":[],"categories_segments":[],"categories_sizes":[],"default_left":[0,1,0,1,1,1,0,0,0,1,0,0,0,0,1,0,1,0,0,1,1,0,1,1,1,0,0,0,0,0,0,0,0,0,0,1,0,0,0,0,0,0,0,0,0],"id":31,"left_children":[1,3,5,7,9,11,13,15,17,19,-1,21,-1,-1,23,-1,25,27,-1,29,31,-1,33,35,37,39,-1,-1,-1,41,-1,-1,-1,-1,-1,43,-1,-1,-1,-1,-1,-1,-1,-1,-1],"loss_changes":[1.5514185E2,7.48632E1,1.2744438E2,4.8298306E1,4.3014526E-1,4.8937988E-1,7.740018E1,4.0846222E1,5.1654816E-1,2.0149231E-1,0E0,3.8339996E-1,0E0,0E0,7.127529E1,0E0,2.8350732E0,1.0049436E0,0E0,1.4199829E-1,3.1429913E0,0E0,2.0681E-1,1.6247719E1,2.3078918E-2,2.1440392E0,0E0,0E0,0E0,1.7085266E-1,0E0,0E0,0E0,0E0,0E0,3.5227585E0,0E0,0E0,0E0,0E0,0E0,0E0,0E0,0E0,0E0],"parents":[2147483647,0,0,1,1,2,2,3,3,4,4,5,5,6,6,7,7,8,8,9,9,11,11,14,14,16,16,17,17,19,19,20,20,22,22,23,23,24,24,25,25,29,29,35,35],"right_children":[2,4,6,8,10,12,14,16,18,20,-1,22,-1,-1,24,-1,26,28,-1,30,32,-1,34,36,38,40,-1,-1,-1,42,-1,-1,-1,-1,-1,44,-1,-1,-1,-1,-1,-1,-1,-1,-1],"split_conditions":[7.683948E-2,5.2038264E-2,4.945525E-1,9.720327E-2,1.435971E-1,1.7423123E-1,4.8044658E-1,1.9563836E-1,1.482891E-1,3.4973525E-2,2.9414166E-2,1.3862422E-1,2.7475554E-2,1.186439E-1,1.18370436E-1,9.8904975E-2,1.4561038E-1,1.4367029E-1,1.0298943E-1,1.6884975E-1,1.4088401E-1,2.8586948E-2,1.6555363E-1,1.6882215E-1,1.0757924E-1,6.365397E-2,4.1625183E-2,6.390076E-2,5.067972E-3,1.905419E-1,4.418442E-2,-1.4115755E-2,8.069705E-2,1.00657396E-1,3.0025197E-2,1.8747663E-1,7.828289E-2,9.8142266E-2,3.7144266E-2,2.8752698E-2,-1.4081597E-2,3.930445E-2,1.08537965E-1,-2.4444614E-2,3.1278748E-2],"split_indices":[195,2766,1095,2069,1388,451,80,211,1118,677,0,1838,0,0,1113,0,270,223,0,1386,678,0,97,203,1642,122,0,0,0,1123,0,0,0,0,0,859,0,0,0,0,0,0,0,0,0],"split_type":[0,0,0,0,0,0,0,0,0,0,0,0,0,0,0,0,0,0,0,0,0,0,0,0,0,0,0,0,0,0,0,0,0,0,0,0,0,0,0,0,0,0,0,0,0],"sum_hessian":[6.7084784E2,1.3357642E2,5.372714E2,9.036392E1,4.3212505E1,2.5858444E1,5.11413E2,7.389502E1,1.64689E1,4.203447E1,1.1780337E0,2.4617558E1,1.2408867E0,9.244955E0,5.0216803E2,8.842512E0,6.5052505E1,2.7422037E0,1.3726697E1,3.988827E1,2.1461995E0,1.2049189E0,2.341264E1,4.8967517E2,1.2492877E1,6.347119E1,1.5813162E0,1.4442315E0,1.2979723E0,3.7842403E1,2.0458684E0,1.0730846E0,1.0731149E0,2.2256205E1,1.1564338E0,4.867199E2,2.9552603E0,1.0801905E1,1.6909723E0,2.1532013E0,6.131799E1,1.5728285E0,3.6269573E1,4.8467728E2,2.0426056E0],"tree_param":{"num_deleted":"0","num_feature":"4000","num_nodes":"45","size_leaf_vector":"1"}},{"base_weights":[1.1464025E-2,2.3225384E0,-1.6553286E-1,-1.7011479E-2,1.3068962E-1,1.2804745E-1,-2.394235E-1,1.4340216E0,-3.2828814E-1,-2.1645794E-2,2.657759E0,5.107495E-2,-3.423725E-1,-1.4304154E-2,3.2054212E0,6.163153E-2,-3.5335636E-1,3.4538798E-2,1.7584999E-1,-1.822067E-2,6.035461E-2],"categories":[],"categories_nodes":[],"categories_segments":[],"categories_sizes":[],"default_left":[0,0,0,0,0,0,0,0,0,0,0,0,0,0,0,0,1,0,0,0,0],"id":32,"left_children":[1,3,5,-1,-1,-1,7,9,11,-1,13,-1,15,-1,17,-1,19,-1,-1,-1,-1],"loss_changes":[1.2328325E2,1.7516762E1,5.702385E1,0E0,0E0,0E0,4.1147972E1,3.308814E1,5.3031025E0,0E0,1.4756897E1,0E0,4.9094486E0,0E0,3.305626E0,0E0,4.8844757E0,0E0,0E0,0E0,0E0],"parents":[2147483647,0,0,1,1,2,2,6,6,7,7,8,8,10,10,12,12,14,14,16,16],"right_children":[2,4,6,-1,-1,-1,8,10,12,-1,14,-1,16,-1,18,-1,20,-1,-1,-1,-1],"split_conditions":[1.00616775E-1,1.04402944E-1,3.9534646E-1,-1.7011479E-2,1.3068962E-1,1.2804745E-1,1.883259E-1,3.491919E-1,1.7489383E-1,-2.1645794E-2,1.7512964E-1,5.107495E-2,2.5867182E-1,-1.4304154E-2,2.121473E-1,6.163153E-2,2.2471933E-1,3.4538798E-2,1.7584999E-1,-1.822067E-2,6.035461E-2],"split_indices":[1492,586,222,0,0,0,1231,219,2171,0,1147,0,364,0,1055,0,351,0,0,0,0],"split_type":[0,0,0,0,0,0,0,0,0,0,0,0,0,0,0,0,0,0,0,0,0],"sum_hessian":[2.994471E2,2.0439793E1,2.7900732E2,1.9986976E0,1.8441095E1,6.4737725E0,2.7253354E2,1.297924E1,2.5955432E2,5.3949394E0,7.584301E0,1.94171E0,2.576126E2,1.2645597E0,6.3197412E0,1.0138347E0,2.5659875E2,1.051385E0,5.2683563E0,2.5555443E2,1.0443425E0],"tree_param":{"num_deleted":"0","num_feature":"4000","num_nodes":"21","size_leaf_vector":"1"}},{"base_weights":[-5.2041067E-3,9.673163E-1,-2.5161645E-1,-1.9336903E-1,1.0855104E0,-3.8314563E-1,1.061741E0,-4.271066E-1,1.8057029E-1,-4.5563677E-1,1.1720884E0,1.447576E0,-4.3683296E-1,-4.7460184E-2,1.2488912E0,1.6816473E-2,-2.6926568E-2,-1.1127049E-1,6.342473E-2,9.873807E-3,-2.6094517E-2,-2.5009066E-2,1.238723E0,1.4886762E0,8.122066E-3,-4.8592293E-1,1.5553211E0,-1.975094E-1,3.205625E-1,1.4430087E0,9.877434E-2,-2.2614522E-2,2.0790432E-1,1.3166302E0,-1.18956216E-1,8.005385E-1,1.5531046E0,1.3125819E0,-5.037673E-1,1.9187002E-2,1.6201233E0,1.5057993E-2,-3.2205576E-1,-1.8922959E-3,2.7365446E-2,1.460624E0,6.2251235E-3,-9.2192486E-2,3.386901E-2,2.3159442E-2,7.286012E-4,-8.446449E-3,6.9091335E-2,2.932787E-2,-1.7701881E-2,5.1500406E-2,4.2853733E-3,7.928602E-2,2.5460456E-2,7.436813E-3,7.182561E-2,6.799334E-2,-2.5570994E-2,8.318161E-2,2.4447097E-2,8.69343E-3,-2.0060655E-2,6.555062E-3,7.393535E-2,2.5156876E-2,-1.1226227E-2],"categories":[],"categories_nodes":[],"categories_segments":[],"categories_sizes":[],"default_left":[0,0,1,0,0,0,0,0,1,0,0,1,1,0,1,0,0,0,0,0,0,0,1,0,0,0,0,0,0,1,1,0,0,0,0,0,1,0,0,0,1,0,0,0,0,0,0,0,0,0,0,0,0,0,0,0,0,0,0,0,0,0,0,0,0,0,0,0,0,0,0],"id":33,"left_children":[1,3,5,7,9,11,13,15,17,19,21,23,25,27,29,-1,-1,31,-1,-1,-1,-1,33,35,-1,37,39,41,43,45,47,-1,49,51,53,55,57,59,61,-1,63,-1,65,-1,-1,67,-1,69,-1,-1,-1,-1,-1,-1,-1,-1,-1,-1,-1,-1,-1,-1,-1,-1,-1,-1,-1,-1,-1,-1,-1],"loss_changes":[3.3961856E2,3.9512817E1,1.957273E2,2.4655602E0,3.5247955E1,1.01719635E2,2.1480751E1,1.6368327E0,3.7015204E0,7.3301125E-1,2.8099487E1,1.3181419E0,9.854678E1,9.39182E-1,1.9578156E1,0E0,0E0,1.1564945E0,0E0,0E0,0E0,0E0,2.5272003E1,2.0072937E-2,0E0,3.2005875E1,1.222126E0,8.3519506E-1,4.250257E-1,1.5717621E0,1.5905024E0,0E0,2.7591473E-1,2.1990845E1,2.4969337E0,6.5041375E-1,4.347229E-2,1.21031E0,1.4497879E1,0E0,3.03936E-1,0E0,4.6207643E-1,0E0,0E0,1.5951996E0,0E0,1.0014416E0,0E0,0E0,0E0,0E0,0E0,0E0,0E0,0E0,0E0,0E0,0E0,0E0,0E0,0E0,0E0,0E0,0E0,0E0,0E0,0E0,0E0,0E0,0E0],"parents":[2147483647,0,0,1,1,2,2,3,3,4,4,5,5,6,6,7,7,8,8,9,9,10,10,11,11,12,12,13,13,14,14,17,17,22,22,23,23,25,25,26,26,27,27,28,28,29,29,30,30,32,32,33,33,34,34,35,35,36,36,37,37,38,38,40,40,42,42,45,45,47,47],"right_children":[2,4,6,8,10,12,14,16,18,20,22,24,26,28,30,-1,-1,32,-1,-1,-1,-1,34,36,-1,38,40,42,44,46,48,-1,50,52,54,56,58,60,62,-1,64,-1,66,-1,-1,68,-1,70,-1,-1,-1,-1,-1,-1,-1,-1,-1,-1,-1,-1,-1,-1,-1,-1,-1,-1,-1,-1,-1,-1,-1],"split_conditions":[1.1980549E-1,1.0085716E-1,7.648194E-2,6.852094E-2,1.087533E-1,5.5376196E-1,1.0683972E-1,1.1301263E-1,9.402244E-2,8.827522E-2,1.17232814E-1,1.9502269E-1,1.0495365E-1,5.9286878E-2,1.1675096E-1,1.6816473E-2,-2.6926568E-2,9.729776E-2,6.342473E-2,9.873807E-3,-2.6094517E-2,-2.5009066E-2,1.11582644E-1,6.803938E-2,8.122066E-3,3.52624E-1,6.489394E-2,1.4166638E-1,9.030529E-2,1.9507834E-1,1.0757924E-1,-2.2614522E-2,1.06744714E-1,1.9563836E-1,1.482891E-1,6.582818E-2,1.05722405E-1,1.3811721E-1,1.5150115E-1,1.9187002E-2,1.4061484E-1,1.5057993E-2,1.4478742E-1,-1.8922959E-3,2.7365446E-2,1.8075755E-1,6.2251235E-3,1.324009E-1,3.386901E-2,2.3159442E-2,7.286012E-4,-8.446449E-3,6.9091335E-2,2.932787E-2,-1.7701881E-2,5.1500406E-2,4.2853733E-3,7.928602E-2,2.5460456E-2,7.436813E-3,7.182561E-2,6.799334E-2,-2.5570994E-2,8.318161E-2,2.4447097E-2,8.69343E-3,-2.0060655E-2,6.555062E-3,7.393535E-2,2.5156876E-2,-1.1226227E-2],"split_indices":[255,2766,1465,255,2747,1050,2766,1642,1381,1554,3367,3130,2846,3517,1113,0,0,1683,0,0,0,0,223,361,0,264,1683,97,1465,2325,1642,0,1532,211,1118,361,2823,205,276,0,883,0,1118,0,0,889,0,97,0,0,0,0,0,0,0,0,0,0,0,0,0,0,0,0,0,0,0,0,0,0,0],"split_type":[0,0,0,0,0,0,0,0,0,0,0,0,0,0,0,0,0,0,0,0,0,0,0,0,0,0,0,0,0,0,0,0,0,0,0,0,0,0,0,0,0,0,0,0,0,0,0,0,0,0,0,0,0,0,0,0,0,0,0,0,0,0,0,0,0,0,0,0,0,0,0],"sum_hessian":[1.4151813E3,2.8549338E2,1.129688E3,2.6326515E1,2.5916687E2,1.0274954E3,1.021926E2,1.611276E1,1.0213755E1,1.3558241E1,2.4560863E2,2.8533934E1,9.989614E2,1.486099E1,8.7331604E1,1.7950923E0,1.4317669E1,8.761234E0,1.4525201E0,1.0662979E0,1.2491942E1,9.162382E0,2.3644624E2,2.749619E1,1.0377437E0,9.7567523E2,2.3286167E1,1.088593E1,3.9750595E0,7.450239E1,1.2829217E1,4.0340366E0,4.7271976E0,2.2364325E2,1.2802997E1,3.5033476E0,2.3992842E1,8.872511E0,9.6680273E2,1.583276E0,2.1702892E1,1.8921051E0,8.993825E0,1.8631495E0,2.1119099E0,7.3413795E1,1.0885992E0,1.0277747E1,2.5514696E0,1.435665E0,3.2915325E0,9.335453E0,2.143078E2,2.8261583E0,9.976838E0,2.3182495E0,1.1850982E0,2.2762602E1,1.2302414E0,1.0655887E0,7.806922E0,3.2311025E0,9.6357166E2,2.0445778E1,1.2571132E0,1.0732664E0,7.920559E0,1.0958238E0,7.231797E1,1.359518E0,8.918229E0],"tree_param":{"num_deleted":"0","num_feature":"4000","num_nodes":"71","size_leaf_vector":"1"}},{"base_weights":[7.893393E-5,-8.89675E-1,2.8131977E-1,5.419396E-1,-1.1429051E0,-1.1410278E0,3.652694E-1,5.529369E-1,-8.860595E-3,-9.282291E-2,-1.1481603E0,-1.1613067E0,1.703587E-2,-1.14428E0,4.1260853E-1,5.6440264E-1,-6.105027E-3,1.7987184E-2,-2.3978846E-2,-1.1574769E0,-4.6025333E-1,-1.9377057E-2,-1.175861E0,-1.9047279E-2,-1.1581697E0,-6.0167976E-2,4.4522274E-1,-5.4981797E-3,5.76125E-1,-2.5405416E-1,-1.1640874E0,2.1006508E-2,-6.9937015E-1,-1.9613646E-2,-1.1908818E0,-1.9673169E-2,-5.8597025E-2,-1.0228645E0,4.707861E-1,2.9406784E-2,-4.902541E-3,-3.1275474E-2,2.0252733E-2,7.5629045E-4,-5.8382273E-2,-1.1625198E-2,-4.8625425E-2,-1.7680546E-2,-6.000597E-2,-6.841917E-2,2.5162077E-2,-6.1036684E-2,2.448136E-2],"categories":[],"categories_nodes":[],"categories_segments":[],"categories_sizes":[],"default_left":[0,0,0,1,0,1,0,1,0,0,1,0,0,0,0,0,0,0,0,0,0,0,0,0,0,0,0,0,1,0,0,0,0,0,0,0,0,1,0,0,0,0,0,0,0,0,0,0,0,0,0,0,0],"id":34,"left_children":[1,3,5,7,9,11,13,15,-1,17,19,21,-1,23,25,27,-1,-1,-1,29,31,-1,33,-1,35,-1,37,-1,39,41,43,-1,45,-1,47,-1,-1,49,51,-1,-1,-1,-1,-1,-1,-1,-1,-1,-1,-1,-1,-1,-1],"loss_changes":[5.722881E2,1.9974692E2,2.0791093E2,7.56258E-1,2.4707031E0,3.3130722E0,1.177847E2,7.053032E-1,0E0,7.700233E-1,2.4450684E0,6.254883E-1,0E0,9.085083E-2,8.4463684E1,7.0388603E-1,0E0,0E0,0E0,2.4380493E0,1.9502969E0,0E0,6.3619995E-1,0E0,5.2703857E-2,0E0,5.909027E1,0E0,7.038555E-1,1.3806363E0,1.9232178E0,0E0,6.1082983E-1,0E0,2.8323364E-1,0E0,0E0,1.494829E1,4.9538605E1,0E0,0E0,0E0,0E0,0E0,0E0,0E0,0E0,0E0,0E0,0E0,0E0,0E0,0E0],"parents":[2147483647,0,0,1,1,2,2,3,3,4,4,5,5,6,6,7,7,9,9,10,10,11,11,13,13,14,14,15,15,19,19,20,20,22,22,24,24,26,26,28,28,29,29,30,30,32,32,34,34,37,37,38,38],"right_children":[2,4,6,8,10,12,14,16,-1,18,20,22,-1,24,26,28,-1,-1,-1,30,32,-1,34,-1,36,-1,38,-1,40,42,44,-1,46,-1,48,-1,-1,50,52,-1,-1,-1,-1,-1,-1,-1,-1,-1,-1,-1,-1,-1,-1],"split_conditions":[9.980202E-2,1.4525934E-1,3.9525998E-1,1.5460443E-1,2.121473E-1,2.0424674E-1,5.5376196E-1,1.6468158E-1,-8.860595E-3,1.2536903E-1,1.2593545E-1,1.21102355E-1,1.703587E-2,1.7171098E-1,4.945525E-1,9.6128896E-2,-6.105027E-3,1.7987184E-2,-2.3978846E-2,2.8389215E-2,1.7787376E-1,-1.9377057E-2,1.2869947E-1,-1.9047279E-2,1.00778505E-1,-6.0167976E-2,5.3655017E-2,-5.4981797E-3,9.167601E-2,6.9085956E-2,4.522217E-1,2.1006508E-2,1.3796885E-1,-1.9613646E-2,1.9922295E-1,-1.9673169E-2,-5.8597025E-2,6.3016444E-2,5.043227E-1,2.9406784E-2,-4.902541E-3,-3.1275474E-2,2.0252733E-2,7.5629045E-4,-5.8382273E-2,-1.1625198E-2,-4.8625425E-2,-1.7680546E-2,-6.000597E-2,-6.841917E-2,2.5162077E-2,-6.1036684E-2,2.448136E-2],"split_indices":[195,275,1465,240,1055,3135,1050,579,0,2811,3071,525,0,2031,1095,1990,0,0,0,677,781,0,883,0,875,0,3517,0,688,1683,3883,0,3071,0,2779,0,0,677,3071,0,0,0,0,0,0,0,0,0,0,0,0,0,0],"split_type":[0,0,0,0,0,0,0,0,0,0,0,0,0,0,0,0,0,0,0,0,0,0,0,0,0,0,0,0,0,0,0,0,0,0,0,0,0,0,0,0,0,0,0,0,0,0,0,0,0,0,0,0,0],"sum_hessian":[2.285001E3,5.4827496E2,1.736726E3,8.2233696E1,4.660413E2,9.609022E1,1.6406357E3,8.122276E1,1.0109353E0,2.4136539E0,4.6362762E2,9.500623E1,1.0839865E0,4.9181004E1,1.5914547E3,8.002737E1,1.1953968E0,1.1443787E0,1.2692751E0,4.5675894E2,6.868675E0,2.2641046E0,9.274213E1,1.3869215E0,4.7794083E1,3.0773884E1,1.5606809E3,1.2241384E0,7.880322E1,3.604311E0,4.5315463E2,1.3054061E0,5.563269E0,2.2543657E0,9.048776E1,1.3685582E0,4.6425526E1,2.6042858E1,1.534638E3,7.7549286E1,1.2539425E0,2.3377805E0,1.2665306E0,1.3534319E0,4.518012E2,2.7367191E0,2.82655E0,1.4160995E0,8.907166E1,2.131938E1,4.7234783E0,1.6202642E1,1.5184353E3],"tree_param":{"num_deleted":"0","num_feature":"4000","num_nodes":"53","size_leaf_vector":"1"}},{"base_weights":[1.1848784E-2,1.9455359E0,-1.4585768E-1,2.2215161E0,-1.8903576E-2,2.1544554E0,-2.336722E-1,2.2741601E0,3.0141404E-2,3.208765E-2,2.2429829E0,1.21554546E-1,-2.8391892E-1,2.3271708E0,3.1480808E-2,3.2429453E-2,1.17355146E-1,1.5178794E0,-3.6238724E-1,1.0091696E0,1.2185719E-1,-1.9874103E-2,2.214453E0,9.859038E-2,-3.808127E-1,7.5001665E-3,6.79158E-2,3.234058E-2,1.1657297E-1,5.95428E-2,-1.9506803E-2],"categories":[],"categories_nodes":[],"categories_segments":[],"categories_sizes":[],"default_left":[0,1,0,1,0,0,0,1,0,0,0,0,0,0,0,0,0,0,0,0,0,0,0,0,0,0,0,0,0,0,0],"id":35,"left_children":[1,3,5,7,-1,9,11,13,-1,-1,15,-1,17,19,-1,-1,-1,21,23,25,-1,-1,27,-1,29,-1,-1,-1,-1,-1,-1],"loss_changes":[1.1154832E2,1.8527748E1,6.883491E1,7.42363E-1,0E0,2.3940277E-1,4.4438816E1,5.97229E-1,0E0,0E0,3.7726974E-1,0E0,4.6017063E1,8.087387E-1,0E0,0E0,0E0,1.9042933E1,1.4039341E1,8.2912874E-1,0E0,0E0,3.5098267E-1,0E0,4.968849E0,0E0,0E0,0E0,0E0,0E0,0E0],"parents":[2147483647,0,0,1,1,2,2,3,3,5,5,6,6,7,7,10,10,12,12,13,13,17,17,18,18,19,19,22,22,24,24],"right_children":[2,4,6,8,-1,10,12,14,-1,-1,16,-1,18,20,-1,-1,-1,22,24,26,-1,-1,28,-1,30,-1,-1,-1,-1,-1,-1],"split_conditions":[1.051951E-1,6.754058E-2,5.043227E-1,7.099728E-2,-1.8903576E-2,1.7806634E-1,3.9967328E-1,1.229856E-1,3.0141404E-2,3.208765E-2,8.1504814E-2,1.21554546E-1,9.785409E-2,1.3558675E-1,3.1480808E-2,3.2429453E-2,1.17355146E-1,1.0126284E-1,1.6040981E-1,1.2817015E-1,1.2185719E-1,-1.9874103E-2,4.1124827E-1,9.859038E-2,2.9950517E-1,7.5001665E-3,6.79158E-2,3.234058E-2,1.1657297E-1,5.95428E-2,-1.9506803E-2],"split_indices":[3689,3897,3071,1938,0,781,949,301,0,0,1990,0,2747,217,0,0,0,407,225,3071,0,0,125,0,3512,0,0,0,0,0,0],"split_type":[0,0,0,0,0,0,0,0,0,0,0,0,0,0,0,0,0,0,0,0,0,0,0,0,0,0,0,0,0,0,0],"sum_hessian":[3.6385565E2,2.6582542E1,3.372731E2,2.379973E1,2.7828128E0,1.1536584E1,3.2573654E2,2.2657894E1,1.1418349E0,1.0938998E0,1.0442684E1,5.15149E0,3.2058505E2,2.1548218E1,1.1096774E0,1.0833006E0,9.359384E0,1.26132965E1,3.0797174E2,2.443224E0,1.9104994E1,3.4783335E0,9.134963E0,1.5817003E0,3.0639005E2,1.1190751E0,1.3241488E0,1.0878634E0,8.047099E0,1.0594935E0,3.0533057E2],"tree_param":{"num_deleted":"0","num_feature":"4000","num_nodes":"31","size_leaf_vector":"1"}},{"base_weights":[8.6662115E-4,8.858173E-1,-2.3524474E-1,3.9493182E-1,1.7942901E0,1.6837447E0,-3.4637627E-1,5.27857E-2,1.7294314E0,1.826076E0,9.015015E-3,1.7205191E0,2.5590582E-2,1.0881847E-1,-4.021434E-1,8.828027E-2,-2.164758E-1,3.2467987E-2,1.8079069E0,3.2241866E-2,1.8597031E0,2.3771033E-2,1.7671748E0,-4.6481115E-1,8.377043E-2,-2.5518405E-1,3.949582E-2,2.7067417E-2,9.369448E-2,1.8828915E0,2.7911846E-2,2.6730616E-2,1.8082035E0,-4.8071072E-1,7.176029E-2,-1.7797997E-2,3.7091114E-3,9.5837735E-2,4.1301E-2,9.2399664E-2,2.8205767E-2,-2.4342349E-2,2.9598078E-2],"categories":[],"categories_nodes":[],"categories_segments":[],"categories_sizes":[],"default_left":[0,1,0,1,1,1,0,0,1,0,0,0,0,0,1,0,1,0,0,0,1,0,0,1,0,1,0,0,0,1,0,0,1,1,0,0,0,0,0,0,0,0,0],"id":36,"left_children":[1,3,5,7,9,11,13,15,17,19,-1,21,-1,-1,23,-1,25,-1,27,-1,29,-1,31,33,-1,35,-1,-1,-1,37,-1,-1,39,41,-1,-1,-1,-1,-1,-1,-1,-1,-1],"loss_changes":[1.3907224E2,6.180622E1,1.1263173E2,4.2047333E1,2.179062E0,3.6631775E-1,7.086319E1,3.473558E1,4.1962433E-1,7.010193E-1,0E0,7.648163E-1,0E0,0E0,6.425689E1,0E0,2.7437954E0,0E0,4.0356445E-1,0E0,3.3662415E-1,0E0,3.6141205E-1,1.5011238E1,0E0,2.1373649E0,0E0,0E0,0E0,1.8554688E-2,0E0,0E0,1.9490051E-1,3.3876114E0,0E0,0E0,0E0,0E0,0E0,0E0,0E0,0E0,0E0],"parents":[2147483647,0,0,1,1,2,2,3,3,4,4,5,5,6,6,7,7,8,8,9,9,11,11,14,14,16,16,18,18,20,20,22,22,23,23,25,25,29,29,32,32,33,33],"right_children":[2,4,6,8,10,12,14,16,18,20,-1,22,-1,-1,24,-1,26,-1,28,-1,30,-1,32,34,-1,36,-1,-1,-1,38,-1,-1,40,42,-1,-1,-1,-1,-1,-1,-1,-1,-1],"split_conditions":[7.683948E-2,4.925763E-2,4.945525E-1,9.720327E-2,7.815226E-2,1.8401578E-1,4.8044658E-1,1.9563836E-1,1.11582644E-1,4.9328316E-2,9.015015E-3,8.672172E-2,2.5590582E-2,1.0881847E-1,1.18370436E-1,8.828027E-2,1.4561038E-1,3.2467987E-2,4.082309E-1,3.2241866E-2,1.435971E-1,2.3771033E-2,1.3862422E-1,1.6882215E-1,8.377043E-2,7.9373986E-2,3.949582E-2,2.7067417E-2,9.369448E-2,1.6884975E-1,2.7911846E-2,2.6730616E-2,1.6555363E-1,1.8747663E-1,7.176029E-2,-1.7797997E-2,3.7091114E-3,9.5837735E-2,4.1301E-2,9.2399664E-2,2.8205767E-2,-2.4342349E-2,2.9598078E-2],"split_indices":[195,2766,1095,2069,3517,3332,80,211,223,195,0,37,0,0,1113,0,270,0,478,0,1388,0,1838,203,0,3850,0,0,0,1386,0,0,97,859,0,0,0,0,0,0,0,0,0],"split_type":[0,0,0,0,0,0,0,0,0,0,0,0,0,0,0,0,0,0,0,0,0,0,0,0,0,0,0,0,0,0,0,0,0,0,0,0,0,0,0,0,0,0,0],"sum_hessian":[6.635891E2,1.3918161E2,5.2440753E2,9.128907E1,4.7892548E1,2.7932127E1,4.964754E2,7.34875E1,1.7801565E1,4.68387E1,1.0538484E0,2.6628443E1,1.303684E0,9.915175E0,4.865602E2,9.228185E0,6.4259315E1,1.8340404E0,1.5967524E1,1.8549463E0,4.4983753E1,1.3659321E0,2.526251E1,4.730668E2,1.3493423E1,6.2598083E1,1.6612355E0,1.2464237E0,1.47211E1,4.3757374E1,1.2263817E0,1.2658114E0,2.3996698E1,4.6988174E2,3.1850328E0,4.787046E1,1.4727623E1,4.1610523E1,2.1468487E0,2.278262E1,1.2140797E0,4.677521E2,2.1296487E0],"tree_param":{"num_deleted":"0","num_feature":"4000","num_nodes":"43","size_leaf_vector":"1"}},{"base_weights":[1.41124185E-2,2.0792737E0,-1.60391E-1,-1.6815646E-2,2.3144622E0,1.12897836E-1,-2.3401725E-1,3.3421136E-2,1.1820171E-1,1.3071167E0,-3.23369E-1,-2.1617144E-2,2.3308446E0,-3.377615E-1,5.067852E-2,-1.4307953E-2,2.7664793E0,-3.4901696E-1,6.175177E-2,3.3453263E-2,1.4953275E-1,6.13962E-2,-1.801774E-2],"categories":[],"categories_nodes":[],"categories_segments":[],"categories_sizes":[],"default_left":[0,0,0,0,0,0,0,0,0,0,1,0,0,1,0,0,0,0,0,0,0,0,0],"id":37,"left_children":[1,3,5,-1,7,-1,9,-1,-1,11,13,-1,15,17,-1,-1,19,21,-1,-1,-1,-1,-1],"loss_changes":[1.0749453E2,1.398156E1,4.9514103E1,0E0,1.5828705E-1,0E0,3.731262E1,0E0,0E0,2.7503538E1,5.2300873E0,0E0,