{"learner":{"attributes":{"scikit_learn":"{\"_estimator_type\": \"classifier\"}"},"feature_names":[],"feature_types":[],"gradient_booster":{"model":{"cats":{"enc":[],"feature_segments":[],"sorted_idx":[]},"gbtree_model_param":{"num_parallel_tree":"1","num_trees":"120"},"iteration_indptr":[0,1,2,3,4,5,6,7,8,9,10,11,12,13,14,15,16,17,18,19,20,21,22,23,24,25,26,27,28,29,30,31,32,33,34,35,36,37,38,39,40,41,42,43,44,45,46,47,48,49,50,51,52,53,54,55,56,57,58,59,60,61,62,63,64,65,66,67,68,69,70,71,72,73,74,75,76,77,78,79,80,81,82,83,84,85,86,87,88,89,90,91,92,93,94,95,96,97,98,99,100,101,102,103,104,105,106,107,108,109,110,111,112,113,114,115,116,117,118,119,120],"tree_info":[0,0,0,0,0,0,0,0,0,0,0,0,0,0,0,0,0,0,0,0,0,0,0,0,0,0,0,0,0,0,0,0,0,0,0,0,0,0,0,0,0,0,0,0,0,0,0,0,0,0,0,0,0,0,0,0,0,0,0,0,0,0,0,0,0,0,0,0,0,0,0,0,0,0,0,0,0,0,0,0,0,0,0,0,0,0,0,0,0,0,0,0,0,0,0,0,0,0,0,0,0,0,0,0,0,0,0,0,0,0,0,0,0,0,0,0,0,0,0,0],"trees":[{"base_weights":[-7.083843E-8,-3.5133764E-1,1.6819134E0,8.4058154E-1,-3.5158965E-1],"categories":[],"categories_nodes":[],"categories_segments":[],"categories_sizes":[],"default_left":[0,0,0,0,0],"id":0,"left_children":[1,-1,3,-1,-1],"loss_changes":[2.3897861E4,0E0,1.5922106E4,0E0,0E0],"parents":[2147483647,0,0,2,2],"right_children":[2,-1,4,-1,-1],"split_conditions":[1E0,-3.5133764E-1,1E0,8.4058154E-1,-3.5158965E-1],"split_indices":[0,0,1,0,0],"split_type":[0,0,0,0,0],"sum_hessian":[1.2130547E4,7.1513364E3,4.9792104E3,3.575858E3,1.4033527E3],"tree_param":{"num_deleted":"0","num_feature":"4","num_nodes":"5","size_leaf_vector":"1"}},{"base_weights":[-1.0416524E-1,-3.3557808E-1,7.0785964E-1,1.0484667E0,-3.359076E-1,1.0571982E0,1.0036539E0,1.0337163E0,1.0917563E0,1.0461619E0,9.715228E-1,3.0043957E-1,3.1377453E-1,3.322445E-1,2.9775298E-1,2.823847E-1,3.4176755E-1,3.044485E-1,2.775795E-1],"categories":[],"categories_nodes":[],"categories_segments":[],"categories_sizes":[],"default_left":[0,0,0,0,0,0,0,0,0,0,0,0,0,0,0,0,0,0,0],"id":1,"left_children":[1,-1,3,5,-1,7,9,11,13,15,17,-1,-1,-1,-1,-1,-1,-1,-1],"loss_changes":[1.0203755E4,0E0,4.2838022E3,1.2080078E0,0E0,2.7954102E0,3.022461E-1,9.301758E-2,1.9257812E0,2.8573914E0,1.906128E-1,0E0,0E0,0E0,0E0,0E0,0E0,0E0,0E0],"parents":[2147483647,0,0,2,2,3,3,5,5,6,6,7,7,8,8,9,9,10,10],"right_children":[2,-1,4,6,-1,8,10,12,14,16,18,-1,-1,-1,-1,-1,-1,-1,-1],"split_conditions":[1E0,-3.3557808E-1,1E0,1.1E1,-3.359076E-1,7E0,1.1E1,1E1,2E1,1.2E1,1.2E1,3.0043957E-1,3.1377453E-1,3.322445E-1,2.9775298E-1,2.823847E-1,3.4176755E-1,3.044485E-1,2.775795E-1],"split_indices":[0,0,1,3,0,3,2,2,2,3,3,0,0,0,0,0,0,0,0],"split_type":[0,0,0,0,0,0,0,0,0,0,0,0,0,0,0,0,0,0,0],"sum_hessian":[1.2385129E4,5.5061504E3,6.8789785E3,5.798684E3,1.0802943E3,4.8341836E3,9.6450073E2,2.8967808E3,1.9374027E3,4.0161917E2,5.628816E2,8.177868E2,2.078994E3,1.663646E3,2.7375674E2,1.9404764E2,2.0757155E2,2.79904E2,2.829776E2],"tree_param":{"num_deleted":"0","num_feature":"4","num_nodes":"19","size_leaf_vector":"1"}},{"base_weights":[-1.1188206E-1,-3.247175E-1,4.4491783E-1,6.3887274E-1,-3.2515717E-1,6.433787E-1,6.155989E-1,6.325629E-1,6.684788E-1,6.389382E-1,5.978468E-1,1.8147723E-1,1.929395E-1,2.0438743E-1,1.7622077E-1,1.7452526E-1,2.0663758E-1,1.8644066E-1,1.7171706E-1],"categories":[],"categories_nodes":[],"categories_segments":[],"categories_sizes":[],"default_left":[0,0,0,0,0,0,0,0,0,0,0,0,0,0,0,0,0,0,0],"id":2,"left_children":[1,-1,3,5,-1,7,9,11,13,15,17,-1,-1,-1,-1,-1,-1,-1,-1],"loss_changes":[6.2175073E3,0E0,2.1686108E3,2.8466797E-1,0E0,1.046875E0,6.365967E-2,7.2180176E-1,1.2752686E0,8.826752E-1,2.1026611E-2,0E0,0E0,0E0,0E0,0E0,0E0,0E0,0E0],"parents":[2147483647,0,0,2,2,3,3,5,5,6,6,7,7,8,8,9,9,10,10],"right_children":[2,-1,4,6,-1,8,10,12,14,16,18,-1,-1,-1,-1,-1,-1,-1,-1],"split_conditions":[1E0,-3.247175E-1,1E0,1.1E1,-3.2515717E-1,8E0,1.1E1,1E1,2E1,1.2E1,1.2E1,1.8147723E-1,1.929395E-1,2.0438743E-1,1.7622077E-1,1.7452526E-1,2.0663758E-1,1.8644066E-1,1.7171706E-1],"split_indices":[0,0,1,3,0,3,2,2,2,3,3,0,0,0,0,0,0,0,0],"split_type":[0,0,0,0,0,0,0,0,0,0,0,0,0,0,0,0,0,0,0],"sum_hessian":[1.1503925E4,4.1935566E3,7.310368E3,6.4878413E3,8.22527E2,5.413172E3,1.0746694E3,3.8013513E3,1.6118207E3,4.4915665E2,6.2551276E2,1.067619E3,2.7337322E3,1.3854697E3,2.2635092E2,2.1509247E2,2.3406418E2,3.1230286E2,3.132099E2],"tree_param":{"num_deleted":"0","num_feature":"4","num_nodes":"19","size_leaf_vector":"1"}},{"base_weights":[-1.0742891E-1,-3.169191E-1,2.982998E-1,4.225355E-1,-3.175106E-1,4.4448292E-1,4.1884387E-1,1.9794516E-1,4.2290744E-1,3.8146687E-1,4.26131E-1,1.16020486E-1,1.391831E-1,1.0407195E-1,1.3370031E-1,1.3088307E-1,1.2064379E-1],"categories":[],"categories_nodes":[],"categories_segments":[],"categories_sizes":[],"default_left":[0,0,0,0,0,0,0,0,0,0,0,0,0,0,0,0,0],"id":3,"left_children":[1,-1,3,5,-1,7,9,-1,11,13,15,-1,-1,-1,-1,-1,-1],"loss_changes":[4.077773E3,0E0,1.2509296E3,3.6462402E-1,0E0,4.19223E0,1.427063E0,0E0,1.1231842E0,1.9792786E0,1.0108643E0,0E0,0E0,0E0,0E0,0E0,0E0],"parents":[2147483647,0,0,2,2,3,3,5,5,6,6,8,8,9,9,10,10],"right_children":[2,-1,4,6,-1,8,10,-1,12,14,16,-1,-1,-1,-1,-1,-1],"split_conditions":[1E0,-3.169191E-1,1E0,9E0,-3.175106E-1,2E0,3E0,1.9794516E-1,8E0,1.9E1,1E1,1.16020486E-1,1.391831E-1,1.0407195E-1,1.3370031E-1,1.3088307E-1,1.2064379E-1],"split_indices":[0,0,1,2,0,3,3,0,3,2,3,0,0,0,0,0,0],"split_type":[0,0,0,0,0,0,0,0,0,0,0,0,0,0,0,0,0],"sum_hessian":[1.0589151E4,3.170947E3,7.4182036E3,6.7965083E3,6.216956E2,9.614055E2,5.8351025E3,8.4861694E1,8.765438E2,9.607271E2,4.8743755E3,4.7142108E2,4.051227E2,6.2869385E2,3.3203326E2,3.4133242E3,1.4610514E3],"tree_param":{"num_deleted":"0","num_feature":"4","num_nodes":"17","size_leaf_vector":"1"}},{"base_weights":[-9.808229E-2,-3.110732E-1,2.0438705E-1,2.8831822E-1,-3.1187117E-1,2.8005332E-1,2.9415452E-1,2.9009157E-1,2.4004057E-1,3.0450055E-1,2.80167E-1,8.48438E-2,9.332695E-2,7.5452216E-2,5.103987E-2,9.293119E-2,8.13483E-2,9.42617E-2,8.233657E-2],"categories":[],"categories_nodes":[],"categories_segments":[],"categories_sizes":[],"default_left":[0,0,0,0,0,0,0,0,0,0,0,0,0,0,0,0,0,0,0],"id":4,"left_children":[1,-1,3,5,-1,7,9,11,13,15,17,-1,-1,-1,-1,-1,-1,-1,-1],"loss_changes":[2.7820862E3,0E0,7.7397375E2,2.5250244E-1,0E0,1.0928955E0,5.006714E-1,2.649231E-1,4.2718124E-1,3.2295227E-1,2.509308E-1,0E0,0E0,0E0,0E0,0E0,0E0,0E0,0E0],"parents":[2147483647,0,0,2,2,3,3,5,5,6,6,7,7,8,8,9,9,10,10],"right_children":[2,-1,4,6,-1,8,10,12,14,16,18,-1,-1,-1,-1,-1,-1,-1,-1],"split_conditions":[1E0,-3.110732E-1,1E0,6E0,-3.1187117E-1,5E0,1E1,4E0,2E1,2E1,9E0,8.48438E-2,9.332695E-2,7.5452216E-2,5.103987E-2,9.293119E-2,8.13483E-2,9.42617E-2,8.233657E-2],"split_indices":[0,0,1,3,0,3,3,3,2,2,2,0,0,0,0,0,0,0,0],"split_type":[0,0,0,0,0,0,0,0,0,0,0,0,0,0,0,0,0,0,0],"sum_hessian":[9.795477E3,2.3862905E3,7.409186E3,6.941597E3,4.675889E2,2.893304E3,4.0482932E3,2.3080244E3,5.8527954E2,2.3151172E3,1.7331763E3,1.7246522E3,5.8337213E2,5.005738E2,8.4705795E1,1.9919543E3,3.2316278E2,2.4128178E2,1.4918944E3],"tree_param":{"num_deleted":"0","num_feature":"4","num_nodes":"19","size_leaf_vector":"1"}},{"base_weights":[-8.6483836E-2,-3.0645257E-1,1.4103119E-1,1.994757E-1,-3.075293E-1,1.9090421E-1,2.0282304E-1,2.1088552E-1,1.7072077E-1,2.3344263E-1,1.9530243E-1,1.0780651E-1,5.880324E-2,2.4636947E-2,5.3537015E-2,4.849897E-2,7.413629E-2,5.935557E-2,5.010917E-2],"categories":[],"categories_nodes":[],"categories_segments":[],"categories_sizes":[],"default_left":[0,0,0,0,0,0,0,0,0,0,0,0,0,0,0,0,0,0,0],"id":5,"left_children":[1,-1,3,5,-1,7,9,11,13,15,17,-1,-1,-1,-1,-1,-1,-1,-1],"loss_changes":[1.947178E3,0E0,5.019665E2,1.6247559E-1,0E0,7.650223E-1,1.1118927E0,2.1244164E0,6.661701E-1,9.2814255E-1,2.58255E-1,0E0,0E0,0E0,0E0,0E0,0E0,0E0,0E0],"parents":[2147483647,0,0,2,2,3,3,5,5,6,6,7,7,8,8,9,9,10,10],"right_children":[2,-1,4,6,-1,8,10,12,14,16,18,-1,-1,-1,-1,-1,-1,-1,-1],"split_conditions":[1E0,-3.0645257E-1,1E0,1E1,-3.075293E-1,9E0,1.1E1,2E0,2E0,3E0,1.2E1,1.0780651E-1,5.880324E-2,2.4636947E-2,5.3537015E-2,4.849897E-2,7.413629E-2,5.935557E-2,5.010917E-2],"split_indices":[0,0,1,2,0,2,2,3,3,3,3,0,0,0,0,0,0,0,0],"split_type":[0,0,0,0,0,0,0,0,0,0,0,0,0,0,0,0,0,0,0],"sum_hessian":[9.151513E3,1.7903152E3,7.3611973E3,7.010663E3,3.5053433E2,1.9851992E3,5.025464E3,9.928472E2,9.923519E2,9.850142E2,4.0404497E3,8.830338E1,9.045438E2,8.06223E1,9.117297E2,1.597125E2,8.253017E2,3.7007322E3,3.397174E2],"tree_param":{"num_deleted":"0","num_feature":"4","num_nodes":"19","size_leaf_vector":"1"}},{"base_weights":[-7.41776E-2,-3.0254132E-1,9.741155E-2,1.3890527E-1,-3.0399245E-1,1.331573E-1,1.4298224E-1,1.4013891E-1,1.0540516E-1,1.4944528E-1,1.3428038E-1,3.9894987E-2,4.71124E-2,2.5174214E-2,4.0422708E-2,4.1733734E-2,4.7990717E-2,4.7539E-2,3.9082423E-2],"categories":[],"categories_nodes":[],"categories_segments":[],"categories_sizes":[],"default_left":[0,0,0,0,0,0,0,0,0,0,0,0,0,0,0,0,0,0,0],"id":6,"left_children":[1,-1,3,5,-1,7,9,11,13,15,17,-1,-1,-1,-1,-1,-1,-1,-1],"loss_changes":[1.3863961E3,0E0,3.3688397E2,1.4604187E-1,0E0,5.5441666E-1,2.1095276E-1,2.6263428E-1,3.6352873E-1,2.3308945E-1,1.4988899E-1,0E0,0E0,0E0,0E0,0E0,0E0,0E0,0E0],"parents":[2147483647,0,0,2,2,3,3,5,5,6,6,7,7,8,8,9,9,10,10],"right_children":[2,-1,4,6,-1,8,10,12,14,16,18,-1,-1,-1,-1,-1,-1,-1,-1],"split_conditions":[1E0,-3.0254132E-1,1E0,6E0,-3.0399245E-1,5E0,1E1,1.9E1,1.8E1,8E0,9E0,3.9894987E-2,4.71124E-2,2.5174214E-2,4.0422708E-2,4.1733734E-2,4.7990717E-2,4.7539E-2,3.9082423E-2],"split_indices":[0,0,1,3,0,3,3,2,2,3,2,0,0,0,0,0,0,0,0],"split_type":[0,0,0,0,0,0,0,0,0,0,0,0,0,0,0,0,0,0,0],"sum_hessian":[8.646358E3,1.3408153E3,7.3055425E3,7.0432974E3,2.6224515E2,2.9366604E3,4.106637E3,2.3431448E3,5.9351556E2,2.3471736E3,1.7594636E3,1.6524486E3,6.906962E2,3.4479468E2,2.4872089E2,1.1915038E3,1.1556697E3,2.4454294E2,1.5149207E3],"tree_param":{"num_deleted":"0","num_feature":"4","num_nodes":"19","size_leaf_vector":"1"}},{"base_weights":[-6.217919E-2,-2.9894042E-1,6.716965E-2,9.701925E-2,-3.008926E-1,1.01806626E-1,9.347693E-2,9.1644846E-2,1.22170374E-1,8.475701E-2,1.021693E-1,2.4301572E-2,3.3875886E-2,4.9679242E-2,3.0178027E-2,3.462552E-2,2.3451136E-2,2.0309461E-2,3.4020506E-2],"categories":[],"categories_nodes":[],"categories_segments":[],"categories_sizes":[],"default_left":[0,0,0,0,0,0,0,0,0,0,0,0,0,0,0,0,0,0,0],"id":7,"left_children":[1,-1,3,5,-1,7,9,11,13,15,17,-1,-1,-1,-1,-1,-1,-1,-1],"loss_changes":[9.981818E2,0E0,2.3186952E2,1.10198975E-1,0E0,6.077423E-1,2.9981232E-1,4.4341087E-1,9.135208E-1,4.024582E-1,7.795658E-1,0E0,0E0,0E0,0E0,0E0,0E0,0E0,0E0],"parents":[2147483647,0,0,2,2,3,3,5,5,6,6,7,7,8,8,9,9,10,10],"right_children":[2,-1,4,6,-1,8,10,12,14,16,18,-1,-1,-1,-1,-1,-1,-1,-1],"split_conditions":[1E0,-2.9894042E-1,1E0,1.1E1,-3.008926E-1,1E1,7E0,9E0,5E0,2E0,1.8E1,2.4301572E-2,3.3875886E-2,4.9679242E-2,3.0178027E-2,3.462552E-2,2.3451136E-2,2.0309461E-2,3.4020506E-2],"split_indices":[0,0,1,2,0,2,3,3,3,3,2,0,0,0,0,0,0,0,0],"split_type":[0,0,0,0,0,0,0,0,0,0,0,0,0,0,0,0,0,0,0],"sum_hessian":[8.258178E3,1.00346075E3,7.2547173E3,7.0587373E3,1.959803E2,2.9900269E3,4.0687104E3,1.9983325E3,9.916943E2,2.0365033E3,2.032207E3,1.3353336E3,6.6299896E2,3.2695993E2,6.647344E2,3.5719342E2,1.6793099E3,5.011756E2,1.5310315E3],"tree_param":{"num_deleted":"0","num_feature":"4","num_nodes":"19","size_leaf_vector":"1"}},{"base_weights":[-5.112953E-2,-2.95311E-1,4.618846E-2,6.786176E-2,-2.9793048E-1,5.8065E-2,6.979084E-2,1.3811965E-1,4.4413082E-2,5.8304798E-2,7.431899E-2,5.6327946E-2,2.4436783E-2,7.6080984E-3,2.4087716E-2,7.079012E-3,1.9961834E-2,2.9952982E-2,2.0324294E-2],"categories":[],"categories_nodes":[],"categories_segments":[],"categories_sizes":[],"default_left":[0,0,0,0,0,0,0,0,0,0,0,0,0,0,0,0,0,0,0],"id":8,"left_children":[1,-1,3,5,-1,7,9,11,13,15,17,-1,-1,-1,-1,-1,-1,-1,-1],"loss_changes":[7.2340216E2,0E0,1.625497E2,1.2950897E-1,0E0,1.2710185E0,3.0250168E-1,4.6225047E-1,6.8143713E-1,4.7652006E-1,7.023411E-1,0E0,0E0,0E0,0E0,0E0,0E0,0E0,0E0],"parents":[2147483647,0,0,2,2,3,3,5,5,6,6,7,7,8,8,9,9,10,10],"right_children":[2,-1,4,6,-1,8,10,12,14,16,18,-1,-1,-1,-1,-1,-1,-1,-1],"split_conditions":[1E0,-2.95311E-1,1E0,3E0,-2.9793048E-1,9E0,1E1,2E0,1.9E1,5E0,5E0,5.6327946E-2,2.4436783E-2,7.6080984E-3,2.4087716E-2,7.079012E-3,1.9961834E-2,2.9952982E-2,2.0324294E-2],"split_indices":[0,0,1,3,0,2,2,3,2,3,3,0,0,0,0,0,0,0,0],"split_type":[0,0,0,0,0,0,0,0,0,0,0,0,0,0,0,0,0,0,0],"sum_hessian":[7.963634E3,7.511634E2,7.2124707E3,7.0660503E3,1.4642035E2,1.1675912E3,5.898459E3,1.6877571E2,9.988155E2,1.6717622E3,4.226697E3,8.873019E1,8.0045525E1,6.5349896E2,3.4531653E2,3.2131635E2,1.3504459E3,8.6247894E2,3.3642178E3],"tree_param":{"num_deleted":"0","num_feature":"4","num_nodes":"19","size_leaf_vector":"1"}},{"base_weights":[-4.137661E-2,-2.9133663E-1,3.166252E-2,4.75061E-2,-2.9484028E-1,5.2125365E-2,4.4100538E-2,4.539674E-2,6.562672E-2,3.5005875E-2,5.0677113E-2,1.2463025E-2,2.6045404E-2,-2.6755761E-3,2.1840652E-2,1.9437175E-2,8.129933E-3,1.695174E-2,9.789072E-3],"categories":[],"categories_nodes":[],"categories_segments":[],"categories_sizes":[],"default_left":[0,0,0,0,0,0,0,0,0,0,0,0,0,0,0,0,0,0,0],"id":9,"left_children":[1,-1,3,5,-1,7,9,11,13,15,17,-1,-1,-1,-1,-1,-1,-1,-1],"loss_changes":[5.2579834E2,0E0,1.1543956E2,1.089201E-1,0E0,2.6908875E-1,2.4202633E-1,3.159294E-1,5.322623E-1,4.018147E-1,2.4675083E-1,0E0,0E0,0E0,0E0,0E0,0E0,0E0,0E0],"parents":[2147483647,0,0,2,2,3,3,5,5,6,6,7,7,8,8,9,9,10,10],"right_children":[2,-1,4,6,-1,8,10,12,14,16,18,-1,-1,-1,-1,-1,-1,-1,-1],"split_conditions":[1E0,-2.9133663E-1,1E0,1.1E1,-2.9484028E-1,1E1,6E0,1.2E1,2E0,2E0,2E1,1.2463025E-2,2.6045404E-2,-2.6755761E-3,2.1840652E-2,1.9437175E-2,8.129933E-3,1.695174E-2,9.789072E-3],"split_indices":[0,0,1,2,0,2,3,3,3,3,2,0,0,0,0,0,0,0,0],"split_type":[0,0,0,0,0,0,0,0,0,0,0,0,0,0,0,0,0,0,0],"sum_hessian":[7.7413745E3,5.629576E2,7.178417E3,7.068969E3,1.0944787E2,2.9938474E3,4.0751216E3,2.0009855E3,9.92862E2,1.7128145E3,2.3623071E3,1.8325138E3,1.684717E2,8.7156456E1,9.0570557E2,3.5777417E2,1.3550403E3,1.7839922E3,5.78315E2],"tree_param":{"num_deleted":"0","num_feature":"4","num_nodes":"19","size_leaf_vector":"1"}},{"base_weights":[-3.3045348E-2,-2.8669754E-1,2.162419E-2,3.3263087E-2,-9.7121537E-1,3.5449296E-2,2.2277312E-2,-1.8558875E-1,-2.982786E-1,4.7497287E-2,3.3451755E-2,1.5972449E-2,2.8336786E-2,3.6017798E-2,1.1623029E-2,5.4491474E-3,1.1162938E-2,-9.264376E-3,1.0163563E-2,1.5667887E-2,3.2030921E-3],"categories":[],"categories_nodes":[],"categories_segments":[],"categories_sizes":[],"default_left":[0,0,0,0,0,0,0,0,0,0,0,0,0,0,0,0,0,0,0,0,0],"id":10,"left_children":[1,-1,3,5,7,9,11,-1,-1,13,15,17,19,-1,-1,-1,-1,-1,-1,-1,-1],"loss_changes":[3.8214212E2,0E0,8.269054E1,1.6904068E-1,5.8692932E-2,1.4030313E-1,4.4487953E-2,0E0,0E0,5.264522E-1,2.900772E-1,4.866256E-1,2.519591E-1,0E0,0E0,0E0,0E0,0E0,0E0,0E0,0E0],"parents":[2147483647,0,0,2,2,3,3,4,4,5,5,6,6,9,9,10,10,11,11,12,12],"right_children":[2,-1,4,6,8,10,12,-1,-1,14,16,18,20,-1,-1,-1,-1,-1,-1,-1,-1],"split_conditions":[1E0,-2.8669754E-1,1E0,1.1E1,2E0,9E0,1.2E1,-1.8558875E-1,-2.982786E-1,2E0,3E0,1E1,1.1E1,3.6017798E-2,1.1623029E-2,5.4491474E-3,1.1162938E-2,-9.264376E-3,1.0163563E-2,1.5667887E-2,3.2030921E-3],"split_indices":[0,0,1,3,3,2,3,0,0,3,3,2,2,0,0,0,0,0,0,0,0],"split_type":[0,0,0,0,0,0,0,0,0,0,0,0,0,0,0,0,0,0,0,0,0],"sum_hessian":[7.5749375E3,4.2282275E2,7.1521147E3,7.070198E3,8.19163E1,5.8948706E3,1.1753276E3,6.73416E0,7.518214E1,8.351231E2,5.0597476E3,5.777826E2,5.9754504E2,8.85343E1,7.465888E2,9.995101E2,4.0602375E3,1.5955663E2,4.1822595E2,2.5314415E2,3.4440088E2],"tree_param":{"num_deleted":"0","num_feature":"4","num_nodes":"21","size_leaf_vector":"1"}},{"base_weights":[-2.612412E-2,-2.8105366E-1,1.4688326E-2,2.3295617E-2,-9.576141E-1,2.5366934E-2,1.7071337E-2,-1.653765E-1,-2.9637498E-1,2.3569735E-2,4.014216E-2,3.3811998E-2,1.4357088E-2,4.138205E-3,8.226078E-3,2.65235E-2,5.6375144E-3,2.4946092E-2,2.8997276E-3,8.913757E-4,5.921437E-3],"categories":[],"categories_nodes":[],"categories_segments":[],"categories_sizes":[],"default_left":[0,0,0,0,0,0,0,0,0,0,0,0,0,0,0,0,0,0,0,0,0],"id":11,"left_children":[1,-1,3,5,7,9,11,-1,-1,13,15,17,19,-1,-1,-1,-1,-1,-1,-1,-1],"loss_changes":[2.7698096E2,0E0,5.971749E1,9.073424E-2,2.2641373E-1,1.3988805E-1,7.988137E-2,0E0,0E0,1.7770195E-1,5.896165E-1,2.9231045E-1,9.329346E-2,0E0,0E0,0E0,0E0,0E0,0E0,0E0,0E0],"parents":[2147483647,0,0,2,2,3,3,4,4,5,5,6,6,9,9,10,10,11,11,12,12],"right_children":[2,-1,4,6,8,10,12,-1,-1,14,16,18,20,-1,-1,-1,-1,-1,-1,-1,-1],"split_conditions":[1E0,-2.8105366E-1,1E0,1E1,2E0,9E0,9E0,-1.653765E-1,-2.9637498E-1,1E1,1E1,1.1E1,1.1E1,4.138205E-3,8.226078E-3,2.65235E-2,5.6375144E-3,2.4946092E-2,2.8997276E-3,8.913757E-4,5.921437E-3],"split_indices":[0,0,1,3,3,3,2,0,0,2,2,3,2,0,0,0,0,0,0,0,0],"split_type":[0,0,0,0,0,0,0,0,0,0,0,0,0,0,0,0,0,0,0,0,0],"sum_hessian":[7.4506104E3,3.1862408E2,7.1319863E3,7.070372E3,6.161431E1,5.3026724E3,1.7676998E3,5.607602E0,5.600671E1,4.7299365E3,5.727357E2,2.4502191E2,1.522678E3,1.337888E3,3.3920486E3,1.7467839E2,3.9805734E2,7.9704994E1,1.6531693E2,4.8917508E2,1.0335028E3],"tree_param":{"num_deleted":"0","num_feature":"4","num_nodes":"21","size_leaf_vector":"1"}},{"base_weights":[-2.0462885E-2,-2.7403712E-1,9.928986E-3,1.6318256E-2,-9.410289E-1,1.9495029E-2,1.3980859E-2,-1.4510635E-1,-2.9419434E-1,3.0516775E-2,1.4136623E-2,4.200027E-3,1.7253324E-2,3.903445E-3,1.953827E-2,3.33417E-3,1.0521096E-2,1.4582516E-2,-3.2465605E-3,-1.386247E-3,7.336183E-3],"categories":[],"categories_nodes":[],"categories_segments":[],"categories_sizes":[],"default_left":[0,0,0,0,0,0,0,0,0,0,0,0,0,0,0,0,0,0,0,0,0],"id":12,"left_children":[1,-1,3,5,7,9,11,-1,-1,13,15,17,19,-1,-1,-1,-1,-1,-1,-1,-1],"loss_changes":[1.9973466E2,0E0,4.3263336E1,5.2235365E-2,3.86734E-1,1.7644763E-1,1.3043612E-1,0E0,0E0,5.9222287E-1,1.2724486E-1,6.8332654E-1,4.812833E-1,0E0,0E0,0E0,0E0,0E0,0E0,0E0,0E0],"parents":[2147483647,0,0,2,2,3,3,4,4,5,5,6,6,9,9,10,10,11,11,12,12],"right_children":[2,-1,4,6,8,10,12,-1,-1,14,16,18,20,-1,-1,-1,-1,-1,-1,-1,-1],"split_conditions":[1E0,-2.7403712E-1,1E0,1.1E1,2E0,5E0,4E0,-1.4510635E-1,-2.9419434E-1,1E1,1.2E1,1.8E1,1.8E1,3.903445E-3,1.953827E-2,3.33417E-3,1.0521096E-2,1.4582516E-2,-3.2465605E-3,-1.386247E-3,7.336183E-3],"split_indices":[0,0,1,2,3,3,3,0,0,2,3,2,2,0,0,0,0,0,0,0,0],"split_type":[0,0,0,0,0,0,0,0,0,0,0,0,0,0,0,0,0,0,0,0,0],"sum_hessian":[7.35815E3,2.4122617E2,7.116924E3,7.070402E3,4.6521584E1,2.993956E3,4.0764458E3,4.761827E0,4.1759754E1,9.778708E2,2.0160853E3,1.02253894E3,3.053907E3,6.5032715E2,3.2754367E2,1.7630416E3,2.5304369E2,2.5789703E2,7.646419E2,7.5641516E2,2.2974917E3],"tree_param":{"num_deleted":"0","num_feature":"4","num_nodes":"21","size_leaf_vector":"1"}},{"base_weights":[-1.5907628E-2,-8.8419175E-1,6.671005E-3,-2.704577E-1,-2.044763E-1,1.1430564E-2,-9.2053133E-1,1.3068559E-2,6.512724E-3,-1.2547347E-1,-2.9157272E-1,1.0802348E-2,2.1166043E-2,1.1533366E-2,-5.3673233E-3,4.252889E-3,1.9100392E-3,8.787484E-3,-8.4647E-3,1.06356E-3,6.909964E-3,-5.441285E-3,6.1433646E-3],"categories":[],"categories_nodes":[],"categories_segments":[],"categories_sizes":[],"default_left":[0,0,0,0,0,0,0,0,0,0,0,0,0,0,0,0,0,0,0,0,0,0,0],"id":13,"left_children":[1,3,5,-1,-1,7,9,11,13,-1,-1,15,17,19,21,-1,-1,-1,-1,-1,-1,-1,-1],"loss_changes":[1.4293318E2,3.4484863E-2,3.1372875E1,0E0,0E0,5.6877613E-2,5.304394E-1,9.709543E-2,1.0556273E-1,0E0,0E0,6.195444E-2,4.6575308E-1,1.14164725E-1,1.7402267E-1,0E0,0E0,0E0,0E0,0E0,0E0,0E0,0E0],"parents":[2147483647,0,0,1,1,2,2,5,5,6,6,7,7,8,8,11,11,12,12,13,13,14,14],"right_children":[2,4,6,-1,-1,8,10,12,14,-1,-1,16,18,20,22,-1,-1,-1,-1,-1,-1,-1,-1],"split_conditions":[1E0,2.2E1,1E0,-2.704577E-1,-2.044763E-1,1E1,2E0,8E0,1.9E1,-1.2547347E-1,-2.9157272E-1,5E0,2E1,1.1E1,1.2E1,4.252889E-3,1.9100392E-3,8.787484E-3,-8.4647E-3,1.06356E-3,6.909964E-3,-5.441285E-3,6.1433646E-3],"split_indices":[0,2,1,0,0,3,3,3,2,0,0,3,2,2,3,0,0,0,0,0,0,0,0],"split_type":[0,0,0,0,0,0,0,0,0,0,0,0,0,0,0,0,0,0,0,0,0,0,0],"sum_hessian":[7.289472E3,1.8378218E2,7.10569E3,1.6612E2,1.7662184E1,7.070384E3,3.5306362E1,5.3025845E3,1.7677992E3,4.1244884E0,3.1181873E1,4.1449014E3,1.157683E3,1.2426644E3,5.2513477E2,2.352927E3,1.7919745E3,9.94456E2,1.6322704E2,7.3406647E2,5.0859796E2,3.516703E2,1.734645E2],"tree_param":{"num_deleted":"0","num_feature":"4","num_nodes":"23","size_leaf_vector":"1"}},{"base_weights":[-1.2316266E-2,-8.479602E-1,4.4454145E-3,-2.608832E-1,-1.839655E-1,8.003782E-3,-8.9519835E-1,1.4006897E-2,7.0124967E-3,-3.568849E-1,-2.88332E-1,2.176946E-2,8.265172E-3,-3.7790425E-3,9.141211E-3,-1.7253691E-1,-1.5276892E-1,-3.9612246E-3,4.8002587E-3,-6.1011952E-3,8.267009E-3,6.9899387E-3,1.6667279E-3,-6.0713325E-2,-1.6672371E-2],"categories":[],"categories_nodes":[],"categories_segments":[],"categories_sizes":[],"default_left":[0,0,0,0,0,0,0,0,0,0,0,0,0,0,0,0,0,0,0,0,0,0,0,0,0],"id":14,"left_children":[1,3,5,-1,-1,7,9,11,13,15,-1,-1,17,19,21,23,-1,-1,-1,-1,-1,-1,-1,-1,-1],"loss_changes":[1.0140689E2,1.902771E-1,2.2730377E1,0E0,0E0,4.198125E-2,6.4948463E-1,3.360177E-1,1.3949952E-1,4.2507827E-2,0E0,0E0,1.5182501E-1,5.199254E-1,2.5730422E-1,1.3626665E-3,0E0,0E0,0E0,0E0,0E0,0E0,0E0,0E0,0E0],"parents":[2147483647,0,0,1,1,2,2,5,5,6,6,7,7,8,8,9,9,12,12,13,13,14,14,15,15],"right_children":[2,4,6,-1,-1,8,10,12,14,16,-1,-1,18,20,22,24,-1,-1,-1,-1,-1,-1,-1,-1,-1],"split_conditions":[1E0,2.2E1,1E0,-2.608832E-1,-1.839655E-1,9E0,2E0,2E0,3E0,1.9E1,-2.88332E-1,2.176946E-2,5E0,1.9E1,5E0,1.1E1,-1.5276892E-1,-3.9612246E-3,4.8002587E-3,-6.1011952E-3,8.267009E-3,6.9899387E-3,1.6667279E-3,-6.0713325E-2,-1.6672371E-2],"split_indices":[0,2,1,0,0,2,3,3,3,2,0,0,3,2,3,2,0,0,0,0,0,0,0,0,0],"split_type":[0,0,0,0,0,0,0,0,0,0,0,0,0,0,0,0,0,0,0,0,0,0,0,0,0],"sum_hessian":[7.238566E3,1.4136386E2,7.097202E3,1.2695051E2,1.4413348E1,7.0702285E3,2.697382E1,1.0001711E3,6.070057E3,3.642022E0,2.3331799E1,8.827233E1,9.1189874E2,9.999623E2,5.0700947E3,2.6128416E0,1.0291804E0,2.4135289E2,6.7054584E2,6.5447754E2,3.4548477E2,1.02337854E3,4.0467163E3,1.4998907E0,1.1129508E0],"tree_param":{"num_deleted":"0","num_feature":"4","num_nodes":"25","size_leaf_vector":"1"}},{"base_weights":[-9.50017E-3,-8.0358213E-1,2.9204225E-3,-2.4900898E-1,-5.4058236E-1,5.6079165E-3,-8.649657E-1,-3.3226007E-1,-1.8847814E-1,6.550585E-3,8.8013284E-4,-9.5917545E-2,-2.8427956E-1,-5.959128E-1,1.3955049E-1,3.730515E-3,9.372301E-3,5.0136535E-3,-8.997367E-3,-2.2061864E-1,-2.408318E-2,3.8562354E-3,-8.55914E-4,3.463715E-3,-1.1659359E-3,-3.9389075E-4,8.66911E-3,-9.215676E-3,3.8122374E-3],"categories":[],"categories_nodes":[],"categories_segments":[],"categories_sizes":[],"default_left":[0,0,0,0,0,0,0,0,0,0,0,0,0,0,0,0,0,0,0,0,0,0,0,0,0,0,0,0,0],"id":15,"left_children":[1,3,5,-1,7,9,11,13,-1,15,17,-1,-1,19,-1,21,23,25,27,-1,-1,-1,-1,-1,-1,-1,-1,-1,-1],"loss_changes":[7.103189E1,3.2278442E-1,1.6545866E1,0E0,2.8741837E-2,3.1507E-2,6.836796E-1,1.5331662E0,0E0,4.6875745E-2,4.8085354E-2,0E0,0E0,2.9538858E-1,0E0,1.7723814E-1,8.494139E-2,1.2547304E-1,1.6421641E-1,0E0,0E0,0E0,0E0,0E0,0E0,0E0,0E0,0E0,0E0],"parents":[2147483647,0,0,1,1,2,2,4,4,5,5,6,6,7,7,9,9,10,10,13,13,15,15,16,16,17,17,18,18],"right_children":[2,4,6,-1,8,10,12,14,-1,16,18,-1,-1,20,-1,22,24,26,28,-1,-1,-1,-1,-1,-1,-1,-1,-1,-1],"split_conditions":[1E0,2.2E1,1E0,-2.4900898E-1,6E0,1.1E1,2E0,5E0,-1.8847814E-1,6E0,1.9E1,-9.5917545E-2,-2.8427956E-1,1E0,1.3955049E-1,1.1E1,2E1,1.8E1,1.2E1,-2.2061864E-1,-2.408318E-2,3.8562354E-3,-8.55914E-4,3.463715E-3,-1.1659359E-3,-3.9389075E-4,8.66911E-3,-9.215676E-3,3.8122374E-3],"split_indices":[0,2,1,0,3,3,3,3,0,3,2,0,0,1,0,2,2,2,3,0,0,0,0,0,0,0,0,0,0],"split_type":[0,0,0,0,0,0,0,0,0,0,0,0,0,0,0,0,0,0,0,0,0,0,0,0,0,0,0,0,0],"sum_hessian":[7.2006387E3,1.099129E2,7.090726E3,9.79108E1,1.2002107E1,7.069827E3,2.0898872E1,4.973846E0,7.0282607E0,5.894202E3,1.1756249E3,3.3912752E0,1.7507597E1,3.927882E0,1.0459641E0,2.9491223E3,2.9450796E3,8.291401E2,3.4648483E2,2.7561374E0,1.1717446E0,1.2357074E3,1.713415E3,2.5304155E3,4.1466425E2,6.5624744E2,1.7289261E2,1.7296812E2,1.7351672E2],"tree_param":{"num_deleted":"0","num_feature":"4","num_nodes":"29","size_leaf_vector":"1"}},{"base_weights":[-7.3105427E-3,-7.5089747E-1,1.9002964E-3,-7.818209E-1,-4.746962E-1,3.926747E-3,-8.2788634E-1,-8.156338E-1,-5.6729245E-1,-2.820481E-1,-5.6202966E-1,2.3265404E-3,7.8534605E-3,-8.035766E-2,-2.792151E-1,-2.7996057E-1,-6.9813514E-1,5.193978E-2,-2.1876322E-1,-5.423767E-1,1.0833761E-1,-2.1508695E-1,-9.154124E-2,-3.216126E-2,5.583639E-3,1.1162097E-1,-2.3323398E-3,-1.167177E-1,-2.282656E-1,7.720463E-2,-5.1732715E-2,-2.0697978E-1,-2.0493373E-2,8.458396E-4,-5.2899066E-2,3.8644085E-3,-1.3501698E-4,3.6446113E-2,3.0145312E-2,-2.4503117E-2,1.6022961E-3],"categories":[],"categories_nodes":[],"categories_segments":[],"categories_sizes":[],"default_left":[0,0,0,0,0,0,0,0,0,0,0,0,0,0,0,0,0,0,0,0,0,0,0,0,0,0,0,0,0,0,0,0,0,0,0,0,0,0,0,0,0],"id":16,"left_children":[1,3,5,7,9,11,13,15,17,19,21,23,25,-1,-1,-1,27,29,-1,31,-1,-1,-1,33,35,37,39,-1,-1,-1,-1,-1,-1,-1,-1,-1,-1,-1,-1,-1,-1],"loss_changes":[4.9134853E1,3.785782E-1,1.1920145E1,9.869385E-2,3.3005238E-2,4.441084E-2,7.4523735E-1,2.4049377E-1,1.423717E0,1.1265135E0,5.287552E-2,5.646323E-1,2.1635892E0,0E0,0E0,0E0,4.073162E-1,2.1945176E-1,0E0,2.576053E-1,0E0,0E0,0E0,2.1880198E0,2.0220985E-1,7.896423E-3,1.1357877E0,0E0,0E0,0E0,0E0,0E0,0E0,0E0,0E0,0E0,0E0,0E0,0E0,0E0,0E0],"parents":[2147483647,0,0,1,1,2,2,3,3,4,4,5,5,6,6,7,7,8,8,9,9,10,10,11,11,12,12,16,16,17,17,19,19,23,23,24,24,25,25,26,26],"right_children":[2,4,6,8,10,12,14,16,18,20,22,24,26,-1,-1,-1,28,30,-1,32,-1,-1,-1,34,36,38,40,-1,-1,-1,-1,-1,-1,-1,-1,-1,-1,-1,-1,-1,-1],"split_conditions":[1E0,2.2E1,1E0,1.1E1,6E0,1.9E1,2E0,1.3E1,8E0,5E0,9E0,2E0,2E0,-8.035766E-2,-2.792151E-1,-2.7996057E-1,1.4E1,1.2E1,-2.1876322E-1,1E0,1.0833761E-1,-2.1508695E-1,-9.154124E-2,1.8E1,7E0,2E1,3E0,-1.167177E-1,-2.282656E-1,7.720463E-2,-5.1732715E-2,-2.0697978E-1,-2.0493373E-2,8.458396E-4,-5.2899066E-2,3.8644085E-3,-1.3501698E-4,3.6446113E-2,3.0145312E-2,-2.4503117E-2,1.6022961E-3],"split_indices":[0,2,1,3,3,2,3,2,2,3,3,3,3,0,0,0,2,3,0,1,0,0,0,2,3,2,3,0,0,0,0,0,0,0,0,0,0,0,0,0,0],"split_type":[0,0,0,0,0,0,0,0,0,0,0,0,0,0,0,0,0,0,0,0,0,0,0,0,0,0,0,0,0,0,0,0,0,0,0,0,0,0,0,0,0],"sum_hessian":[7.172747E3,8.677674E1,7.08597E3,7.6393166E1,1.0383575E1,7.0697E3,1.6269892E1,6.357137E1,1.28217945E1,4.5582128E0,5.8253627E0,5.023945E3,2.0457559E3,3.083213E0,1.3186679E1,2.830621E1,3.526516E1,2.7985141E0,1.002328E1,3.356404E0,1.2018085E0,2.516703E0,3.3086596E0,4.3276254E2,4.591182E3,1.8197124E2,1.8637845E3,7.166526E0,2.8098635E1,1.3843237E0,1.4141904E0,2.2124212E0,1.1439829E0,3.490504E2,8.3712105E1,2.0774194E3,2.5137627E3,9.123557E1,9.073566E1,1.6349971E2,1.7002849E3],"tree_param":{"num_deleted":"0","num_feature":"4","num_nodes":"41","size_leaf_vector":"1"}},{"base_weights":[-5.714728E-3,-6.9303006E-1,1.2117589E-3,-7.272701E-1,-4.1971287E-1,2.7479166E-3,-7.843896E-1,-7.6663375E-1,-4.968388E-1,-2.411251E-1,-5.0557065E-1,-4.4596705E-4,4.008781E-3,-6.672806E-2,-2.7294612E-1,-2.7355054E-1,-6.3151956E-1,6.849257E-2,-6.185809E-1,-4.9117574E-1,8.436703E-2,-2.0132329E-1,-7.6507986E-2,2.0694125E-2,-4.6068043E-3,5.51328E-3,-1.2217025E-2,-9.7069845E-2,-2.1051323E-1,-9.051952E-2,-2.4800673E-1,-1.9313483E-1,-1.743405E-2,1.2090893E-3,1.1504257E-2,-4.6127443E-3,3.5363436E-3,-1.2844652E-3,2.3034138E-3,-7.633295E-3,2.1966319E-3],"categories":[],"categories_nodes":[],"categories_segments":[],"categories_sizes":[],"default_left":[0,0,0,0,0,0,0,0,0,0,0,0,0,0,0,0,0,0,0,0,0,0,0,0,0,0,0,0,0,0,0,0,0,0,0,0,0,0,0,0,0],"id":17,"left_children":[1,3,5,7,9,11,13,15,17,19,21,23,25,-1,-1,-1,27,-1,29,31,-1,-1,-1,33,35,37,39,-1,-1,-1,-1,-1,-1,-1,-1,-1,-1,-1,-1,-1,-1],"loss_changes":[3.40571E1,3.6270523E-1,8.550311E0,1.8206024E-1,3.6189437E-2,2.8474882E-2,7.722635E-1,4.2798615E-1,1.1914814E0,8.2507825E-1,7.978487E-2,1.762018E-1,1.2381869E-1,0E0,0E0,0E0,4.1616344E-1,0E0,4.400277E-1,2.2170973E-1,0E0,0E0,0E0,9.6756876E-2,2.9567435E-1,9.8414496E-2,1.11440726E-1,0E0,0E0,0E0,0E0,0E0,0E0,0E0,0E0,0E0,0E0,0E0,0E0,0E0,0E0],"parents":[2147483647,0,0,1,1,2,2,3,3,4,4,5,5,6,6,7,7,8,8,9,9,10,10,11,11,12,12,16,16,18,18,19,19,23,23,24,24,25,25,26,26],"right_children":[2,4,6,8,10,12,14,16,18,20,22,24,26,-1,-1,-1,28,-1,30,32,-1,-1,-1,34,36,38,40,-1,-1,-1,-1,-1,-1,-1,-1,-1,-1,-1,-1,-1,-1],"split_conditions":[1E0,2.2E1,1E0,1.1E1,6E0,1E1,2E0,1.3E1,7E0,5E0,9E0,3E0,1.2E1,-6.672806E-2,-2.7294612E-1,-2.7355054E-1,1.4E1,6.849257E-2,1.2E1,1E0,8.436703E-2,-2.0132329E-1,-7.6507986E-2,2E0,9E0,3E0,1.9E1,-9.7069845E-2,-2.1051323E-1,-9.051952E-2,-2.4800673E-1,-1.9313483E-1,-1.743405E-2,1.2090893E-3,1.1504257E-2,-4.6127443E-3,3.5363436E-3,-1.2844652E-3,2.3034138E-3,-7.633295E-3,2.1966319E-3],"split_indices":[0,2,1,3,3,2,3,2,2,3,3,3,3,0,0,0,2,0,3,1,0,0,0,3,3,3,2,0,0,0,0,0,0,0,0,0,0,0,0,0,0],"split_type":[0,0,0,0,0,0,0,0,0,0,0,0,0,0,0,0,0,0,0,0,0,0,0,0,0,0,0,0,0,0,0,0,0,0,0,0,0,0,0,0,0],"sum_hessian":[7.152653E3,7.0374115E1,7.082279E3,6.1063435E1,9.31068E0,7.0694517E3,1.282704E1,5.0166706E1,1.0896729E1,4.2593927E0,5.0512877E0,2.0011088E3,5.0683433E3,2.8466403E0,9.980399E0,2.1409851E1,2.8756857E1,1.4405937E0,9.456136E0,2.9208474E0,1.3385451E0,2.031089E0,3.0201983E0,3.2843674E2,1.6726721E3,4.638875E3,4.294683E2,6.379137E0,2.237772E1,4.719887E0,4.736249E0,1.7999722E0,1.1208754E0,1.6958562E2,1.5885114E2,1.00957935E3,6.630927E2,8.3948975E2,3.799385E3,2.5591846E2,1.7354984E2],"tree_param":{"num_deleted":"0","num_feature":"4","num_nodes":"41","size_leaf_vector":"1"}},{"base_weights":[-4.484285E-3,-6.299542E-1,7.5272773E-4,-2.7046826E-1,-5.6298137E-1,1.9245605E-3,-7.348633E-1,3.623235E-2,-6.268977E-1,7.978593E-3,1.3471183E-3,-1.833551E-1,-2.6531416E-1,5.473791E-1,-4.382983E-1,-7.740642E-1,-4.0086475E-1,-2.234335E-2,7.983786E-2,2.7047303E-3,-6.840534E-3,-1.6020553E-2,-6.56651E-2,-2.8273316E-2,2.930341E-1,-1.7555287E-1,-2.0895112E-2,-2.699116E-1,-1.0496366E-1,-3.9973207E-2,-1.7294566E-1,6.1464316E-4,-3.691773E-2,2.6034666E-2,2.1595832E-2,5.6866813E-3,3.5686308E-4,-4.180122E-2,1.9068549E-3],"categories":[],"categories_nodes":[],"categories_segments":[],"categories_sizes":[],"default_left":[0,0,0,0,0,0,0,0,0,0,0,0,0,0,0,0,0,0,0,0,0,0,0,0,0,0,0,0,0,0,0,0,0,0,0,0,0,0,0],"id":18,"left_children":[1,3,5,-1,7,9,11,13,15,17,19,21,-1,23,25,27,29,31,33,35,37,-1,-1,-1,-1,-1,-1,-1,-1,-1,-1,-1,-1,-1,-1,-1,-1,-1,-1],"loss_changes":[2.3384348E1,5.7071495E-1,6.1049757E0,0E0,1.9459248E0,2.4705911E-2,7.666683E-1,1.6431857E0,1.2008972E0,1.3427917E0,7.177927E-2,5.2279383E-3,0E0,9.8193747E-1,1.5175807E-1,1.0943823E0,8.626523E-1,1.0654596E0,3.722906E-3,1.3634863E-1,1.6068847E0,0E0,0E0,0E0,0E0,0E0,0E0,0E0,0E0,0E0,0E0,0E0,0E0,0E0,0E0,0E0,0E0,0E0,0E0],"parents":[2147483647,0,0,1,1,2,2,4,4,5,5,6,6,7,7,8,8,9,9,10,10,11,11,13,13,14,14,15,15,16,16,17,17,18,18,19,19,20,20],"right_children":[2,4,6,-1,8,10,12,14,16,18,20,22,-1,24,26,28,30,32,34,36,38,-1,-1,-1,-1,-1,-1,-1,-1,-1,-1,-1,-1,-1,-1,-1,-1,-1,-1],"split_conditions":[1E0,3E0,1E0,-2.7046826E-1,4E0,2E0,2E0,1.4E1,1.5E1,1.9E1,2E1,1.1E1,-2.6531416E-1,1.2E1,1.7E1,1.1E1,1.7E1,1.8E1,2E1,3E0,3E0,-1.6020553E-2,-6.56651E-2,-2.8273316E-2,2.930341E-1,-1.7555287E-1,-2.0895112E-2,-2.699116E-1,-1.0496366E-1,-3.9973207E-2,-1.7294566E-1,6.1464316E-4,-3.691773E-2,2.6034666E-2,2.1595832E-2,5.6866813E-3,3.5686308E-4,-4.180122E-2,1.9068549E-3],"split_indices":[0,3,1,0,3,3,3,2,2,2,2,2,0,2,2,3,2,2,2,3,3,0,0,0,0,0,0,0,0,0,0,0,0,0,0,0,0,0,0],"split_type":[0,0,0,0,0,0,0,0,0,0,0,0,0,0,0,0,0,0,0,0,0,0,0,0,0,0,0,0,0,0,0,0,0,0,0,0,0,0,0],"sum_hessian":[7.1378193E3,5.8277676E1,7.0795415E3,9.062669E0,4.9215008E1,7.069278E3,1.0263942E1,4.785375E0,4.4429634E1,6.144482E2,6.4548296E3,2.663967E0,7.599975E0,2.2298968E0,2.5554783E0,2.5440903E1,1.8988731E1,4.3259726E2,1.8185094E2,5.537341E3,9.174886E2,1.1093508E0,1.5546161E0,1.2069536E0,1.022943E0,1.4073853E0,1.148093E0,1.8762535E1,6.6783676E0,8.22053E0,1.0768201E1,3.4904288E2,8.355439E1,9.1167076E1,9.068386E1,4.712731E2,5.066068E3,8.2239006E1,8.352496E2],"tree_param":{"num_deleted":"0","num_feature":"4","num_nodes":"39","size_leaf_vector":"1"}},{"base_weights":[-3.509073E-3,-5.6158155E-1,4.3939168E-4,-2.62322E-1,-4.9116966E-1,1.3436899E-3,-6.8126184E-1,2.4869336E-2,-5.5714405E-1,-1.1080424E-3,2.3118055E-3,-1.565177E-1,-2.5622886E-1,4.101601E-1,-3.956915E-1,-7.197027E-1,-3.3294186E-1,-3.5545002E-3,2.5408514E-2,3.3813918E-3,-9.221414E-3,-5.902968E-2,-9.664435E-3,-2.40658E-2,2.060281E-1,-1.6258976E-1,-1.7775394E-2,-2.6106727E-1,-8.643536E-2,-3.0557813E-2,-1.5126638E-1,-1.7616157E-4,-1.0341749E-2,4.9916245E-3,1.0267418E-2,4.851486E-5,2.177938E-3,-5.4596774E-3,1.2126667E-3],"categories":[],"categories_nodes":[],"categories_segments":[],"categories_sizes":[],"default_left":[0,0,0,0,0,0,0,0,0,0,0,0,0,0,0,0,0,0,0,0,0,0,0,0,0,0,0,0,0,0,0,0,0,0,0,0,0,0,0],"id":19,"left_children":[1,3,5,-1,7,9,11,13,15,17,19,21,-1,23,25,27,29,31,33,35,37,-1,-1,-1,-1,-1,-1,-1,-1,-1,-1,-1,-1,-1,-1,-1,-1,-1,-1],"loss_changes":[1.5705624E1,6.734791E-1,4.3644123E0,0E0,1.4831009E0,1.6783442E-2,7.169466E-1,1.1100882E0,1.1564941E0,1.2996857E-1,6.255923E-2,1.1412509E-2,0E0,5.3574437E-1,1.3056326E-1,1.1359062E0,6.5954363E-1,1.6822189E-1,1.251515E-2,5.7931725E-2,5.1329773E-2,0E0,0E0,0E0,0E0,0E0,0E0,0E0,0E0,0E0,0E0,0E0,0E0,0E0,0E0,0E0,0E0,0E0,0E0],"parents":[2147483647,0,0,1,1,2,2,4,4,5,5,6,6,7,7,8,8,9,9,10,10,11,11,13,13,14,14,15,15,16,16,17,17,18,18,19,19,20,20],"right_children":[2,4,6,-1,8,10,12,14,16,18,20,22,-1,24,26,28,30,32,34,36,38,-1,-1,-1,-1,-1,-1,-1,-1,-1,-1,-1,-1,-1,-1,-1,-1,-1,-1],"split_conditions":[1E0,3E0,1E0,-2.62322E-1,4E0,1E1,2E0,1.4E1,1.5E1,1.2E1,1.2E1,1.8E1,-2.5622886E-1,1.2E1,1.7E1,1.1E1,1.7E1,1.1E1,9E0,7E0,1.9E1,-5.902968E-2,-9.664435E-3,-2.40658E-2,2.060281E-1,-1.6258976E-1,-1.7775394E-2,-2.6106727E-1,-8.643536E-2,-3.0557813E-2,-1.5126638E-1,-1.7616157E-4,-1.0341749E-2,4.9916245E-3,1.0267418E-2,4.851486E-5,2.177938E-3,-5.4596774E-3,1.2126667E-3],"split_indices":[0,3,1,0,3,2,3,2,2,3,3,2,0,2,2,3,2,3,2,3,2,0,0,0,0,0,0,0,0,0,0,0,0,0,0,0,0,0,0],"split_type":[0,0,0,0,0,0,0,0,0,0,0,0,0,0,0,0,0,0,0,0,0,0,0,0,0,0,0,0,0,0,0,0,0,0,0,0,0,0,0],"sum_hessian":[7.126373E3,4.907397E1,7.077299E3,6.918428E0,4.215554E1,7.06892E3,8.379116E0,4.849185E0,3.7306355E1,2.0010807E3,5.0678394E3,2.5481737E0,5.830943E0,2.5436172E0,2.3055677E0,2.034504E1,1.6961317E1,1.8328455E3,1.6823515E2,4.6383843E3,4.2945517E2,1.484543E0,1.0636306E0,1.1733636E0,1.3702537E0,1.1811537E0,1.1244141E0,1.4330667E1,6.0143733E0,7.8990154E0,9.062301E0,1.6732751E3,1.5957036E2,8.578719E1,8.244796E1,2.53499E3,2.103394E3,2.5588618E2,1.73569E2],"tree_param":{"num_deleted":"0","num_feature":"4","num_nodes":"39","size_leaf_vector":"1"}},{"base_weights":[-2.75809E-3,-4.9245784E-1,2.3684921E-4,-2.5271642E-1,-4.211694E-1,9.409459E-4,-6.245544E-1,9.60901E-3,-4.8588076E-1,5.059747E-3,2.6163223E-4,-1.332067E-1,-2.4570301E-1,3.0509585E-1,-3.5734233E-1,-6.5896297E-1,-2.7165335E-1,1.346747E-2,1.167324E-3,-6.5985746E-3,1.617863E-3,-4.791579E-3,-5.2924883E-2,-2.0476839E-2,1.4698876E-1,-1.504144E-1,-1.5118403E-2,-2.5032723E-1,-7.0100546E-2,-1.5858087E-1,-3.0064862E-2,-5.8897114E-3,2.602193E-3,-1.3055305E-2,-9.847773E-4,2.0713995E-3,-3.1677942E-4],"categories":[],"categories_nodes":[],"categories_segments":[],"categories_sizes":[],"default_left":[0,0,0,0,0,0,0,0,0,0,0,0,0,0,0,0,0,0,0,0,0,0,0,0,0,0,0,0,0,0,0,0,0,0,0,0,0],"id":20,"left_children":[1,3,5,-1,7,9,11,13,15,17,19,21,-1,23,25,27,29,-1,31,33,35,-1,-1,-1,-1,-1,-1,-1,-1,-1,-1,-1,-1,-1,-1,-1,-1],"loss_changes":[1.0440955E1,7.2473717E-1,3.1137233E0,0E0,1.0625873E0,1.977949E-2,6.521578E-1,7.5276536E-1,1.0450964E0,1.5512526E-1,5.64848E-2,1.4675893E-2,0E0,2.976642E-1,1.1218098E-1,1.1153169E0,6.7186105E-1,0E0,1.4269131E-1,1.2253824E-1,7.1658276E-2,0E0,0E0,0E0,0E0,0E0,0E0,0E0,0E0,0E0,0E0,0E0,0E0,0E0,0E0,0E0,0E0],"parents":[2147483647,0,0,1,1,2,2,4,4,5,5,6,6,7,7,8,8,9,9,10,10,11,11,13,13,14,14,15,15,16,16,18,18,19,19,20,20],"right_children":[2,4,6,-1,8,10,12,14,16,18,20,22,-1,24,26,28,30,-1,32,34,36,-1,-1,-1,-1,-1,-1,-1,-1,-1,-1,-1,-1,-1,-1,-1,-1],"split_conditions":[1E0,3E0,1E0,-2.5271642E-1,4E0,9E0,2E0,1.4E1,1.5E1,2E0,1E1,1.1E1,-2.4570301E-1,1.2E1,1.7E1,1.1E1,7E0,1.346747E-2,5E0,2E0,5E0,-4.791579E-3,-5.2924883E-2,-2.0476839E-2,1.4698876E-1,-1.504144E-1,-1.5118403E-2,-2.5032723E-1,-7.0100546E-2,-1.5858087E-1,-3.0064862E-2,-5.8897114E-3,2.602193E-3,-1.3055305E-2,-9.847773E-4,2.0713995E-3,-3.1677942E-4],"split_indices":[0,3,1,0,3,2,3,2,2,3,2,2,0,2,2,3,3,0,3,3,3,0,0,0,0,0,0,0,0,0,0,0,0,0,0,0,0],"split_type":[0,0,0,0,0,0,0,0,0,0,0,0,0,0,0,0,0,0,0,0,0,0,0,0,0,0,0,0,0,0,0,0,0,0,0,0,0],"sum_hessian":[7.117975E3,4.2274536E1,7.0757007E3,5.3240433E0,3.6950493E1,7.068733E3,6.967481E0,4.9369717E0,3.201352E1,9.9987317E2,6.06886E3,2.4533687E0,4.5141125E0,2.8281643E0,2.1088076E0,1.6558945E1,1.5454576E1,8.807312E1,9.1180005E2,1.0011068E3,5.067753E3,1.0295815E0,1.4237872E0,1.1455079E0,1.6826563E0,1.0041536E0,1.104654E0,1.1041593E1,5.5173526E0,5.351059E0,1.0103517E1,2.4137485E2,6.704252E2,8.1507256E1,9.1959955E2,1.7016185E3,3.3661345E3],"tree_param":{"num_deleted":"0","num_feature":"4","num_nodes":"37","size_leaf_vector":"1"}},{"base_weights":[-2.1882793E-3,-4.260005E-1,1.04652674E-4,-2.4170636E-1,-3.563963E-1,6.584325E-4,-5.667294E-1,-5.787157E-1,-2.279744E-1,2.2532507E-3,-5.1305216E-4,-1.13076836E-1,-2.3387657E-1,-2.2716248E-1,-2.5319988E-1,2.6410824E-1,-3.3572334E-1,-1.37320645E-2,3.756969E-3,1.6608182E-2,-2.1624034E-3,-4.0739E-3,-4.520114E-2,-1.625053E-1,8.634263E-2,2.6623285E-1,-1.0630165E-1,-1.3500938E-1,-1.1949461E-3,9.486446E-3,-1.1229391E-2,4.501405E-3,-8.129406E-5,-6.678693E-3,1.6229663E-2,-3.2856597E-3,8.647231E-4],"categories":[],"categories_nodes":[],"categories_segments":[],"categories_sizes":[],"default_left":[0,0,0,0,0,0,0,0,0,0,0,0,0,0,0,0,0,0,0,0,0,0,0,0,0,0,0,0,0,0,0,0,0,0,0,0,0],"id":21,"left_children":[1,3,5,-1,7,9,11,13,15,17,19,21,-1,23,-1,25,27,29,31,33,35,-1,-1,-1,-1,-1,-1,-1,-1,-1,-1,-1,-1,-1,-1,-1,-1],"loss_changes":[6.9119453E0,7.243686E-1,2.2213497E0,0E0,8.427391E-1,1.3209123E-2,5.7880163E-1,9.1338134E-1,1.3234683E0,7.201962E-2,1.15151644E-1,1.0579679E-2,0E0,1.2029425E0,0E0,2.1429167E0,7.3938775E-1,2.781076E-1,1.2402076E-1,5.233659E-1,1.6495065E-1,0E0,0E0,0E0,0E0,0E0,0E0,0E0,0E0,0E0,0E0,0E0,0E0,0E0,0E0,0E0,0E0],"parents":[2147483647,0,0,1,1,2,2,4,4,5,5,6,6,7,7,8,8,9,9,10,10,11,11,13,13,15,15,16,16,17,17,18,18,19,19,20,20],"right_children":[2,4,6,-1,8,10,12,14,16,18,20,22,-1,24,-1,26,28,30,32,34,36,-1,-1,-1,-1,-1,-1,-1,-1,-1,-1,-1,-1,-1,-1,-1,-1],"split_conditions":[1E0,3E0,1E0,-2.4170636E-1,1.3E1,1.1E1,2E0,8E0,1.4E1,2E0,2E0,1.1E1,-2.3387657E-1,1.1E1,-2.5319988E-1,6E0,2.2E1,9E0,5E0,1.9E1,6E0,-4.0739E-3,-4.520114E-2,-1.625053E-1,8.634263E-2,2.6623285E-1,-1.0630165E-1,-1.3500938E-1,-1.1949461E-3,9.486446E-3,-1.1229391E-2,4.501405E-3,-8.129406E-5,-6.678693E-3,1.6229663E-2,-3.2856597E-3,8.647231E-4],"split_indices":[0,3,1,0,2,2,3,2,2,3,3,2,0,3,0,3,2,2,3,2,3,0,0,0,0,0,0,0,0,0,0,0,0,0,0,0,0],"split_type":[0,0,0,0,0,0,0,0,0,0,0,0,0,0,0,0,0,0,0,0,0,0,0,0,0,0,0,0,0,0,0,0,0,0,0,0,0],"sum_hessian":[7.111673E3,3.727454E1,7.0743984E3,4.1362495E0,3.313829E1,7.0684917E3,5.9068646E0,1.0849558E1,2.2288734E1,2.9930012E3,4.0754905E3,2.3754506E0,3.531414E0,5.464424E0,5.385134E0,3.7430975E0,1.8545637E1,2.5664096E2,2.73636E3,3.5731204E2,3.7181785E3,1.0246868E0,1.3507639E0,3.3602548E0,2.1041691E0,1.6475619E0,2.0955355E0,1.3527784E1,5.017852E0,8.796564E1,1.6867531E2,7.2081604E2,2.0155442E3,1.7562724E2,1.8168478E2,1.3554131E3,2.3627654E3],"tree_param":{"num_deleted":"0","num_feature":"4","num_nodes":"37","size_leaf_vector":"1"}},{"base_weights":[-1.7331869E-3,-3.6212733E-1,2.1919894E-5,-2.2947745E-1,-2.9566315E-1,4.624354E-4,-5.098769E-1,-5.166888E-1,-1.7770211E-1,-1.5294462E-3,1.2489827E-3,-9.596169E-2,-2.2101708E-1,-1.8766688E-1,-2.4224296E-1,-9.016411E-2,-2.0344481E-1,-6.1605647E-3,7.811124E-3,7.839794E-3,-3.571865E-4,-3.4636853E-3,-3.855626E-2,-1.4451686E-1,6.4097546E-2,8.135775E-2,-5.721671E-2,2.8823572E-4,-8.059776E-3,1.1706649E-2,-1.0162803E-3,-8.906157E-3,4.548129E-3,2.461053E-4,-3.9196187E-3],"categories":[],"categories_nodes":[],"categories_segments":[],"categories_sizes":[],"default_left":[0,0,0,0,0,0,0,0,0,0,0,0,0,0,0,0,0,0,0,0,0,0,0,0,0,0,0,0,0,0,0,0,0,0,0],"id":22,"left_children":[1,3,5,-1,7,9,11,13,15,17,19,21,-1,23,-1,25,-1,27,29,31,33,-1,-1,-1,-1,-1,-1,-1,-1,-1,-1,-1,-1,-1,-1],"loss_changes":[4.495846E0,6.9603014E-1,1.5892438E0,0E0,7.2158456E-1,1.1077213E-2,5.0274694E-1,8.369856E-1,8.967534E-1,8.66345E-2,5.3657632E-2,7.618958E-3,0E0,8.287125E-1,0E0,7.698861E-1,0E0,1.9742313E-1,2.3218812E-1,2.7330226E-1,6.1009984E-2,0E0,0E0,0E0,0E0,0E0,0E0,0E0,0E0,0E0,0E0,0E0,0E0,0E0,0E0],"parents":[2147483647,0,0,1,1,2,2,4,4,5,5,6,6,7,7,8,8,9,9,10,10,11,11,13,13,15,15,17,17,18,18,19,19,20,20],"right_children":[2,4,6,-1,8,10,12,14,16,18,20,22,-1,24,-1,26,-1,28,30,32,34,-1,-1,-1,-1,-1,-1,-1,-1,-1,-1,-1,-1,-1,-1],"split_conditions":[1E0,3E0,1E0,-2.2947745E-1,1.3E1,1E1,2E0,8E0,1.2E1,9E0,1.1E1,1.1E1,-2.2101708E-1,1.1E1,-2.4224296E-1,1.4E1,-2.0344481E-1,7E0,1E1,3E0,1.2E1,-3.4636853E-3,-3.855626E-2,-1.4451686E-1,6.4097546E-2,8.135775E-2,-5.721671E-2,2.8823572E-4,-8.059776E-3,1.1706649E-2,-1.0162803E-3,-8.906157E-3,4.548129E-3,2.461053E-4,-3.9196187E-3],"split_indices":[0,3,1,0,2,2,3,2,3,3,2,2,0,3,0,2,0,3,3,3,3,0,0,0,0,0,0,0,0,0,0,0,0,0,0],"split_type":[0,0,0,0,0,0,0,0,0,0,0,0,0,0,0,0,0,0,0,0,0,0,0,0,0,0,0,0,0,0,0,0,0,0,0],"sum_hessian":[7.106704E3,3.3446575E1,7.073258E3,3.2488039E0,3.0197771E1,7.0681504E3,5.107275E0,9.332025E0,2.0865746E1,2.0006602E3,5.06749E3,2.311899E0,2.7953763E0,5.1501174E0,4.181907E0,1.8763763E1,2.101982E0,1.33774E3,6.6292017E2,9.9219617E2,4.0752942E3,1.0205433E0,1.2913557E0,2.8566706E0,2.293447E0,3.7154403E0,1.5048323E1,9.96098E2,3.4164197E2,1.7439467E2,4.8852548E2,1.6146095E2,8.307352E2,3.7305576E3,3.447365E2],"tree_param":{"num_deleted":"0","num_feature":"4","num_nodes":"35","size_leaf_vector":"1"}},{"base_weights":[-1.4061702E-3,-3.0769047E-1,-3.1556934E-5,-2.1633604E-1,-2.463345E-1,3.231085E-4,-4.5577207E-1,7.919209E-2,-3.0978444E-1,2.253713E-3,-6.396303E-4,-8.1429005E-2,-2.0749035E-1,2.915479E-1,-7.6792076E-2,-5.17316E-1,-9.0949625E-2,-9.515995E-4,2.0974223E-2,1.5498729E-3,-1.3960468E-2,-2.9448625E-3,-3.2858085E-2,-3.7274264E-2,1.6381124E-1,-2.2324103E-1,-3.283159E-2,5.2329816E-2,-9.702154E-2,2.3108462E-3,-5.2867057E-3,-5.1074466E-3,4.122821E-2,-1.2143645E-3,3.7611509E-3,-1.4575053E-2,6.427926E-3],"categories":[],"categories_nodes":[],"categories_segments":[],"categories_sizes":[],"default_left":[0,0,0,0,0,0,0,0,0,0,0,0,0,0,0,0,0,0,0,0,0,0,0,0,0,0,0,0,0,0,0,0,0,0,0,0,0],"id":23,"left_children":[1,3,5,-1,7,9,11,13,15,17,19,21,-1,23,-1,25,27,29,31,33,35,-1,-1,-1,-1,-1,-1,-1,-1,-1,-1,-1,-1,-1,-1,-1,-1],"loss_changes":[2.9909966E0,6.2751937E-1,1.1434605E0,0E0,6.267817E-1,1.3140191E-2,4.293902E-1,4.69837E-1,1.0704064E0,1.411728E-1,1.3761404E-1,5.4840893E-3,0E0,4.7698933E-1,0E0,1.0671856E0,8.700885E-1,2.900458E-1,1.5242697E0,2.4929704E-1,8.1708616E-1,0E0,0E0,0E0,0E0,0E0,0E0,0E0,0E0,0E0,0E0,0E0,0E0,0E0,0E0,0E0,0E0],"parents":[2147483647,0,0,1,1,2,2,4,4,5,5,6,6,7,7,8,8,9,9,10,10,11,11,13,13,15,15,16,16,17,17,18,18,19,19,20,20],"right_children":[2,4,6,-1,8,10,12,14,16,18,20,22,-1,24,-1,26,28,30,32,34,36,-1,-1,-1,-1,-1,-1,-1,-1,-1,-1,-1,-1,-1,-1,-1,-1],"split_conditions":[1E0,3E0,1E0,-2.1633604E-1,4E0,5E0,2E0,1.4E1,1.5E1,2E1,2E1,1.1E1,-2.0749035E-1,1.3E1,-7.6792076E-2,1.1E1,1.7E1,1.8E1,4E0,1.8E1,9E0,-2.9448625E-3,-3.2858085E-2,-3.7274264E-2,1.6381124E-1,-2.2324103E-1,-3.283159E-2,5.2329816E-2,-9.702154E-2,2.3108462E-3,-5.2867057E-3,-5.1074466E-3,4.122821E-2,-1.2143645E-3,3.7611509E-3,-1.4575053E-2,6.427926E-3],"split_indices":[0,3,1,0,3,3,3,2,2,2,2,2,0,2,0,3,2,2,3,2,3,0,0,0,0,0,0,0,0,0,0,0,0,0,0,0,0],"split_type":[0,0,0,0,0,0,0,0,0,0,0,0,0,0,0,0,0,0,0,0,0,0,0,0,0,0,0,0,0,0,0,0,0,0,0,0,0],"sum_hessian":[7.103149E3,3.074108E1,7.0724077E3,2.5830276E0,2.8158052E1,7.0679067E3,4.5010805E0,4.5526786E0,2.3605373E1,2.351348E3,4.7165586E3,2.2597747E0,2.2413056E0,2.8665893E0,1.686089E0,1.1415528E1,1.2189846E1,2.0084172E3,3.4293063E2,4.0515088E3,6.650498E2,1.0170337E0,1.2427411E0,1.2826769E0,1.5839125E0,6.80619E0,4.6093383E0,5.8083563E0,6.3814898E0,1.322431E3,6.859862E2,2.59205E2,8.372565E1,2.6844697E3,1.3670391E3,3.3596445E2,3.290854E2],"tree_param":{"num_deleted":"0","num_feature":"4","num_nodes":"37","size_leaf_vector":"1"}},{"base_weights":[-1.1267706E-3,-3.604695E-4,-4.0543738E-1,-1.976368E-1,2.3027112E-4,-1.054476E-1,-5.4871833E-1,-1.0075612E-1,-2.0865165E-1,1.1265633E-3,-2.45614E-3,-1.5120524E-1,9.324425E-2,-2.504036E-1,-2.337827E-1,-2.549219E-1,1.7358322E-1,-5.1240815E-4,5.2006026E-3,2.9892821E-3,-1.5318237E-2,9.119613E-2,-2.5027042E-2,-5.0498855E-1,9.18902E-2,-1.2168159E-1,-5.480474E-4,8.5594086E-4,-2.146514E-3,-2.1361483E-3,9.120245E-3,-7.781611E-4,3.3107244E-3,-7.031814E-3,3.5239133E-4,-1.7946672E-2,-1.9700293E-1],"categories":[],"categories_nodes":[],"categories_segments":[],"categories_sizes":[],"default_left":[0,0,0,0,0,0,0,0,0,0,0,0,0,0,0,0,0,0,0,0,0,0,0,0,0,0,0,0,0,0,0,0,0,0,0,0,0],"id":24,"left_children":[1,3,5,7,9,11,13,15,-1,17,19,-1,21,23,-1,25,-1,27,29,31,33,-1,-1,35,-1,-1,-1,-1,-1,-1,-1,-1,-1,-1,-1,-1,-1],"loss_changes":[2.2000275E0,8.2618463E-1,5.1953053E-1,9.508172E-1,1.702303E-2,4.8888636E-1,4.1377354E-1,2.1256535E0,0E0,3.5399027E-2,1.2392646E-1,0E0,1.9541554E-1,9.105052E-1,0E0,6.1281395E-1,0E0,8.4552705E-2,4.7243997E-1,5.589101E-2,7.0514776E-2,0E0,0E0,2.3331904E-1,0E0,0E0,0E0,0E0,0E0,0E0,0E0,0E0,0E0,0E0,0E0,0E0,0E0],"parents":[2147483647,0,0,1,1,2,2,3,3,4,4,5,5,6,6,7,7,9,9,10,10,12,12,13,13,15,15,17,17,18,18,19,19,20,20,23,23],"right_children":[2,4,6,8,10,12,14,16,-1,18,20,-1,22,24,-1,26,-1,28,30,32,34,-1,-1,36,-1,-1,-1,-1,-1,-1,-1,-1,-1,-1,-1,-1,-1],"split_conditions":[1E0,1E0,4E0,1.2E1,1E1,1E1,1.6E1,1.1E1,-2.0865165E-1,1.9E1,1.9E1,-1.5120524E-1,1.4E1,1.4E1,-2.337827E-1,1.6E1,1.7358322E-1,7E0,7E0,1.1E1,1.2E1,9.119613E-2,-2.5027042E-2,8E0,9.18902E-2,-1.2168159E-1,-5.480474E-4,8.5594086E-4,-2.146514E-3,-2.1361483E-3,9.120245E-3,-7.781611E-4,3.3107244E-3,-7.031814E-3,3.5239133E-4,-1.7946672E-2,-1.9700293E-1],"split_indices":[1,0,3,3,3,2,2,3,0,2,2,0,2,2,0,2,0,3,3,2,3,0,0,2,0,0,0,0,0,0,0,0,0,0,0,0,0],"split_type":[0,0,0,0,0,0,0,0,0,0,0,0,0,0,0,0,0,0,0,0,0,0,0,0,0,0,0,0,0,0,0,0,0,0,0,0,0],"sum_hessian":[7.1003745E3,7.0879414E3,1.243308E1,2.0165503E1,7.067776E3,4.579936E0,7.8531437E0,1.7887194E1,2.278309E0,5.3000513E3,1.7677245E3,1.0124042E0,3.5675318E0,4.332921E0,3.5202227E0,1.5088085E1,2.799109E0,3.7801748E3,1.5198765E3,1.2424685E3,5.252559E2,1.298231E0,2.269301E0,3.036983E0,1.295938E0,9.079757E0,6.008328E0,2.5093591E3,1.2708158E3,1.02126746E3,4.9860904E2,7.3391144E2,5.0855707E2,3.516709E2,1.73585E2,1.1262108E0,1.9107721E0],"tree_param":{"num_deleted":"0","num_feature":"4","num_nodes":"37","size_leaf_vector":"1"}},{"base_weights":[-9.156498E-4,-2.9620822E-4,-3.5524392E-1,-1.6024049E-1,1.6144969E-4,-9.338034E-2,-4.9306974E-1,-7.563805E-2,-1.9485226E-1,4.7741365E-3,-2.7777583E-4,-7.543613E-2,5.885742E-2,-2.155376E-1,-2.2089729E-1,-2.6173356E-1,2.497547E-1,-1.2211832E-2,4.5026377E-2,1.4232111E-3,-4.466775E-3,-4.5623806E-1,7.170371E-2,-1.7105609E-1,-5.14505E-2,-2.9982757E-3,1.3255288E-1,1.1211402E-3,-2.3461794E-2,1.5022799E-2,1.1838005E-2,-1.2904637E-4,2.6062732E-3,-4.7532837E-3,1.4613064E-3,-1.5263841E-2,-1.8328883E-1],"categories":[],"categories_nodes":[],"categories_segments":[],"categories_sizes":[],"default_left":[0,0,0,0,0,0,0,0,0,0,0,0,0,0,0,0,0,0,0,0,0,0,0,0,0,0,0,0,0,0,0,0,0,0,0,0,0],"id":25,"left_children":[1,3,5,7,9,11,13,15,-1,17,19,-1,-1,21,-1,23,25,27,29,31,33,35,-1,-1,-1,-1,-1,-1,-1,-1,-1,-1,-1,-1,-1,-1,-1],"loss_changes":[1.5581187E0,5.18869E-1,4.010893E-1,7.880322E-1,1.4322826E-2,3.013488E-1,3.7349224E-1,1.1780381E0,0E0,4.2079037E-1,4.600234E-2,0E0,0E0,6.666024E-1,0E0,2.4114716E-1,3.635097E-1,4.560659E-1,3.1568706E-3,6.1824627E-2,1.9815826E-1,1.9943893E-1,0E0,0E0,0E0,0E0,0E0,0E0,0E0,0E0,0E0,0E0,0E0,0E0,0E0,0E0,0E0],"parents":[2147483647,0,0,1,1,2,2,3,3,4,4,5,5,6,6,7,7,9,9,10,10,13,13,15,15,16,16,17,17,18,18,19,19,20,20,21,21],"right_children":[2,4,6,8,10,12,14,16,-1,18,20,-1,-1,22,-1,24,26,28,30,32,34,36,-1,-1,-1,-1,-1,-1,-1,-1,-1,-1,-1,-1,-1,-1,-1],"split_conditions":[1E0,1E0,4E0,1.2E1,2E0,1.8E1,1.6E1,9E0,-1.9485226E-1,1.9E1,1.9E1,-7.543613E-2,5.885742E-2,1.4E1,-2.2089729E-1,3E0,1.5E1,1.8E1,2E1,1.8E1,7E0,8E0,7.170371E-2,-1.7105609E-1,-5.14505E-2,-2.9982757E-3,1.3255288E-1,1.1211402E-3,-2.3461794E-2,1.5022799E-2,1.1838005E-2,-1.2904637E-4,2.6062732E-3,-4.7532837E-3,1.4613064E-3,-1.5263841E-2,-1.8328883E-1],"split_indices":[1,0,3,3,3,2,2,3,0,2,2,0,0,2,0,3,2,2,2,2,3,2,0,0,0,0,0,0,0,0,0,0,0,0,0,0,0],"split_type":[0,0,0,0,0,0,0,0,0,0,0,0,0,0,0,0,0,0,0,0,0,0,0,0,0,0,0,0,0,0,0,0,0,0,0,0,0],"sum_hessian":[7.0984336E3,7.0870444E3,1.1388833E1,1.9224577E1,7.06782E3,4.505702E0,6.883131E0,1.737478E1,1.8497951E0,6.136353E2,6.4541846E3,2.9997911E0,1.5059109E0,4.096005E0,2.7871258E0,1.1177748E1,6.197033E0,4.3202325E2,1.8161208E2,4.5907305E3,1.863454E3,2.6755118E0,1.4204932E0,1.3259447E0,9.851803E0,3.0375345E0,3.1594985E0,3.4869635E2,8.332692E1,9.103341E1,9.057867E1,3.65832E3,9.3241046E2,8.396716E2,1.0237825E3,1.1062139E0,1.5692979E0],"tree_param":{"num_deleted":"0","num_feature":"4","num_nodes":"37","size_leaf_vector":"1"}},{"base_weights":[-7.602035E-4,-2.607258E-4,-3.0752984E-1,-1.3494007E-1,1.1340076E-4,-7.201578E-2,-4.4157982E-1,-2.1745966E-1,2.376943E-1,9.726664E-4,-2.4618013E-3,-2.2103915E-1,5.4732785E-2,-1.8780622E-1,-2.073542E-1,-1.1816555E-1,-1.954865E-1,1.213318E-1,9.9335E-3,-3.2046583E-4,4.187334E-3,1.6589306E-3,-1.2194066E-2,-6.4035715E-3,-8.62823E-2,-4.8889157E-1,1.4721553E-1,-1.1032224E-2,-1.6639143E-1,6.8004814E-4,-1.6279777E-3,-1.040539E-3,5.953356E-3,2.9406836E-3,-1.0414616E-4,-5.365586E-3,-1.8860235E-4,-1.298014E-2,-1.9370237E-1],"categories":[],"categories_nodes":[],"categories_segments":[],"categories_sizes":[],"default_left":[0,0,0,0,0,0,0,0,0,0,0,0,0,0,0,0,0,0,0,0,0,0,0,0,0,0,0,0,0,0,0,0,0,0,0,0,0,0,0],"id":26,"left_children":[1,3,5,7,9,11,13,15,17,19,21,23,-1,25,-1,27,-1,-1,-1,29,31,33,35,-1,-1,37,-1,-1,-1,-1,-1,-1,-1,-1,-1,-1,-1,-1,-1],"loss_changes":[1.0874597E0,3.5711628E-1,3.3242083E-1,6.554192E-1,1.5643483E-2,2.4431954E-1,3.235438E-1,6.384653E-1,1.243359E-1,2.2036584E-2,7.095416E-2,4.497108E-2,0E0,1.2454476E0,0E0,5.028439E-1,0E0,0E0,0E0,4.996444E-2,1.8234988E-1,2.0317411E-2,3.4627393E-2,0E0,0E0,2.4525225E-1,0E0,0E0,0E0,0E0,0E0,0E0,0E0,0E0,0E0,0E0,0E0,0E0,0E0],"parents":[2147483647,0,0,1,1,2,2,3,3,4,4,5,5,6,6,7,7,8,8,9,9,10,10,11,11,13,13,15,15,19,19,20,20,21,21,22,22,25,25],"right_children":[2,4,6,8,10,12,14,16,18,20,22,24,-1,26,-1,28,-1,-1,-1,30,32,34,36,-1,-1,38,-1,-1,-1,-1,-1,-1,-1,-1,-1,-1,-1,-1,-1],"split_conditions":[1E0,1E0,4E0,2.2E1,1E1,3E0,1.6E1,1.7E1,6E0,1.9E1,1.9E1,1.1E1,5.4732785E-2,1.5E1,-2.073542E-1,1.2E1,-1.954865E-1,1.213318E-1,9.9335E-3,7E0,7E0,9E0,1.2E1,-6.4035715E-3,-8.62823E-2,8E0,1.4721553E-1,-1.1032224E-2,-1.6639143E-1,6.8004814E-4,-1.6279777E-3,-1.040539E-3,5.953356E-3,2.9406836E-3,-1.0414616E-4,-5.365586E-3,-1.8860235E-4,-1.298014E-2,-1.9370237E-1],"split_indices":[1,0,3,2,3,3,2,2,3,2,2,2,0,2,0,3,0,0,0,3,3,2,3,0,0,2,0,0,0,0,0,0,0,0,0,0,0,0,0],"split_type":[0,0,0,0,0,0,0,0,0,0,0,0,0,0,0,0,0,0,0,0,0,0,0,0,0,0,0,0,0,0,0,0,0,0,0,0,0,0,0],"sum_hessian":[7.0966855E3,7.086149E3,1.0536711E1,1.8633734E1,7.067515E3,4.379516E0,6.1571946E0,1.5596358E1,3.0373757E0,5.299768E3,1.7677472E3,2.8447974E0,1.5347188E0,3.9220266E0,2.235168E0,1.3728728E1,1.8676307E0,1.1352174E0,1.9021584E0,3.7800894E3,1.5196785E3,1.2424934E3,5.252537E2,1.0414073E0,1.80339E0,2.910163E0,1.0118637E0,1.2484859E1,1.2438686E0,2.5092163E3,1.270873E3,1.02115106E3,4.9852747E2,2.448167E2,9.976767E2,3.5165918E2,1.7359457E2,1.0894854E0,1.8206776E0],"tree_param":{"num_deleted":"0","num_feature":"4","num_nodes":"39","size_leaf_vector":"1"}},{"base_weights":[-6.3107593E-4,-2.2476025E-4,-2.653502E-1,-1.1261479E-1,7.9603546E-5,-5.9883635E-2,-3.9113596E-1,-4.7041696E-2,-1.7056657E-1,1.8779868E-3,-8.170499E-4,-6.268555E-2,5.621506E-2,-1.5800594E-1,-1.9356342E-1,-1.674279E-1,3.5550895E-1,-1.1318841E-2,6.9250613E-3,9.343563E-4,-1.1472389E-2,-4.4102395E-1,1.14196874E-1,-1.428101E-1,-1.54003985E-2,1.37978E-1,-2.526288E-4,1.2062386E-3,-1.7301962E-2,9.5005016E-5,7.863122E-3,1.8590598E-3,-1.3221827E-3,-1.1526563E-2,4.820312E-3,-1.1036924E-2,-1.8005657E-1],"categories":[],"categories_nodes":[],"categories_segments":[],"categories_sizes":[],"default_left":[0,0,0,0,0,0,0,0,0,0,0,0,0,0,0,0,0,0,0,0,0,0,0,0,0,0,0,0,0,0,0,0,0,0,0,0,0],"id":27,"left_children":[1,3,5,7,9,11,13,15,-1,17,19,-1,-1,21,-1,23,25,27,29,31,33,35,-1,-1,-1,-1,-1,-1,-1,-1,-1,-1,-1,-1,-1,-1,-1],"loss_changes":[7.6323724E-1,2.4242459E-1,2.5763512E-1,5.4549694E-1,1.1399664E-2,2.3488854E-1,2.8689003E-1,9.232905E-1,0E0,1.5673612E-1,8.8047184E-2,0E0,0E0,8.91672E-1,0E0,4.9148583E-1,1.6497976E-1,4.6317068E-1,2.1689945E-1,1.1394308E-1,4.9493095E-1,2.0797795E-1,0E0,0E0,0E0,0E0,0E0,0E0,0E0,0E0,0E0,0E0,0E0,0E0,0E0,0E0,0E0],"parents":[2147483647,0,0,1,1,2,2,3,3,4,4,5,5,6,6,7,7,9,9,10,10,13,13,15,15,16,16,17,17,18,18,19,19,20,20,21,21],"right_children":[2,4,6,8,10,12,14,16,-1,18,20,-1,-1,22,-1,24,26,28,30,32,34,36,-1,-1,-1,-1,-1,-1,-1,-1,-1,-1,-1,-1,-1,-1,-1],"split_conditions":[1E0,1E0,4E0,1.2E1,5E0,1.8E1,1.6E1,1.1E1,-1.7056657E-1,1E1,2E1,-6.268555E-2,5.621506E-2,1.5E1,-1.9356342E-1,1.3E1,1.6E1,4E0,4E0,9E0,9E0,8E0,1.14196874E-1,-1.428101E-1,-1.54003985E-2,1.37978E-1,-2.526288E-4,1.2062386E-3,-1.7301962E-2,9.5005016E-5,7.863122E-3,1.8590598E-3,-1.3221827E-3,-1.1526563E-2,4.820312E-3,-1.1036924E-2,-1.8005657E-1],"split_indices":[1,0,3,3,3,2,2,3,0,2,2,0,0,2,0,2,2,3,3,3,3,2,0,0,0,0,0,0,0,0,0,0,0,0,0,0,0],"split_type":[0,0,0,0,0,0,0,0,0,0,0,0,0,0,0,0,0,0,0,0,0,0,0,0,0,0,0,0,0,0,0,0,0,0,0,0,0],"sum_hessian":[7.0955063E3,7.0856313E3,9.874841E0,1.8140203E1,7.067491E3,4.3102603E0,5.5645804E0,1.6823792E1,1.316413E0,2.3510288E3,4.7164624E3,2.7857752E0,1.5244855E0,3.7477095E0,1.816871E0,1.3400376E1,3.4234142E0,6.500553E2,1.7009735E3,4.0514436E3,6.650189E2,2.575683E0,1.1720265E0,2.8155296E0,1.05848465E1,2.4228241E0,1.0005901E0,4.891113E2,1.6094398E2,1.2676223E3,4.333511E2,2.040756E3,2.0106876E3,3.359138E2,3.2910513E2,1.0754584E0,1.5002246E0],"tree_param":{"num_deleted":"0","num_feature":"4","num_nodes":"37","size_leaf_vector":"1"}},{"base_weights":[-5.297856E-4,-1.9637914E-4,-2.2858763E-1,-3.183114E-4,2.0877384E-1,-4.5292895E-2,-3.477113E-1,-1.0581143E-4,-1.8029906E-1,8.401815E-3,1.05712146E-1,-1.8009287E-1,4.9043447E-2,-1.3669008E-1,-1.7992017E-1,-6.061747E-2,-3.4357785E-5,-2.5140315E-3,-7.2891586E-2,-3.973541E-1,8.883063E-2,8.642562E-2,-3.873426E-5,-1.6762935E-1,-7.5879404E-3],"categories":[],"categories_nodes":[],"categories_segments":[],"categories_sizes":[],"default_left":[0,0,0,0,0,0,0,0,0,0,0,0,0,0,0,0,0,0,0,0,0,0,0,0,0],"id":28,"left_children":[1,3,5,7,9,11,13,15,-1,-1,-1,17,-1,19,-1,-1,21,-1,-1,23,-1,-1,-1,-1,-1],"loss_changes":[5.394613E-1,1.8062052E-1,2.1039456E-1,9.040297E-1,9.743658E-2,1.7661005E-1,2.4390113E-1,1.0217955E-1,0E0,0E0,0E0,3.741117E-2,0E0,6.40016E-1,0E0,0E0,1.9332719E-1,0E0,0E0,1.8505585E-1,0E0,0E0,0E0,0E0,0E0],"parents":[2147483647,0,0,1,1,2,2,3,3,4,4,5,5,6,6,7,7,11,11,13,13,16,16,19,19],"right_children":[2,4,6,8,10,12,14,16,-1,-1,-1,18,-1,20,-1,-1,22,-1,-1,24,-1,-1,-1,-1,-1],"split_conditions":[1E0,2.2E1,4E0,2.1E1,9E0,3E0,1.6E1,7E0,-1.8029906E-1,8.401815E-3,1.05712146E-1,1.2E1,4.9043447E-2,1.5E1,-1.7992017E-1,-6.061747E-2,8E0,-2.5140315E-3,-7.2891586E-2,1.1E1,8.883063E-2,8.642562E-2,-3.873426E-5,-1.6762935E-1,-7.5879404E-3],"split_indices":[1,2,3,2,3,3,2,2,0,0,0,2,0,2,0,0,2,0,0,3,0,0,0,0,0],"split_type":[0,0,0,0,0,0,0,0,0,0,0,0,0,0,0,0,0,0,0,0,0,0,0,0,0],"sum_hessian":[7.0944097E3,7.0850527E3,9.357046E0,7.081919E3,3.133759E0,4.229446E0,5.1276007E0,7.0804146E3,1.5046372E0,1.9163857E0,1.2173734E0,2.653495E0,1.5759507E0,3.6302912E0,1.4973094E0,1.5044492E0,7.0789097E3,1.0149906E0,1.6385045E0,2.3168006E0,1.3134906E0,1.3281134E0,7.077582E3,1.2658366E0,1.0509639E0],"tree_param":{"num_deleted":"0","num_feature":"4","num_nodes":"25","size_leaf_vector":"1"}},{"base_weights":[-4.3039848E-4,-1.485438E-4,-2.0029682E-1,-9.1244414E-2,9.2348E-5,-3.820503E-2,-3.108408E-1,-3.3489686E-2,-1.5830906E-1,1.7098597E-3,-1.0958023E-3,-5.2753452E-2,5.1716235E-2,-1.7105159E-1,-1.066285E-1,-3.0906564E-1,9.369249E-2,7.698095E-5,1.932956E-2,1.3850424E-2,-2.5340628E-3,8.452842E-2,-3.6252612E-1,3.423173E-2,-2.0620878E-1,1.7140912E-1,-6.8145706E-3,8.004447E-4,-3.6213805E-3,3.227127E-3,7.0914053E-3,-1.7083881E-3,9.800488E-3,-2.9819596E-3,-2.6679747E-5,-4.028418E-3,-1.5782967E-1],"categories":[],"categories_nodes":[],"categories_segments":[],"categories_sizes":[],"default_left":[0,0,0,0,0,0,0,0,0,0,0,0,0,0,0,0,0,0,0,0,0,0,0,0,0,0,0,0,0,0,0,0,0,0,0,0,0],"id":29,"left_children":[1,3,5,7,9,11,13,15,-1,17,19,-1,-1,-1,21,23,25,27,29,31,33,-1,35,-1,-1,-1,-1,-1,-1,-1,-1,-1,-1,-1,-1,-1,-1],"loss_changes":[3.9965373E-1,1.5550509E-1,1.6713887E-1,4.5344022E-1,1.3586062E-2,1.8077832E-1,2.463448E-1,6.4487046E-1,0E0,8.612963E-2,8.764658E-2,0E0,0E0,0E0,5.468741E-1,1.00402E0,7.2423816E-1,8.6307324E-2,9.12337E-3,1.3182718E-1,6.7337625E-2,0E0,1.7193848E-1,0E0,0E0,0E0,0E0,0E0,0E0,0E0,0E0,0E0,0E0,0E0,0E0,0E0,0E0],"parents":[2147483647,0,0,1,1,2,2,3,3,4,4,5,5,6,6,7,7,9,9,10,10,14,14,15,15,16,16,17,17,18,18,19,19,20,20,22,22],"right_children":[2,4,6,8,10,12,14,16,-1,18,20,-1,-1,-1,22,24,26,28,30,32,34,-1,36,-1,-1,-1,-1,-1,-1,-1,-1,-1,-1,-1,-1,-1,-1],"split_conditions":[1E0,1E0,4E0,1.2E1,1.1E1,1.8E1,7E0,5E0,-1.5830906E-1,1.2E1,2E0,-5.2753452E-2,5.1716235E-2,-1.7105159E-1,1E1,1.4E1,6E0,1E1,9E0,1.9E1,1.8E1,8.452842E-2,1.4E1,3.423173E-2,-2.0620878E-1,1.7140912E-1,-6.8145706E-3,8.004447E-4,-3.6213805E-3,3.227127E-3,7.0914053E-3,-1.7083881E-3,9.800488E-3,-2.9819596E-3,-2.6679747E-5,-4.028418E-3,-1.5782967E-1],"split_indices":[1,0,3,3,2,2,3,3,0,3,3,0,0,0,3,2,3,3,2,2,2,0,2,0,0,0,0,0,0,0,0,0,0,0,0,0,0],"split_type":[0,0,0,0,0,0,0,0,0,0,0,0,0,0,0,0,0,0,0,0,0,0,0,0,0,0,0,0,0,0,0,0,0,0,0,0,0],"sum_hessian":[7.093979E3,7.0849883E3,8.990616E0,1.7689613E1,7.067299E3,4.190967E0,4.7996492E0,1.6573246E1,1.1163673E0,2.9926953E3,4.0746035E3,2.6342583E0,1.5567088E0,1.324984E0,3.474665E0,4.7818723E0,1.1791374E1,2.7397935E3,2.5290178E2,3.5691864E2,3.7176848E3,1.3399217E0,2.1347432E0,2.586701E0,2.1951716E0,1.5446618E0,1.0246712E1,2.2587852E3,4.8100848E2,8.576103E1,1.6714075E2,1.7541866E2,1.815E2,9.2201715E2,2.7956677E3,1.0263635E0,1.1083798E0],"tree_param":{"num_deleted":"0","num_feature":"4","num_nodes":"37","size_leaf_vector":"1"}},{"base_weights":[-3.7554392E-4,-1.3717933E-4,-1.7477447E-1,-2.4585557E-4,1.8198079E-1,-2.8328255E-2,-2.7898568E-1,-7.6786986E-5,-1.6351146E-1,9.949639E-2,2.2698024E-3,-1.4794225E-1,4.2857297E-2,-8.881981E-2,-1.6093504E-1,-7.2402835E-2,6.650196E-5,-3.7911072E-4,-6.1740924E-2,-3.4439477E-1,8.474103E-2,-8.7886E-2,2.0604335E-2,-4.6231446E-4,3.64977E-4,-1.5224692E-1,-2.945293E-3],"categories":[],"categories_nodes":[],"categories_segments":[],"categories_sizes":[],"default_left":[0,0,0,0,0,0,0,0,0,0,0,0,0,0,0,0,0,0,0,0,0,0,0,0,0,0,0],"id":30,"left_children":[1,3,5,7,9,11,13,15,-1,-1,-1,17,-1,19,-1,21,23,-1,-1,25,-1,-1,-1,-1,-1,-1,-1],"loss_changes":[2.9488683E-1,1.4028113E-1,1.3986033E-1,6.522912E-1,1.0783853E-1,1.2634997E-1,2.2378251E-1,7.3390186E-2,0E0,0E0,0E0,2.9580861E-2,0E0,5.135802E-1,0E0,4.5580733E-1,1.3069585E-2,0E0,0E0,1.6139776E-1,0E0,0E0,0E0,0E0,0E0,0E0,0E0],"parents":[2147483647,0,0,1,1,2,2,3,3,4,4,5,5,6,6,7,7,11,11,13,13,15,15,16,16,19,19],"right_children":[2,4,6,8,10,12,14,16,-1,-1,-1,18,-1,20,-1,22,24,-1,-1,26,-1,-1,-1,-1,-1,-1,-1],"split_conditions":[1E0,2.2E1,4E0,2.1E1,6E0,3E0,1.6E1,1E0,-1.6351146E-1,9.949639E-2,2.2698024E-3,1.3E1,4.2857297E-2,1.5E1,-1.6093504E-1,1.3E1,6E0,-3.7911072E-4,-6.1740924E-2,1.1E1,8.474103E-2,-8.7886E-2,2.0604335E-2,-4.6231446E-4,3.64977E-4,-1.5224692E-1,-2.945293E-3],"split_indices":[1,2,3,2,3,3,2,0,0,0,0,2,0,2,0,2,3,0,0,3,0,0,0,0,0,0,0],"split_type":[0,0,0,0,0,0,0,0,0,0,0,0,0,0,0,0,0,0,0,0,0,0,0,0,0,0,0],"sum_hessian":[7.0932285E3,7.0845464E3,8.682215E0,7.0813193E3,3.2270231E0,4.138411E0,4.543803E0,7.080122E3,1.1970747E0,1.2515118E0,1.9755114E0,2.516099E0,1.6223122E0,3.387063E0,1.1567401E0,1.3001964E1,7.06712E3,1.0008249E0,1.5152742E0,2.04905E0,1.3380129E0,4.652486E0,8.349478E0,2.947239E3,4.1198813E3,1.0301014E0,1.0189486E0],"tree_param":{"num_deleted":"0","num_feature":"4","num_nodes":"27","size_leaf_vector":"1"}},{"base_weights":[-3.2706463E-4,-1.1998133E-4,-1.5539445E-1,-2.095398E-4,1.4530897E-1,-2.4516316E-2,-2.5171247E-1,-6.5956585E-5,-1.5128003E-1,-4.1223248E-3,8.72552E-2,-4.488825E-2,4.641381E-2,-1.5278532E-1,-7.1362846E-2,-5.7755906E-2,4.6562174E-5,7.907602E-2,-9.54657E-2,-6.422554E-2,2.0084856E-2,7.485475E-4,-1.0715135E-4],"categories":[],"categories_nodes":[],"categories_segments":[],"categories_sizes":[],"default_left":[0,0,0,0,0,0,0,0,0,0,0,0,0,0,0,0,0,0,0,0,0,0,0],"id":31,"left_children":[1,3,5,7,9,11,13,15,-1,-1,-1,-1,-1,-1,17,19,21,-1,-1,-1,-1,-1,-1],"loss_changes":[2.2777414E-1,9.231173E-2,1.13079E-1,5.125135E-1,1.0497052E-1,1.3792053E-1,2.1178505E-1,4.5966152E-2,0E0,0E0,0E0,0E0,0E0,0E0,4.398071E-1,2.8306344E-1,6.9882753E-3,0E0,0E0,0E0,0E0,0E0,0E0],"parents":[2147483647,0,0,1,1,2,2,3,3,4,4,5,5,6,6,7,7,14,14,15,15,16,16],"right_children":[2,4,6,8,10,12,14,16,-1,-1,-1,-1,-1,-1,18,20,22,-1,-1,-1,-1,-1,-1],"split_conditions":[1E0,2.2E1,4E0,2.1E1,9E0,1.8E1,7E0,1E0,-1.5128003E-1,-4.1223248E-3,8.72552E-2,-4.488825E-2,4.641381E-2,-1.5278532E-1,1E1,7E0,9E0,7.907602E-2,-9.54657E-2,-6.422554E-2,2.0084856E-2,7.485475E-4,-1.0715135E-4],"split_indices":[1,2,3,2,3,2,3,0,0,0,0,0,0,0,3,3,2,0,0,0,0,0,0],"split_type":[0,0,0,0,0,0,0,0,0,0,0,0,0,0,0,0,0,0,0,0,0,0,0],"sum_hessian":[7.092726E3,7.084266E3,8.459844E0,7.080904E3,3.3620226E0,4.118335E0,4.3415093E0,7.079887E3,1.0166104E0,2.0391724E0,1.3228503E0,2.5225935E0,1.5957412E0,1.0368407E0,3.3046687E0,1.2784519E1,7.067103E3,1.3733916E0,1.9312769E0,5.354924E0,7.429595E0,9.9958075E2,6.067522E3],"tree_param":{"num_deleted":"0","num_feature":"4","num_nodes":"23","size_leaf_vector":"1"}},{"base_weights":[-2.764088E-4,-1.0378692E-4,-1.3296153E-1,-1.774983E-4,1.1659292E-1,-4.867054E-2,-9.0834275E-2,-1.0278116E-1,3.2674125E-5,7.846056E-2,-9.672424E-3,6.8262555E-2,-1.5458454E-1,1.1348183E-1,-1.5945528E-1,3.2771492E-4,-3.1566152E-3,-1.0510609E-1,4.273776E-2,-3.683238E-2,8.918007E-2,-1.8604425E-1,-7.7118804E-3,-6.567336E-4,3.9676152E-4,3.90866E-3,-4.509267E-3,9.976549E-2,-6.7883186E-2],"categories":[],"categories_nodes":[],"categories_segments":[],"categories_sizes":[],"default_left":[0,0,0,0,0,0,0,0,0,0,0,0,0,0,0,0,0,0,0,0,0,0,0,0,0,0,0,0,0],"id":32,"left_children":[1,3,5,7,9,11,-1,13,15,-1,-1,-1,17,19,21,23,25,-1,27,-1,-1,-1,-1,-1,-1,-1,-1,-1,-1],"loss_changes":[1.6245279E-1,6.096537E-2,1.1717619E-1,1.5271363E-1,1.0494624E-1,2.5020126E-1,0E0,1.9552667E-1,6.651904E-3,0E0,0E0,0E0,2.432113E-1,1.9238457E-1,7.164578E-1,1.6203724E-2,1.152404E-1,0E0,3.741475E-1,0E0,0E0,0E0,0E0,0E0,0E0,0E0,0E0,0E0,0E0],"parents":[2147483647,0,0,1,1,2,2,3,3,4,4,5,5,7,7,8,8,12,12,13,13,14,14,15,15,16,16,18,18],"right_children":[2,4,6,8,10,12,-1,14,16,-1,-1,-1,18,20,22,24,26,-1,28,-1,-1,-1,-1,-1,-1,-1,-1,-1,-1],"split_conditions":[1E0,2.2E1,1.9E1,1E0,6E0,2E0,-9.0834275E-2,8E0,1.2E1,7.846056E-2,-9.672424E-3,6.8262555E-2,7E0,7E0,1.3E1,1E1,1.1E1,-1.0510609E-1,1E1,-3.683238E-2,8.918007E-2,-1.8604425E-1,-7.7118804E-3,-6.567336E-4,3.9676152E-4,3.90866E-3,-4.509267E-3,9.976549E-2,-6.7883186E-2],"split_indices":[1,2,2,0,3,3,0,2,3,0,0,0,3,2,2,2,2,0,3,0,0,0,0,0,0,0,0,0,0],"split_type":[0,0,0,0,0,0,0,0,0,0,0,0,0,0,0,0,0,0,0,0,0,0,0,0,0,0,0,0,0],"sum_hessian":[7.0922617E3,7.084046E3,8.215485E0,7.0805723E3,3.4739585E0,6.3501487E0,1.8653364E0,1.3476494E1,7.0670957E3,1.3763634E0,2.097595E0,1.441779E0,4.9083695E0,2.5901966E0,1.0886297E1,6.4695E3,5.975955E2,2.0745797E0,2.8337898E0,1.2785639E0,1.3116329E0,1.6311674E0,9.25513E0,1.8324196E3,4.6370806E3,2.528482E2,3.447473E2,1.2504642E0,1.5833256E0],"tree_param":{"num_deleted":"0","num_feature":"4","num_nodes":"29","size_leaf_vector":"1"}},{"base_weights":[-2.2715633E-4,-8.8323126E-5,-1.0978306E-1,-1.4902103E-4,9.4069034E-2,1.1049735E-2,-2.0646174E-1,-8.560406E-2,2.2741435E-5,-1.3333304E-2,7.025448E-2,-1.2615742E-1,5.8214378E-2,-9.363482E-2,-1.2751348E-2,3.9658066E-2,-2.0232926E-1,-1.1936651E-3,8.930236E-4,-7.1441033E-4,-5.2907463E-2,-6.1156165E-2,1.08662434E-1,-2.0674391E-1,3.9272767E-2,3.1861544E-4,-3.0212225E-3,9.073944E-4,-1.3093823E-3],"categories":[],"categories_nodes":[],"categories_segments":[],"categories_sizes":[],"default_left":[0,0,0,0,0,0,0,0,0,0,0,0,0,0,0,0,0,0,0,0,0,0,0,0,0,0,0,0,0],"id":33,"left_children":[1,3,5,7,9,11,13,15,17,-1,-1,19,-1,-1,-1,21,23,25,27,-1,-1,-1,-1,-1,-1,-1,-1,-1,-1],"loss_changes":[1.0787062E-1,4.050444E-2,1.0713829E-1,1.0393932E-1,9.901816E-2,1.4848742E-1,7.399146E-2,2.1571462E-1,7.4833473E-3,0E0,0E0,2.0883873E-2,0E0,0E0,0E0,6.77683E-1,1.3096375E0,5.904645E-2,4.6195686E-2,0E0,0E0,0E0,0E0,0E0,0E0,0E0,0E0,0E0,0E0],"parents":[2147483647,0,0,1,1,2,2,3,3,4,4,5,5,6,6,7,7,8,8,11,11,15,15,16,16,17,17,18,18],"right_children":[2,4,6,8,10,12,14,16,18,-1,-1,20,-1,-1,-1,22,24,26,28,-1,-1,-1,-1,-1,-1,-1,-1,-1,-1],"split_conditions":[1E0,2.2E1,4E0,1E0,9E0,3E0,9E0,1.4E1,6E0,-1.3333304E-2,7.025448E-2,1.3E1,5.8214378E-2,-9.363482E-2,-1.2751348E-2,1.3E1,7E0,5E0,1.9E1,-7.1441033E-4,-5.2907463E-2,-6.1156165E-2,1.08662434E-1,-2.0674391E-1,3.9272767E-2,3.1861544E-4,-3.0212225E-3,9.073944E-4,-1.3093823E-3],"split_indices":[1,2,3,0,3,3,3,2,3,0,0,2,0,0,0,2,3,3,2,0,0,0,0,0,0,0,0,0,0],"split_type":[0,0,0,0,0,0,0,0,0,0,0,0,0,0,0,0,0,0,0,0,0,0,0,0,0,0,0,0,0],"sum_hessian":[7.0917246E3,7.0837485E3,7.975976E0,7.0801826E3,3.5657742E0,3.9388072E0,4.037169E0,1.3204714E1,7.066978E3,2.1364772E0,1.4292969E0,2.4285522E0,1.5102552E0,1.9055723E0,2.1315966E0,6.687913E0,6.516801E0,2.947225E3,4.119753E3,1.0029922E0,1.42556E0,4.0205536E0,2.6673589E0,2.2141683E0,4.302633E0,2.350763E3,5.9646216E2,2.9316045E3,1.1881486E3],"tree_param":{"num_deleted":"0","num_feature":"4","num_nodes":"29","size_leaf_vector":"1"}},{"base_weights":[-1.9506447E-4,-2.900222E-4,1.2631045E-1,-1.2723914E-4,-1.6074862E-1,1.04035035E-1,-3.191949E-2,-1.5754387E-5,-1.0154139E-1,1.3952748E-1,-8.492156E-5,-1.9429547E-1,4.5222115E-2,-2.228334E-2,8.3006434E-2,-1.9919254E-2,4.646893E-6,3.0882817E-3,-9.965512E-2,8.543711E-2,-5.9230585E-2],"categories":[],"categories_nodes":[],"categories_segments":[],"categories_sizes":[],"default_left":[0,0,0,0,0,0,0,0,0,0,0,0,0,0,0,0,0,0,0,0,0],"id":34,"left_children":[1,3,5,7,-1,-1,-1,9,11,13,15,17,19,-1,-1,-1,-1,-1,-1,-1,-1],"loss_changes":[8.52351E-2,6.178447E-1,3.0994707E-1,8.012385E-2,0E0,0E0,0E0,6.834784E-2,1.14721246E-1,1.23433895E-1,4.71275E-2,1.4326356E-1,2.785735E-1,0E0,0E0,0E0,0E0,0E0,0E0,0E0,0E0],"parents":[2147483647,0,0,1,1,2,2,3,3,7,7,8,8,9,9,10,10,11,11,12,12],"right_children":[2,4,6,8,-1,-1,-1,10,12,14,16,18,20,-1,-1,-1,-1,-1,-1,-1,-1],"split_conditions":[2.2E1,2.1E1,6E0,1E0,-1.6074862E-1,1.04035035E-1,-3.191949E-2,8E0,7E0,7E0,1E0,2E0,1E1,-2.228334E-2,8.3006434E-2,-1.9919254E-2,4.646893E-6,3.0882817E-3,-9.965512E-2,8.543711E-2,-5.9230585E-2],"split_indices":[2,2,3,1,0,0,0,2,3,2,0,3,3,0,0,0,0,0,0,0,0],"split_type":[0,0,0,0,0,0,0,0,0,0,0,0,0,0,0,0,0,0,0,0,0],"sum_hessian":[7.0913784E3,7.087056E3,4.3219886E0,7.085903E3,1.1536031E0,1.967621E0,2.3543675E0,7.079121E3,6.7819343E0,2.5082617E0,7.076613E3,3.9571562E0,2.8247778E0,1.1594219E0,1.3488398E0,9.701024E0,7.0669116E3,1.9657885E0,1.9913676E0,1.3340648E0,1.4907131E0],"tree_param":{"num_deleted":"0","num_feature":"4","num_nodes":"21","size_leaf_vector":"1"}},{"base_weights":[-1.6031603E-4,-2.3526554E-4,9.710561E-2,-1.050165E-4,-1.1671388E-1,2.5559065E-1,-2.5873622E-2,-5.9401587E-2,1.084582E-5,6.9377804E-3,-9.7722195E-2,-3.887784E-4,1.1222512E-1,1.1066692E-1,-1.0871055E-1,2.4111889E-4,-2.478714E-3,-7.1020514E-2,1.5253614E-1,-2.1026332E-2,6.726327E-2,-1.6664913E-1,9.257841E-4,-5.5746414E-4,3.212779E-4,2.468728E-3,-3.0999272E-3,9.921055E-2,-4.274778E-2],"categories":[],"categories_nodes":[],"categories_segments":[],"categories_sizes":[],"default_left":[0,0,0,0,0,0,0,0,0,0,0,0,0,0,0,0,0,0,0,0,0,0,0,0,0,0,0,0,0],"id":35,"left_children":[1,3,5,7,9,11,-1,13,15,17,-1,-1,-1,19,21,23,25,-1,27,-1,-1,-1,-1,-1,-1,-1,-1,-1,-1],"loss_changes":[5.172448E-2,1.0751588E-1,1.8079293E-1,4.864688E-2,2.0685573E-1,9.73596E-2,0E0,1.2782782E-1,4.05248E-3,2.4730489E-1,0E0,0E0,0E0,8.958414E-2,5.616091E-1,1.1273736E-2,5.0419852E-2,0E0,2.7495652E-1,0E0,0E0,0E0,0E0,0E0,0E0,0E0,0E0,0E0,0E0],"parents":[2147483647,0,0,1,1,2,2,3,3,4,4,5,5,7,7,8,8,9,9,13,13,14,14,15,15,16,16,18,18],"right_children":[2,4,6,8,10,12,-1,14,16,18,-1,-1,-1,20,22,24,26,-1,28,-1,-1,-1,-1,-1,-1,-1,-1,-1,-1],"split_conditions":[2.2E1,1E0,6E0,1E0,1.6E1,4E0,-2.5873622E-2,8E0,1.2E1,1E1,-9.7722195E-2,-3.887784E-4,1.1222512E-1,1.1E1,1.3E1,1E1,1.1E1,-7.1020514E-2,8E0,-2.1026332E-2,6.726327E-2,-1.6664913E-1,9.257841E-4,-5.5746414E-4,3.212779E-4,2.468728E-3,-3.0999272E-3,9.921055E-2,-4.274778E-2],"split_indices":[2,1,3,0,2,3,0,2,3,2,0,0,0,3,2,2,2,0,3,0,0,0,0,0,0,0,0,0,0],"split_type":[0,0,0,0,0,0,0,0,0,0,0,0,0,0,0,0,0,0,0,0,0,0,0,0,0,0,0,0,0],"sum_hessian":[7.091099E3,7.0866357E3,4.463117E0,7.07972E3,6.9158025E0,2.182559E0,2.280558E0,1.280855E1,7.0669116E3,4.952761E0,1.9630412E0,1.0011604E0,1.1813986E0,2.5992568E0,1.0209292E1,6.4694224E3,5.9748926E2,1.6183504E0,3.3344107E0,1.1504846E0,1.4487722E0,1.2489862E0,8.960306E0,1.8323966E3,4.6370254E3,2.5280057E2,3.446887E2,2.0035608E0,1.3308498E0],"tree_param":{"num_deleted":"0","num_feature":"4","num_nodes":"29","size_leaf_vector":"1"}},{"base_weights":[-1.4038364E-4,3.9840743E-2,-1.8999765E-4,-4.3329754E-5,-1.295184E-1,5.886429E-2,-1.1278779E-4,1.6651044E-2,-1.608142E-1,-5.7382487E-2,7.4447253E-6,-7.026329E-2,1.3772568E-1,-1.542144E-1,4.490137E-3,-2.748251E-4,2.004594E-4,9.162102E-2,-5.445802E-2],"categories":[],"categories_nodes":[],"categories_segments":[],"categories_sizes":[],"default_left":[0,0,0,0,0,0,0,0,0,0,0,0,0,0,0,0,0,0,0],"id":36,"left_children":[1,-1,3,5,7,-1,9,11,-1,13,15,-1,17,-1,-1,-1,-1,-1,-1],"loss_changes":[4.6801846E-2,0E0,1.344836E-1,9.657756E-2,4.861663E-1,0E0,4.8762493E-2,2.4113889E-1,0E0,4.978784E-1,4.313572E-3,0E0,3.3745474E-1,0E0,0E0,0E0,0E0,0E0,0E0],"parents":[2147483647,0,0,2,2,3,3,4,4,6,6,7,7,9,9,10,10,12,12],"right_children":[2,-1,4,6,8,-1,10,12,-1,14,16,-1,18,-1,-1,-1,-1,-1,-1],"split_conditions":[7E0,3.9840743E-2,1E0,8E0,1E1,5.886429E-2,1E0,1.3E1,-1.608142E-1,1.3E1,6E0,-7.026329E-2,1.9E1,-1.542144E-1,4.490137E-3,-2.748251E-4,2.004594E-4,9.162102E-2,-5.445802E-2],"split_indices":[2,0,1,2,3,0,0,2,0,2,3,0,2,0,0,0,0,0,0],"split_type":[0,0,0,0,0,0,0,0,0,0,0,0,0,0,0,0,0,0,0],"sum_hessian":[7.0908477E3,1.6471049E0,7.0892007E3,7.0821694E3,7.0313644E0,1.50651E0,7.0806626E3,5.8772216E0,1.154143E0,1.3836288E1,7.066826E3,1.6090002E0,4.2682214E0,1.0573455E0,1.2778943E1,2.9471863E3,4.11964E3,2.8268714E0,1.4413497E0],"tree_param":{"num_deleted":"0","num_feature":"4","num_nodes":"19","size_leaf_vector":"1"}},{"base_weights":[-1.3962065E-4,-2.0715487E-4,8.667132E-2,-6.683855E-2,-3.5611236E-5,2.1074016E-1,-2.0288257E-2,-2.245784E-1,4.524554E-2,5.2155674E-6,-8.7857075E-2,-3.3088814E-2,1.3777474E-1,1.6066872E-1,-2.1590646E-1,-2.3524107E-1,3.460878E-1,1.9268647E-3,-3.116232E-4,-3.1942348E-3,-3.537522E-2,-7.45692E-2,1.2771387E-1,-2.0186026E-1,3.4797758E-2,1.6741961E-1,-5.5173714E-2,-2.437245E-3,2.0601717E-3,7.241549E-4,-5.021273E-4],"categories":[],"categories_nodes":[],"categories_segments":[],"categories_sizes":[],"default_left":[0,0,0,0,0,0,0,0,0,0,0,0,0,0,0,0,0,0,0,0,0,0,0,0,0,0,0,0,0,0,0],"id":37,"left_children":[1,3,5,7,9,11,-1,13,15,17,19,-1,-1,21,-1,23,25,27,29,-1,-1,-1,-1,-1,-1,-1,-1,-1,-1,-1,-1],"loss_changes":[4.1595206E-2,8.100682E-2,1.19831994E-1,3.3192152E-1,2.5350094E-2,3.1392705E-1,0E0,1.5895702E0,1.0494041E0,4.3038614E-3,6.369503E-3,0E0,0E0,6.6586506E-1,0E0,1.0820644E0,7.6993424E-1,4.973778E-2,2.2532322E-2,0E0,0E0,0E0,0E0,0E0,0E0,0E0,0E0,0E0,0E0,0E0,0E0],"parents":[2147483647,0,0,1,1,2,2,3,3,4,4,5,5,7,7,8,8,9,9,10,10,13,13,15,15,16,16,17,17,18,18],"right_children":[2,4,6,8,10,12,-1,14,16,18,20,-1,-1,22,-1,24,26,28,30,-1,-1,-1,-1,-1,-1,-1,-1,-1,-1,-1,-1],"split_conditions":[2.2E1,1E0,6E0,7E0,1E0,5E0,-2.0288257E-2,1.4E1,1.5E1,9E0,1.1E1,-3.3088814E-2,1.3777474E-1,1.3E1,-2.1590646E-1,1.1E1,1.1E1,5E0,5E0,-3.1942348E-3,-3.537522E-2,-7.45692E-2,1.2771387E-1,-2.0186026E-1,3.4797758E-2,1.6741961E-1,-5.5173714E-2,-2.437245E-3,2.0601717E-3,7.241549E-4,-5.021273E-4],"split_indices":[2,0,3,3,1,3,0,2,2,2,2,0,0,2,0,3,3,3,3,0,0,0,0,0,0,0,0,0,0,0,0],"split_type":[0,0,0,0,0,0,0,0,0,0,0,0,0,0,0,0,0,0,0,0,0,0,0,0,0,0,0,0,0,0,0],"sum_hessian":[7.090816E3,7.086301E3,4.5151443E0,1.7198984E1,7.0691016E3,2.2999804E0,2.2151642E0,6.7274914E0,1.0471493E1,7.0668164E3,2.28531E0,1.2462201E0,1.0537604E0,4.1634116E0,2.56408E0,5.531927E0,4.939566E0,9.99528E2,6.067288E3,1.0199026E0,1.2654074E0,1.6609915E0,2.5024202E0,2.0553262E0,3.476601E0,3.490544E0,1.449022E0,3.2917953E2,6.703485E2,2.0215763E3,4.045712E3],"tree_param":{"num_deleted":"0","num_feature":"4","num_nodes":"31","size_leaf_vector":"1"}},{"base_weights":[-1.4856932E-4,3.744928E-2,-1.9553692E-4,-6.514343E-5,-1.168636E-1,5.256789E-2,-1.2827865E-4,7.925252E-2,-3.0117628E-1,-4.1002055E-5,-1.1017975E-1,-8.105038E-2,7.995368E-2,-1.5188685E-1,-2.448642E-2,-9.198648E-3,1.0954235E-6,-6.628843E-2,2.5070379E-2,-2.965319E-4,-3.4819808E-2],"categories":[],"categories_nodes":[],"categories_segments":[],"categories_sizes":[],"default_left":[0,0,0,0,0,0,0,0,0,0,0,0,0,0,0,0,0,0,0,0,0],"id":38,"left_children":[1,-1,3,5,7,-1,9,11,13,15,17,19,-1,-1,-1,-1,-1,-1,-1,-1,-1],"loss_changes":[4.1653566E-2,0E0,1.0785384E-1,7.841363E-2,3.099671E-1,0E0,6.8014935E-2,1.6047595E-1,1.5180582E-1,9.676946E-3,1.3890582E-1,9.022705E-3,0E0,0E0,0E0,0E0,0E0,0E0,0E0,0E0,0E0],"parents":[2147483647,0,0,2,2,3,3,4,4,6,6,7,7,8,8,9,9,10,10,11,11],"right_children":[2,-1,4,6,8,-1,10,12,14,16,18,20,-1,-1,-1,-1,-1,-1,-1,-1,-1],"split_conditions":[7E0,3.744928E-2,1E0,8E0,4E0,5.256789E-2,2.1E1,1.8E1,1.5E1,1E0,9E0,1.2E1,7.995368E-2,-1.5188685E-1,-2.448642E-2,-9.198648E-3,1.0954235E-6,-6.628843E-2,2.5070379E-2,-2.965319E-4,-3.4819808E-2],"split_indices":[2,0,1,2,3,0,2,2,2,0,3,2,0,0,0,0,0,0,0,0,0],"split_type":[0,0,0,0,0,0,0,0,0,0,0,0,0,0,0,0,0,0,0,0,0],"sum_hessian":[7.0908633E3,1.6657026E0,7.0891973E3,7.0822827E3,6.9149203E0,1.5510193E0,7.0807314E3,3.626349E0,3.2885711E0,7.07612E3,4.611362E0,2.259387E0,1.366962E0,1.0250057E0,2.2635655E0,9.305341E0,7.066815E3,2.844478E0,1.7668842E0,1.000351E0,1.2590361E0],"tree_param":{"num_deleted":"0","num_feature":"4","num_nodes":"21","size_leaf_vector":"1"}},{"base_weights":[-1.20873636E-4,-1.9151022E-4,9.104302E-2,-6.096303E-2,-3.6055004E-5,2.0056102E-1,-5.2862603E-2,-1.8867461E-1,2.4860546E-2,2.5306326E-6,-8.344002E-2,-2.6733272E-2,1.2133038E-1,-4.877249E-3,-1.888657E-2,1.1941037E-1,-2.0110519E-1,-2.0361689E-1,2.4398911E-1,-8.3997555E-4,6.053206E-4,-3.354481E-2,-3.1555754E-3,-6.581069E-2,9.5049776E-2,-1.8678746E-1,2.4155634E-2,1.3556042E-1,-2.7146552E-2,-9.6747885E-4,1.493606E-3,5.6931475E-4,-7.74702E-4],"categories":[],"categories_nodes":[],"categories_segments":[],"categories_sizes":[],"default_left":[0,0,0,0,0,0,0,0,0,0,0,0,0,0,0,0,0,0,0,0,0,0,0,0,0,0,0,0,0,0,0,0,0],"id":39,"left_children":[1,3,5,7,9,11,13,15,17,19,21,-1,-1,-1,-1,23,-1,25,27,29,31,-1,-1,-1,-1,-1,-1,-1,-1,-1,-1,-1,-1],"loss_changes":[4.5684222E-2,6.695204E-2,9.716822E-2,2.028848E-1,2.275312E-2,2.3255523E-1,1.4582183E-4,1.1758157E0,6.35366E-1,3.5899286E-3,5.5889357E-3,0E0,0E0,0E0,0E0,4.274806E-1,0E0,7.9685545E-1,4.87709E-1,4.092885E-2,1.6980693E-2,0E0,0E0,0E0,0E0,0E0,0E0,0E0,0E0,0E0,0E0,0E0,0E0],"parents":[2147483647,0,0,1,1,2,2,3,3,4,4,5,5,6,6,7,7,8,8,9,9,10,10,15,15,17,17,18,18,19,19,20,20],"right_children":[2,4,6,8,10,12,14,16,18,20,22,-1,-1,-1,-1,24,-1,26,28,30,32,-1,-1,-1,-1,-1,-1,-1,-1,-1,-1,-1,-1],"split_conditions":[2.2E1,1E0,6E0,7E0,1E0,5E0,1E1,1.4E1,1.5E1,6E0,1.8E1,-2.6733272E-2,1.2133038E-1,-4.877249E-3,-1.888657E-2,1.3E1,-2.0110519E-1,1.1E1,1E1,1.9E1,1.9E1,-3.354481E-2,-3.1555754E-3,-6.581069E-2,9.5049776E-2,-1.8678746E-1,2.4155634E-2,1.3556042E-1,-2.7146552E-2,-9.6747885E-4,1.493606E-3,5.6931475E-4,-7.74702E-4],"split_indices":[2,0,3,3,1,3,3,2,2,3,2,0,0,0,0,2,0,3,3,2,2,0,0,0,0,0,0,0,0,0,0,0,0],"split_type":[0,0,0,0,0,0,0,0,0,0,0,0,0,0,0,0,0,0,0,0,0,0,0,0,0,0,0,0,0,0,0,0,0],"sum_hessian":[7.090659E3,7.0861665E3,4.49268E0,1.7082317E1,7.069084E3,2.3275912E0,2.1650891E0,6.384029E0,1.0698289E1,7.066815E3,2.2693896E0,1.1940074E0,1.1335837E0,1.0322036E0,1.1328856E0,4.3523283E0,2.0317006E0,5.272075E0,5.426214E0,2.9471938E3,4.119621E3,1.2497116E0,1.019678E0,1.5615387E0,2.7907898E0,1.6490166E0,3.6230586E0,3.129964E0,2.2962499E0,2.0907024E3,8.5649146E2,2.931491E3,1.1881299E3],"tree_param":{"num_deleted":"0","num_feature":"4","num_nodes":"33","size_leaf_vector":"1"}},{"base_weights":[-1.2906322E-4,9.104245E-2,-1.8794335E-4,-4.0428087E-2,2.2288613E-1,-5.8494437E-2,-3.0481075E-5,1.271166E-1,-2.2761352E-2,-1.6090141E-1,2.218092E-3,1.819001E-6,-7.0806734E-2,1.7963608E-1,-6.295249E-2,5.676397E-4,-1.1412282E-3,-2.8569065E-2,-2.6826295E-3,8.425109E-2,-2.504169E-2,-1.5711401E-1,5.332256E-3,5.387887E-4,-2.025873E-3,-1.12859E-3,4.4493875E-3],"categories":[],"categories_nodes":[],"categories_segments":[],"categories_sizes":[],"default_left":[0,0,0,0,0,0,0,0,0,0,0,0,0,0,0,0,0,0,0,0,0,0,0,0,0,0,0],"id":40,"left_children":[1,3,5,-1,7,9,11,-1,-1,-1,13,15,17,19,21,23,25,-1,-1,-1,-1,-1,-1,-1,-1,-1,-1],"loss_changes":[3.80865E-2,1.6635671E-1,6.5074414E-2,0E0,2.2821994E-1,5.5501044E-1,1.6162684E-2,0E0,0E0,0E0,2.1866691E-1,4.5717955E-3,4.0213726E-3,1.5863587E-1,5.247085E-1,4.252841E-2,9.80299E-2,0E0,0E0,0E0,0E0,0E0,0E0,0E0,0E0,0E0,0E0],"parents":[2147483647,0,0,1,1,2,2,4,4,5,5,6,6,10,10,11,11,12,12,13,13,14,14,15,15,16,16],"right_children":[2,4,6,-1,8,10,12,-1,-1,-1,14,16,18,20,22,24,26,-1,-1,-1,-1,-1,-1,-1,-1,-1,-1],"split_conditions":[8E0,1.1E1,1E0,-4.0428087E-2,7E0,1.3E1,1E0,1.271166E-1,-2.2761352E-2,-1.6090141E-1,1.4E1,9E0,1.8E1,6E0,1.5E1,2E1,2E1,-2.8569065E-2,-2.6826295E-3,8.425109E-2,-2.504169E-2,-1.5711401E-1,5.332256E-3,5.387887E-4,-2.025873E-3,-1.12859E-3,4.4493875E-3],"split_indices":[2,3,0,0,2,2,1,0,0,0,2,3,2,3,2,2,2,0,0,0,0,0,0,0,0,0,0],"split_type":[0,0,0,0,0,0,0,0,0,0,0,0,0,0,0,0,0,0,0,0,0,0,0,0,0,0,0],"sum_hessian":[7.090661E3,3.5790212E0,7.087082E3,1.3112243E0,2.267797E0,1.808997E1,7.068992E3,1.1060122E0,1.1617846E0,1.1561698E0,1.69338E1,7.066767E3,2.2250779E0,4.0773563E0,1.2856442E1,4.727237E3,2.33953E3,1.2086028E0,1.0164751E0,2.8960507E0,1.181306E0,1.0985872E0,1.1757855E1,4.0486626E3,6.7857446E2,2.0104276E3,3.2910233E2],"tree_param":{"num_deleted":"0","num_feature":"4","num_nodes":"27","size_leaf_vector":"1"}},{"base_weights":[-1.281522E-4,-5.618111E-5,-7.854196E-2,7.420674E-2,-1.0493495E-4,8.414254E-2,-6.448007E-2,-3.4458775E-2,1.7828749E-1,-3.0129548E-5,-8.128832E-2,-4.5697533E-2,8.6286426E-2,9.875811E-2,-1.9366283E-2,-2.1949567E-2,1.5427696E-6,2.637893E-2,-1.620519E-1,-3.4228742E-2,6.104959E-2,-2.2599315E-4,1.6248511E-4,-7.2128125E-2,-1.3422628E-2],"categories":[],"categories_nodes":[],"categories_segments":[],"categories_sizes":[],"default_left":[0,0,0,0,0,0,0,0,0,0,0,0,0,0,0,0,0,0,0,0,0,0,0,0,0],"id":41,"left_children":[1,3,5,7,9,11,-1,-1,13,15,17,-1,-1,-1,-1,19,21,-1,23,-1,-1,-1,-1,-1,-1],"loss_changes":[4.0017683E-2,2.5664028E-2,1.623638E-1,1.1199252E-1,4.300944E-2,2.2107184E-1,0E0,0E0,1.455248E-1,4.9131727E-3,1.03352085E-1,0E0,0E0,0E0,0E0,2.3534754E-1,2.8817854E-3,0E0,3.3053905E-2,0E0,0E0,0E0,0E0,0E0,0E0],"parents":[2147483647,0,0,1,1,2,2,3,3,4,4,5,5,8,8,9,9,10,10,15,15,16,16,18,18],"right_children":[2,4,6,8,10,12,-1,-1,14,16,18,-1,-1,-1,-1,20,22,-1,24,-1,-1,-1,-1,-1,-1],"split_conditions":[2.1E1,8E0,6E0,1.1E1,1E0,5E0,-6.448007E-2,-3.4458775E-2,7E0,1E0,2E0,-4.5697533E-2,8.6286426E-2,9.875811E-2,-1.9366283E-2,1.6E1,6E0,2.637893E-2,7E0,-3.4228742E-2,6.104959E-2,-2.2599315E-4,1.6248511E-4,-7.2128125E-2,-1.3422628E-2],"split_indices":[2,2,3,3,1,3,0,0,2,0,3,0,0,0,0,2,3,0,3,0,0,0,0,0,0],"split_type":[0,0,0,0,0,0,0,0,0,0,0,0,0,0,0,0,0,0,0,0,0,0,0,0,0],"sum_hessian":[7.0906816E3,7.085179E3,5.5023227E0,3.6504593E0,7.081529E3,2.683998E0,2.8183248E0,1.2592893E0,2.39117E0,7.0760093E3,5.519728E0,1.3576437E0,1.3263543E0,1.2554326E0,1.1357375E0,9.211184E0,7.066798E3,1.754636E0,3.7650921E0,6.889281E0,2.3219032E0,2.9471787E3,4.1196196E3,1.627948E0,2.137144E0],"tree_param":{"num_deleted":"0","num_feature":"4","num_nodes":"25","size_leaf_vector":"1"}},{"base_weights":[-9.5940166E-5,-1.6060044E-4,8.2732536E-2,-5.2172154E-2,-2.8816701E-5,-2.5091851E-2,6.898615E-2,-1.5291344E-1,1.238437E-2,1.059182E-6,-6.5844126E-2,-1.6726408E-2,1.5352138E-3,9.48525E-2,-1.846395E-1,-1.6607705E-1,1.665687E-1,4.7674216E-4,-9.5987326E-4,-2.5747593E-2,-3.5037564E-3,-3.806962E-2,5.8101173E-2,-1.6542533E-1,1.47715015E-2,9.0781935E-2,-2.3209808E-2,-1.2352368E-3,6.8718736E-4,-8.389018E-4,3.0697596E-3],"categories":[],"categories_nodes":[],"categories_segments":[],"categories_sizes":[],"default_left":[0,0,0,0,0,0,0,0,0,0,0,0,0,0,0,0,0,0,0,0,0,0,0,0,0,0,0,0,0,0,0],"id":42,"left_children":[1,3,5,7,9,11,-1,13,15,17,19,-1,-1,21,-1,23,25,27,29,-1,-1,-1,-1,-1,-1,-1,-1,-1,-1,-1,-1],"loss_changes":[3.7993003E-2,4.857413E-2,9.361012E-2,1.18374445E-1,1.3901739E-2,4.079251E-3,0E0,8.686081E-1,3.5347018E-1,3.231139E-3,2.469454E-3,0E0,0E0,1.4444606E-1,0E0,5.2405626E-1,2.5077942E-1,3.941124E-2,4.8137862E-2,0E0,0E0,0E0,0E0,0E0,0E0,0E0,0E0,0E0,0E0,0E0,0E0],"parents":[2147483647,0,0,1,1,2,2,3,3,4,4,5,5,7,7,8,8,9,9,10,10,13,13,15,15,16,16,17,17,18,18],"right_children":[2,4,6,8,10,12,-1,14,16,18,20,-1,-1,22,-1,24,26,28,30,-1,-1,-1,-1,-1,-1,-1,-1,-1,-1,-1,-1],"split_conditions":[2.2E1,1E0,9E0,7E0,1E0,5E0,6.898615E-2,1.4E1,1.5E1,9E0,1.8E1,-1.6726408E-2,1.5352138E-3,1.3E1,-1.846395E-1,1.1E1,1E1,1E1,2E1,-2.5747593E-2,-3.5037564E-3,-3.806962E-2,5.8101173E-2,-1.6542533E-1,1.47715015E-2,9.0781935E-2,-2.3209808E-2,-1.2352368E-3,6.8718736E-4,-8.389018E-4,3.0697596E-3],"split_indices":[2,0,3,3,1,3,0,2,2,3,2,0,0,2,0,3,3,2,2,0,0,0,0,0,0,0,0,0,0,0,0],"split_type":[0,0,0,0,0,0,0,0,0,0,0,0,0,0,0,0,0,0,0,0,0,0,0,0,0,0,0,0,0,0,0],"sum_hessian":[7.090442E3,7.085908E3,4.533572E0,1.6910444E1,7.0689976E3,3.0957894E0,1.4377825E0,6.069788E0,1.0840656E1,7.06679E3,2.2078807E0,1.1167018E0,1.9790876E0,4.470239E0,1.5995492E0,4.988991E0,5.851666E0,4.7272163E3,2.3395735E3,1.1858926E0,1.021988E0,1.290391E0,3.179848E0,1.2288297E0,3.7601612E0,3.6022418E0,2.249424E0,1.3377345E3,3.3894817E3,2.0104468E3,3.2912683E2],"tree_param":{"num_deleted":"0","num_feature":"4","num_nodes":"31","size_leaf_vector":"1"}},{"base_weights":[-1.0799851E-4,-4.2718024E-5,-7.176338E-2,7.178514E-2,-8.99778E-5,8.281764E-2,-6.1221905E-2,-1.7562008E-2,1.297679E-1,-2.49048E-5,-7.146994E-2,-3.32977E-2,6.8242684E-2,7.376781E-2,-1.8680304E-2,1.2246364E-3,-9.427804E-4,2.2168223E-2,-6.652612E-2,3.0408497E-4,4.380522E-2,-5.6507803E-2,-2.3183627E-4,3.1605832E-2,-3.5987288E-2],"categories":[],"categories_nodes":[],"categories_segments":[],"categories_sizes":[],"default_left":[0,0,0,0,0,0,0,0,0,0,0,0,0,0,0,0,0,0,0,0,0,0,0,0,0],"id":43,"left_children":[1,3,5,7,9,11,-1,-1,13,15,17,-1,-1,-1,-1,19,21,23,-1,-1,-1,-1,-1,-1,-1],"loss_changes":[3.3168912E-2,2.4060586E-2,1.4890446E-1,4.281439E-2,3.289533E-2,1.2864195E-1,0E0,0E0,9.4172224E-2,8.117878E-3,9.568769E-2,0E0,0E0,0E0,0E0,9.143627E-2,1.2985739E-1,7.0371464E-2,0E0,0E0,0E0,0E0,0E0,0E0,0E0],"parents":[2147483647,0,0,1,1,2,2,3,3,4,4,5,5,8,8,9,9,10,10,15,15,16,16,17,17],"right_children":[2,4,6,8,10,12,-1,-1,14,16,18,-1,-1,-1,-1,20,22,24,-1,-1,-1,-1,-1,-1,-1],"split_conditions":[2.1E1,8E0,6E0,1.1E1,1E0,5E0,-6.1221905E-2,-1.7562008E-2,7E0,1.4E1,8E0,-3.32977E-2,6.8242684E-2,7.376781E-2,-1.8680304E-2,1.3E1,1.6E1,1.6E1,-6.652612E-2,3.0408497E-4,4.380522E-2,-5.6507803E-2,-2.3183627E-4,3.1605832E-2,-3.5987288E-2],"split_indices":[2,2,3,3,1,3,0,0,2,2,3,0,0,0,0,2,2,2,0,0,0,0,0,0,0],"split_type":[0,0,0,0,0,0,0,0,0,0,0,0,0,0,0,0,0,0,0,0,0,0,0,0,0],"sum_hessian":[7.0905176E3,7.0850635E3,5.454137E0,3.6605246E0,7.081403E3,2.6878772E0,2.7662597E0,1.1241696E0,2.5363553E0,7.075952E3,5.4503894E0,1.2482378E0,1.4396393E0,1.4058046E0,1.1305505E0,2.9964412E3,4.079511E3,3.8832946E0,1.5670949E0,2.9930862E3,3.3551016E0,2.6936815E0,4.0768174E3,2.6127937E0,1.2705009E0],"tree_param":{"num_deleted":"0","num_feature":"4","num_nodes":"25","size_leaf_vector":"1"}},{"base_weights":[-8.954744E-5,-1.5076374E-4,7.799187E-2,-5.3462975E-2,-1.5526173E-5,-8.466843E-3,6.729845E-2,-1.509445E-1,8.889694E-3,5.858049E-6,-1.4406657E-2,4.2468198E-2,-1.7004658E-1,-1.5784171E-1,1.498528E-1,2.2325385E-3,-3.6127577E-4,-3.1544484E-2,3.186675E-2,-1.5260923E-1,6.085144E-3,6.819433E-2,-3.3784445E-2,1.63676E-3,-4.1961144E-3,4.8406862E-4,-4.0446318E-4],"categories":[],"categories_nodes":[],"categories_segments":[],"categories_sizes":[],"default_left":[0,0,0,0,0,0,0,0,0,0,0,0,0,0,0,0,0,0,0,0,0,0,0,0,0,0,0],"id":44,"left_children":[1,3,5,7,9,-1,-1,11,13,15,-1,17,-1,19,21,23,25,-1,-1,-1,-1,-1,-1,-1,-1,-1,-1],"loss_changes":[3.3907685E-2,5.1094085E-2,9.2708364E-2,1.1033377E-1,7.258161E-3,0E0,0E0,5.912142E-1,3.028839E-1,5.778642E-3,0E0,6.5216914E-2,0E0,3.8091338E-1,1.6691674E-1,5.2384906E-2,1.18294135E-2,0E0,0E0,0E0,0E0,0E0,0E0,0E0,0E0,0E0,0E0],"parents":[2147483647,0,0,1,1,2,2,3,3,4,4,7,7,8,8,9,9,11,11,13,13,14,14,15,15,16,16],"right_children":[2,4,6,8,10,-1,-1,12,14,16,-1,18,-1,20,22,24,26,-1,-1,-1,-1,-1,-1,-1,-1,-1,-1],"split_conditions":[2.2E1,1E0,9E0,7E0,1E0,-8.466843E-3,6.729845E-2,1.4E1,1.5E1,9E0,-1.4406657E-2,1.3E1,-1.7004658E-1,1.1E1,1.1E1,1.1E1,5E0,-3.1544484E-2,3.186675E-2,-1.5260923E-1,6.085144E-3,6.819433E-2,-3.3784445E-2,1.63676E-3,-4.1961144E-3,4.8406862E-4,-4.0446318E-4],"split_indices":[2,0,3,3,1,0,0,2,2,2,0,2,0,3,3,3,3,0,0,0,0,0,0,0,0,0,0],"split_type":[0,0,0,0,0,0,0,0,0,0,0,0,0,0,0,0,0,0,0,0,0,0,0,0,0,0,0],"sum_hessian":[7.0904136E3,7.0858564E3,4.5572844E0,1.6931513E1,7.068925E3,3.1083212E0,1.448963E0,6.050853E0,1.0880661E1,7.066777E3,2.1479669E0,4.742933E0,1.3079197E0,4.9298673E0,5.9507933E0,9.99527E2,6.06725E3,1.2347423E0,3.5081906E0,1.0351281E0,3.8947392E0,4.698165E0,1.2526283E0,8.343748E2,1.6515218E2,2.021544E3,4.045706E3],"tree_param":{"num_deleted":"0","num_feature":"4","num_nodes":"27","size_leaf_vector":"1"}},{"base_weights":[-1.0316623E-4,-4.2833213E-5,-6.6695295E-2,6.9219284E-2,-8.851049E-5,7.982066E-2,-5.8310453E-2,-4.850452E-3,9.7897135E-2,-2.9999004E-5,-6.474222E-2,-2.4405805E-2,5.616932E-2,5.6465957E-2,-1.6798945E-2,-1.2721866E-3,8.584759E-4,2.87092E-2,-1.4487761E-1,-9.9064E-4,1.1066757E-3,5.608158E-4,-1.5984615E-3,-5.2863512E-2,-5.3196326E-3],"categories":[],"categories_nodes":[],"categories_segments":[],"categories_sizes":[],"default_left":[0,0,0,0,0,0,0,0,0,0,0,0,0,0,0,0,0,0,0,0,0,0,0,0,0],"id":45,"left_children":[1,3,5,7,9,11,-1,-1,13,15,17,-1,-1,-1,-1,19,21,-1,23,-1,-1,-1,-1,-1,-1],"loss_changes":[2.8488688E-2,2.242439E-2,1.3557975E-1,1.3021702E-2,2.67907E-2,7.924319E-2,0E0,0E0,6.1117154E-2,7.8116464E-3,9.6191E-2,0E0,0E0,0E0,0E0,2.9735848E-2,2.5818003E-2,0E0,1.54732615E-2,0E0,0E0,0E0,0E0,0E0,0E0],"parents":[2147483647,0,0,1,1,2,2,3,3,4,4,5,5,8,8,9,9,10,10,15,15,16,16,18,18],"right_children":[2,4,6,8,10,12,-1,-1,14,16,18,-1,-1,-1,-1,20,22,-1,24,-1,-1,-1,-1,-1,-1],"split_conditions":[2.1E1,8E0,6E0,1.1E1,1E0,5E0,-5.8310453E-2,-4.850452E-3,7E0,6E0,2E0,-2.4405805E-2,5.616932E-2,5.6465957E-2,-1.6798945E-2,1.9E1,2E1,2.87092E-2,9E0,-9.9064E-4,1.1066757E-3,5.608158E-4,-1.5984615E-3,-5.2863512E-2,-5.3196326E-3],"split_indices":[2,2,3,3,1,3,0,0,2,3,3,0,0,0,0,2,2,0,3,0,0,0,0,0,0],"split_type":[0,0,0,0,0,0,0,0,0,0,0,0,0,0,0,0,0,0,0,0,0,0,0,0,0],"sum_hessian":[7.090498E3,7.0850796E3,5.4184976E0,3.6713555E0,7.081408E3,2.697584E0,2.7209136E0,1.0327091E0,2.6386464E0,7.076005E3,5.4033065E0,1.1758206E0,1.5217632E0,1.5221939E0,1.1164525E0,2.9504763E3,4.125529E3,1.7351522E0,3.6681545E0,2.0940027E3,8.5647345E2,3.5466934E3,5.788354E2,2.6332927E0,1.0348618E0],"tree_param":{"num_deleted":"0","num_feature":"4","num_nodes":"25","size_leaf_vector":"1"}},{"base_weights":[-7.73628E-5,-1.3619666E-4,7.474307E-2,-5.0701667E-2,-8.309089E-6,-8.734121E-3,6.534766E-2,5.458947E-2,-8.237604E-2,1.2639867E-5,-1.4126156E-2,-6.5671243E-3,3.655161E-2,-6.1459113E-2,-1.3603215E-2,8.530598E-4,-6.046778E-4,-4.5513887E-2,1.5745008E-2,-3.3458376E-3,5.946562E-4,2.3534854E-3,-4.2524506E-4],"categories":[],"categories_nodes":[],"categories_segments":[],"categories_sizes":[],"default_left":[0,0,0,0,0,0,0,0,0,0,0,0,0,0,0,0,0,0,0,0,0,0,0],"id":46,"left_children":[1,3,5,7,9,-1,-1,11,13,15,-1,-1,-1,-1,17,19,21,-1,-1,-1,-1,-1,-1],"loss_changes":[3.1225972E-2,4.582738E-2,8.916561E-2,6.412067E-2,6.9732713E-3,0E0,0E0,2.7024724E-2,1.1634425E-1,3.6672913E-3,0E0,0E0,0E0,0E0,1.0040353E-1,4.0601432E-2,2.7999828E-2,0E0,0E0,0E0,0E0,0E0,0E0],"parents":[2147483647,0,0,1,1,2,2,3,3,4,4,7,7,8,8,9,9,14,14,15,15,16,16],"right_children":[2,4,6,8,10,-1,-1,12,14,16,-1,-1,-1,-1,18,20,22,-1,-1,-1,-1,-1,-1],"split_conditions":[2.2E1,1E0,9E0,8E0,1E0,-8.734121E-3,6.534766E-2,7E0,5E0,1.1E1,-1.4126156E-2,-6.5671243E-3,3.655161E-2,-6.1459113E-2,1.5E1,2E0,2E0,-4.5513887E-2,1.5745008E-2,-3.3458376E-3,5.946562E-4,2.3534854E-3,-4.2524506E-4],"split_indices":[2,0,3,2,1,0,0,2,3,2,0,0,0,0,2,3,3,0,0,0,0,0,0],"split_type":[0,0,0,0,0,0,0,0,0,0,0,0,0,0,0,0,0,0,0,0,0,0,0],"sum_hessian":[7.090315E3,7.085741E3,4.573581E0,1.6878038E1,7.0688633E3,3.1115668E0,1.4620147E0,3.7358766E0,1.3142162E1,7.0667183E3,2.1447866E0,2.0635598E0,1.6723167E0,4.014069E0,9.128094E0,2.9924277E3,4.0742905E3,2.534904E0,6.5931897E0,2.5647617E2,2.7359517E3,3.5677167E2,3.717519E3],"tree_param":{"num_deleted":"0","num_feature":"4","num_nodes":"23","size_leaf_vector":"1"}},{"base_weights":[-5.908718E-5,-1.5441257E-6,-6.377883E-2,4.384616E-2,-3.1167023E-5,7.1035065E-2,-5.4991886E-2,-5.2675884E-3,2.8891545E-2,2.7418005E-6,-3.8544863E-2,-1.8662587E-2,4.592267E-2,-8.2536985E-4,5.950122E-4,5.122578E-2,-5.844261E-2,1.0552126E-3,-1.1894656E-3,-5.100342E-4,6.902757E-4,3.7524294E-2,-2.7384846E-2],"categories":[],"categories_nodes":[],"categories_segments":[],"categories_sizes":[],"default_left":[0,0,0,0,0,0,0,0,0,0,0,0,0,0,0,0,0,0,0,0,0,0,0],"id":47,"left_children":[1,3,5,7,9,11,-1,-1,-1,13,15,-1,-1,17,19,21,-1,-1,-1,-1,-1,-1,-1],"loss_changes":[2.6000498E-2,9.205015E-3,1.16117656E-1,1.7103009E-2,9.248823E-3,5.02685E-2,0E0,0E0,0E0,3.471388E-3,9.737024E-2,0E0,0E0,4.0251933E-2,1.6160121E-2,6.1395954E-2,0E0,0E0,0E0,0E0,0E0,0E0,0E0],"parents":[2147483647,0,0,1,1,2,2,3,3,4,4,5,5,9,9,10,10,13,13,14,14,15,15],"right_children":[2,4,6,8,10,12,-1,-1,-1,14,16,-1,-1,18,20,22,-1,-1,-1,-1,-1,-1,-1],"split_conditions":[2.1E1,8E0,6E0,7E0,1E0,5E0,-5.4991886E-2,-5.2675884E-3,2.8891545E-2,6E0,8E0,-1.8662587E-2,4.592267E-2,1.4E1,1.5E1,1.6E1,-5.844261E-2,1.0552126E-3,-1.1894656E-3,-5.100342E-4,6.902757E-4,3.7524294E-2,-2.7384846E-2],"split_indices":[2,2,3,2,1,3,0,0,0,3,3,0,0,2,2,2,0,0,0,0,0,0,0],"split_type":[0,0,0,0,0,0,0,0,0,0,0,0,0,0,0,0,0,0,0,0,0,0,0],"sum_hessian":[7.0901445E3,7.0847466E3,5.3979607E0,3.7845104E0,7.0809624E3,2.7274244E0,2.670536E0,2.0500984E0,1.734412E0,7.0757324E3,5.2297974E0,1.1314864E0,1.595938E0,2.9502722E3,4.12546E3,3.7485244E0,1.4812729E0,1.2378677E3,1.7124047E3,1.7589597E3,2.3665005E3,2.5495236E0,1.1990007E0],"tree_param":{"num_deleted":"0","num_feature":"4","num_nodes":"23","size_leaf_vector":"1"}},{"base_weights":[-5.0325154E-5,-1.0694659E-4,7.175524E-2,-3.999523E-2,-7.1817844E-6,-2.91996E-2,6.310402E-2,-1.17389135E-1,-3.2933601E-3,8.53785E-6,-1.0725957E-2,-2.0791373E-4,-1.1442778E-2,-6.859108E-2,-1.7580898E-2,1.4168748E-1,-8.9542516E-2,8.0343516E-4,-3.8776916E-4,4.6915982E-2,-5.7800304E-2,6.948283E-3,8.346371E-2,-1.5457006E-1,1.0761295E-2,1.7277531E-3,-1.6703979E-3,-9.3937566E-4,9.710293E-4],"categories":[],"categories_nodes":[],"categories_segments":[],"categories_sizes":[],"default_left":[0,0,0,0,0,0,0,0,0,0,0,0,0,0,0,0,0,0,0,0,0,0,0,0,0,0,0,0,0],"id":48,"left_children":[1,3,5,7,9,11,-1,13,15,17,-1,-1,-1,-1,19,21,23,25,27,-1,-1,-1,-1,-1,-1,-1,-1,-1,-1],"loss_changes":[2.8838163E-2,2.8200071E-2,8.433592E-2,4.9832568E-2,3.9729387E-3,1.0217207E-3,0E0,5.8806635E-2,1.7551312E-1,2.226807E-3,0E0,0E0,0E0,0E0,1.5397178E-1,7.841796E-2,4.87072E-1,7.4287824E-2,4.6915248E-2,0E0,0E0,0E0,0E0,0E0,0E0,0E0,0E0,0E0,0E0],"parents":[2147483647,0,0,1,1,2,2,3,3,4,4,5,5,7,7,8,8,9,9,14,14,15,15,16,16,17,17,18,18],"right_children":[2,4,6,8,10,12,-1,14,16,18,-1,-1,-1,-1,20,22,24,26,28,-1,-1,-1,-1,-1,-1,-1,-1,-1,-1],"split_conditions":[2.2E1,1E0,9E0,1.3E1,1E0,5E0,6.310402E-2,1.1E1,1.4E1,5E0,-1.0725957E-2,-2.0791373E-4,-1.1442778E-2,-6.859108E-2,7E0,5E0,7E0,1.8E1,1.8E1,4.6915982E-2,-5.7800304E-2,6.948283E-3,8.346371E-2,-1.5457006E-1,1.0761295E-2,1.7277531E-3,-1.6703979E-3,-9.3937566E-4,9.710293E-4],"split_indices":[2,0,3,2,1,3,0,3,2,3,0,0,0,0,2,3,3,2,2,0,0,0,0,0,0,0,0,0,0],"split_type":[0,0,0,0,0,0,0,0,0,0,0,0,0,0,0,0,0,0,0,0,0,0,0,0,0,0,0,0,0],"sum_hessian":[7.090091E3,7.0855024E3,4.5886784E0,1.667969E1,7.0688228E3,3.1114802E0,1.4771981E0,4.658267E0,1.2021422E1,7.066715E3,2.1078913E0,1.0003319E0,2.1111484E0,1.5924906E0,3.0657763E0,4.2442555E0,7.777167E0,2.3507146E3,4.716E3,1.5913774E0,1.474399E0,2.8979738E0,1.3462819E0,1.0624876E0,6.7146792E0,1.3223093E3,1.0284054E3,2.6843198E3,2.0316802E3],"tree_param":{"num_deleted":"0","num_feature":"4","num_nodes":"29","size_leaf_vector":"1"}},{"base_weights":[-5.221482E-5,3.972806E-7,-5.8636118E-2,4.8157398E-2,-3.200229E-5,6.700463E-2,-5.167092E-2,-8.703089E-3,3.572063E-2,-6.817008E-6,-2.892369E-2,-1.3702986E-2,3.926093E-2,-7.274087E-4,5.0853606E-4,4.885635E-2,-5.1170554E-2,-8.9339656E-4,1.4314576E-3,6.4509304E-4,-1.06465E-3,3.187708E-2,-2.1079196E-2],"categories":[],"categories_nodes":[],"categories_segments":[],"categories_sizes":[],"default_left":[0,0,0,0,0,0,0,0,0,0,0,0,0,0,0,0,0,0,0,0,0,0,0],"id":49,"left_children":[1,3,5,7,9,11,-1,-1,-1,13,15,-1,-1,17,19,21,-1,-1,-1,-1,-1,-1,-1],"loss_changes":[2.1856392E-2,1.1057188E-2,1.02352336E-1,2.9526865E-2,5.1529715E-3,3.2900162E-2,0E0,0E0,0E0,2.6284088E-3,7.628538E-2,0E0,0E0,3.653809E-2,2.7495917E-2,4.0005095E-2,0E0,0E0,0E0,0E0,0E0,0E0,0E0],"parents":[2147483647,0,0,1,1,2,2,3,3,4,4,5,5,9,9,10,10,13,13,14,14,15,15],"right_children":[2,4,6,8,10,12,-1,-1,-1,14,16,-1,-1,18,20,22,-1,-1,-1,-1,-1,-1,-1],"split_conditions":[2.1E1,8E0,6E0,7E0,1E0,5E0,-5.167092E-2,-8.703089E-3,3.572063E-2,6E0,8E0,-1.3702986E-2,3.926093E-2,1.9E1,1.9E1,1.6E1,-5.1170554E-2,-8.9339656E-4,1.4314576E-3,6.4509304E-4,-1.06465E-3,3.187708E-2,-2.1079196E-2],"split_indices":[2,2,3,2,1,3,0,0,0,3,3,0,0,2,2,2,0,0,0,0,0,0,0],"split_type":[0,0,0,0,0,0,0,0,0,0,0,0,0,0,0,0,0,0,0,0,0,0,0],"sum_hessian":[7.090107E3,7.084744E3,5.3625607E0,3.7646794E0,7.0809795E3,2.741102E0,2.621459E0,2.0857751E0,1.6789044E0,7.0758115E3,5.1678457E0,1.0946094E0,1.6464925E0,2.9502366E3,4.125575E3,3.7588587E0,1.4089872E0,2.093767E3,8.564694E2,2.9374397E3,1.1881355E3,2.6094353E0,1.1494234E0],"tree_param":{"num_deleted":"0","num_feature":"4","num_nodes":"23","size_leaf_vector":"1"}},{"base_weights":[-4.3445354E-5,-9.724724E-5,6.7946866E-2,-3.7438337E-2,-4.1051967E-6,-8.970887E-3,6.0632218E-2,5.5285346E-2,-6.6263705E-2,8.340668E-4,-4.2228986E-4,3.9312925E-2,-2.7465694E-2,-8.681137E-2,-8.87558E-3,-7.1952785E-3,3.905083E-3,6.586438E-4,-6.998599E-3,-4.646037E-2,3.3728015E-2,1.1006609E-3,-1.20224105E-2,4.972153E-3,-1.3156345E-3,-8.0749043E-4,2.170811E-3,-6.8532997E-3,2.7570254E-3],"categories":[],"categories_nodes":[],"categories_segments":[],"categories_sizes":[],"default_left":[0,0,0,0,0,0,0,0,0,0,0,0,0,0,0,0,0,0,0,0,0,0,0,0,0,0,0,0,0],"id":50,"left_children":[1,3,5,7,9,-1,-1,11,13,15,17,-1,-1,-1,19,21,23,25,27,-1,-1,-1,-1,-1,-1,-1,-1,-1,-1],"loss_changes":[2.5945572E-2,2.4646532E-2,7.966611E-2,5.0789945E-2,2.478382E-3,0E0,0E0,6.457612E-2,1.7547199E-1,5.8062393E-2,3.353726E-2,0E0,0E0,0E0,2.3155148E-1,2.3286068E-1,1.7894669E-1,8.931487E-2,1.7105138E-1,0E0,0E0,0E0,0E0,0E0,0E0,0E0,0E0,0E0,0E0],"parents":[2147483647,0,0,1,1,2,2,3,3,4,4,7,7,8,8,9,9,10,10,14,14,15,15,16,16,17,17,18,18],"right_children":[2,4,6,8,10,-1,-1,12,14,16,18,-1,-1,-1,20,22,24,26,28,-1,-1,-1,-1,-1,-1,-1,-1,-1,-1],"split_conditions":[2.2E1,1E0,9E0,4E0,5E0,-8.970887E-3,6.0632218E-2,1E0,7E0,1E1,2E1,3.9312925E-2,-2.7465694E-2,-8.681137E-2,1.5E1,4E0,1.8E1,1.8E1,9E0,-4.646037E-2,3.3728015E-2,1.1006609E-3,-1.20224105E-2,4.972153E-3,-1.3156345E-3,-8.0749043E-4,2.170811E-3,-6.8532997E-3,2.7570254E-3],"split_indices":[2,0,3,3,3,0,0,1,3,2,2,0,0,0,2,3,2,2,3,0,0,0,0,0,0,0,0,0,0],"split_type":[0,0,0,0,0,0,0,0,0,0,0,0,0,0,0,0,0,0,0,0,0,0,0,0,0,0,0,0,0],"sum_hessian":[7.0900103E3,7.085402E3,4.6082287E0,1.6631933E1,7.06877E3,3.114085E0,1.4941438E0,3.7265747E0,1.2905358E1,2.3525447E3,4.7162256E3,2.5292351E0,1.1973394E0,1.8133303E0,1.1092029E1,6.504814E2,1.7020632E3,4.051233E3,6.649925E2,4.9081526E0,6.1838756E0,4.8959567E2,1.6088573E2,6.7286273E2,1.0292006E3,2.68446E3,1.366773E3,3.3584808E2,3.291444E2],"tree_param":{"num_deleted":"0","num_feature":"4","num_nodes":"29","size_leaf_vector":"1"}},{"base_weights":[-3.986029E-5,7.340296E-2,-8.8072775E-5,1.6188548E-3,3.6535114E-2,-3.5839294E-5,-5.8240835E-2,2.304924E-3,-4.2100367E-4,6.0446613E-2,-4.988544E-2,4.632369E-3,-9.4126295E-3,-3.427354E-3,1.7162418E-4,-1.0246261E-2,3.3204827E-2,1.9718718E-4,1.255908E-2,-6.6399355E-3,7.486456E-4,7.6872675E-4,-9.591147E-3,-4.2601363E-4,2.476511E-3],"categories":[],"categories_nodes":[],"categories_segments":[],"categories_sizes":[],"default_left":[0,0,0,0,0,0,0,0,0,0,0,0,0,0,0,0,0,0,0,0,0,0,0,0,0],"id":51,"left_children":[1,3,5,-1,-1,7,9,11,13,15,-1,17,19,21,23,-1,-1,-1,-1,-1,-1,-1,-1,-1,-1],"loss_changes":[2.511412E-2,1.4652267E-2,2.1525377E-2,0E0,0E0,6.3857893E-3,9.160164E-2,2.7337158E-2,1.0836617E-2,2.1667589E-2,0E0,1.23641394E-1,2.522685E-2,1.7131367E-1,6.539067E-2,0E0,0E0,0E0,0E0,0E0,0E0,0E0,0E0,0E0,0E0],"parents":[2147483647,0,0,1,1,2,2,5,5,6,6,7,7,8,8,9,9,11,11,12,12,13,13,14,14],"right_children":[2,4,6,-1,-1,8,10,12,14,16,-1,18,20,22,24,-1,-1,-1,-1,-1,-1,-1,-1,-1,-1],"split_conditions":[8E0,7E0,2.1E1,1.6188548E-3,3.6535114E-2,9E0,6E0,1.1E1,3E0,5E0,-4.988544E-2,1E1,1.2E1,2E1,2E1,-1.0246261E-2,3.3204827E-2,1.9718718E-4,1.255908E-2,-6.6399355E-3,7.486456E-4,7.6872675E-4,-9.591147E-3,-4.2601363E-4,2.476511E-3],"split_indices":[2,2,2,0,0,2,3,3,3,3,0,3,3,2,2,0,0,0,0,0,0,0,0,0,0],"split_type":[0,0,0,0,0,0,0,0,0,0,0,0,0,0,0,0,0,0,0,0,0,0,0,0,0],"sum_hessian":[7.0898335E3,3.6530137E0,7.0861807E3,1.9805597E0,1.6724541E0,7.0808213E3,5.359459E0,9.997918E2,6.0810293E3,2.763863E0,2.595596E0,8.346174E2,1.6517448E2,1.0005486E3,5.0804805E3,1.0696701E0,1.6941929E0,7.550232E2,7.959415E1,7.944794E1,8.572655E1,8.277545E2,1.7279404E2,4.245368E3,8.351127E2],"tree_param":{"num_deleted":"0","num_feature":"4","num_nodes":"25","size_leaf_vector":"1"}},{"base_weights":[-2.7026683E-5,-7.900508E-5,6.5508276E-2,-3.4206536E-2,5.8344804E-6,-8.738932E-3,5.8313858E-2,5.8518246E-2,-6.331659E-2,7.660727E-4,-1.5304486E-3,1.2945143E-3,2.887856E-2,-4.967681E-2,-8.526474E-3,-1.1831163E-3,5.596902E-3,2.4086498E-3,-1.1013719E-2,1.9031834E-2,-3.353465E-2,6.2930514E-4,-3.22662E-3,-8.757861E-4,9.387803E-3,2.1523854E-3,-2.349553E-4,-7.4418937E-3,1.1916014E-3],"categories":[],"categories_nodes":[],"categories_segments":[],"categories_sizes":[],"default_left":[0,0,0,0,0,0,0,0,0,0,0,0,0,0,0,0,0,0,0,0,0,0,0,0,0,0,0,0,0],"id":52,"left_children":[1,3,5,7,9,-1,-1,11,13,15,17,-1,-1,-1,19,21,23,25,27,-1,-1,-1,-1,-1,-1,-1,-1,-1,-1],"loss_changes":[2.4159452E-2,2.0517305E-2,7.421328E-2,5.1137134E-2,8.258069E-3,0E0,0E0,9.2374105E-3,7.622041E-2,4.4544905E-2,8.7462865E-2,0E0,0E0,0E0,8.196161E-2,1.05887055E-1,2.9769868E-1,2.517502E-2,1.4211598E-1,0E0,0E0,0E0,0E0,0E0,0E0,0E0,0E0,0E0,0E0],"parents":[2147483647,0,0,1,1,2,2,3,3,4,4,7,7,8,8,9,9,10,10,14,14,15,15,16,16,17,17,18,18],"right_children":[2,4,6,8,10,-1,-1,12,14,16,18,-1,-1,-1,20,22,24,26,28,-1,-1,-1,-1,-1,-1,-1,-1,-1,-1],"split_conditions":[2.2E1,1E0,9E0,8E0,9E0,-8.738932E-3,5.8313858E-2,7E0,5E0,1.9E1,1.9E1,1.2945143E-3,2.887856E-2,-4.967681E-2,1E1,7E0,7E0,1E1,2E1,1.9031834E-2,-3.353465E-2,6.2930514E-4,-3.22662E-3,-8.757861E-4,9.387803E-3,2.1523854E-3,-2.349553E-4,-7.4418937E-3,1.1916014E-3],